function [Y,Xf,Af] = NN3_5MHz_nnfunc(X,~,~)
%MYNEURALNETWORKFUNCTION neural network simulation function.
% 100 hidden neurons
% 15 output neurons
% Auto-generated by MATLAB, 02-Mar-2019 13:08:28.
%
% [Y] = myNeuralNetworkFunction(X,~,~) takes these arguments:
%
%   X = 1xTS cell, 1 inputs over TS timesteps
%   Each X{1,ts} = 35xQ matrix, input #1 at timestep ts.
%
% and returns:
%   Y = 1xTS cell of 1 outputs over TS timesteps.
%   Each Y{1,ts} = 35xQ matrix, output #1 at timestep ts.
%
% where Q is number of samples (or series) and TS is the number of timesteps.

%#ok<*RPMT0>

% ===== NEURAL NETWORK CONSTANTS =====

% Input 1
x1_step1.xoffset = [0.000284262472111252;0.00262975844776091;0.00234888036529056;0.00478079674765289;0.00317261988597829;0.00475935963559447;0.0155242573236706;0.00437902096506519;0.00111687618502795;0.000370773068047871;0.00588443047109241;0.0119207751428467;0.0415531265655775;0.139387375571038;0.328849977433376;0.436442766812005;0.528883552952447;0.582619381532412;0.591249602682279;0.533255030649887;0.387357063336801;0.20998840470888;0.0692878523915047;0.0098838606567181;0.00566891108615647;0.00183175204228241;0.000600427914086534;0.00713501524598958;0.0026738719614897;0.00242583705032077;0.010678870497073;0.0106130494392902;0.00268303923854744;0.00187820135594508;0.000870477279349884];
x1_step1.gain = [4.1916353797129;3.5985423939286;2.93258473286602;2.47163088098958;2.20560110381619;2.06467356219813;2.03398999131438;2.01398555106744;2.02778716473423;2.00597230886359;2.03674009710204;2.06671250972605;2.10438197585747;2.37135642597199;3.06295410313552;3.6014241983814;4.24548127851267;4.79178934408357;4.89300701788731;4.31829056203512;3.292790912865;2.55987358468482;2.1757132569848;2.0391825454532;2.05417182841;2.00593635159115;2.01167205102383;2.02309359771108;2.03976689634603;2.10893385862969;2.35376013570157;2.62268975376422;2.94724624971336;3.59347317059619;4.3489509690191];
x1_step1.ymin = -1;

% Layer 1
b1 = [-1.1499575027186259568;1.4920557008519881315;1.2710733677065748637;-1.2220402106221577299;1.628941758110258986;-1.3849370449261388938;-1.6083180024649050832;-1.682427622385832322;-1.5608288061890465137;-1.3396499863576376566;-1.3525723670360971784;-1.0835461186751011997;-1.4677307315757817108;1.3247695208266951905;-1.0093118230687248005;-0.79698930010688695535;-1.0727183971936016249;1.2271115178776834664;1.2601662607873846955;-0.9686961686714246067;0.93065340807699403758;0.79773494424329727259;-0.5600722782887407325;1.348463794724274134;-0.56434682329207452867;0.37150589246534099219;-1.1040359074471284284;-0.66802414203223869915;0.30929984516463526756;-0.8220760208057930063;-0.90415949239610415855;0.87156623420275947112;0.59697200079455603472;1.0679191399930501039;-0.25900660594227092881;-0.6248514251826918775;-0.40402323524535843635;-0.49958928689740234041;-0.099691947360421293012;-0.053106530142313951304;0.55477155659778720764;-0.21517591864207025187;0.64700236917437825568;-0.81325071051850827963;-0.30962087545571731484;-0.095157263364793881477;-0.05434950358253795577;-0.034068690054199921025;-0.17579580724447346762;0.22423308734141422782;-0.02581420039276130507;0.48605319056141854661;0.56635917319966100347;0.094513259928817094924;-0.14892371687771405186;-0.76159724348017276974;-0.33363271569534347361;0.50655641277205287754;-0.50353820812557448239;-0.4078119222481508821;-0.51241563180020266444;0.24656953522584518224;-0.2785490832518955906;-0.49743928628896005861;-0.99835227407936877331;-0.78439222882040382512;0.38129225024751306483;-0.62490293032451094124;-1.2540296154959826858;0.56231329710358923801;1.3737112356125347201;0.81789822136044976197;-1.1167909393184880518;-0.85468027863118911647;0.41086797267155716895;-0.38426944288465753052;-0.65898059642030548666;-0.41746886475238537129;0.76113114545915550035;-0.73270026013194944348;0.77845230491613115476;-0.63828224410599110339;-0.84443850464007463863;-1.1174514276375844268;1.1686815927511242652;0.60070048862579761284;-0.3680365182789389622;1.2109862602111685081;1.0593900685892905233;-1.4044635164866763333;-1.4451092708049095847;-1.3884260319691517083;-1.0574999312227590931;1.6895545919362620069;0.85026954922493114264;1.5073310555498493635;-1.3637902073790608704;2.0329848292582064495;1.7123051836992697616;-2.1333903122327968482];
IW1_1 = [0.13620904283076887276 -0.28618234664623459773 0.46946173157061166226 -0.034371118024674233993 0.08875595965636273732 -0.50564919661115814709 -0.480918445373356096 0.41039435943087154701 0.5272728265799047076 0.60934273953223772047 0.24801110280667554298 0.096661132578329755916 0.31122460648625110968 0.4039233682797062075 0.47040535661583487981 -0.28934761588044310976 0.20081625970432245842 -0.23639223328069877694 -0.14825436804181982287 0.021293054328184148755 0.068293521963486397697 0.062420045109407934492 0.13002035672990097659 -0.21716921162416258362 -0.13377045531822417956 -0.055436689774309183543 -0.35640260263582385081 -0.81660231634992819227 0.1947653008564362298 -0.24112755079906506017 -0.32072439775501843107 0.24684452740891352218 0.24216142255622891133 -0.54115491672135240808 -0.19537945413467228128;-0.5442171167576462798 -0.34123923313008580616 -0.22021955749729482665 0.22469069620480761063 -0.45878048807600996239 0.23640010427108015811 0.16724409286017802301 0.12135441524510678923 -0.45660237664537989266 -0.39195945253487696203 -0.06422871960352811993 0.71799939995785821978 -0.13060507703632062704 -0.18635699165206606742 0.45586307369003820078 0.16342305943747942321 -0.041988236044824302218 -0.14539771855688018998 0.13858277426861281834 0.065744098374881210223 0.02379067900940154065 0.29624259210915937501 0.24651957630432486113 0.21596500720785602456 -0.44564009850159569393 0.27435529716042927895 -0.42631321615528328106 -0.44595666096478930873 -0.15017171456027392229 -0.43285348231900999671 0.38502978364906853548 -0.27721208978990058425 -0.35534384131109753024 -0.31232865654215952178 0.065024509199276298022;-0.34313823884926292207 0.23012831134981578951 0.11273019786046731272 -0.26034954341434501934 -0.53221092416841975226 0.2269279684546128828 0.13103581104296033177 0.20109494130659613664 0.079446088052735605589 0.40094399601497254793 0.11325356268795726267 -0.38642085398025755039 -0.19457821741402342441 0.12699678828727289925 0.24557492681734946482 0.036111937617502615216 0.27966240969627170765 0.35467530770457644795 0.0032218616561429519463 -0.066935173736703795777 0.18112618444213252067 -0.18767638400110739361 -0.18110198728969820192 -0.35676208478726972873 0.052776192083984714565 0.31772342911358975037 -0.36598149533366630681 -0.50695629840345290962 0.15340189470802778615 0.20807542372671181119 0.19804307611923130383 0.078579894206433686943 0.26759470804429263957 0.15035100329758127602 -0.090096728398557535122;-0.25677230470389927897 0.098838162912294857954 -0.17455530040068970021 0.11019469640602876093 -0.046222241535258938583 0.21027073586366748503 0.47056324404808863582 -0.073983585427215739494 -0.061081354420794264914 0.28336571632676593735 0.12470655468475561056 0.21329726184361816332 -0.29005732209395007626 -0.14705795908051841336 -0.27337806910196044141 0.37374818164730272407 0.11352990763805942409 -0.046911315030094227763 -0.15403056443628829197 -0.28285902202005219763 0.48566029760080903221 0.37942827636289716553 0.36305144374578074418 0.048811810622732057507 -0.32627358200907624619 0.41563230907576065309 0.10781844265798355698 0.24453091318567710122 -0.31560129222393717985 0.055894238967776087301 0.34708837577484230597 0.3575328175402457398 0.15367938617951318325 0.05803552934751857878 -0.02509565796377449115;-0.042106634630963299393 0.48724246955538069725 -0.04778836415709861174 0.16283732849951765287 0.052417764611346714942 0.014662601234560743158 -0.32738699700254048075 -0.33601700506971515781 0.30982406422269409552 0.2233646540778510825 0.26825970983175251305 0.13266008005698887162 0.18709652181807659432 -0.22394084323126242642 -0.45938767902803157028 0.20288674259424685498 0.45580143707038328627 0.27006396630023554728 0.49804061088456835771 -0.093643801295139522667 0.10341113605369878226 -0.32651005436024632678 -0.53826789086974546894 -0.52481589351957058653 0.3458788016801133125 -0.36435660288945176388 0.30900983455058184113 -0.2498956913548410208 0.49846242820995179112 0.13703341170694938178 0.15009608944022212462 0.0032299505670527334233 -0.036182785109602461082 -0.11471478771227412718 0.1200712421203364022;-0.042627751611393267794 -0.49861480213386588645 -0.091348658946452027108 0.20520777014811175665 -0.22706780658554576169 -0.0022507853981832449952 -0.30414365850872421282 -0.32357836807487616593 0.035638003652869558457 0.04804576684340660514 0.52882963396988835747 0.41330819571319477035 -0.036428638172920094207 -0.49451094117599486699 -0.40461890997114802193 0.25550147811938228593 0.35602136946889473279 0.28842280282829496629 -0.35592506815524366237 0.1618326052677784288 -0.42965015899051695047 0.08479325858715780484 0.031055466477346478638 0.58897008954335605679 -0.40630946087780994702 0.029247372418962698515 0.23814584182885295549 0.1933483057634124147 -0.18115984709131757735 0.38502347013397331121 0.28512064632695982569 -0.08597296413944779947 -0.28149625905851088925 -0.18523768009869664986 -0.17688363318229324839;-0.022011154167464755393 0.31527368834327335056 -0.18563496445611923913 -0.17422325537464461442 -4.4206629049270765308e-05 -0.1577390045449641176 -0.085589972845079409502 0.17156078396364912719 -0.079218131503881211719 0.3639986062333873118 -0.38576486513550378721 0.072292559087773350379 0.12924697514050878522 -0.30319629320078789192 -0.36361371578894569057 -0.21941597942018181699 0.34988884005542286726 0.10497075939446334769 0.095225463500116028226 0.29421691704320629412 -0.067470268672082167605 -0.15867182158646747636 -0.62074275943273726774 0.34621311529915704819 0.68470100204128214738 -0.44816966370600719305 -1.0690705259898340973 -0.49098539181011768839 0.12603746126449658083 -0.45690245436189247386 0.28168391075980730998 -0.20993003934635090513 0.4628608906246923782 0.41083201171205935287 -0.28828380456295832346;-0.24107425962720036017 -0.76699917489859570363 0.21784944305882242288 -0.017132140551944185364 -0.089653490061215354578 0.21264607513837291419 -0.28671905215399584588 0.16358759997187968804 0.094900047345854013359 0.19701312044604971097 0.015408291887258774439 0.28826140306075381803 0.56050063068560995738 -0.12983457245210641706 0.12434851953947365089 -0.50423208288859600046 -0.29769008474292912858 0.20104395698047886065 0.24418571440540126627 0.51100896187092814671 -0.175657513882472055 0.13665305069517366676 0.016170996939056714314 -0.22406084636877651728 0.491951235916080587 -0.18572985407940356684 0.003041561907038310697 -0.36080322529165598233 0.14340474566568020554 -0.35073343469365697578 -0.0053245168995597362202 0.40426124234469790197 0.471539644951129433 -0.0011762865944732227297 0.028453006999288599221;0.19685087592515720933 0.019188150866775558617 -0.58139313452609153732 -0.017500315244672444426 0.079979104382050109079 -0.24337839735585747869 0.33348139182338865094 0.35512618226289877077 -0.050508060267448452729 -0.60433880530306738343 -0.18485923794840153356 -0.051544741624070258834 0.06184602569474310918 0.10211706295180353332 -0.1718457837300588209 0.5646339139562340792 0.25394648921878315573 -0.31851557012225872878 -0.23866029813835237805 -0.48006990916106057066 0.12267631444482685055 0.20502993248457807018 -0.051762725216031722775 0.11285855478379112904 -0.29290904305303644417 0.069797222261390540199 0.0065115419771538960228 -0.19344455109412422855 -0.1282502599066813187 -0.18413586215723007355 0.018015309296538283695 0.35887614255111405237 0.036772419935129328772 0.35114714056904816619 -0.58695334854344272113;-0.045348917624395496118 0.080738043443078721939 -0.16593713800254566992 0.31599194658436607908 -0.0029069495260842133366 -0.058325221664169035751 0.32323030343964420652 -0.10504409998443905994 0.032738727029936048885 0.23440456094427919442 -0.39067055198089983836 -0.31589886183348880877 0.038920823534613013805 0.43747835814536278898 0.12205640964155731187 0.27710012001060985165 -0.20659244327804948682 0.044909679256931241131 0.32699532886310539448 -0.32692472204733202812 -0.20037454996633657922 0.24092451840400713747 -0.36400177574831210636 0.045355375423913581179 -0.084142419807112803221 -0.18903027099986988158 -0.037552085061093282148 -0.28772131407069029274 0.26457051430058592389 -0.32409005682573355234 0.064148691025014650813 0.23130250444257116627 -0.11305487495433366729 0.026865652446603494052 0.078259575822707511117;0.11659607679992838036 0.24460178397264376038 -0.27981523636166272251 0.102845557887809122 0.20703230839756847637 0.37230401892941045183 0.37001824469783889393 0.21217461157509492908 -0.1835685890737309145 0.2416149936421347344 0.21875383536409334639 -0.51386922812079371958 0.37681954531353967219 0.27830517030446005888 -0.073859444552359043712 0.068327235466995830948 0.22137716305822122131 -0.43523451943949903464 -0.1292090152482762988 0.0047366385186677992941 -0.13641808952337433625 0.22452006238312693931 0.19122573822164090629 0.17195199622514653615 0.37051748513597027035 -0.10517655342897418158 -0.40569272340358880635 -0.45501397361274087405 -0.17205558334349313476 0.4278507146637696712 0.25420997210206353056 -0.013476128964367412727 0.3794947607426256142 -0.084388254724682254526 -0.036867118511959812155;0.28159749270284883949 -0.22884118910398493218 -0.30339061460390293057 -0.015857682012625363976 0.46966632618683662459 0.31363032718746347571 0.61661471788464583543 -0.19851504770057432081 -0.19734848049725786656 -0.052900278067159064999 -0.20375563390783044126 -0.14725909858820385168 -0.14951399426109601709 -0.27349382415147416303 0.045483255718067300277 -0.33597118715113832854 -0.31573164084908444948 0.18936215541321432809 -0.19256379446040680636 -0.1345412284102346645 0.30482139290858989433 0.36214083992254636479 0.32353448726696859561 -0.33454512088946336545 0.053950103324124976112 -0.45861715035559175169 0.26096316610890818444 0.36274658980344137715 -0.021494441782621859227 0.23375733141893798028 -0.021900270420713786185 0.1602970604270196886 0.3404577915994716486 -0.22386548168546377413 0.23783233719377652737;0.40425716941992645426 -0.66843401635193122612 -0.018374250683317418231 0.19625138095860530929 0.151527500139677751 -0.10561374387487934556 0.14474593580947667237 0.25744183353765764943 0.13933322882925858188 -0.25408622226103150243 -0.032791608725125966084 0.12363202555360167101 0.43629461893739551748 0.35487150001952233458 -0.11861532682086686763 -0.37409670591951393881 0.0048731028144472681232 0.25882512342429769836 -0.23823902193698234808 0.17269151875518301553 -0.14224912871914055512 0.19588943246156970135 0.23703672963864103052 -0.13468101503564020027 0.20112094930805107795 -0.38014635451349271245 0.1303855726307838192 -0.085172666139329805679 0.37418773114749526165 -0.069752661252410072534 -0.28437662947208391939 0.044684603139086051526 -0.051871129063369374179 -0.68295566181562095132 0.44866968869040724233;0.16859896878144017829 0.24155827245182279195 0.19238362728972577265 0.32224984136844703198 -0.050389731440970843279 -0.77992986743606773636 -0.13302338844968847331 -0.37613429028652078934 -0.18738840271442555596 -0.1464804350707993863 -0.30822515029499841788 -0.13012264139894641479 0.50209713772063713222 -0.60225869710894164299 0.2067144077013123582 -0.49252906055430528687 0.11824175556240135165 -0.10185733239280601869 0.29086766517279094568 0.22816462862109587739 -0.36413112289863813764 0.091352542251271887097 -0.12407067453560458037 -0.062621586941593948561 0.34356604906511351016 0.74686165499775747367 0.12264504470558279525 -0.31835364487013129153 0.28304146770406096723 0.007692771105702531087 0.3878661799526259002 0.21336821149544318854 -0.30669408776077844436 -0.0011171273789499867185 0.38267045049547415703;-0.12235243137552929971 0.25036156468147352516 -0.10404770527089157728 -0.17832615126412448836 -0.41682276411668978122 -0.63598398222592666951 0.046858459416994083235 0.9203400075448742168 0.52253062779107883884 0.11761036745227913813 0.16966961458271218044 0.58454016395679675444 0.49879021900723424787 -0.10029678141943609848 -0.45980869501288246237 0.26190025207346434577 0.19946363759821642003 0.026855982427798456846 -0.00193147695948783088 -0.17972561729476937975 -0.33781311396130103697 0.054794528079719892477 -0.007948136794321859766 0.18018528986242204892 0.23566138008698825357 -0.13973016009417968397 -0.045750046174397221432 -0.7877936748999000427 -0.51565063434678659604 0.11739406365377484665 0.21379491762492955353 0.042339026608682321651 -0.22223561684971832042 0.16750085261961966676 -0.20466504175395325293;-0.18446700424684187025 -0.097264951087379661332 0.23709086517729571764 -0.17309471156430336625 -0.64683508693328273242 -0.48899065687458925789 0.38393285219372852435 -0.01128302999306245169 0.19719966694479976188 -0.46637422189305810516 -0.20197922487952738035 -0.19413825090728376033 -0.31426400923357056261 0.2937618929560417147 -0.13234272053546733416 0.3266277624807358837 -0.068636528828117757128 -0.57773272788120622057 0.21482126062856335413 -0.23156399667670471421 -0.23312734496555911901 0.26554033192086279325 0.27788203513281856116 0.093743040558104881455 0.26312350328011319123 0.29935600581654120411 0.0066480853217573514236 0.36920198150832800321 0.32597102138840067242 -0.53649035898708585801 -0.15656627504830417097 0.34897448926851526441 0.58747744167985571639 -0.17158954997734734982 -0.073031869966210333223;0.26674279196227762556 -0.39014974740956531729 -0.25936274972085604507 -0.2789196936938507787 0.24150992227619647035 0.14326428921964209917 -0.17993713130807759137 -0.36161584635897303652 -0.30171832563797079674 0.23895851061841610896 -0.092544523899429659286 0.23006445327881336338 0.3118014741545165891 -0.17838835571532135615 -0.26639792637248815854 0.2089178215185712173 -0.45321176506536953177 0.25360328674397142334 -0.17183857011206338239 0.10205416629075007851 -0.044919254987622281305 0.12738070298835404981 -0.12654486541106677033 -0.3228944838253496874 -0.12556307793791413041 -0.42340084524162890922 -0.27562483451634972598 0.043541227425119941041 0.27384802555073917141 -0.13042259787028462337 0.10576995451468576559 -0.32672187744385527974 0.23243449969980567449 -0.42509104788823354193 0.14991801627890138926;-0.21767049914363506558 0.062962922600104720416 0.05579084061733297073 -0.16551539666062584089 -0.17198164769066878743 -0.0074209233991774274999 0.20522575156028921572 -0.19817753885397038083 -0.17095319001126732528 0.010899233348954835005 -0.04221982309034837122 -0.060950458819350655792 -0.03350361608646686834 0.34104076249145875988 -0.30360273178019736573 -0.087754632041791499897 -0.32848782063873921411 -0.2988337113186697036 0.27380863919822351349 0.022933224543162916004 0.26022847499159107443 0.33088707795221788954 -0.36183092977085945519 0.11311248475195377627 -0.51009962536542252654 -0.02906561210628155062 -0.13879477662901057444 -0.019054930997112078106 0.29116901528114980113 -0.18768156230243193683 -0.36001142419711079645 0.21321293091668738762 0.4338998548367840602 -0.34992141181353780821 0.22901279864749832238;-0.1394114132067164058 -0.15958937686610169537 0.35483435631384091513 0.016505705022025071727 0.13188457773648692983 -0.34039697618003594837 -0.30089661166569814377 0.32928881860292807948 -0.37674001040551313713 -0.25748101222986191638 -0.30286451879140208199 0.16850936005876920865 -0.37585956693890393288 -0.20002061271652782359 0.31601420478992647833 -0.12698229890410805965 0.061988429092995019076 0.19338877487866840132 -0.25894110763091826577 0.39179806692127255863 0.27893043599602912463 0.012706813470347308806 0.22751196240869081544 -0.1592742495030772254 -0.15571691806373511024 0.19507493174953619008 0.08627876721209166988 0.080109045508641535394 0.0021962318934618026839 -0.10829490930361358736 -0.17505587414946030544 -0.065954949994464037721 0.09341793786101296182 -0.16205083552964849591 0.72899793076311669715;-0.025172871380134725222 0.44937850897334330469 -0.17650289933861876279 -0.44536068832218278502 -0.73862851122768347079 -0.32724252834683303925 -0.30230747501912041963 0.27967365015501066683 0.23749047860497843332 -0.098404815786375554598 -0.015311580482235766926 0.30842501394334675968 0.28033488031404407703 -0.21801127721892210598 -0.034573653842396384617 0.17895096170350605069 -0.25972834510402403874 0.19057585837468696277 0.13781031691301806608 0.2234402852770943082 -0.0056856466203601806891 0.37738207943730128768 -0.38269909756257353139 -0.37590096678531709218 -0.075028571519404285706 0.64955615622123819008 -0.58703295183014203573 -0.22521728353370307207 -0.055973429187567827481 0.40130571848362794896 0.32585792243978828342 -0.068676099695497622166 -0.12158450067209881917 -0.070048079549922218079 0.32741390401120751275;0.2355280390755679909 -0.19739281333087951853 0.35531201790684829867 -0.45222177231474047776 0.30104967408125943296 -0.10500962175576322721 0.16145389793753095464 -0.49354721992783306961 -0.10574201935227776905 -0.16720358961590120472 0.6766873980277813283 0.22259676319956980817 0.050755834226213679405 -0.26435745444817759786 0.038256255436694905359 0.26789144168578704619 0.093164030224188482121 -0.1936828687549450867 0.13277488144745319687 -0.29773975643521388701 0.065724572600099437358 -0.35490461670309297881 0.14832341422061298686 0.54402675377574316595 -0.23311606943003959636 -0.33330401787614882814 0.36410271516052988838 0.13208285613421005822 -0.50800810029601684015 -0.35117250552869611058 -0.46570825560273537702 -0.33161767462525182371 -0.22816504919602803581 0.0352273801035303466 -0.5286411437971778593;-0.067393567090180322987 0.3763063573792106431 0.4267539304392705124 -0.29583687784302037382 -0.20137835233716799843 -0.21254115186290539752 0.15986455919804873349 -0.0016657630182299668076 0.21574091835512446136 -0.093563062061353105547 0.36841061819793174958 -0.085884060333954889699 -0.27131301109211025668 -0.12817728760582824954 -0.20027312465179980538 0.42045789819586054659 0.29988128032974986636 -0.067464087400803923744 -0.52574034348451448295 0.24558915911283812905 -0.093727483707863157303 0.2217557499849786562 0.2109234919512555928 -0.060969220855649611246 -0.28649994054565769419 0.38855463119988031817 0.21311352325669224994 -0.38829360102567916924 -0.26850707463992157242 -0.24962678518966954777 -0.16979085353458475693 0.22740750973677073543 -0.35726713724046099685 0.29736918723682292942 -0.088838796204183334559;0.075586738338138004245 -0.13202750182440212146 -0.066259199156731674041 -0.13604668122459073754 -0.080100124216318860371 0.42554953097335940226 -0.64912786470832128938 0.20042184524099912468 0.15072221493620041599 -0.12528989877243468243 -0.25974657271879186826 -0.13834322968290663214 0.16176238832398623368 -0.11036267649943172497 0.11349842555342221084 0.1139077350279861095 0.11658265960715290255 -0.28448411160779268902 -0.41954231094308752636 0.29275462344730152076 0.22029206346309571085 -0.12846156297321506545 -0.1229444123142507117 0.13309647908183019904 -0.34439029775771090591 0.083045279831423776673 0.33852761990036617235 0.38644162172760981866 -0.17318972834252091553 -0.2458282099871815507 0.4433771629753813226 0.082547422526602395876 0.38622074872418538094 0.20636113964801777731 0.078379523502198136797;-0.021776894731386955972 -0.13515574208277134072 0.15743355208292567071 -0.51720357477063727547 -0.45316980469186918246 -0.29218121817483089231 0.74487741231290849342 0.75911554563277339192 -0.45227492484989140209 -0.29988979172609159241 0.04129455353741018353 -0.032329789783600466901 -0.19596281146123670225 0.30144628596173034252 0.012061704518032505262 0.32733860412811033314 -0.34129551402729813026 0.15853972866484944415 -0.17862031021877650128 0.19765983379719642699 0.062700345937623261361 -0.17634950443593427893 0.40675273831617625442 -0.19370090977987933223 -0.0043002687621166452853 -0.61420890798859018034 0.6298665747068592502 0.63051261829998872521 -0.30352716015837444274 0.070690764049521445656 -0.1820058785146003999 -0.072753983112956110979 0.26448755484842662034 0.032698067771572657259 0.79071917855288242905;0.1645181025774662964 -0.22542126761132008639 0.329885006767969724 -0.50022067311764562003 -0.29601250329314382492 -0.24447501508515820379 0.26115074208783511933 0.32172917661185734817 0.52135776758632501604 0.50709453430868978163 0.35635192968467327423 0.12440471750967184439 0.43164504261744640612 -0.40441453131157600875 0.076534853422560791825 0.17943242583775190213 0.015260344085479320142 -0.064299325053050651602 0.16208335209567803492 -0.27761173913590692086 -0.023560230805590713643 -0.23047206277883813819 -0.04634613327249079151 0.026357805908116177518 0.32413657547508478718 -0.27876889414450917171 -0.33433154325425168407 -0.1795667441875974657 0.30564807476895627936 0.2788407489331886091 0.061702501865165119976 -0.080893552657622797009 0.23393129332499015827 0.022574220032162396754 -0.17087555943086907284;-0.23395474760074214116 -0.096910726692803178528 0.22127320456989946207 -0.1639033156319320006 0.47125627402191733184 -0.23509775713134087316 0.18672564761087137586 -0.24733791506783317504 0.073882028664417245811 0.56823762653953802104 0.055994160130465403524 -0.20274601176859874396 -0.19507734592785302974 0.13115288501560251611 -0.28963006969189653006 0.47797111795517394084 -0.16896462139961776483 0.072000470065884392135 -0.52653286150589251324 -0.26748430221409058571 0.62638849052065470602 -0.075267925194351714691 0.46105055649845572141 -0.21632895086631950821 -0.32139517298330205763 -0.24995552404777038324 -0.13930011847775913836 -0.22335887541441143411 -0.07316882275753419651 -0.087183180767657256216 0.41083497245822980792 -0.14732051667779139104 0.36283272640256386543 -0.022429598970550423259 0.16561213532881186028;0.24772609406385381892 -0.22883556784503555903 -0.17333631557225684383 0.19730106012212048072 0.04301516364544087645 0.50921373827490479247 0.18784697131391339675 -0.22750423523705012863 -0.28963540660544018213 -0.025142838601076668292 0.45287549408795146899 -0.41286051282912883398 0.18192372959595648485 -0.19211574902078804028 -0.34556008531946624807 -0.14786534993744737676 -0.20116206065347028153 -0.11422984830278772039 0.18101730209163685581 -0.23145125914402345235 0.23441866039301056945 -0.24020494728938249218 0.4277203750835577023 -0.42595776497276816031 0.041842182264478680609 -0.348506958176215631 -0.48406839074347263185 -0.37234400520692439995 -0.06727157068616859692 -0.38347176736046334478 0.17022003376404007402 0.34144544187488828912 -0.0092357448365935033985 -0.11438667263709054178 -0.10459445626541957752;-0.069745549903028447591 0.076577126491016805909 0.10414849954362179196 -0.17202022535147712401 0.14992708385436964713 0.53372976953574347014 -0.075333524462747880612 0.0066728820672629640676 -0.17556188533114303052 0.25560668281678056157 0.23616452644391988658 0.25471346517192677839 -0.050274590090292309297 0.17910941223882037576 0.20035093140785631416 0.54520411420424219617 0.21110064832691241565 -0.051841678340336011521 -0.26022617850931806238 -0.49264650553878258643 0.32580269331156741508 -0.12582482038170716976 0.050495954369458376232 0.59444355296415885004 0.15240592906071773194 0.42191258372532292054 -0.27316154302742501336 -0.65433771598537515679 -0.54737766234691487277 -0.28995347457933395852 0.10571443749819288416 -0.26334885435902904982 0.090937974478484701057 0.18909715022033232734 -0.35786942309375308069;-0.23151399826088295275 -0.14383738786565211654 0.020160266243582816714 0.077720042579504891589 0.41000404155389585936 0.2253730394050154906 -0.41555992780108175211 -0.3218243028745041423 -0.25532974168146843619 0.23268228685611611062 0.29346319242816276684 0.2032605384141323579 -0.051804328162431335925 -0.11964274464494734085 0.2669685566108976893 -0.37993177314108722564 0.02136020887333772017 0.023951459870648235395 0.0010741099328928564553 -0.21124458002131205059 -0.085294888064186016874 0.48859035197951500296 -0.0072333555006498413686 -0.00019288105771135110461 0.043454687829674959465 -0.42057863899052572165 -0.094319420689814484349 -0.2265771408327719727 0.25037778973175484065 0.2823461131451172057 0.4135560852502430107 0.1112124115437127525 -0.32726777694232067617 -0.4841434642248319542 -0.11937385049572238338;-0.079442785736148061049 0.058748499765638124981 -0.42260699077702440496 0.47525770683982354603 -0.18025980488035933669 -0.11170652628177252241 0.086494632077653982316 -0.037119490495171429678 0.30759452746001592072 -0.24621249576451487151 -0.084252574165175175835 -0.22020038441716827116 0.11195781935385760997 0.23555419814426822867 0.13996229996433778853 0.34035033747084109113 -0.29979139167753587891 -0.12242305555845171827 0.099912252420746749948 -0.011939062370775088001 0.14853269249244788197 0.27373410176153956108 -0.3581744007176043687 -0.35033465177243233724 -0.33728923761903450984 0.41370475123372607573 -0.21001721939524808924 0.17902608651432633247 -0.73800854351534561637 0.56145803472570521286 -0.20562999787304231392 0.095477697651239062937 -0.011011232697717426507 -0.054280975412511409117 -0.1861683675242167546;0.13029507603906653745 0.28412447188258549424 -0.51536130568540527985 -0.23064914268231498373 -0.052644052328356186199 -0.25503473627688455494 -0.04616541403877311156 0.2663797314962762508 -0.053688796763534184231 0.35081187396870328055 -0.2947707314056090544 -0.24065232412075465707 -0.23525279389168096689 -0.14429906145985618715 0.13212835034705774917 -0.26316227212903370303 0.27680994547428694474 0.3268886592563563509 -0.12161707775462880787 0.074840979814147196025 -0.023649669807318335346 -0.20416296175795853318 -0.22918640448832719447 0.40785031543543776023 0.6173048314799606251 -0.4087281489683314839 -0.26773378965535038487 0.11182895833574131583 -0.51782271670338153591 0.20364558906309404573 -0.11774229582175604891 -0.1054690049943933644 0.30709037132721944685 0.018098867845128114445 0.1961083709033553113;-0.28958499871733039965 0.4988410566067315588 -0.013060267249108963028 -0.23214303692520860123 -0.25626670108862664721 0.38937523434430870717 -0.13234457927486834028 -0.1891360978245332225 0.058315599755370962909 0.67630048885742777287 -0.48811315238391866922 -0.33644139919656318449 0.15235709768618915794 0.32969218396425914452 -0.0086036145438870559321 0.63092246228199899694 -0.13527066701105738833 -0.26811104861658785481 -0.022579719768536378466 -0.36211780358479372932 0.53642780363719011483 -0.13779219790365584974 0.13118827856434661649 -0.18261886939311178235 0.14494941996554583374 0.0060131660400443397163 -0.32895850727499187371 0.16504573252848930842 -0.048692810945848527537 0.5438165094526841159 -0.095802579053794537089 0.17371618814529179997 -0.23837987241507466174 -0.12814874440213680495 -0.29200361164120525181;-0.38628068656107678036 0.02994012627037581642 0.1933957959928204462 0.34880245189895053848 0.051061096191730437344 -0.41078460102357794437 -0.19433448022588389881 0.19872265452252890761 0.58664888378745505548 -0.27647936459281502453 -0.15397087410195653412 0.26185030286748506301 0.22682595259080254313 0.18304249556548776723 -0.13412963323157958695 -0.041971479895744359667 0.14139957502707709014 -0.49340715491150644034 -0.12464960272633777982 0.46747733605801006229 -0.15558261883043791873 0.30014119628245322646 0.30773390314962889569 -0.53507265042692486734 0.24934349831595800651 -0.311606910775092949 -0.49598054293308740936 0.1338389676296816988 0.33653704965965930418 -0.17110265186398401771 0.019201797565693637382 0.37357458285446737412 -0.48139912407942425654 -0.50952069223124485386 0.22953638856754982056;-0.11372231782863458094 -0.069911746526073403896 -0.088945361595827457379 0.22381661412394607269 -0.030006353861317634768 -0.18206182737044382391 -0.46403855805958316161 0.24106771264363260898 0.16234574919560873507 -0.27591994139467213021 -0.15930228463411566509 0.007727829784801642371 0.25011606636241495716 -0.23462719895780598245 -0.3090216253973722127 0.072892473064705198826 0.21054375753646961678 -0.17820328689271688893 -0.16552887526201015556 0.2365028192046909894 -0.16040697404845072338 0.12766914020726280454 -0.040040476067976032981 -0.072212284815175456498 0.74591439258049241356 0.096986487977893609536 0.50352027919446129545 0.056437744583254519093 0.060423781853141164677 -0.20026181186810393386 0.087467573860559005849 0.0093914304745827074244 0.27253134100959192088 -0.18596895161762616588 0.0011470206958702489075;0.29378231039327379337 0.20370727999656171314 -0.083100902788196123749 -0.52653278666030212118 -0.3341211177583737757 -0.052448364352291325374 -0.28308157519861359974 0.73062152951790182431 0.16866396619337470364 -0.89375621888876488619 -0.094362711001919688525 0.6134089420747422805 -0.20961897243120727885 -0.48416524261714949384 0.34120234158234424848 0.16614632344360494298 0.098144310533775924732 -0.43075040198359648702 0.097466690053028132157 -0.095036408300701730179 0.035925250685247447913 0.30042118163106895645 0.081054960997183261862 0.17759184549539891451 0.27744935186784491776 0.11877561023298113807 0.10264676386162999155 -0.012332401182187105459 0.14698001683185782373 -0.15610246614149594913 0.15883137273944220036 0.012452197279599088592 -0.17830326706580088003 0.4158033212488665975 -0.06172555083371600998;-0.0799069897154373876 0.24185592417085599592 0.16537810584732595687 -0.47897649091991262305 -0.46441928589403236316 0.19878143678761089896 0.054063797550604683617 -0.088045904841388106243 0.38518149791960448747 -0.5929653210012287845 -0.11133429040774645014 -0.22725317700138455979 -0.19547269185499591138 0.078329980862441403455 -0.16418614951661253398 -0.074112655494081178253 0.34857167663989452322 -0.0098827868520266898278 -0.30904276095843669081 -0.28979754623186670948 0.31284434838146518709 -0.17727491719549012816 0.13750260060686436692 0.1315160639277442034 -0.22264983791158612925 -0.19324223045548519218 0.31399267707472744426 -0.010320153888419046975 0.14848142706419042991 0.2952667815310208721 0.13852148311847434226 -0.054464643166640527849 0.32535507479838415845 -0.24056494490687241328 0.098710705075465490776;0.04002573328171656758 -0.096653679279159229742 0.43718015030431872647 -0.056705981775193023409 0.46765627699424033858 0.018468054001849143475 -0.29055031294155542199 0.21713217904603296371 -0.12921649150763048208 0.073624866652235929076 0.19517286826179822135 0.13633716383796468108 0.21415869208961316184 -0.25969439366870256114 -0.051742876837113815913 0.09402421065226501673 -0.1959310803911440968 0.54654191413211761219 -0.1674407718757574548 -0.47804901318702441859 -0.24299734201143102785 -0.17327361924714251851 0.12001137183744808867 0.2140486608647741984 -0.021599116403526449903 0.43501666310766884394 -0.14347094475640898015 0.16992493377707768021 -0.33658863676428263378 0.4004068255550395361 -0.11769698002813948345 0.18990647531783649837 -0.22489822141498513886 0.1136077455114617718 -0.38439043387282267883;-0.19528911391253281349 0.11244856782202157508 0.35272394663686973404 -0.41284063969554113394 -0.1720673403589141337 -0.14080427345864132693 0.43320552044218113563 0.54174083046260868013 0.89202844540838799325 0.19171970605835331192 0.25017186397403151643 -0.39893833231462627609 -0.53458150470695675605 0.064054299254642857453 0.37183327092791929047 0.40627731339281419887 0.0013505275370600255957 0.28447112301316346272 -0.36282674974827688885 -0.45471336966186021167 -0.30444133263664269196 0.18917988066672244973 0.31209135642882479544 -0.014828921394140430479 -0.18317978282640495769 -0.75200498543370852822 -0.169610021859586374 -0.33216830432351385216 0.093431434296769949599 0.35642260585728074984 -0.077251230140378573941 0.24278009889380330888 0.084468652058746429567 -0.15932512017599226306 -0.046254052742602615178;0.45697739025777317501 -0.47100445672350210735 -0.2811445151826177935 -0.40419083384917176005 -0.25673932491051232319 0.15877345872006132232 0.025924249815812178133 -0.07722340577455485966 0.075094461292091727045 -0.34010679078589062252 0.0072152718325836882884 0.078387417057408065313 0.47129912790851891113 -0.48566531587283440219 0.032553994820548347311 -0.089783904029485134268 -0.41135367141938794511 0.22247042117456319876 -0.025923523859216389409 0.027550430526632654904 0.048786223155556779352 -0.39955760136425033657 -0.22373150136327452087 -0.055861082304087289474 0.42317388956640766828 -0.19986088202288743165 0.035136139108242425699 0.30476439550280720603 0.28686629402645058562 -0.29006482503443054011 0.022346330720592624819 0.10910386194415867822 0.49555487760587391133 0.088220654958532235268 -0.34086566588564987113;-0.40052485074482424565 0.26682711787931795433 -0.073663737261760189878 -0.85409611660562234636 0.13222170397401547537 0.27864906506095299399 -0.16051977385334725845 0.47114193367323531358 -0.31043125490024692237 -0.50069156872663678204 -0.43570370232407229505 -0.63368173820430906407 -0.081604494318026715716 -0.26863539737376768146 0.088113040829191802139 -0.42671114782811869759 0.039123881991856145068 0.012767881295538602293 -0.11083834019957378159 0.28651472009207012981 -0.32701554398688176262 0.43475794455832705854 -0.45479598599029363859 0.00043623828964936203767 0.017121469574197190067 0.35790866197998710829 0.0071155781697700790783 0.11046450766516408004 0.65809540967916835275 -0.048423149782697010035 0.48071981155393772589 -0.38157953010078388134 0.10522090243705348178 0.19271858108039643942 -0.14687506366099464805;0.37005511816559205629 -0.32297774238199133956 -0.015020138026937204789 -0.058545993207621507826 0.26626380001356192428 0.16289226489656172259 -0.047543747272824253558 -0.047614632476693917462 -0.21134577258724399074 -0.26294007351039133669 0.13099619711863647042 0.28682954500306295786 0.070269091860776067282 0.28901348525333891981 0.54156371553965398924 0.061626638796093369255 -0.17844049963286529037 -0.22070331327526704346 -0.025287466040829809782 0.12751206953133281674 -0.24254425369189946959 0.39068578170766865565 -0.32764783432282323927 0.25871360911116164649 -0.30421343523827754085 0.5256900174657238578 -0.29978346079810469504 -0.37060296925245977961 0.47134411378018326033 -0.23377901160385833323 -0.43061719594803260502 -0.075711284964015954091 -0.33809466423286699266 -0.083502325636852225976 -0.13961827720748640203;-0.0038355626811618290239 -0.24381209706198089804 -0.0046705446738421283609 -0.0941404917961908283 -0.1543811617072978204 -0.014680616715364908434 0.2448863411399631318 0.41196289584076423163 0.026774375130475897011 -0.40467150124909523345 0.20573685374680061866 0.0028956838602143888939 0.44677659998311858303 -0.0033824006238566146215 -0.20423904364731318428 -0.039243743532067332236 0.049618887279464223006 -0.10893713295887852421 0.26730213693638593675 -0.30553610225858951477 0.43316955058476974694 -0.10603756046312433348 -0.033874838742901536293 0.28225836620298788704 -0.064060398759560405191 -0.51986283732228144583 -0.4363082489126657304 -0.37153846936378454036 0.38950769679985153271 0.43783633198151522548 0.44386561524572354376 -0.18825105244455231368 -0.4455813590161603055 0.26160971171753977238 -0.1219574911394502581;0.0073244938798468564589 -0.030430523002523947318 -0.1417950314235525977 0.24985763081751288794 0.24789610405584858177 0.27578865221297360621 0.21407068354367086993 -0.27903581996170745416 -0.49456811698546010447 -0.83301676841761007619 0.09268594684123111771 -0.20632926885825927932 -0.23977868183702283345 -0.10309972953343551905 -0.086207250117993697303 -0.071314189557007551246 -0.0886970366968620888 0.27300365229010981061 0.28412647677379032629 -0.35650497362814792535 -0.0095786239791958577294 -0.5175961356293998783 -0.18386101064494592139 0.65907220553918777206 -0.055830810821387105713 0.12112075160220922565 0.34123654751896004278 0.5287185827874191224 0.119057918159052048 -0.060824306972792070713 -0.018225666628374159739 -0.29020449264339953643 0.038220819899313043799 0.22872925717753309072 0.14592424513469026692;-0.26321176479275093518 0.2229263460409935671 0.53486962211377397924 0.10327448809935788065 -0.035920362650342256561 0.14855654159990533403 -0.29787578084591176397 0.024944457844361153653 0.30444628034192539046 0.010909759649503483758 -0.17825893590141109191 -0.074700938919210826961 0.41527797947068406659 -0.24644047684591313674 0.15033211081222416783 -0.24498483146267011068 -0.074873423969995078764 -0.060433392691214490866 -0.27342941808279264126 0.012664836995546624801 0.078101394453907346804 -0.55603289044698156474 0.31928901338675935717 0.062780963179801252405 -0.087698517545871934598 -0.19823915252625848304 -0.13453109250501282812 0.082940025295614144829 0.43811493204606838381 0.01981490424271057163 0.41812724062262746072 -0.32164948717391977917 -0.06786258587988179547 -0.40153465062025001098 0.12312865388402045863;0.18846724712039086835 -0.28547513117127060189 -0.33351150164048060098 0.23524350540530172826 0.06980101664542587292 0.14111204501940444178 -0.43482091598965283419 0.34638776586886987907 -0.1740950944708914705 0.43787640828054286146 -0.2730956175506749628 0.48867720537864756114 0.14797049470253928471 -0.1926230064576975598 -0.5012782672506980175 -0.030728698546813197623 0.047890566782421449543 -0.58043088022903543965 0.20186174932554407091 0.23009234194828556697 -0.096513073642077701342 0.072122909217981284735 -0.0035681157040515203843 0.081964156105552118947 -0.22629031593863160876 -0.020938621388670426715 -0.51868850859600612591 0.28581276037816238933 -0.0012253971858267702355 0.16817882011889867533 0.50834058896669598315 -0.15896773470156611019 -0.047487961293563002441 -0.0023397109613873478227 0.23259966661521500053;-0.12300341850107758546 -0.20943241305484031067 -0.24843933068596246727 0.15307658863921350112 -0.11439694517414816799 -0.11171636084345967777 0.24460662135238864234 0.041395888161288162121 -0.16741577689378847604 0.11454507969067079243 0.10223423046018514926 -0.36713400197871587372 0.57969973198535207359 0.1005335876357495023 -0.19029753515714314949 0.12708792903276586173 0.068041595567691584567 0.15276765612989295917 -0.19056736273436739038 -0.010739561630074105636 0.22469541603353071491 0.038278331101257313807 -0.21684355180467912438 0.14053677348156817795 0.027669749075906652919 -0.027571314993121924519 0.3506311985210324722 0.039866083453040344897 -0.3876259190598739246 0.22726534631041234169 -0.26193342670463209965 -0.25589761445015557495 0.32537282742148021519 -0.12246708576509637845 0.13665232212271657963;-0.32221936979920245969 0.015093815319484390342 -0.34295079060368366397 0.42081719173167525527 0.050514673703583895525 -0.47214346369287341076 -0.47156581497839167305 -0.6812265027757121727 0.40383542005699368804 0.53089651204035870347 0.74068884410283342135 0.12497081106188981381 -0.30800987726415468559 0.41433844116840262695 -0.012927460042200127066 0.08998964299962802782 0.10353521074835791982 -0.52087999329901735202 0.22024613625985392518 0.21201809025067916425 0.25513207065511378513 -0.21881057884484259035 -0.39318996933869476695 0.033011744167290718588 0.2809390780819536193 0.7154841663090101278 -0.23913309473768507019 -0.34192419840118470908 -0.51804565329723872846 0.026571545161122818446 0.32609916623811924241 0.42150982212716503472 0.1524489209090160724 -0.40403383078995458444 0.054027798460460442487;0.11337195815990191994 0.11332057674488463239 -0.36255259444127135859 -0.57766383723456249388 -0.16263924309247348998 -0.16513573015232105301 0.020968963365748920918 0.20067820472073863436 0.40414638512731343445 -0.12127180707756292366 0.36650612223973422221 -0.1976752280289672814 0.32051378961930820921 0.087976216664851419891 0.024072131925210248776 -0.16831406839635917883 0.023369883974907933177 0.36801852550902303118 -0.24886745684393277167 -0.19587660767499270875 0.096924423456275110578 -0.26068696407327612841 -0.31416607124094858561 0.35427196200471439136 -0.020755901262802019941 0.35094640928522863321 0.17313644213365822488 -0.07749298498332087004 -0.13270073649719460462 0.36367732444125983049 -0.11898841998631734529 0.10236433787812689034 0.38854761717913538499 -0.23863078440208201902 0.16943881203146013426;0.24313719428419622304 0.095926924371462440888 0.012543079638529915087 0.16082720920365731199 0.56264735117107866902 0.032535548023704730092 -0.363148143325805417 0.056299852206043041192 -0.65568770054557612426 0.048365682298294486452 -0.053234152316834912333 0.29585511122234220416 0.16645364336755422152 -0.13711239301489167031 -0.25030322940516958052 0.49962356472612645675 -0.06801023848003567851 0.39843436315933994374 -0.16157997564048945383 -0.0029297556560651805135 -0.46644765623498568585 -0.22497304673724841106 0.31986815699925963408 0.18942528004707678835 -0.013739297763430829979 0.26977759217331670483 0.08214729135327171472 -0.36013358068884482321 -0.53493091469707831909 -0.12730608138533452967 -0.23382918158312301915 0.36067852226850038999 -0.44900709804579608253 0.62465495472794752008 0.065820197101993993538;-0.12083139823139514568 0.54135562144627180636 0.061948161247276208041 -0.31892311355053581945 0.17338950414153989077 -0.19922002030768865 -0.33110851992078349504 -0.37067836669381948322 -0.48179463020938556594 -0.35639837938311708099 -0.070257841420385880316 -0.49021666129594565486 -0.48214442926353245911 0.018508674366018055407 -0.49121354533794742148 -0.038476078847495029378 0.417521990793012443 -0.18932301915557278593 0.35675612989806199105 -0.1534788133853180192 0.19061323659959403254 0.16241211423028570349 0.017436978406375428646 -0.32441572292878756434 -0.12127303260067957835 0.65311097153567998497 -0.21239967156322669961 0.1269274073090420063 -0.027650317115564555098 -0.41480124987384286994 0.19245647816785829698 -0.31554790305232061076 -0.29254880928336102208 -0.15227854545613400683 0.35601681329061157788;0.22248215911393814936 0.022887107208691619825 -0.53706238991166654895 0.27590888445774991444 0.079194662094113812967 0.37734712143695819941 -0.51422890360953010802 -0.015144775980503035612 0.055740417660438287828 0.34069713424596048679 -0.28640696407616306196 0.050064436718457519526 0.26853369825030942719 0.47326059031248646214 -0.071453622660231100316 -0.20838097222210605342 0.10618906631697232201 0.1546791485720290793 -0.4028691492017800746 -0.24193520606331708755 -0.0065638661164687979455 0.0081024569316584318934 0.16332544826824579864 -0.067994765504487325591 0.56199988182651927637 -0.14753426868098104552 -0.29674050356830622421 -0.052063486029222082185 -0.12093632474683518874 -0.2982347292871580513 -0.11775097624771824201 0.2064634084392325819 0.23976292019245090681 -0.16141871492646470143 0.074473965299637803761;0.040562585561402561551 0.36339216578022703885 0.028464606096433871241 0.17026750214139002582 0.0058673750463779580921 0.17238953060930195527 -0.39064239984399906636 0.51794845158980273858 -0.18278698421992042866 0.22197300812974279927 -0.23836763848749695227 -0.40017535146920474309 0.065760806123528525724 -0.044968119496871405971 -0.31432364023171749379 0.39644548883490893232 0.4358487078992337449 0.2793616047175923045 -0.40686615115700885958 0.17466378501102913789 -0.20093287786746075185 0.079898848996468915806 0.06232482614813469185 -0.14015911284306376006 -0.14626075755905218467 0.46673061377703040087 0.32467433522391792033 0.30740488534019416722 0.15789105206303066797 -0.4232520723027049514 0.013599754074580994515 -0.27964972063473791941 -0.16205209833204714531 0.38219731868350631521 -0.081854338286731193053;-0.43142160737686652272 0.36970053923193368917 -0.013270339010702708604 -0.38996008137970583629 0.60282562184981203224 -0.15574206419023334247 -0.36869797786146557561 0.34087545261854979017 0.19629229277206219906 0.57891663334053777845 -0.068164084086242832106 -0.47133542692206514824 0.10290344088118594246 0.31882785330805046842 0.18113070297887232107 0.20234772914395690591 0.29281103430217059191 0.013231609529781414997 -0.43274541023343804369 0.28591592641007429476 -0.16719254148741000132 -0.30727615148442949389 0.14798344485557327066 0.24516308210306153592 -0.0022982790210855502666 0.29472162082847080944 -0.32478976807483489475 -0.26883721542551997086 0.35554125900425803675 -0.32012467520353699024 0.2528528207607799172 -0.10409595713947131235 -0.23766971843144801824 -0.15066670660987374619 0.097952584939845696588;0.30678669140152692307 -0.1692345057055547608 -0.25283513607423624414 0.22705464020698945538 0.42546881519179208242 0.43507787332064795649 0.086837588550672750731 -0.32792746175281711762 -0.35804682334700183022 0.0018985821762274174285 0.69105603777161228596 0.30139534826763531017 0.08083091372339458458 -0.018050314323099940494 0.11989628574117054682 -0.083420070404171167699 -0.078248418921191109643 -0.085641002011668201921 -0.37937452059400605942 0.30156395461320917306 0.25582451203879846835 0.034437772113028897181 0.20759072787998114618 0.12734073609455823228 -0.073440653620542015179 -0.491494836887159392 -0.15682552110280689739 0.4563884049434644985 -0.22300075411436268147 -0.55887245097372328928 -0.18414103747022675384 0.25484732426842854336 -0.04012365718057236269 -0.20392736419176099583 -0.0043180041229054708096;-0.34725845145205314068 0.26919449591946881251 0.4165407983767208111 0.37263440655681606684 0.34527182912623882727 -0.13815411057397691819 -0.0039214321793248543141 -0.25556075875237521666 0.26576645709609042489 0.40107641352050910077 -0.16326670024909845091 0.19749742202191333806 0.29335161621610761351 -0.45171771309821762141 0.048303077996607005073 0.12987471356328725292 -0.5524306303196800938 0.4345166007593371793 0.086850926480834561572 0.12018613281411411053 -0.094263800126768201859 0.16699912633575228482 0.34090982309316608667 -0.28654201167924303606 -0.62780011717879624644 0.60395934978248211333 0.29545801057117604405 -0.16542728349833593637 -0.078393864397561324742 0.58215508913295654914 -0.013892731180808800401 0.074614675305791688942 -0.67495398121694116789 0.061988344822264146439 0.11685013237888643156;-0.30413634170397901846 0.069082477990641238952 0.38867491036413820416 0.035547206451923357706 0.026619490771967232318 0.45113493081300554133 0.28480711666145724914 0.020131031346588040137 -0.056564385917500834 -0.1240190450365246666 0.51707418626770274006 0.24084862363545053721 0.15956082123871578871 -0.17763411465080400364 -0.18606452991551819531 -0.11216945560908224422 0.2504708364485686567 0.092997410791609780301 0.34516834032091614493 -0.083528972235423104564 0.082309690423568865336 -0.41616771228517618342 0.25239963044699409433 -0.061455567155240607702 0.25327745677570395744 0.33345800300139238903 0.18911957391267955608 0.35242103459699580803 -0.2281538952282654853 -0.36851570369670222371 0.14861941815659782118 0.20143227930928225833 0.61226776120410875137 -0.31884017366119876691 0.057978649256784753341;-0.19950846209278044752 0.17354412052823853241 0.40301861835922009325 -0.42730910733296095794 0.41215385991052316816 0.012732013948977945195 -0.52354076502913415858 0.22917305157037021202 -0.0024191277066984246888 -0.11393444095371596525 0.06950893679838565653 0.18999094077454564689 -0.09114466643315333183 -0.1935771085641481426 -0.1944296901010437173 0.093700128809952265563 0.22518558574082497836 0.40464509215370481066 0.19003274899453903579 0.19993794342928061791 -0.079528226313608257891 -0.1399347744925761583 0.040026057871111596353 -0.0012638949722799828687 -0.068013292489937121621 0.21989271980704883092 0.23677736139171537411 -0.17355275776527373521 0.68192783005682600095 0.012788758325071203359 0.17741600618800956735 -0.60286744413446169411 -0.21827966766865172787 -0.0036387129284817659736 -0.12471943429416362803;0.1266830660138638931 0.0076830700857594413922 -0.24369556133408609711 0.099549546327354437869 0.48488561233646293447 0.094365412102113688242 -0.14376921817210377985 0.12501244685119339284 0.10949007584771347501 0.35703353909574492286 -0.62482478639960703504 0.21894012758411782182 0.15363762399915498191 0.11217036751515213622 0.19404897686111599597 0.30776806799290640226 0.001971188966123808145 0.37977546151443042355 0.53293567978179812172 -0.47851374037932042915 -0.44618064683852254326 0.37615684306541374848 -0.17874509653370998508 -0.089301167682704699069 -0.25004504431275137444 0.13602803263658336252 -0.27536020313968972983 0.2426912294955901328 -0.51734734648743219143 0.13061454011328904601 0.23611557086737819389 -0.043649667980128342704 0.082416178286557478794 -0.10386951969579077959 0.14469972523494453731;-0.23515235899667508157 0.22046179075311517215 0.29135980300162211964 0.58016932486505745636 0.086254793486738784436 0.30594666326195957273 0.31298240433779850322 -0.56406923259131669379 -0.47728677942992570049 0.88888740530107557269 -0.086607989514237412876 -0.086015333705260835218 0.12255725348353987969 0.32248106789818098417 0.10475490990771779698 0.38415175852613803187 0.28323012728250845926 0.0013488452789839795731 -0.27074441906216872855 -0.23829238356036089308 -0.23503534363194739099 0.5224605988469633866 0.045946169295927853649 0.74655365043050059271 0.023992854095341221987 0.088956120035147662195 -0.002777973993901325378 -0.66962495204760807965 -0.48496826036057560927 -0.20773665744931166244 0.16149801895990517631 -0.019453528324452101783 -0.28643694195136254477 -0.12045991595693007759 -0.45332915140312263214;0.0050436088676510046347 0.23680875851800284315 -0.2039962269371902448 -0.32447392997523599734 -0.10999793440978380965 -0.10138174898133728297 -0.32611376540894565501 0.040358083003756477225 -0.20532374350527757279 0.017249774953661291266 -0.068790533877390813711 -0.15877261105390050311 0.25754946731276595617 -0.017882102725818412731 0.17109413103016024582 -0.43848841470722799141 0.1643678589915451016 0.37158516719497830527 0.093281686459984594628 0.032003671044689235847 -0.05621620059586214524 -0.43071103431076745993 -0.13422778850881955659 0.4484963159232503993 0.27285147846530422022 -0.32872148302523962471 0.0728475456196118476 0.026703747877585327225 -0.39142880842258948038 -0.038936769228321163605 0.40081413720088771013 0.03148727855998356695 -0.15272662848029222582 -0.011859052369655599668 0.098617178645245856528;-0.29578992166230849703 -0.19479847287820328816 0.44345730123055948635 -0.38888206353913867819 -0.37718281271206793859 -0.18997027171899077969 -0.24111682975224979497 0.017351442063264395366 -0.66417517178784646337 0.025875377530585025321 0.71714335539631524075 -0.14528046407485845082 0.68223554326201329978 0.43938158518494380145 -0.26666962843099667468 -0.33679160493187998426 -0.12005466145315871196 -0.029266506080776168164 0.065935509308479411938 -0.09159727996876754208 0.099370632005744086168 0.32225937586860869954 0.083673241583136659383 0.1928290693481429785 0.18159256398386650067 -0.24059256789488045469 0.13688138743596878211 -0.43009665238626371142 0.13365705948855152729 0.068564257334645620223 -0.23092055458115731681 0.17728418893348563135 0.38146608317250918496 -0.44891364598362726301 -0.068168971321643179184;0.26706627672572957888 -0.024968851121198488985 0.13630096063002616891 0.15004777878354860765 -0.011390083327713263275 -0.56927092040253202132 -0.053486677433061236009 -0.13267507166497985449 0.42731001512250488261 0.2221580300885198922 0.087293906373921037467 -0.077348300686061466358 -0.28140122963328767502 -0.25700859907643502922 -0.42989896585232123538 -0.22775877462362317805 0.029077869051920855747 0.15931194328267439531 0.4984521394665200611 -0.28940045409831527401 -0.48915804268137036415 0.133940914010506118 -0.18350582740276583094 -0.042052966803449991218 -0.017205986799992682712 -0.48513660044172390862 0.12481209278473595625 0.0060059442711405466864 0.35307729695416945059 0.74310779844478835887 -0.33912450978973612825 0.25812273623931286659 0.24056528666872781241 -0.31382405618571096451 0.37697943040583214991;-0.12738607083416786381 0.05270153828523316264 -0.075221732951088540742 0.2345946470959550112 -0.3112991338253495166 -0.32497558676226390162 0.28509986319522589993 0.21896625234400601823 -0.19553299999069839732 -0.36676793060015150383 -0.25840040304967548668 -0.14553098402859773741 0.49980628066991766856 -0.19128461644395766683 -0.026085429552400122427 -0.10652049134894647775 -0.60070716198785378825 0.31173790216158420163 0.14934529383660258284 -0.26531023482809645841 0.14940269628904059851 0.06898356674236649777 0.36284989760713620699 0.0078918550846716964409 -0.36131743517034597968 -0.30640346144930713512 0.086344530093222085498 0.26108925677839545099 0.67259964344203049258 0.057449773770055501121 0.36096180578113334914 -0.12228424775879979947 -0.15801538704081857789 -0.042223436161045443948 0.055594143518605587673;0.23027099955302735013 0.44595917163994119869 0.023425549075658348014 -0.34702627162496091362 0.23670232968353166481 0.5001789228334042603 0.73370110224370643781 0.016691254195302041019 -0.97505028879718980139 -0.61889490774558686415 -0.22853073001352730564 0.52494376154184307914 0.27852765164382292662 -0.22262399414997185998 -0.39472757879274733561 -0.17434966047486219476 0.22504345738313186187 0.035984734205877069724 -0.10778805871535070138 0.038839793168400187084 0.13590581764063416892 0.062204620179176259298 0.1885773617987142603 -0.099605223057987302138 -0.34143826216198236434 0.095077755601513797012 -0.32139641275481639626 0.63708838819136892617 0.00033608562422404036907 -0.39339807640992630056 -0.50540250378581363933 -0.23266406815156495669 -0.084283657993970237388 0.46515606883632254487 0.10400291612396707353;-0.43383549103050789153 0.58046950185685375345 0.74137280031309971129 0.1099933103197026224 0.14883231027398388657 0.19341363227234920075 -0.12932440785068335942 0.12309979042969790286 -0.46712170242996026159 0.11750605814988182574 -0.14604293428525255694 0.25542750948901543628 0.49827512215018809894 -0.42797101431286871387 0.12301522108608128891 -0.23220347577201472244 0.13024530978337697795 -0.065417135295737713352 0.041981278888769117674 0.023921777204709310238 -0.3806483634114819492 -0.010188812910618275445 0.20069399944217852783 -0.04505502880856183251 -0.33955424540860223992 -0.0060922695859064388002 0.86533386899546005377 0.51893406736862501827 0.32663423429425403333 -0.13551268563780211052 0.52839241747911203095 -0.38433765255945062655 -0.12991136887002063816 -0.056965826719524464972 -0.024411447724882032184;-0.091398371094155633765 -0.2806638116693045415 0.36433806381040706457 0.32488052846980663979 0.49416480327294803887 0.011049252312273348531 -0.25961561756604228934 0.54693300655108634256 -0.45117285230480141944 -1.1782707734181505632 0.99733537543407346782 0.31268351777411612646 0.046222958631981676814 -0.015027202949796480969 0.028243487284348472999 0.60279752584382062519 0.3138100092206592695 -0.25775468207010915345 -0.30793905655301168078 -0.28982515219878807189 0.39702875904509882243 0.11766646172615678745 0.47868097984015950397 0.40692010339862472179 -0.49822160366498358108 0.079802044651138465126 -0.039133497193950206317 -0.11769419271065198473 -0.069364910268238169633 -0.73646814355983192257 -0.058654797794364124663 -0.28517112787192100409 -0.09557826392143836669 -0.43106287717111468893 -0.048002540061094521595;0.27088156634781068721 -0.36484034911542506663 0.069414431214877544973 -0.24121485358590161185 -0.30135997242454776179 -0.14434359017564019068 0.17670712314192971171 0.65557062176153013677 -0.050385701433016294448 -0.04372218860385738981 0.087511373379921153504 -0.00052067166081517200771 -0.061764438932918497294 -0.10443631864640437468 -0.19951588961846081216 0.011850208940732957774 -0.063304910077365536547 -0.044785680244688777507 -0.0062357277067886553168 -0.14210502224676826999 0.33122301645771978773 -0.36719780870003809747 -0.10989637868044885294 -0.17819893754987001233 -0.0921934302550684176 0.24812855173863140879 0.22056567110329677872 -0.24081793766494682951 0.074506301011702802395 -0.45602291253481275213 0.046629859332862295951 0.13413984980318194307 0.39100434138736567258 0.49549444854996177456 -0.11995066905788533129;-0.14888552467764820664 -0.14570140039914794561 0.13560322672034968994 -0.08742369693242349471 0.55900349336130017441 0.40505720660165678293 0.061762330853127253572 0.35737969220903337275 -0.48776229499983314586 -0.36494091786246452003 -0.024375607349545927449 -0.19489854875791975952 0.27691504456589577376 -0.31791340765646564082 0.25899348161804719437 -0.33297185901461057167 0.26079097734822098698 -0.17265706219035786839 -0.16929138490164954978 -0.16034039770056446317 0.20734280090538637076 0.26985449587098281343 -0.17252246632786710778 0.036456364514757561013 -0.068271703135282676977 0.23296055049497735312 -0.46762557232869567114 0.11760250451175786879 0.26855984849923419944 0.66547148396152977501 0.22250691460628846396 -0.20305733278537688169 -0.43600377055661854175 0.16341215665238320587 -0.19018174502526491443;-0.21756668216740929211 0.24552854520139405503 0.19540198378841480698 0.29226717086706088811 0.08244525780282600802 -0.22195683973992694216 -0.12210470104429727023 0.20781916141637316042 0.080677846508724671004 -0.094986309500079177393 0.18161366203009374209 -0.0721130442003955624 0.095785190866318883907 -0.34958994033362550402 0.64088090627310467795 0.13128251577631561142 -0.23884298004369583501 -0.33187095528265708744 -0.12321701573029603116 0.26946219926467496197 0.38550283494193493539 -0.010699498817872772974 0.090574982384995852969 -0.48404772217935093659 -0.2894258075283799303 0.25646408609186549521 -0.32017643728794342728 -0.43411005401636604262 -0.040020491166237445735 -0.088800345520254120313 0.029621918071050704069 -0.020328873435011898807 -0.49356183669684472459 0.072661755640451630711 0.0035871933221529456182;0.052839981569426347496 0.25559045836262206386 -0.20124143632297625262 -0.022276904721584122465 0.00060858142689773121487 0.12427141082181768217 0.06161197708955255814 -0.65940301951092150645 -0.41850841070689714929 -0.52022703919117152527 -0.042561423830480643593 -0.25724784406725020869 0.11426096557461727643 0.15884146025495105015 -0.17379081965480713823 -0.17763770946627274738 0.12908175939364749385 -0.15467290253293253244 0.47945308675734549242 -0.2474056714156717407 -0.0225450008539849929 0.1995516775712351254 0.039424294044111352076 0.42481733583252362374 -0.28183575919358461181 0.043194871361826744915 0.23066857138267835015 0.20281887209245699766 0.011984418779734815064 -0.064455017992217339406 0.074100254706937013216 -0.20703480111181216117 0.070287466446162238931 0.031765999791638327432 0.16360472472564321911;0.042519769242158111933 -0.14192410284314432856 -0.34491271809342421983 0.21252929402738074405 0.41907458455459045688 -0.10849047608752267202 0.13893908666280735398 -0.23506051308353043128 -0.021782849082663841012 -0.32625775127048090019 0.00061476052490429602959 0.34849073477314984615 -0.32042796325979017169 -0.26072189417521995924 0.033159075201258769727 -0.23187820554079335844 -0.24035923914772622245 0.23079639152140349334 0.045107649666474236572 -0.023728374871782545452 0.27742726268928286082 0.10185845482533815998 0.33878318226631881638 -0.36689215839248073836 -0.47112873869201060684 -0.26709145458600941359 0.23735757526013118168 0.046758708643285441797 0.072566211770275307336 0.17876213481663860705 -0.045241844572581783879 -0.068643581190359015398 0.16639105716945776225 -0.15753790655488031369 -0.092934761175370250719;0.10647141825666833759 -0.18422675017067399739 0.024550696690653781018 -0.013032647862171474473 -0.040126025532074671709 -0.13552725464767001462 0.01285827483693953617 0.19500700864794590084 -0.21199782431242064629 0.46456227636666336256 -0.0055191986587853972268 -0.025694969748695523776 -0.14847207906321494009 0.33140626048203514209 0.15549076835210876024 -0.14637062182093901752 0.18840689702525059701 0.37602717541225616493 -0.25808460439421648802 -0.18457963290628742747 0.17011381853342469328 0.080877101437330192746 -0.32584144246081420127 -0.01436816482860711619 0.3142751378077927038 -0.35055430030187639812 0.068826186127553493077 0.06657775161899120997 -0.35370247793091197375 -0.37685182847340370493 -0.27313408703511782294 0.35363399324685473868 0.31184236689809941012 0.13887833460668269625 -0.083210548262861172564;-0.16750558609486129735 -0.021765267799565342355 0.2161322159462834569 0.23905885259888232097 -0.4149244287533331299 0.011449395167789684288 0.45558740246408419017 0.24409406244853595891 -0.15947319130574097445 -0.2947824307448554948 -0.1968456326270127954 0.5583511552297888425 -0.45007935630065160071 0.15444340977920445468 -0.30585924324062424562 -0.24414744379062100488 0.0068054270797888883476 0.094202992646934324839 0.16211835858390979959 -0.034101579151972163939 -0.34663380806321625327 0.16546283670665337673 0.2073158921350324313 0.41210129940757728173 -0.15903754884786844292 -0.23659449169834140259 -0.45349100854641966052 0.16612997428880166284 -0.29029573648784107176 0.11604695691172464689 -0.23240451527738090198 0.17986779632833210796 0.35578995114245054454 -0.3248984643149472884 -0.13243439582658769749;-0.19953675228037404121 0.5213566875531400191 -0.018251129394206817846 0.33840458289262725922 0.045543188047882432468 -0.33173497674526630785 0.22915025155167509374 0.1996815512044913532 -0.43529771408866230198 -0.23526850454706230154 0.30348460200198768 0.13448188480063730244 -0.086598630203706047914 -0.14705586107630572168 0.3205890334349645876 -0.42796680780406071154 -0.0014181852366078819168 0.2589780650094197223 0.10948154188086353655 -0.31031447307901710575 -0.36609006677079380943 -0.072368571187553618063 0.013542289148872566074 0.47925819734910007908 -0.61215008720598562686 -0.65589966877185590377 0.26661630805057090488 0.16883408430368651576 0.38823498408325041176 -0.2050720760999123482 0.52757710483714148619 0.044258442854755095097 -0.083512497524566187135 -0.32147803549651871036 -0.21752088953497164536;0.016586529272092788434 0.13040663540139835197 -0.093434674429984793109 0.12426049031832189784 0.45996965741985695875 -0.28612049584247689626 0.27269198660115634425 0.029735785411473723838 0.15743508737878933457 0.004624504716827307349 0.45530002516847467575 0.25198454392740909924 -0.054129919011717569921 0.38085360544628499291 0.074473415928129990671 -0.19074124964624611378 0.069498424352058635334 -0.3050219957030613771 -0.29337855416772662398 0.16420053586018101832 0.43745396037518718968 0.06314404915306945365 0.015253800382237576311 -0.45001421648422296196 -0.68058123213672627738 0.35002543950685433005 0.22141060834711928651 0.518310780546358707 -0.016410647386727816865 0.28824562882969884114 -0.03120659728763673646 -0.15940963881661546209 0.092360162201589712794 0.013089792198270257251 0.054713716149487300056;0.047543188525126484079 -0.084573048311122597798 0.0065040184564177996873 0.27866731219034240885 -0.27337838103137579449 -0.48898636728963706943 -0.26810437503078216048 -0.54381255519625681938 0.33584833062837560202 -0.01064324990282937769 -0.57370769231450802206 0.69082617579046290412 -0.54243249279543992447 -0.18729822012358648964 0.19957339631754583698 0.32284775197976739447 -0.25882002843357992949 0.36725814519640942457 -0.37894972231087609149 -0.02086289762772735451 -0.13160043174159483104 0.21717074264730595878 0.20331015854527728637 0.14812889794766168072 0.4940505028448696212 -0.27493581656340221331 0.0088293488606664763396 -0.46211602828986397817 -0.15764570740638872426 -0.092871151181656341755 -0.27774627404100427075 0.54135573148601479065 0.089623445189609268757 -0.3351854748789279137 0.10401364137060828408;-0.20756291309001878576 -0.19065837075371303011 -0.39157574602696071375 0.49698218199292104602 -0.48571575650271853197 0.24729554053413194126 -0.027337344148371571506 -0.50983773530770815086 -0.14247346527833920637 0.52035342391997485567 -0.38033568420195396076 0.36514994391429411724 -0.31615185780395238524 0.11492118836495548995 -0.022273609982791750528 0.27697928069890059843 0.33096201289155702252 -0.43739618334728785909 -0.38042846201615448942 0.30216203301966909622 -0.1671226514057656265 0.39010650927532897203 0.10161098178700760097 -0.086603970840324437375 0.17955764837704785153 0.18264938561597937605 -0.2157783881726477726 -0.54591074713069143165 -0.24021183760835182475 -0.43050142938002183834 -0.26588396940817382585 0.26875267735265834235 0.61054502330345217231 -0.24484801326064692395 -0.18322354679224447938;0.090070078600512998301 -0.18789095157784488355 -0.11829797439428602068 0.43765477776294964274 0.15074108501063099297 0.42414195308862312483 -0.24048305332547956215 -0.60843714821408290128 -0.52802995457719559269 0.67206974935615382272 0.72530752528046360528 -0.38053284283032645652 0.089549059813377573924 0.23492222594312550665 0.14009675741238686308 0.4057019501396597061 -0.20215763042268969363 0.18683754015993445097 -0.64805780650360955697 0.35708504992909095854 -0.28273721956040626102 0.44124173514837944365 -0.22821423623118602952 0.44820462990058784758 0.19402513858860861995 -0.078106146600154080506 -0.32245128251347515702 -0.85936977773400047287 0.093039222183128725274 -0.35231929882780793628 0.28425950578251102385 -0.034437994441313915517 0.16691265167334173869 -0.20399361108789404451 -0.36197622848064198164;0.10901740706656994073 -0.080758812795928808237 -0.38551371490287561494 -0.032402501511465717221 0.037784942319869133098 -0.36377124473103206181 0.52547779624237289653 -0.24414809627189232311 0.041739989950292065435 0.25388429110100457775 0.011677134124280064142 0.14302109695650142007 -0.026270340334368796203 -0.34623593503769084512 -0.0036921636313527947393 0.027008916445815142615 -0.34215826059369958134 0.36652004381366370955 -0.35359408981771867087 0.3960771656708674815 -0.13063810829230079746 -0.26078910582221526138 0.20439259174158222465 -0.044011214114332647407 0.41706543093132852906 0.24858187605949144672 0.068492946651003208669 -0.039008411373298912395 0.013646536366578788935 0.31050703401369678103 0.21573801562623740047 -0.045092372364692573372 -0.28033270067247051394 0.24791735146765783715 -0.41706069004688911539;0.046010250844801918457 -0.40775720671537551976 0.075838306529209781326 -0.35896124065079171306 -0.31764891619044510751 0.31235712677683336036 0.21273189746771536957 0.74356522161791238634 0.17655108546924264123 -0.077502111219800606801 -0.18147979117195342513 -0.062909417375117973603 0.1146883819271989069 -0.16322813811792818983 0.43075224474490819704 -0.086072705803299648375 0.22530647896689851017 0.002744949377554744413 -0.13485528168736363175 -0.047389181200006944006 -0.24849539122089325804 0.41688520758633634822 0.030083223064719714912 0.058931077638478074343 -0.027583179013932312973 -0.62486162675510237285 0.068248870030161862266 -0.01498902545514745055 -0.36816499509165989679 0.097667523042673537459 -0.075724646039094886674 0.14285657919594108023 0.19308901051150648143 -0.082469475316444926238 0.13921175209154140751;0.22705440123489623039 -0.25869445401515184235 -0.1026393031657306526 -0.1919978138109544874 -0.098064353921975641604 -0.063926479154736509658 -0.030024263058050573716 -0.28310162536069982675 -0.53963238569643290354 0.012255730676624547459 0.20614279085847700412 0.13535908400690130349 0.1389591050885188861 -0.42812721456998614755 -0.15360813226386499375 -0.049316830654127154221 -0.017411349749479800714 -0.38806340547015599762 0.1369685006177398523 0.17710166706452429297 0.23528932581616751607 0.032809130097464576925 -0.41900987854027665902 -0.14363333107741180217 0.51209254379125512813 0.16232957288251959049 0.24526078506954934744 0.31305220514120030151 0.44023778048318196188 -0.095141413830601609392 0.090402072582120907018 -0.088532577571078449608 0.24718840414534659633 -0.22083672818440974739 -0.085724322257096655098;-0.29828185159965331374 -0.12447645079852381889 0.46336384103856353978 -0.24295604243680513079 -0.20244218413747211427 0.33590545049026715452 -0.35230254326438781298 0.12768154476162968392 -0.16494514459706410836 0.085320468012911807043 0.19409061313656889025 -0.49806588782413885319 -0.17543549138211289584 -0.25151574717262253911 -0.49699795786115730234 -0.63199802781400460372 0.31156868581559321596 0.30084054537927967798 0.085481848135009336209 -0.14229193517676971825 0.13810716346883314398 -0.34565113199730201909 -0.34020552312911100934 0.13396217263408194409 -0.018577321855491803204 -0.047544809257085790533 -0.14204304539068016155 0.33191083492793899135 0.14715943040594139934 -0.13248981955181821091 0.5444119983624842174 -0.0040426363319482142011 0.20582840295917007034 -0.4863501489206722983 0.0063095693081919451695;-0.21038858969962767609 -0.12552814021906943953 -0.26901295307351413832 0.11631490826074558642 -0.23906980268337646445 0.094431758147284994287 0.25318154120576452648 0.504799565333957867 0.85971792287959858392 0.47594591722349832708 0.27990531762653880765 0.11696442129852767378 -0.39536055809767584046 -0.26829846225340103771 -0.27404312894011606527 0.380184653146861673 0.42809060221786376932 0.024092978095476828837 -0.46790036311919497303 -0.10413796744821278428 0.5062215597184618332 -0.2412573405551534933 -0.21981317529367744301 -0.27932904951361714474 -0.13253163313225901909 -0.33823637408142814831 -0.45165512385485245828 -0.10087032345531862787 -0.058112460009508877523 -0.13382877357694336617 0.082869178043289012936 0.012548028807882947305 -0.17977933415746399914 0.24622867387484864699 -0.32767003008187972624;-0.32232048998251244809 0.057377252169832498874 0.48170409385828771853 0.24886123377977084625 -0.31117447440926870872 -0.20728739363800055551 0.17773523773357349786 -0.12402928594026342568 0.12370105091189079194 0.20820001642463065172 0.11348361663178826997 -0.23961145158245733544 0.23422965476950066699 -0.14738747474495922374 -0.56022341932157060373 -0.023685499356044820846 0.10569082331280468812 0.064715506881775047843 0.13788881307815359367 -0.32298277330747021674 0.14866792047724508574 -0.095736390265719589765 -0.10955352153330921716 -0.33818902010915585787 0.31670807492580854703 0.014491890695807085887 -0.086897931914676235232 0.41118323589296018605 -0.17879293973845764021 0.30827663929788484687 0.088460853334884070875 0.23406230154771143215 -0.037166636940216893348 -0.36282745235758911972 0.19339031380546964356;0.10483394007324312036 -0.229419248203815207 0.072235436445762260527 0.38525734469872247034 -0.3155760266834874983 -0.33151037567016844454 -0.092871993126744406544 -0.54201712789748779375 0.35442166826036070049 -0.022614980029386003851 -0.0028625734360884485391 0.14459449996266979244 0.042862052483970264349 -0.29061289052541910971 0.0063077825609345779256 0.34948284486054354003 -0.28075894032786175014 0.031426677087438667502 -0.31363579774496735952 0.2875644932622370975 -0.1202703413396388199 -0.32350592469299299658 0.42444286423477711745 0.11887420971647626178 -0.33923607798415900128 0.31693671010845880787 -0.13910681883962708327 -0.35109512642996493215 -0.062694110415688689142 -0.083032249852788259092 0.42864395753661116428 -0.4345557942268331586 0.029887237087598206992 0.14347905014974954296 -0.5649771765866793416;0.22979980585266032711 0.57828411503704690855 -0.0056102525307315867509 0.28232075842260501153 0.1902669711879957648 -0.15622288632102748762 -0.48892004524077292693 -0.37990290222499101258 0.2644462700851790693 1.8060730953842702995 0.6965266348654250983 0.24827053752540167997 0.29270644813546237151 0.21119937327979954045 0.94870267772512684168 0.36594797329293005106 -0.20033519369046026704 0.013457534024204700907 -0.30781943773112652174 -0.051355797523259999471 -0.083289480053951536753 0.29200131895831410445 0.30382394607771512351 -0.2318441630555831412 -0.065522766349303124267 0.053819058493799726284 -1.2595996855681599325 -0.63805731395258202809 0.11717853245335831114 -0.017427712266676595454 -0.34342578588581529342 -0.28331281959849041741 0.36839935852428445928 0.24844287641624890339 -0.39604847727090031206;-0.017550232803181485541 0.052696596445049856405 0.13239979395509984816 0.68303511557615947947 -0.0039843677697043887106 -0.40322779223596838527 -0.47014558332330430579 -0.35141232562265867223 0.82360077041467161241 0.74995451071256846731 0.35829922623130605608 -0.074692319304155888049 -0.13324799802500653101 -0.096675619295755813032 0.3328408384162163669 0.51680340236440469592 0.44310625956991334107 -0.28095555060652072088 0.055825713818232779173 -0.68620074730149815956 0.16536478333740617375 0.28055750695233283576 -0.59576553954151401093 0.130148964301096709 0.78459407404847880674 0.1860491456426490442 -0.47865465601112422434 -0.65449501407703203348 -0.29453472114706691354 -0.39264838686706848847 0.41493122964117384877 0.11697997857490366469 -0.12958545909158974974 -0.087034022610913613915 -0.24351093054530562054;0.35835160546941002835 -0.1894823892388402542 0.20728998583471242023 -0.23787068925684515253 -0.16878481528754982199 -0.1305193307551666404 0.20746714588739764706 0.027639591167396445476 -0.23128460449355986439 -0.28933943861009436826 0.049640437926682733083 0.27259861862005385635 0.46252423289522887062 0.084215793327281768255 -0.17468976312715200905 -0.24688510204026900552 0.018003750413175957645 0.056075359587806114514 0.055248148538008211295 0.066450722004485790473 0.25535982402008411407 0.062789279787585167147 0.13423507357604144707 0.25729856173164306066 0.0056238150810301590354 0.19678495717238717044 -0.25476555065817335644 0.35536595165275119967 0.25123033618315709914 0.15345917501414949036 -0.54147159348811835233 0.36762743352127719154 -0.083247094800419446647 0.13516280665091567892 0.13023614493942725634;0.10503999298732964729 0.082080917642668435596 -0.26424629041614028369 -0.29817960434024415317 0.036338789250996234026 0.38661902289461164139 0.57859158265857724146 -0.3406006473815633151 -0.022811495331921255447 0.055147487576517550956 0.030273547152106991542 -0.35689151743072300427 0.19592949608228163449 0.071316534624128236075 0.27242488133959646968 -0.08667819188274455966 -0.29381520089872359414 -0.15369197616798618844 -0.039436551954109104468 0.40705526335054215137 -0.2836412364459084956 0.20329085026004303782 0.34194918011533287361 0.01732164175348482188 0.30335778126436641067 0.093210171596858598653 -0.19307513348609109394 0.35121943663798810276 -0.0093252822475991727774 -0.1478513017417129316 0.1625004403273621334 0.10905950693968502474 -0.64541836484595827006 0.38733238339692765972 -0.049367421702115499293;-0.27070003002430848005 0.41650167569287599445 0.38842617773694743111 -0.059894352706779299678 -0.1348177467702072474 -0.17013421649834695182 0.23403527924408609739 -0.43118763731574133447 0.58246383989064953735 -0.43730859769211199994 -0.086376326102749145797 0.085007067442108633082 -0.38323859791441217126 0.33170831947725487598 0.078754630448890194927 0.3959664505854264549 -0.35655861003300087786 0.40492173610522785854 0.048735635212764916169 -0.058811222068258284246 -0.37767724216144510363 0.14295489950314593797 -0.20290263008582845594 -0.056396137467555229605 -0.41653557549631375911 0.069087897109067583634 -0.17427402308635775441 0.38940768430982525272 -0.037287236057971649694 -0.11030792916605049181 -0.45680363033140819473 -0.07169292038897501218 0.33473080402317689774 -0.3877125807559014814 -0.098502583573173846387;-0.12925541406917276377 0.25293309853817474986 -0.015868503234932634927 0.10604552069599962327 -0.39573956278327626634 0.095896639994798082984 -0.5598447024990296228 0.20288881866915953189 0.043080995665719074017 -0.052968048787757709972 -0.35554940681573754535 0.45385147576659035096 -0.09822927046492330172 -0.28605940649306238477 -0.1714134542645138759 -0.35194539303078187231 -0.42260794570163057182 0.23843134608480129333 0.2935580346043251132 0.16473593164401162392 -0.089146574526842270458 -0.33641630734241501077 -0.16052479156169463526 -0.017722060202412570629 0.34045380588874191163 0.37638283604979239083 0.13177461543248158993 0.16656091650125312564 -0.29559910204168926562 0.23213969306948334381 -0.30744715947395662159 -0.31191265029749065674 0.28057934318359190051 0.16206982480355436316 -0.21374461363812161108;-0.0149145598969190607 -0.55598467453493294332 0.37392307856676981759 -0.12623316432120890163 0.48045074647015900693 -0.23954128937822558032 0.093781356177102564997 0.04694784157428864152 0.21227902803611103932 0.20425057158907833355 0.19732768849248011334 -0.41491798094670917507 0.060074369958308219963 -0.42408496063705308776 0.29511284384405939152 -0.18264963643074705324 -0.15947749726531793013 0.31463580054537776398 -0.3706152318656119049 0.12353060620652875357 -0.29985844630783609066 -0.17689391816651656164 0.057752167916333016495 -0.10807739497301110942 0.25708886738137237682 -0.42110059331495985901 0.068692039839065882623 0.38521682630125575475 -0.29406131561975096256 0.20016408202867311261 0.040165609737451313244 0.038721973094550637962 0.047678693315742919079 0.15345709306030266839 -0.37916652966193992169;-0.15454990898239454045 0.33141970708203727369 0.46486544821063635613 0.091243966383061383962 0.00081015265312053136304 -0.23055519360573978327 0.13917238907294937622 -0.23923426083567905787 -0.083329645159633841667 -0.037242472924675661117 0.30986257899376062896 0.30851450149312248383 -0.06419131474537689841 -0.39883732419927220292 -0.11668576431530676418 -0.094379580033540771966 0.49373288789695313206 -0.1349084729042706321 0.095529187616537863947 -0.27224021057011288383 0.47546321183295703339 -0.4126328288651333609 -0.46556249096199048276 0.2300853104524366588 0.032900967309759963919 -0.32647279126161399265 0.46669175998649137238 -0.27199097988521098168 0.42308960297463238387 0.40084884702717055172 0.16245081480508186123 -0.21451553038673937257 0.18921867911626061298 0.02410596738731390215 0.072405838067827008042;0.28857607271235441448 0.0086348713942887567185 0.015415440531790332995 -0.60144542110297660731 0.096696224918465426001 0.046208619439890116776 0.84329058218074870457 0.73241120468872200622 -0.10403662582120296043 -0.51569944085875130124 -0.097357543877603799909 0.39490307040900352042 0.57230796312009069027 0.46551226826821273663 0.093307534351234761028 0.27104568156574565529 -0.37393795223670078798 0.38981430865908106576 -0.11680435311967515832 -0.24403225476744930256 0.21518340914487385507 0.24300928679316205483 -0.32334839902389655997 -0.14880512142861629377 -0.27581929709990693489 -0.15660208722991406094 0.011690904321856900733 -0.48533686656172442264 0.36696287564257495939 0.38114552868766210514 0.14951534768592433799 -0.054859516146363612732 0.019765823253095560208 -0.23065090168821578143 0.32205544746613334883;0.1032182734727137563 0.1043651605239008795 0.26682262840753373512 -0.33300217896249156846 0.049880964512327777283 -0.096045513342210814267 -0.39573262169643819153 0.11269917405739181271 0.34233125130968089511 0.54441083202673834496 -0.020331996385798613292 -0.090023236977055970387 -0.45146053978623706948 0.60081795440596674762 -0.29527409072010529778 -0.18949555705135159855 0.20622550042650375501 0.055286838519339798204 -0.2208123646397968376 0.64775431872896493957 -0.2418255939032157853 -0.10488323465230682541 -0.326241241337263288 -0.084035611253911707275 0.30692249412897681937 0.24364644549189151679 0.31888570762773443823 -0.32334483055838930676 -0.076252491942752020915 0.33406583624542762756 0.12445885167913528502 0.18890732015034006341 -0.020086352345859287416 0.14855295518764133345 0.15518967170602934735;0.12602593763001876392 -0.29555230232704227111 0.19893958370603895269 -0.15914206875486125448 0.37799829787722927232 -0.064121547271414031099 -0.17984183362068054124 -0.045925004106061234621 0.36281161068449413465 -0.27028931301812464394 0.047154589406401825613 0.32904185156973259074 -0.16733945558863536074 0.27442517155176876509 -0.4429077666485229936 -0.013850480380636093908 0.11769434576544693383 0.012180223683322239508 -0.0012770993615172157587 0.15159407270634939202 -0.023061500493871647105 0.27587427759498495128 0.26605008157730947183 -0.51208057883485724737 0.22753440020472648353 0.072933156893384545882 -0.21308088013356635271 0.29657535706548465715 -0.15329413540207340039 0.37399829395376638086 -0.28628031295379696708 -0.34429625001070096602 -0.51188834795269400058 -0.20628543253059458684 -0.0017875947938654004887;-0.25150500784978929714 -0.10392058089082195638 -0.34822900762833608468 0.34600431134339049155 -0.14896278495315429247 -0.43456639831406773666 0.15331781190172361073 -0.011122241403574590138 -0.2438626085034473201 0.25267251854119820997 -0.14667312674017726759 -0.06333631958198607248 0.22576204900834942468 0.030492510281791347648 -0.35101057791211498493 0.1857925292959530239 0.22471081390288141777 0.087662078812560773056 0.035602884480322213867 0.083311821018103832115 -0.15491250963772668081 0.24883531161802555087 0.11034571019167936645 0.099993834422898900116 -0.30354162451054844674 -0.39213277133090856941 -0.51442291670668793824 0.18191235433288144296 -0.26921443503540387621 0.11129257017464906643 0.17506463566447783009 0.18350694222513311282 0.18439265260387682765 -0.067403750926362832052 0.20051978978041323787;-0.02479089686083487884 0.62828625057182263536 0.85146945206985935606 -0.23439528264060052742 -0.3040093103654974982 -0.25355445891797007141 0.37471238066695683466 -0.33887956940950414442 -0.03787923111712380303 -0.12088471793037310065 -0.20147688226049542681 0.01401871001181691917 0.13856963309899766879 -0.23120855147840929655 -0.42696880353792660001 0.19095795914238694602 0.29873467568792660964 0.28440367464360571947 0.017127625077981666751 -0.12738781858022737992 0.1506355988631106757 -0.010086398722136062645 -0.44315879580477124389 0.011580537934738732719 0.36639453520507231365 0.20493285391468382683 -0.31562636052725723257 0.37496050885591158952 -0.028159528786137741352 -0.31684391632057073984 0.29975363825800555029 0.31893865623534628506 0.25386110396216038376 0.16903506137151114164 0.06255011368132666616;0.38451897418151370633 -0.29088746181875430041 -0.36476075093222387613 -0.081702433183927766769 0.57893312977153355003 0.2389694513686758115 -0.07559839730604880903 -0.29202979377214521861 -0.25845793232049019128 0.55001111615597519933 -0.13473859019686659777 -0.067130019066758750412 0.14011846128070387651 -0.098332384474173251121 -0.27641593162277483531 0.22927241237871778812 -0.33573671182087683196 -0.29315341877242889757 -0.26054051271101441589 0.19251279026468523514 0.30206988714097482429 -0.1103729054271529314 -0.20066943202817666414 0.27274548760804123715 -0.37568922386129827151 0.4371026008821122244 0.022807136406184643634 0.21472228469865217715 0.33985456054104190571 -0.19326811504883836812 0.29213209204920059792 -0.52775803793073705616 0.025027412171758071924 0.17849736503371926855 0.013491039572604113239;-0.29577707118904583705 -0.13836338137437018125 -0.3470689381610203017 0.25596994453813343151 0.41975419423418131037 -0.28018700824638381741 0.31614158052078467076 -0.22089269963492902393 -0.5979087126158197929 0.43034662358240605151 -0.15932886982087113292 0.23355831335875482102 -0.22340330489595056074 0.2602955839811663119 0.0040133718536676712269 0.16233799144690475025 -0.14396593979992383661 -0.31694442699853114798 -0.25431685827834793479 0.30400316261780852001 0.48367821449540826517 -0.20167853570924487716 0.0041083614533234513039 0.33757559837931139235 -0.073555560726602534083 -0.27638198779822520379 -0.51830241337324489681 -0.77616060251011642634 -0.14144612837662240423 0.089956205342778303158 -0.23743236586540727995 0.42466498890750981055 0.28702002687318006746 -0.056418232053408762239 -0.1638084844058882994];

% Layer 2
b2 = [0.74559650615533146212;-0.82460473869235606514;-0.68028579252980325709;0.28935362695934785382;0.4373651171427711537;0.012269563858573487303;-0.67390258813889436507;0.91315782468479222977;0.65367168633596983707;-0.30035616121440417148;-0.69793660636471610559;0.75595812835083464609;-0.23341276265833998949;-0.60485885990241172738;-0.42657982093074475749];
