function [Y,Xf,Af] = NN3_10MHz_nnfunc70HN(X,~,~)
%MYNEURALNETWORKFUNCTION neural network simulation function.
% 70 Hidden Neurons
% Auto-generated by MATLAB, 02-Mar-2019 11:04:01.
%
% [Y] = myNeuralNetworkFunction(X,~,~) takes these arguments:
%
%   X = 1xTS cell, 1 inputs over TS timesteps
%   Each X{1,ts} = 65xQ matrix, input #1 at timestep ts.
%
% and returns:
%   Y = 1xTS cell of 1 outputs over TS timesteps.
%   Each Y{1,ts} = 65xQ matrix, output #1 at timestep ts.
%
% where Q is number of samples (or series) and TS is the number of timesteps.

%#ok<*RPMT0>

% ===== NEURAL NETWORK CONSTANTS =====

% Input 1
x1_step1.xoffset = [0.000658777947189116;0.000104102890505396;0.00306577920630883;0.0019489783727782;0.00514611311195717;0.00931775656555949;0.0153374040378409;0.00319456800186372;0.0222585623687478;0.0154241602487643;0.00367401925234263;0.0113374581192352;0.00427075645982859;0.00360930524283184;0.00513739739975118;0.00037152022962811;0.000398740612062226;0.00287225898912391;0.00025666052999505;0.00276741667919722;0.0093132837185137;0.00979518476484586;0.0724876472392999;0.0674259696795707;0.196546406297799;0.27730554343907;0.294176545687011;0.34621244556173;0.415316952447638;0.486669683777594;0.552661090192722;0.60565208154173;0.589942449436454;0.558310764895201;0.515072712953599;0.462016341677186;0.405137456895332;0.35466395336176;0.322469813917411;0.281611958447934;0.195053419922636;0.0841752152200267;0.0220110193525692;0.0337196552330739;0.0129612051785599;0.00607839639518523;0.00220921523921898;0.00135875073246305;0.00387391976729756;0.00243216689155475;0.0038994685496597;0.00576320229579257;0.00245656106863286;0.015797173135769;0.00229532241822702;0.00502951956217725;0.00601256535966468;0.0133200934182938;0.00702517205300348;0.0021526151980906;0.00825305965436104;0.00365021981952056;0.000684253778323113;0.00178754564891273;0.00180793736534191];
x1_step1.gain = [3.39248240976188;2.98629619682029;2.70347182512201;2.48739085128004;2.34915603721955;2.26040308064682;2.21778585605773;2.17322167508989;2.13452513720061;2.06499234639066;2.01088477078707;2.02773882494107;2.05422861636902;2.05332946417375;2.06369724721852;2.03958853409663;2.01821010179482;2.02968268499288;2.02227893402433;2.02793803092449;2.03297097900547;2.03857360360052;2.19359128208015;2.1793024537789;2.53505136202649;2.79439759505721;2.85273973768398;3.08638500597871;3.46110255208239;3.93733970375828;4.48439951078134;5.07176510369987;4.87736415840016;4.52808374424716;4.12657855125845;3.72028675679529;3.37022729390835;3.14260310518954;3.02451488813684;2.84633430065747;2.5399124188872;2.23772813182729;2.11330802956205;2.12803977035725;2.06387770219634;2.03937387112654;2.0214445580151;2.02572828663035;2.04964462383909;2.01940091557562;2.01513779423022;2.01275460158318;2.02888631851352;2.06330327457901;2.04151728432228;2.0699356138096;2.12802222279008;2.23977240125906;2.3603226975421;2.53186367938942;2.80025970010303;3.10431924278018;3.51709509109223;4.11697266525889;4.474356556392];
x1_step1.ymin = -1;

% Layer 1
b1 = [-1.5157681750301292833;-1.4352694923283200179;1.7586549252446628255;-1.6204585884190918499;-1.1862302656238208343;1.349980130389685451;1.2395148728661238291;-1.0936324509739594468;-1.2632708851048670695;-1.176831601582088993;1.3737232051857741766;-1.1347213233708373092;-0.766498366989066926;1.0078396805852796181;-0.89347055680117115628;0.83426341856072583347;0.89230491219644114675;-0.16698180693567538091;-0.73385229837652299345;-0.88321566418643648877;-0.68371172830850446278;0.58642614661702785472;-0.92843426202002132808;-0.80665589324092212831;-0.15760050300133307544;-0.48584114172089315487;-0.3363918176769996049;0.90782376209721304949;-0.35010066343332357786;-0.26344106703880132425;0.00019630503070347006533;0.37668034442293446551;0.32568199898526262182;0.1246499590797963547;0.13233063805667433233;0.20095413978125389876;-0.16668354471493351809;0.1488181642953742001;0.05314817229740834148;0.19878326463139883717;-0.54251878399504405159;-0.18656633400885472285;0.21143950871754219056;0.41308555306312882971;-0.75388414941920067758;-0.12963896598780511038;-0.49674534457411112509;0.6424726811164808149;0.3570752349086012134;0.41761004939980611583;-0.67640285569088709483;0.57836326991587649893;0.51890222485385306683;-0.72818450927833622277;-0.95561504321484025404;-0.72714876728855937227;1.0601257830497412549;-1.0606458110990319987;1.0407197576989615229;-0.86434612689850431888;0.93302175503789519517;-1.2215324471240764925;1.5877507082749375833;0.72256063403504544596;1.1755379559929057809;1.2499244742268047492;1.2058439204641073772;-1.4036848193356290526;-1.4523247158221015418;-1.4229860997664787181];
IW1_1 = [-0.22548233949570048451 0.16052055643926604889 0.22077803167169282594 -0.096265027878690553886 -0.095694609049737797135 0.021883962526514959962 0.2282828490033213531 0.0097815778075044726436 0.20219263326371605949 0.11731907314762458905 -0.077715440711152605768 -0.025923016648787461369 -0.4049177151987902179 -0.42592197287384314652 -0.15780548689689219422 0.094750888329257265674 0.041803441250850503774 0.3370713010009047661 0.038692112002228516709 0.030894317612354903896 0.19059692222411228624 0.10343209004027206777 0.088278139413447323514 -0.37805579528688787461 -0.067841382685976059363 0.11949188218430523145 0.16522728454194501868 0.088704656580422563961 -0.15503100066237904264 0.060872915565057444942 0.10798758666427001052 0.12857847050799747768 -0.20600239575650824975 -0.29246063882229889064 -0.020086769194415571294 0.28913189964941143906 0.31372871725004547461 -0.13440608930400027576 0.37280817924344722414 -0.12364387379103417008 0.012429643923833826047 -0.048857189988418273097 -0.087369962580199730939 0.13780713142109882186 -0.2175880846344685482 -0.15010583753488279668 -0.13700978750872233602 0.18807138452456881317 -0.017955288055018718552 -0.20450092994251123368 -0.12469243401396827575 -0.16785737497218636283 0.174610283103565328 -0.048785097960359340152 -0.3677516181654376104 0.057692850389154483326 -0.011220834272929894673 0.1991871807337872724 0.3141345506764310902 0.054117085005938807274 -0.1400423009818714537 0.28101242503939410922 -0.12005699906494041174 -0.14008905614937661177 -0.0054285669038301124362;-0.073282174245746178887 -0.28362637395202688895 0.06606104086804945319 -0.21333225207408704205 0.054113298326312155029 0.035802401490006678653 -0.19111543843638995055 -0.038288833470938296588 -0.15354874229737627833 0.017510651978044827759 0.28074818255302258496 -0.24227197440410566665 0.28642808289123677934 0.048034675917237770748 0.00033673765652682870891 -0.2388711303588517687 -0.15979429026882971399 0.3937124314402049019 0.1167362707601559968 0.16875492110088483044 0.052343586644161076149 -0.017532140050239078399 0.055659399134866491266 0.088304538628688283852 0.14763317685165741611 -0.23148407899807751931 -0.024796602650391671996 -0.45697289640765209606 0.18428873106949894556 0.039123419133128813086 -0.10770203935134103901 0.022257199897336963496 -0.025855982638140782848 0.23113162500357398166 -0.23753604516973417238 -0.045527457598634364644 -0.12875935368229657341 0.15850258279153381369 0.13521282658233957363 0.2587704421647926134 0.040589806112043325115 -0.17226692466904436341 -0.18206135735380971075 0.11958851930880666503 0.21368745362045482583 0.032685840112227852738 0.1752137238037171918 0.43668831067572499993 -0.21145411898719590482 -0.20051672805387540932 -0.3616255167772395307 0.27014393746873688329 0.056406950391804613898 0.047348763306290994612 0.290612761320872659 -0.18423699781425714739 -0.077720609573538046444 0.47263094370709868297 -0.20056397894342994914 0.12003136381209769667 -0.099595964182684418309 -0.022413542829092913955 -0.051892954986047012955 -0.10008177677613015744 -0.052632625460568051301;-0.32334180804080270288 0.15015285654305846053 -0.088792404647267772488 -0.0039707205982096906161 0.0059080899485940453764 0.10200720032471098653 -0.27250817236703406277 0.18050151335658079499 0.24739133985287309336 0.26925035560256355138 -0.11007404051894403851 -0.31221579241385560843 -0.14250169931614692365 -0.22332108337116618468 -0.28577149699743970013 0.26258946797994370259 -0.31449807812689167807 -0.22778197875823791296 -0.22789286312467099682 -0.26251218177477786409 0.048288801968436503853 -0.0075639292990574442249 -0.16257549378736496637 0.067997753741149247197 0.052330368388477217778 -0.45907578776723623193 -0.22109722832759645672 0.0013715374016711190386 0.048834852183492781508 0.091437888100958986115 0.1473454183917107807 -0.17890524305507921055 0.16950222835800338173 0.2674175507488739667 0.051851387974801183001 -0.067464898187754182568 -0.078465418861493316238 -0.15548370696033303462 0.094139076818274589065 0.016155956857585255376 0.23831118886735783158 -0.23150537299248638567 0.26853701367638754816 -0.3284272834106505834 -0.15629295222077652094 0.10173829865391142979 -0.29932723263932903279 0.04720549889681781297 -0.063392116135949708178 -0.018784383872785206937 -0.34193368014954311773 -0.22135542288179610448 -0.2732821135229500098 0.058976490685507532152 0.093407209257008905201 -0.0096156270231074272847 0.027691221253986656597 -0.082036690077311444358 0.096021169945857409722 -0.023707044477836981822 0.034007107961660648643 0.16576932058933538383 0.10364470236237244283 -0.20537991660237145397 -0.10052957954661907725;0.005014947928235355401 -0.20464111727509712302 0.1437127773791629648 0.11843183383242245066 0.1012041501705460006 -0.027465152684008571626 -0.32438450556106979139 -0.37183665381746383582 -0.31431730554261622101 -0.088304964036378510994 -0.043328350204416332669 0.18157373136120527612 0.22823771285186150726 0.49750755917159356079 0.32900388932856422519 -0.67615184659933924571 -0.27494894194219759997 0.089301224497921216638 -0.24965439016949772522 0.16198448132034265479 0.14045543015836206568 -0.085181488749266690008 0.028459358863526035971 0.36985732454167330463 0.099705394736547381385 -0.16912964975845021232 -0.12689854530416211364 0.053274196588102701311 0.12613280297305407007 -0.021792466980586101821 0.2016912041138176348 0.024424274516476190966 0.32895047033462765373 -0.21630427175171595966 0.046249482744219937158 -0.086441615533105600755 0.074186980132524990572 -0.12167454438698435681 0.061072555923887439366 -0.30804789663763049168 -0.11520994033618013608 -0.2156808910884438768 -0.033134190630183704696 -0.069604235803793851334 0.062557302309417639474 0.57054325904415004178 0.067146602873236885256 -0.021321708776626740328 -0.27307222326390695466 0.11355217127015516942 -0.22409175334766387455 -0.21964654805536826254 -0.083626230675849372309 -0.0042312859489408004982 0.086896613266351771521 0.041641778346628056939 -0.18839119004626952991 0.030643245152866680631 -0.027718998451722716425 0.16789809579507442017 -0.15548803248764581086 0.10037454847634086352 -0.23979539190510962277 -0.018567997518050691902 -0.058796069215867260982;0.22059749244255427714 0.19319594235503234625 -0.27679550965096810788 0.010747178845307677614 0.082823788157923391995 0.036019822723575754819 -0.273530520461860438 0.072407358252728454273 0.14711133157423456064 -0.30723902955050280683 -0.25593296860125297476 0.11555375727392305785 0.34470881040962531028 0.28310880578955816 0.18455834779787777533 0.170302958730071341 -0.21652413114625049251 -0.33400901283960571231 -0.39252745672342165273 0.037606592226345020302 -0.10143605999334792678 0.21261772647301702133 0.19695856937177422252 -0.28120997032467320853 -0.13139495870666462185 0.24421210892414216276 0.2931700627561161232 -0.11446981908771960978 -0.15609376343910480456 0.16185896274736302769 -0.065390861920154433329 -0.3556956257539331534 0.094835502771304286407 -0.024020116061798220397 -0.12892558595940381561 -0.082623405487532969316 -0.043730248605373077397 0.25564460705907915417 0.19486944937375375031 0.26315558050188048167 -0.16389301207446871356 0.06252622367916522983 0.13185865565100240993 -0.099151829294132132198 -0.18706731712235366571 -0.2625688800818806734 -0.22356580147300900152 0.04808042989688877944 0.16245639774235207109 -0.018830632376745298079 0.21283695670334418226 0.28151536501945195745 -0.28815512811844007368 0.23533209934760190851 -0.027004298309033333142 0.075251172352939793564 0.25315201652095664642 -0.22672255576570438107 0.016801718277302171017 -0.16952727261082103927 0.33038391106001657738 -0.10942696697129360162 0.14217524726297856019 0.064568906693644179118 0.0099392082375048262932;-0.14834279530512101131 -0.040085101550698339079 -0.30221571510970007823 -0.17680320089357831614 0.13216478177471133182 0.13093419566617914285 -0.18011121553290898589 -0.10059388060150092903 -0.12586407043881941981 -0.30705007005291601319 -0.22692632211054486469 0.092461812601336942907 0.10536121260693968871 0.078119914625575395672 0.29511085220840416188 0.39666053064718764798 0.54050165811915296121 0.37111958341527068184 -0.070167246079913037082 -0.134245289320951533 -0.049084505246138727952 0.02946927095427636159 -0.14229783992200878417 0.024306474367222809241 0.02229944507246098967 -0.16784061269827707519 0.080023171055744329871 -0.21452047780035335411 0.071741482525295649508 -0.056527537812647743465 0.19060577770186415414 0.27418791728219521486 -0.085508476659914331441 0.17298723591440268166 0.051984412719934591784 0.33105944912551676929 -0.22667084234160841949 -0.23477385095223099465 0.18075669230583885083 -0.18863346904115366187 -0.072599776423575151929 0.064927229211156067823 -0.2737727474474646594 0.17597970548622096643 0.17591125554321435098 -0.32013216043412029421 -0.10560193768396160252 0.029289515470055645791 0.24874261067568323447 0.017052319597888113828 0.065364422986728981657 0.10496476179910098347 -0.3255225573614314305 -0.23432932516575807891 0.06850975022590750918 0.20270501045639879867 0.27291455042796081143 -0.23961145264736868898 -0.13562047647266270434 -0.046976189811161160603 -0.14649064133137046362 -0.17892206507458463527 -0.0089270812002510604305 -0.11015820019969110866 0.31943015250187350995;-0.02325969671863258037 -0.21292233991179457253 -0.19527425976738643776 -0.20401023313466792874 0.018454436774936563981 -0.26230567537687921043 -0.020134245754997979333 0.28631051420374459271 0.28010875003660601346 0.3251650709554470553 0.19693969082289775052 0.23858742592511583691 0.11333176081873592989 0.0060741026654961491338 0.066887889469819217236 -0.050086242811067008263 -0.55016249385090021384 -0.22638785717234718997 0.26815814486684835805 0.074032805394533524046 0.084790344617208412981 -0.15212708966448376668 -0.10231720748367156837 -0.010822024466920172198 0.08419110568063481459 -0.10963159168911527919 0.01309228247018954551 0.16199460654101804913 -0.23330713063322749967 -0.13285778663934835753 0.25650916214477587074 -0.063448923647003066528 0.029368746156270830738 -0.21675630763841441384 0.29079278980483819206 -0.020481126004385251382 0.013147134334885405421 0.29690933993917806299 0.21975605252425833847 -0.1767474512345902915 -0.064912376532399243545 -0.42002196284613058097 -0.26655085664787597777 -0.20639015199553817359 0.11105437859751025875 0.31132074591191433166 0.23367632856208217507 0.29907992824675266874 -0.014876434304389268143 0.12796493593892613316 0.0003798562801544634604 -0.23230362179343161388 0.24606925578563987322 -0.23828329963909333777 -0.28443055879654283169 -0.25073882370887801141 -0.21916930459160430256 -0.31185426858484338597 -0.046671705974269020456 0.032855791959046268258 -0.25043225239811461869 0.21306916162683148253 0.29924562926227099569 0.28825261084569087089 0.090068639084839710596;0.24628613777583163724 -0.082400359887493321298 -0.21386430109212509199 -0.23751026854384127418 0.23492710729712396045 -0.19681125710329500089 0.041951475357427270296 0.20518696537167385729 0.1225651782940532647 -0.057868672104046288418 -0.12015384509334386953 0.18502606055871514967 0.23600930480321538618 -0.16003320059695408384 -0.084004886803635214765 0.224457309741972727 -0.40856646667267992878 -0.05214914917604678013 0.096245861432057502882 0.052432476313553792735 0.16078116147709978212 0.21901906014046751414 0.22655474018484753063 0.10219568618683037842 -0.27685772738343628063 0.12790738304391419122 -0.15606999529784332248 0.23332483620411539893 0.14178145335133937599 -0.13332292596019587605 -0.18952032340605767802 -0.14897083097010127561 -0.15372246339516784652 0.23086885997020514805 0.021018384686140340056 -0.1368463531417065393 0.28046784010680836374 -0.22199585154771875328 -0.21866528078036542859 0.14049411730918187624 0.15077967586248258725 0.0074749570007743779132 0.091918515919435395123 -0.052055032308895056448 -0.13645843375044752754 0.060473128476485872584 0.28939741676831998163 -0.079532651903777659697 -0.019091995586847251842 -0.096675873931306818831 0.3057494731883838579 0.042640453523093681254 0.04521657072901726776 -0.30162461074393465132 0.12111551937758754938 -0.25427113733491030212 0.2067566889977802691 -0.00091967904747074225025 0.11150171803000999415 -0.24843218119335119809 0.061291913252766561104 0.036826690613335835711 0.24125852086782109684 -0.26032043539852522951 -0.3987531095840438633;0.035549458634696329273 0.074030288041290873147 -0.24321284301146853246 -0.37281139407332847258 0.028838759084800266036 0.24426720446493616068 -0.0061011377697311967166 -0.11904331654850476563 -0.054616741802165844066 0.20448267369493466905 0.19901896533269353151 0.11786973609797157803 -0.12181179360525216937 -0.081441547116568910325 -0.070625375390958880506 0.39390028293548018379 0.040691921629866685539 -0.019883221680236880247 0.14554601513986287209 0.19961146890305045409 -0.049323834467241180202 -0.12616026357710152794 0.13470650140380685533 0.1982689645973737258 -0.14651559312732573281 -0.14660227539999784452 -0.14325188687141324206 0.18491022003981483213 0.14496485756930480027 0.095629430346190869017 -0.051715191931775213174 -0.030306948630251441534 -0.22865501612203917303 0.055975408564379408594 0.15178480050005510593 -0.0081246046126613232635 -0.02775082969288392501 0.25781588224677132182 -0.1376779905909077395 -0.097391569960972090847 0.34339861565334539595 -0.23014972700715094489 -0.03443192268699289682 -0.044065426168274871022 -0.16274898335476156719 -0.0064698951808899833604 -0.11345866878658059096 0.36239599014646134423 -0.18804233808928158544 -0.18510135126556687135 0.16363286078850067251 -0.20065190549360628625 -0.012821627108571889697 0.25491328530611717662 0.17875214911659315087 -0.27105652621730885743 -0.036312651056273050065 -0.21666190792088327322 0.28938340206904794583 0.077278198733790146036 -0.19804650905891593715 -0.071612301750303364312 0.32186072952843558515 -0.35429948097422575559 0.25779861055545894022;0.30128963758651355898 0.15195648344275825004 -0.13164415590262201761 -0.1651394646335344607 -0.092513635447627765029 -0.2549500240548567831 0.20954382225607184886 0.084320902700640604222 -0.10580253102047920688 -0.08591472104143264843 -0.13071933777973207547 -0.021957404865378431918 0.21275691470907806546 0.30914978727403924497 0.20422740531362443273 0.00068963582257041723678 0.14654659657515239912 0.14115325138404399841 -0.13906350747944784541 -0.064551099563196129294 -0.1321237787421059573 -0.14600184939230165249 0.016608694379238352762 0.1702792001860076454 -0.085854354595458995392 0.25840697411482688173 -0.27161368409902864052 0.10795320636613958687 0.059753650994421703135 0.054406194430996764055 0.20103910620787329711 -0.22399150922147179066 -0.17300926332321897583 -0.036592180544919132579 -0.073497479940567711498 0.085412454361631709454 0.087135654046154892294 0.18803812629324467842 0.29153532194210701745 -0.070835944368491346457 -0.21297027307449373223 -0.28030243480536504164 0.19495880416668964763 -0.23851834829474127808 -0.043317739069395580498 0.072315421833134274632 0.17121323784448502781 -0.21675090291963666767 0.25022698541008386863 -0.010264713628097055231 -0.26583308099862079654 0.27822785440596264905 0.033172237792676022294 -0.16655971408472353135 -0.20943929442643047234 0.32517312455999058951 -0.0014477068465831891778 0.37658100330742627637 -0.14959670968073643382 -0.18396015637637250228 0.23480629988340501191 0.2632253051861399018 0.067568464891816712448 -0.015038060770213768427 0.26482865669742788883;0.05664912716252275271 0.10332746380735111091 0.059111370691874866312 -0.07248926971482777537 -0.17846295257221689301 -0.2706134406642896062 0.033658693485644500254 0.046453472481503617353 0.11541406047725505379 -0.093693216689515412821 0.16674434684361377768 -0.021008018520676373375 -0.38119128736839885674 -0.026554873238050235446 -0.13131424888412518426 -0.17700446979998935015 -0.059616238382186846623 0.11169596765523924498 -0.19388907101084398854 0.22034465337166206367 0.12111273791743464023 0.14149963835110310195 -0.22644976447382605955 0.10533802068427489118 -0.10276614280201795681 0.016117436420518067158 -0.38513620995745956321 -0.27370026203263031483 0.29696848391660002342 -0.099038944014501653634 0.025023633671385867028 0.28352639611027308231 -0.077878539940574614819 0.026920832865793904026 -0.12056226777612587264 0.09090339684461788694 0.18705541796869062932 -0.25524952494459579588 0.13021448171628111079 -0.11582756249277610661 -0.0044873066180651545454 0.11847854280262369586 -0.040178778293596166538 -0.0018109884111041762295 -0.15190024952489997179 -0.12118778156010773239 -0.03389109613829587031 0.18963733017973949391 -0.11929038510390917172 0.030025103013632994942 0.14577112048944732003 -0.041158463046246804296 0.16415676495673461877 0.21512559741250397716 -0.027078733454188125274 0.02295425270159502304 -0.23581316535189372763 -0.12142354604626126591 0.082299595163049271695 -0.077228597142502949935 0.027736628359549545669 0.24911376251024286432 0.29877342507310400421 -0.21471238874507375671 0.052786639172199015246;0.13995473441646597013 0.17920033382015379542 -0.30918084917530574973 0.34125054773249674511 -0.13238580193357846193 0.078104211454877114917 0.31356263783991183969 -0.018955641234217526087 0.23034080234206658067 -0.040945059332010820541 -0.14232504074378585224 -0.14409693987600100118 0.14980427254987921382 -0.18256192585396527339 0.2003277459228717805 -0.31337288921651079709 -0.30015320949829177311 -0.065764323683324854564 -0.0092067209788365342304 -0.12338168526588420837 -0.079176811931945492717 0.14453114395871749509 0.09947071125939448144 -0.14061858764156562329 0.20751784008289858585 -0.13615758017043969041 -0.18646055264876126856 0.070207626344111928596 0.23562850899376863723 -0.12252859283208898666 0.057678204066892883872 -0.1707056528671869744 -0.033671312133844152892 0.11000628339529441857 -0.18151100895030458648 -0.23219158564179431803 -0.028724330848724017456 0.03902200366653565955 -0.015612961323268663427 0.28570549519874449684 0.066335929475676846945 0.34951693365672054092 -0.089197791046884494781 -0.23848069854454428951 -0.23222890560697523332 -0.19832220827570870569 0.041924661649174355116 -0.076117399136571450846 -0.080345575538765950929 0.28392171655735537472 0.29559069125681058932 0.02694372087704217239 -0.22319219802014542142 0.12828703869636096102 -0.1955388338417762828 0.0018282712878237954157 0.064591653331591655784 0.10845210060571230937 -0.16728351778420669227 0.053759385297434708617 -0.16672005891461993965 0.061251695937419838034 -0.14019033172519063113 0.27605701805410748362 0.14403124641519701732;-0.0055428349446427650077 -0.053925830691415960194 -0.076432585007854367265 -0.13357527375022959504 0.201774479467258544 0.10949495976949411014 -0.034815398640410097353 0.12681357009941590652 -0.16416410807681969253 -0.27621211684238228257 0.22235975387238401946 -0.026861897772643368587 -0.24645813896133847432 -0.16721693925924199786 0.20381928341996227716 -0.22685917363892199594 0.30219299420787898436 -0.13471609480355753452 -0.021960190755555865361 0.14154993994266792945 0.10273050611667874921 -0.060549448212757706056 0.048437315453127224862 -0.0040117269796033595483 0.26684309109442838626 0.053558725799203836526 -0.068131804180107335966 0.00413088190200260226 -0.12082377452396933504 0.064580674116496789017 0.098816010220882002923 0.11845056083365289312 -0.36062448013459685869 0.23745532213945319544 0.21739306093272553477 0.14482601589958768451 -0.21016425062368757071 0.022888717731525544397 -0.022988850096961742364 0.22084748065095377578 0.05833536640220977898 -0.24452549639964571426 -0.23682265978230299108 -0.091238002190987599338 0.40099757068553965045 -0.12029014733925101621 -0.074185106522863780709 -0.14642559450214551187 0.019179790190226194552 0.2440224380153493966 -0.22977698256020315237 0.018078059170723900784 0.24895108091569156938 -0.047195955375907053253 -0.1813037760602201065 -0.21092364077944772416 0.077285941072268757313 -0.011742495853024132596 0.033255005748778557195 -0.058057731654789827835 -0.38205273067987943758 0.11973077547049756908 0.19039842609357934822 0.014701964986963585169 -0.045743353419463138321;-0.088442561076349610061 -0.039375745518191902772 0.12860069251314282246 -0.26145414592085108874 -0.36443552602024570364 0.023238312857920447041 0.19222431853566956939 -0.27126951096293966392 -0.034506646716514266515 -0.038756370908691377408 0.25600629773540967138 -0.28161688986900185183 -0.10984697870176636514 0.057828821992314267952 0.22494351307966714559 -0.29547224409788203081 0.12302480739935287013 0.043671729712289511505 0.20656851014233962305 -0.037776721281213482273 -0.22225805425278161165 0.065052437438849503026 0.23140430386092747383 -0.20075304040041719311 -0.12076772378829640775 -0.041881035603707747472 0.20537758685034226969 -0.12024712250251846923 -0.36932438429964292714 0.063333214579926758181 0.35300328106519496263 -0.25384529883512890747 0.23974769325579370349 0.15546640588643204084 -0.098054594207780773618 0.054416586304829449305 0.28699705550370291363 -0.12490807396933946427 -0.077885807249668675967 -0.30353687527545636371 -0.0087335243122647898684 -0.0039839322082487714505 -0.15198083728296374328 0.089977581271486833936 -0.15420276746177999372 0.036052064388947563378 -0.093984706414741436831 0.1727835523310637944 0.19371184223117715595 -0.1689303565109419869 -0.1449753020710741469 -0.078888126997037413823 0.10328107917413238692 0.23497302898923130843 -0.14137275752898634251 -0.027532864380087659906 0.025588727712384719271 0.059518439034113704289 -0.27096502108080344762 -0.057173538646802225804 -0.2791433854438105655 0.2340173677654552864 -0.12240504382412811801 -0.035365724515476426593 0.34552860619763914318;0.037091148576065942344 0.098815249998610424353 -0.20220371761951097533 0.029819220353842025573 0.024641765439523722475 -0.082377179706693837158 0.0011381004777860966731 0.081284273686415428606 0.099921201304207105109 -0.15915294683890110483 -0.39497204795391177568 -0.022811798984213697838 0.13380937781980134504 -0.081524302181260235867 0.088020660551847901276 0.072345555769824848591 0.2500402309880389029 -0.065880853946731210424 0.068034079575473596635 0.14279892305112146245 -0.24438985773273866342 0.071290340691529535677 0.085450324375646452557 -0.32792365040622645234 -0.097135167973519537243 0.14350921286586548753 0.24890088598217599558 -0.15285103935678809317 0.029900197501266892464 0.23469947769571636309 -0.094045563894397110616 0.10490354006692857725 0.19208897791110482456 0.06611078665269379262 -0.16780921471236237563 -0.011478353542043660124 -0.28117318820547576586 0.21081908390146411603 -0.12039764654226635388 -0.20353382374075185135 -0.048978240268342812525 0.2054623483734537015 0.051946462521561299897 -0.20628084013554823239 0.16142772881251196693 0.15924094335204172501 0.21236453423893367209 0.11152374012458243779 0.09795306930382820243 -0.11934148004913948393 -0.20281504727265078913 -0.15051665124002494567 -0.17549388212409650079 0.3141819734748861892 -0.11807377804063090565 -0.22875657310596347882 0.17965495624111377237 0.11967371819562433455 0.065132821241537464108 -0.062043718259509703095 -0.14096529948690672551 -0.15880711513489273456 -0.023286913830024087019 -0.087203016078166689651 0.18196295643992776991;0.15406569563972777326 0.040159892504501380761 0.18441988890326110884 0.32966411434916376155 -0.21253882121598546839 -0.099295894229636805228 0.099387133299203150871 -0.25092534096945884325 0.18184759971828357017 -0.30795330686576588564 -0.13849005092087363078 -0.18658203515880636414 -0.079140567259392655131 -0.095424369220856869456 0.072752876505402366836 0.30691709263225619431 0.38959389141610828444 -0.10755025514245843132 -0.12784868368508112146 0.14158141512136893092 -0.063320144323336838288 -0.049666908818512392476 -0.29569280145211229716 0.074362894205966464933 0.094276358128108472823 0.29424951015508821195 -0.23660503684887104758 0.26539253845683868915 -0.11842303442846130457 -0.16456210371717794327 -0.28638757887120497303 0.021793786563582377702 0.27979603261213081833 0.33780346262177840533 0.058544128754001105441 -0.1672289800504809798 -0.12946895836471183916 0.11340331336854461708 -0.068707635658465188166 0.058187376400059470649 0.19648981485617161846 -0.13301377539259404137 -0.30020494615809706351 -0.1219725453825867556 -0.23105295041833553982 -0.035725890355675957166 0.13778133866760128301 0.22919908798404575734 0.28451484411646849049 0.22969823722066909366 -0.058063247465038637929 -0.23945636450539353746 -0.070080893347959971607 0.16135759979916663998 -0.2868512915268923158 -0.15345189237795847648 0.14320328714240926349 0.11693171008986186221 -0.18383658051084131313 -0.23893479813438289749 0.26161273572288551437 -0.20122448759520281114 0.19851200912557576128 0.018445879020343718124 -0.067946106631463207282;-0.072782581555446201893 0.12336531271873868443 0.17313215598944498019 0.065338042154673120487 0.18314694320227234425 -0.32407038505645430204 -0.38052338584122885612 0.13203056078346536717 0.1709817613704237016 0.1579286437341199667 0.20678918331253903773 0.16584258199423926317 -0.071913872873873421754 -0.35380318478270689209 0.17484174942731742219 0.28671535914894213937 -0.36172576526898014837 -0.403060298825376917 0.35647796944205395464 -0.016218286788922803981 0.36478953164920324692 0.038135434102090109976 0.09946123704387654918 -0.29049066428008724072 0.078225224475312299388 0.045502651342652494781 -0.40000484506746136759 0.14018137020205020948 -0.051144631061060485955 0.37428708892157319665 -0.20993580942990502924 0.079079080590620340341 0.066443974895198390507 -0.031053653787119502028 0.070461117349689184053 -0.075198005178597177034 -0.0081887183626910744344 0.12863657013777790583 -0.25476193886688658363 0.029784389878416424324 -0.0068982202628520708845 0.1307654340328492093 0.10228632025663662863 -0.026636239481009335583 -0.13149305011257808595 -0.068855741493407160436 -0.1259375715057938494 0.096258097785795665446 -0.22482314074155990147 0.00050752325356766617159 0.088308326467855940978 0.19103407402924049707 -0.081515081067196168418 -0.064031707055369313508 0.057283510391896177993 0.23056586636556156145 -0.10509812321716066608 -0.13933048766642858185 0.10884007255467879893 0.15266067818718689897 0.0017822973119975878825 -0.27648208403806895372 0.0089990621607467964627 0.047876154525762375236 0.090625389388668473045;0.23073212412199572974 -0.13654667009244425557 0.069276775855547603755 -0.45367766500605122282 0.042008798585586717977 0.37186166531244935207 0.31814567604921273336 0.33170766431254139484 -0.13655563529364361797 -0.28179060482935752718 -0.030803008286015204353 -0.076730972581012801825 -0.30850513073897928296 -0.033597499545647856178 -0.12357184914052195268 -0.094144333900785470703 0.028348810033013163712 0.69298837643908450801 0.31673612151860847108 0.0095982232100597260349 -0.24491114145512582478 -0.18548675663107569433 -0.032704529654265561411 0.1687881043854678742 0.035054277645795002549 0.15309790937910580655 -0.33883635189408106703 0.083149726550219349441 -0.13940720488827768042 0.1235627967656399151 0.036041205312347904255 -0.049964982654167690301 -0.043647460702395765586 -0.060416135937748971507 0.16673026613227853732 0.08874436161374255061 0.15524252124031992506 0.27794408470503179087 -0.34042938864270505528 -0.15023201376903863591 -0.24138769251467181998 0.14524679492888153964 0.041001667334201283288 0.04956168970906649901 -0.21414299342272610782 -0.030643957727395036011 -0.11747208080750060066 0.13208760946021907978 0.095447530895492432856 0.48932455515794137657 -0.10056661149710852121 -0.11081473490504012425 -0.24501753729245712154 -0.050358876901827893946 0.13350644788028087628 0.11298807404591146297 -0.12112348882543046147 0.22571456533060832439 0.19317381098677122164 0.22582227204661461939 -0.21253487702803008919 -0.37766062325410393319 5.475575977211899828e-05 0.20406158888028386178 0.19730505917676172123;0.12500427446106388008 -0.15674206915482033486 0.11121017431766858086 -0.079023926907900152172 -0.033901599311134122949 -0.36617746095217768021 -0.054508300937812850795 -0.13936822224250297597 0.24801012855768336807 -0.12616798798596892683 0.40827641557348937074 -0.11800695062882209097 -0.086412166363906250943 -0.068980495131286734267 -0.21046200373183071575 0.21719415857466439768 0.065448286222365037457 0.1775496885641975886 0.09867935777169131728 -0.11234528320426934167 0.23786346072606595614 -0.24385182634217453246 0.031209780959621100799 0.034007003754832045017 -0.31909209228573071071 0.11083823403244814909 0.043071808079547677095 0.3016707053870539279 -0.2011306854054099591 -0.16710173048639159754 -0.026825704966499240578 0.059601889667269487838 0.1892126256434017717 0.21649321462680229389 -0.086060935131685639687 -0.12496062499425880654 0.21407078931069806194 -0.30679722507799256359 -0.0057436573128899406221 -0.16614108885518133474 -0.25791242637750139144 0.098330306079570245492 0.11306133546829152947 0.018373204308181116662 0.033850114867775144001 -0.013340192898972624488 0.22494719104757721073 -0.11615079181724041746 0.093771310220300385652 0.23301447735084274138 -0.021481483566154029041 -0.17898155187171782554 -0.003722101230002673386 -0.23627541926032530339 -0.015736708616754260803 0.0076256456083201810264 -0.092557958097860409952 0.19621256253831523275 -0.07445723922124365679 -0.058352322288207830736 -0.066740441016882506853 -0.037023269029786309847 0.057184409118908680059 -0.041558701834827724286 0.28426329913763676016;0.022575674668472663076 -0.20453426126159815479 -0.13326714287458979458 0.22194904492820821673 0.03403237993636196862 0.19693248210311373181 -0.21919716951298617857 0.0041624724249658233421 0.14074961577371902788 -0.22630347119351298946 -0.1084963329044292546 0.19889177921958028916 -0.055906702740663678786 -0.38395314947421882446 -0.32709526279255779491 0.45648723939245411385 -0.32704621097602765145 -0.18383837629121430046 0.24609698650256553454 -0.047199240741880997552 0.083728998945621690986 0.070399747336088780436 -0.1974211590890772583 -0.067144319674864366698 0.011900030737247093912 0.24395296877227701238 -0.0082280108224069090778 -0.12951981800051573512 0.20891437296280757074 -0.023183078931658163135 0.18364743337287908753 -0.2797953163243881991 0.089818339571786934283 -0.053468522591583980685 0.18800890077689924595 0.10720561482189738811 -0.032643693046797442325 -0.087748331557765915645 -0.072368507180358448982 0.0088870506880508962771 0.10185220086069544931 -0.38931791622177508438 0.22879863536604888585 0.15002927339635160897 0.10747157300595104601 0.18383529479792781736 -0.23810936474165064758 -0.17229379891578763817 -0.072503954836466460998 -0.36956859111979295518 -0.085522139736677715849 0.15488710313454226442 0.20014342205604687686 -0.029518277801359973922 -0.0012110921302558100288 0.064485408462673088348 0.27451748072714765581 -0.12800674549808666036 -0.058596341598901105496 -0.37918803442077314569 -0.078257434596084765599 -0.22101353911038348898 0.10191787106032457189 0.08558219324879556833 -0.030636985869390037651;0.11535959937514921048 -0.3458851440171810121 0.070876285975470340595 0.01949651414775869715 -0.16082458463644405677 0.24484319164305309857 0.015174824191083024355 0.13754786372902946812 0.060522899539052585349 -0.18851288696878709672 -0.17005082337367169454 0.085027152538211109301 0.22993406690746653886 -0.2286131179729347096 -0.012612480161584766966 0.23738599362950899008 -0.28878574633409309635 -0.29023909135679643034 0.29810872464254367653 -0.00027285709528024511272 0.024660315317305149529 0.19423652714532532726 -0.12302123094484566923 -0.31681211354057253748 0.17944916979456942974 0.30911972374834367772 -0.28895286133607117618 0.22923611726317844051 0.022590001086575686035 -0.26009629637960551829 -0.057302777885834016436 0.098361546105605060508 -0.12983195319449666871 -0.075963755213502487385 0.24168108041370486849 -0.31006427231870581362 -0.12718376783799240082 0.020513723601774693645 0.28224591163255807746 0.041776455754618392613 0.01192091041403907023 -0.038182914261331558914 -0.062069775718305283951 -0.23207087949860288889 0.28637575372731349788 -0.14398123761973674606 -0.14302573195479692525 0.21643369970884349107 0.14055312694397600892 -0.10579292147190919038 -0.009075677427211232412 0.062317099585538902884 -0.039616105229263509635 0.085109886204036491741 0.097459628197467354505 0.050166338335936325188 0.054903559642672600249 0.084328730538418730789 -0.16001982531040914726 -0.20573557002538120364 0.15868031133823179424 -0.27826931243487457168 0.10892369061372356165 0.035111502078077699851 0.1148088672673176075;-0.0088718723284354136793 0.012342310696561874586 0.031719658169494346911 -0.10436208326216801778 0.21376600210389301582 -0.079308859023249078657 -0.27934861462809246202 0.023339950445775668048 0.22087993812809197935 -0.23819749319553321087 -0.14687228863739013041 -0.044619087151187605822 0.024731241368841951067 -0.07037358742492531849 0.080940465100825156886 -0.058059841245623314276 -0.13026298057570739886 -0.024332548980090837332 0.21717823476838504781 0.29855544943941847436 -0.21905307881718080742 0.0064496325235616110139 0.1776853845573567181 -0.21372813122489001114 -0.11746211291719703407 -0.1866821454517992307 0.055561763905732197699 -0.024762505079621646709 0.091089696439086306756 0.17366087271089505895 0.2339000736094300481 -0.22349708448628174962 0.37780502947480271159 0.22139952644588020703 -0.4085270642888296222 -0.0010754331241395395646 -0.054840501780234487961 -0.19906301275300863907 -0.1415305629458299963 0.12298010783675554503 0.078503553125970321203 0.18627651083334109683 -0.31103892541511085623 -0.16326552867643218114 0.11345412190826595356 0.10594664844852021146 -0.076802471645863207295 0.029047072931866802642 0.066038833005957253697 0.088084119715897399305 -0.084171287691168203415 -0.22507454252402800399 -0.023720673027214648348 -0.065988914081806182566 0.48978661718023919214 0.23013491887592937846 -0.25068019181844858334 0.0098064857834875372028 -0.10665614446301306673 0.23653074444142666022 0.25599750595415365906 -0.27344968793053175959 -0.39572998600776826406 0.26629484654479324002 0.18384841929476089528;0.29827646900133308883 0.008332274054505348776 -0.13746013811191126752 0.10847857493713405908 -0.28132489741515215309 -0.24557080186033786173 0.053568278132604396635 0.0038437745976138901205 0.10154801509131965165 -0.19183788424878150947 -0.17964700282571383072 0.30443558243543800135 -0.00014486774573821588341 -0.12901154355238761418 0.25409364447797017084 0.23003448903995507568 0.26678140153142598789 -0.12867035998392958862 0.060739767227171753694 -0.1868301755110106932 -0.19804645737862983101 -0.21393682339170833062 -0.15252416652828493238 0.28889049934555988131 0.32134675262621609226 -0.10695343086109300457 -0.093807874786640543796 0.092806039317617702866 -0.18012810314884461493 0.12144581105392497633 0.037838641128828467974 -0.0075011328413111038813 -0.16797435854013711976 -0.18427785542421182274 -0.1771357784755646092 0.13903094343175781411 -0.024477748611740429707 0.22274704991528110343 0.095978741875550707685 0.12434289945620088935 -0.33667116279671599477 -0.024945279151717146549 0.1888296445262680201 -0.094913016307589762044 -0.11023560495185073804 -0.031557435761432772736 0.30309784785932492035 0.26105657712979235541 -0.29452535996573436794 -0.093423462784035710138 -0.025357263921942128221 -0.11669199786877440528 -0.30617857351465355142 -0.0778621440850410379 0.10232788607061016339 0.13654345224338568232 -0.17789816696971086363 0.37502400689513221144 0.2537280544824657702 0.31554734392635785944 0.095576118071328125536 0.25910934483811065565 -0.057150813395245324278 -0.15502637534357993632 0.043998480498617986711;0.26246802109951111737 0.11645421357921331706 -0.012710556275443575525 0.17193799340638213358 -0.34428526225801620031 -0.016587698015688497055 0.33748825652639474759 0.16255674916715964762 -0.40696179766412093892 -0.21815338669729755772 -0.36857818524374647007 -0.06789221844026151198 0.020463252858115864308 -0.025481152246845981124 -0.025863335611320450308 0.18900253776133338346 0.074774241232990576456 0.018624593204852622763 0.15039612633379867423 -0.10363324359461181801 0.14151810907233131065 -0.070274254918291867433 -0.069019439901520068803 -0.050205187646076093744 -0.27114048777774751864 -0.03844352858093631059 0.20591988431893462619 0.17291160840457861503 0.24266603152799282039 -0.27483923787119662885 -0.14478478404884481678 -0.13704499679460679928 -0.012681313259225706486 -0.049098289042871730292 0.27891663483205297869 -0.24774691354422054279 0.24905342456271176155 0.15514661987322317382 -0.11836810921507390226 0.13526819744113677269 -0.41036779813750612345 -0.23998656500118670243 0.047682078638142395832 0.15762126536258203036 0.001699629522938592846 0.22401356971723060396 0.079850876456485309074 0.035750484172919511083 0.01462377894701930546 -0.1600952181913121164 -0.0079267728478086829647 0.13945507521638605963 -0.39088706821877966524 -0.093559246434549589444 0.039932248482693707969 -0.14804914049030759582 -0.11052546835998861008 -0.0012300211981997183353 0.1640826874146128489 0.22880533152406890007 0.1749405596401405194 0.21137204534827391811 0.042041145198451757015 -0.40054925093171328543 0.031731682364496166526;-0.095828493357892563509 0.1985419860963597849 -0.42454436590197430768 -0.33717046101238234979 -0.055025938324010051361 0.030040433767922467001 -0.023881986889531900409 0.056018978435359252643 -0.27348606431216931911 -0.18857819921192386925 -0.066248865605799928113 0.45878172274451567425 0.021648491478595960347 0.41314286492985924371 0.0077680917921191701414 -0.31612495401976370424 0.066426229320818888646 0.19986740309564549056 -0.20080034619839073895 -0.095195309071985437233 0.20446948205507664564 0.041151833465588649741 0.10609356196841603082 0.058285969241770527183 0.057798553675543609676 -0.047199002495668912482 -0.25477969756828811043 0.086795055717779207027 -0.03812583141588402752 0.15858527285390353057 0.19450054107637171352 0.11504911526453676096 0.22315747826056955838 -0.00056421132378668865937 0.019145502178335709054 0.15352719324241664856 -0.12918962097120642585 -0.056143328648440578299 -0.18942322827089469461 -0.072347039056007922397 0.12214007488301673043 0.091361331455604197216 0.017972622680468855472 0.033894684998738947024 0.10251102403499395832 -0.21353184594918681039 -0.24153756227486927743 -0.0151939086438715662 0.36248195438349112285 -0.1401357560414176473 0.15926104100282717502 0.11203850566547372825 0.23424114712096427704 -0.025552710086941141099 0.421440863512080377 0.13125940781335374008 -0.09334769463621400698 0.13116767241208251993 -0.38363762166328391201 -0.10778703516618555469 -0.20691895918170710722 -0.073214251781583472578 -0.028938618935494413859 0.18410782220944785226 0.15073782977966740382;0.18311119593108532433 -0.24064430543542950081 0.038401859274978918102 0.04361080103945629699 -0.082175516407479401448 -0.091508486402919655966 0.33592089425582771778 0.35314353790068381267 -0.080598038569524424468 0.037081386796809036321 -0.11023327945424682417 -0.1013702935901933111 0.0091598207713923414375 0.32945725740818676552 -0.0023037413656558924924 -0.13992063793029546614 -0.047978978897376005353 -0.27808172816344312039 -0.14594486592438574157 0.028655316730812757653 0.32634691296054219034 0.098310161315015312522 -0.0071361285108713194691 -0.10871243945189394686 -0.067517235146930698608 0.017066551210796723076 -0.10968659000256016089 -0.29489738225247463799 0.19148399739148039278 0.14627843653318389761 -0.030510743661406315025 -0.31262308378231579153 -0.060168560835737225356 -0.027160395115485052447 -0.066800397202886593884 0.027178123583166142324 0.14004822927369436902 -0.063236870679522577676 0.20088086643974689682 0.11282034926586985424 0.16026600152427170065 -0.224768829291453337 -0.21259447456427796319 -0.26100930307072395253 0.20620562225960439862 -0.050949628373092491207 0.31175764976597492018 0.071673271967815935235 0.041896339888461427148 -0.3509070315496003456 -0.061416413877612693883 0.022785843229090340517 -0.056939447142395079038 -0.046998036629871890735 -0.039385854029720564207 -0.25944319836262758061 0.14218535966947579152 -0.0027884879495147767842 0.16288127306864086385 0.22634895439898503056 -0.36438798452848286669 0.18501295083981678102 0.027851724167245975328 -0.069538088370212344791 0.16800045948980282806;-0.16953764980064728318 -0.13710175811886624042 0.29349259319573117732 0.14776260670053834034 0.35975737354104747601 0.14949513079481174804 0.20038017062326432538 -0.087101545610604361181 0.19246586573039919932 0.107881253399199184 -0.25147003680145552096 -0.3729567201752289618 0.058777704757821222503 0.32044945558295906407 -0.16321154766638604205 -0.33392505764076607644 0.0651728059488923539 -0.11125221983715631591 0.2409071575922082098 -0.0025024373268478974225 0.11807698733345350917 0.23244891378445603491 -0.094346295462508195095 -0.14005995585308397833 0.11467185729626271085 0.090976987547000703893 -0.28611288880748719787 -0.020662062271017148096 0.22533329937320620284 -0.13559271081279525295 -0.33020729363267703471 0.023850789360015976076 -0.11803299720939183781 0.071870850991275200825 0.194577042422125146 -0.034869580191274236747 -0.13707927208788256435 -0.27287714021680559151 0.19272315482387791796 0.19546783409953644162 0.30821639073199869063 0.062059226446641017894 -0.058722378822157146605 -0.12762705768917156912 -0.092342123781238363844 0.010669665051001107903 0.024982222208242806788 -0.079743559312820136431 0.27694630012717952328 0.27442909626966593972 -0.18698767455231490864 -0.15152233428798236869 0.16951139599563164184 -0.23737723822259459983 -0.0193171077937496459 0.27430333611705948194 -0.17357422448577336516 -0.28625044682220374126 0.25845907352794544876 -0.15816625588336405417 0.17629960037304359677 0.19388324006903004393 -0.10453039321750132173 -0.18572046458033344973 -0.073246891985589326901;0.15848779815552227479 -0.0018716164521445852187 0.29101317356049460905 -0.19147497692223106047 0.14306420107817105491 -0.15391428026942585716 -0.2353355299501834752 -0.09157413056719113098 0.36387202068016077927 0.12405956441744941943 0.32679286473526464318 -0.13600366990999065986 0.10405121530244973438 -0.3545159914334963247 -0.76687474991408377534 0.16116512683732164835 0.36487515026509120819 0.095899556327591617411 -0.041486606489932326136 -0.026224496923542006677 0.20383566120843837899 -0.17171404147345858959 0.049750458670215630397 0.12626922682132243891 -0.039154087622400385316 0.360426096707546606 -0.31461118418135097796 0.035592778281115247663 -0.062100457922778726227 0.077580489192158652578 0.21986120303524134267 0.051503039988870347177 -0.35112326226229234605 0.0094118875342824072361 -0.16281376163144453684 -0.039629917141804284209 -0.10103434594417722014 0.38427236650117047034 0.12475380666134801289 -0.26215682574472559674 0.17695093767712191668 0.24567622889657675378 -0.16192756287046045083 -0.18628104084846786037 -0.12277345058737741679 -0.13828858407109381745 -0.03337010400408547961 0.20573017170536159193 0.25394950804753363416 0.22607547295070193338 0.17541087609217714816 -0.4416430728458353161 -0.17514990412227265937 -0.1737445515221756609 0.35298760492864267313 -0.18898319232056551287 0.31533115515419501973 0.010358835170773302015 0.21884793423753273744 0.098295018869746647594 -0.32837775261180845998 0.029242521962683939996 -0.11989742351444843127 0.034475268882357919253 0.12389506053041765554;-0.042815345114159318596 -0.12637018374146063993 0.21803688280791452825 -0.14910349625986446531 0.14046554008705885996 0.12894265011668537557 0.26806500802792843086 -0.076228810696541013381 0.28917377871636135156 -0.040315289752207356111 -0.073541514858955353562 0.083623337642216313825 -0.19532945146438604467 -0.16398273852277198137 -0.21152161194753565931 0.21048795475045900538 -0.12893158665964354892 0.1827063956477726625 -0.23811423501735418107 -0.070427373348153798904 0.20809671399609233622 0.0022458348793230088758 -0.1582745834384388095 -0.17389299683602932323 0.046088728068499257295 0.31357587090089245052 -0.33988556718917156685 0.22736753901889752982 0.016858532611041528865 0.078979621908816188824 0.02804301497891472858 0.084278952891635797173 0.23992958759558891124 -0.065437924742801786837 -0.055359282853043416395 -0.24368400792689742795 -0.22710666438841725645 0.035529002015561125805 0.33789508936828482888 -0.11781054352718231537 -0.35672338579015810955 0.22357555341196785892 0.069358966882511072227 0.38474951644995641908 0.0074378989695149571107 -0.053880100468336293573 -0.086650502882756885725 -0.10209365856945970541 -0.32703614239490641502 -0.013416137734937334802 0.085483706893088151624 0.21153440028208267409 -0.22084417450249785309 0.11167301339315009734 0.12416818181636082863 -0.042051247753608168856 0.072287715233208593713 0.07686434885440836251 -0.34678324783278491328 -0.17118454234532828884 -0.051696502512005922114 0.00093089711470692448891 0.021097043779220843451 0.1575606395282364014 0.034145505786254914948;-0.37665018375259884387 0.053632788474359913145 0.067677860013211854628 0.12165370071799425089 -0.29676148342760305665 -0.025932981186719543387 -0.099447214557613322627 -0.16806069276441656934 0.14571230164172277455 0.21280697820020294531 0.15951975552575575756 0.47080011656781867169 0.0089195237031512927817 0.36548420439865619835 0.21133820837930542003 0.052975419857880554075 -0.50055613217465333431 -0.1799869002730042078 0.34999716404399350278 -0.42626336144524523686 0.1013443103512597504 0.091713461707758278663 0.23032546922030189274 0.010546784849954998764 -0.11666070606331324644 -0.11061861635939862492 -0.11078194258974188857 0.13247435520713771173 -0.075286967861494191734 0.19982313682495528306 -0.26349221966134406259 0.26001901860956949664 -0.26298945546564839182 0.16270974451116271275 0.24766822913804556472 -0.13828859322984426994 -0.23400132887348842892 0.14386841905690195276 0.051391685671174365535 -0.36266664321565761364 0.12188999266622979611 0.050505637621975546514 0.087026656617144676487 0.18011987355227529473 -0.18501662692902953733 0.0027550264557829940749 0.14442321454960649341 -0.18531723051688642201 -0.35314347277256791235 -0.36040907802132143845 0.48062959208788402776 0.22490442398778115463 -0.055218137882415647966 0.02204809528254492168 0.20089824346217705076 0.13652403518199857091 -0.27259287304506280014 0.18503434427854481559 0.0012057213806046102045 -0.32887038358283943174 -0.011364280444152389388 0.21514633966795126963 -0.04111611849743795899 0.039402210311241067653 -0.11896861517138229702;0.035926548426379600887 -0.23235069088738177778 -0.05664256185058080123 -0.15925438480727513446 0.012200946715686812605 -0.15748225917906155669 0.27241873118325160563 0.012340083688063102976 0.05680236740017397673 -0.33107002160014997738 0.014361114888381036614 -0.21126655577577754808 -0.30630784919910392095 0.46261693370906475931 0.34677192161703318529 -0.15000781916116145975 -0.36614671239617968546 0.066747225211042010562 0.20913171498072857801 0.092745817564335641947 -0.029995772432838383598 -0.11016641077761499257 -0.074698244299154489823 -0.22676703282689039676 0.2466421530209021995 0.31855268130191233267 -0.16105252237509742885 0.16508117858677220924 -0.054590743634443862631 0.057852604468330716403 0.24527365577424728449 -0.27081371031926620985 -0.19697971729778990246 0.017977067493154728212 0.056630496495756937891 0.1661372304125844912 0.28717414080960962375 -0.21754895800168055908 0.011650592185397563166 0.090405481916545599175 0.12584495233546719173 -0.10334843968402732117 -0.17913244173282472094 0.1659149812316266237 0.0058782085465782958622 -0.27649392856782512018 -0.02798125731320577278 0.12291714258344264843 -0.042696130780021650242 -0.11899991887606231611 -0.20239676515014984326 0.2057636349833985856 0.24142377912268228601 0.094830815743677646101 0.11511026674684188276 -0.088389465051350701863 0.10800539869518857583 -0.23625386590520491836 0.0006700774627948339647 0.45871417551521498357 -0.051014517449446260267 -0.1455399319846588102 -0.07644334365648945695 -0.11113747485230089651 -0.019300793990778379594;-0.11249645979737205037 0.18547135271905865195 -0.07102339459333159577 -0.15494821708904571445 0.053261072452942453959 -0.035498744560389622338 -0.21945499435948806477 0.04401626266977150953 -0.16720392235676323489 0.094994636831561410362 -0.13675461588456747086 -0.1952055537813062458 -0.44283531206481907549 -0.10701948178033990344 0.049391335554324414248 0.35359553243351105056 0.1618732014919985196 -0.023331069827958579588 0.27690660480104700714 0.076675372274355863 -0.087273304289276321111 -0.18261750312691643616 -0.23994363570579346767 0.037021701783907366712 0.060252411329975066878 -0.25123140556495965336 0.229752272498743082 0.077269469922145631036 0.18371264965769557032 0.12534813333607647268 -0.17040098033799599975 0.083628461868267417456 0.13684414766639249605 -0.24380834656048189224 0.17002978496489573601 0.13784776673371365585 -0.18384388818816208011 0.17172026589774347372 0.18661908203556562547 -0.13474171741277565784 -0.11519400072936344936 -0.15171295303703380419 0.13174391342582250641 -0.081182497301874226303 -0.37193563370499760357 0.14674319419173631474 -0.08191080807972489497 0.23761905724013390739 0.17951001452841780504 -0.35784922158903498257 0.14965529667894914012 0.063847555076806797314 0.16262246468836533131 -0.18690751690198531554 -0.0089744382374948063197 0.10574442238108480718 0.21692881436495162206 -0.043024238973697469246 0.29086242283829222277 0.0036203074189677022371 -0.27154054080716599762 -0.1001554885441930387 -0.042452515398445994643 -0.0012744792187135891431 0.14848487983141084312;0.082697832724274333849 -0.24152975220454994676 0.2700214542642751514 0.061540975970618527757 0.063117238538393433123 -0.040242686180306380672 -0.0051632907868227086168 -0.054185639493799231392 -0.27702833300040058395 0.18956273992355351932 0.14176717830185497915 0.19884841340042794244 -0.084361354528750084891 -0.15459647727753519919 -0.1871496026434892046 0.36069237745692883657 -0.20589554952399391485 -0.16800506754525026953 -0.051952764458155345495 0.38523068805533955405 -0.0041634075109344657883 -0.21255564571008303543 -0.0092218954671590414041 -0.13787292267188946959 0.027404783288265843755 -0.13174820863377298408 0.32667516750002956183 0.10195306641946975945 0.18519295919817571616 -0.11070979413358628118 -0.25597818379961911894 0.020667540544758184612 0.1276510285758518104 0.14348724019507505534 -0.15044514735133673877 -0.15374409930696394944 0.22275163689931626321 -0.25190641824675452654 0.28862578073169009585 -0.10230571614179584383 0.21453512595738363777 0.28822078881473084389 -0.13743797614780092764 -0.053747177038015146733 -0.37770205903681797199 -0.049344559942385672613 0.043931628369921302268 -0.060050276081696565833 -0.095139057270761301366 0.023199400945063734097 -0.0060170462450153863049 0.17194854867596803816 0.22849001066686158712 -0.29102963734249159833 -0.13851823468192894784 0.13528668930353898725 0.17482157575325235621 0.0017908804717920688565 -0.017437022420681701218 0.12950980975607248591 0.18257618833437624928 -0.29340392842287271735 0.069743256779552814661 0.27633911408429467915 -0.14262555009124555649;-0.2016685493215002456 -0.13005237357265286846 0.042627095172839198078 -0.3363121875986498921 0.16496566985390714866 0.16371429214769897542 0.16033178248276180877 0.25002901349630468619 -0.18116049417564536461 0.28495056693106951551 0.21761399466271938441 -0.28778265754302356783 0.10724953805832987408 -0.097997118087040341328 0.24115293354564329431 -0.40628629578721420224 -0.020028008122064931001 0.15767099213925481194 0.22642711917613744799 0.099452192229545627322 -0.26151506149219794217 -0.14634550251699424139 -0.16111832540507958766 0.18912297879567474546 -0.0073214370469633308774 -0.090599573230443944394 0.2585795078983205153 0.21792493746361124574 -0.14978883510158033654 0.072689660194391339521 -0.1422720767099504291 0.1636091051603690838 0.076276887203633611523 -0.24159767044567706518 -0.23780439260436567195 -0.19680616979693210666 0.22339259610515074805 0.29466528074409231719 0.28064810498940634398 -0.15882813113000127103 -0.21528594785042542981 -0.19643538890242104311 0.24664947927736988187 0.053747143321942088268 0.097771446239556039637 -0.13290360861226421796 -0.058216292359499072218 0.099979124249710893402 -0.25148221542077892066 -0.090850002037717522696 -0.046067766186863666478 0.44819564560634367334 -0.13070113165443264513 0.12610398669906619507 -0.30613865929869066296 -0.099432448651381039051 0.13321928061834445445 0.079996850559498136612 -0.06520012855041115718 -0.33215137577121800483 -0.15850881591555290862 0.12996724582104102197 -0.070774691096198300011 0.3281906668098702462 0.058641412048114113786;-0.201782808083196874 -0.053039706529155475345 -0.13535955301481844559 0.16625672126790019822 0.027544435870123680499 0.019876531612766357854 -0.1969337741590421742 -0.025428234326877706406 0.087604109924497672313 -0.089206363557843476597 0.21467551700419504335 -0.014458677906579973926 0.36266833231584483244 0.096836821322522678712 -0.064760689901872045549 -0.21025049993983047081 -0.52350949300408511355 -0.26244342585260976852 0.42044773175494071227 0.11156624469863579696 -0.23058579070864274052 -0.13797793616549369755 0.13638787013811487503 0.010874346850857575381 -0.32077964755308202571 0.066487298241239348173 0.047027467737244414703 -0.25124795342919742369 0.27964656631828943567 0.37265673461410919742 -0.070425657891913101549 -0.1474233561298372297 0.070274906853078480951 -0.052101926815296205342 0.025415719202121829501 -0.093102878838287536634 0.10226119620702717183 0.13901903157609638018 0.0036466442326937411125 -0.029981543936194468558 0.30409324259874997987 -0.18268295320917790625 -0.21828088699513084614 -0.13512188179806874921 0.45041671964103224823 0.20335444636117366857 -0.16716472163696532993 -0.094434500863708054075 -0.11565202501153497294 -0.32952494790856712292 0.075501211852054231355 0.15458956717239874523 0.12847110952139306761 0.24145181393775846934 -0.030712697083625985217 0.18931979456897266023 -0.26886253346733246516 -0.1263367535668748487 0.050335022649165589437 -0.22757068740812935737 -0.17141066260309179015 0.165846781773094476 -0.14683470288267205794 -0.10287759358408742061 0.16442840083251669681;0.042114102697890745675 0.19696703346482274943 -0.14914524536687162604 0.34737731791583059682 -0.17260016980742010073 0.00022220859571482967643 0.033969759486741059329 0.2814333055529247285 0.24015235897495651463 0.021017475293411344572 -0.063808775614799834175 -0.012776546013853452843 -0.23679705624798147445 -0.61078707174658841694 -0.27748616507943241194 0.26086264846860945932 0.33131794038501738431 0.086278362376235775977 0.62111873789940652557 0.10912881794823162118 -0.29220708339541534571 -0.41174553210855679986 0.17381787271576265574 -0.10988998959320206428 0.21300975330710680833 0.1003222034639475041 -0.15881236253721242591 0.2398841963709333891 -0.34603811319731392349 0.056529053091030678768 -0.12272600241344426564 0.063170594311086306072 0.11955408816978907449 0.21051005355974480859 -0.071819302041901983413 -0.17399799174567107118 0.27322005834110346667 -0.043169326116029457796 -0.13200108822118172824 -0.20784573144056836536 0.16103024352792355556 0.039829045930680269383 0.043492302844172152365 0.030505662205026293915 -0.39632613580131303976 0.21509751321795783641 -0.02331420028319677179 0.32982167512364229944 0.10117137872423816181 0.2144158056769880083 -0.38739257260651499548 -0.10773810317496473887 -0.035422209729371802178 0.083503064969928042505 0.061645844953382981923 -0.39964914061477180285 0.13206779702162121937 0.2872018730028657596 -0.25438100753870718229 0.011602192496710298647 -0.083806847721646149374 -0.33735725057656329451 0.12395188319475999861 0.32242409958722684227 0.068359775153971374939;0.058029304049232004192 -0.041399696343084185779 0.30904318535295971504 0.049234655922146181029 0.063714922637895077262 0.41451149361323630371 0.058614981857979545077 0.25542942787376332614 -0.40457370350829829908 -0.091015858021027531977 0.074879215753176908699 0.073275665245661897318 -0.21279112977912478799 -0.26921608969857674376 -0.26963810725058001694 0.05107864287000906528 -0.047133448093708535387 0.22530339161179802066 0.068129486011783063626 -0.20765081082292924375 0.18493127804425987804 -0.18378367603356943194 0.16019274761718418909 -0.098909952417104499145 0.014680121793465217978 0.22508792199858068672 -0.27421158801774453417 -0.16614491878783863021 -0.12655431010525625135 0.21845066133950816201 0.10354381015885678885 0.12700829766501736673 -0.37183509021899047164 0.15693685904274931597 0.094049443626766260351 0.13362706762931836346 -0.10382578362022480689 -0.012834544002333343402 0.23042059352541321982 -0.13687803616572502552 0.10887025662225510714 -0.2382745157025420446 -0.17443919043294242588 -0.17848939989820877816 0.21386787399069537297 0.11041669085131890216 0.28926185477018512282 -0.0070515928527155168765 -0.1506145181674129474 -0.21097927350312936645 0.24344947791651361246 -0.13159828264347561699 -0.18495402260592855304 -0.024348373901134756636 -0.11041640582729765618 0.0078819444331979411633 0.23046928170816577408 -0.16679927562561239207 0.23965070791022394237 -0.13877971432097913063 -0.17669377643371547704 0.18773729464010321943 -0.12890918708728155151 0.13873089785290160236 -0.24010714136599550783;-0.091435181189554043391 0.1350662917602016011 0.16889596015535071616 -0.12907082834421421125 -0.053138405310945359405 -0.33565385438376676985 -0.017481393185881464319 0.15350484254873680845 -0.13434994539441436068 0.046121210803008627632 -0.0070681165355973209902 0.32204601675101679481 0.39337420572927589424 0.053701801071495393336 0.73417010169895657867 -0.12961198820528724296 -0.11438216006097817745 -0.26107127614008152072 -0.43689148287632351142 -0.021716186586063321307 -0.12780516236426242571 -0.21419810782763085144 0.12866790564454072543 0.094147076016564301693 -0.12366274191108839187 0.13463208440044030501 0.17376100445286282725 -0.10360163760966738244 0.32687576667266149411 -0.014493082303320640319 -0.27012618141806088445 0.16729371858393532468 -0.12350623811111294259 -0.075273972288680782161 -0.11705043427905338638 0.0083996017209963837191 -0.054652651452579192881 -0.16283327243758985436 0.33448550023871748138 -0.19786632274823215405 -0.032020898577477772962 -0.065527494719107626242 -0.012123515582893613224 0.097288908778589477944 0.24964709768995063666 -0.14587287938181009439 -0.32086521083418689804 0.024839000534747142368 -0.2708866754855485115 0.12797845414844402634 0.32000725361026077787 0.042034870891684249228 0.29378826317187367589 0.079950406576144522619 -0.15149672862372370874 -0.016982185488302922738 0.17642502406814683513 0.22300641218112668418 -0.25070337728427205537 0.22246428655576644395 -0.15678764190724397976 0.14865924382586648278 0.19625433048735010932 -0.32383843437332243687 0.13461798251021933615;0.27661040830842958949 0.12609411041491630501 0.11285429940505456448 -0.11095941003024109572 -0.34374240473249800809 -0.031988792816170848188 -0.005780135331254030763 -0.12850391298327207279 -0.19085833730577922429 -0.091449252628273955401 -0.33452082848674241644 0.21864854043707668274 0.0054303125943459071984 0.4650551197009971105 -0.072454667502028863302 -0.18115885515223947855 -0.42270878351355961611 -0.21838594934899385747 -0.0079235522208475489547 -0.042400793370588496511 0.18421343012249064008 -0.12007549074186583959 -0.11218480659183160952 -0.023040553483254018474 -0.030942939761006420241 -0.021638171738579393272 0.0056429194529440049322 -0.081229121949241575584 0.00021207079124941144443 0.056515891500452546115 0.0013192392088157544466 0.17997925436655323739 -0.17265407636739277253 -0.14309246630060115657 0.18480554831410991867 -0.1224917568882427088 0.38478331532058485109 0.20150753332771598192 -0.29893135551872707101 -0.31871351505952361105 -0.15749412239296095573 0.18781841074941305059 0.22618516419638964865 -0.061997730216443107387 0.078859069244055446379 0.17569422625632738488 -0.038637777167833925462 -0.015932571724443064104 0.091227309658340555165 0.010250702372714196736 -0.37094433567372653293 -0.054071143462663409651 -0.18042009186913718355 0.32904763206685022636 0.11854077095875864556 -0.024269584278566600638 0.02700010225430843 0.0091686826588903008739 -0.089735646497797125209 -0.10601988051290285597 -0.0095439995650274597749 -0.050520002341874231666 0.064114771892244598606 0.014812652831511164547 -0.011448903810462724567;-0.10716431349902848236 0.045142734737791831434 0.20352788375415864497 0.16291900634407158188 -0.20027714979821900632 -0.053220152563331672713 -0.0015020166035708999719 0.088717561599816668894 -0.0054838910362563914047 0.003196116348842932553 -0.080886681897869738833 0.015587828307735179106 -0.14957500131743239891 -0.057445923089025928421 0.15358854958503237453 -0.45260234458354414722 0.069187644792643526737 0.40336122159695420031 -0.012925118289077962286 -0.15800371020653808385 -0.058543596368036542044 0.32778469430870288415 -0.097001899141661004911 -0.019579511959109448943 0.062988815350582552655 0.14676529394446929944 -0.027884467849995320243 -0.23823579294442584486 -0.13476654401703061503 0.090545078046667684668 0.036839296010805891446 -0.072004956568737690792 0.29537806209442640792 0.10197976915067648307 -0.25309872061210841876 0.13467961184975182909 -0.075295301011987170181 0.019665972575981027076 -0.31871455499893303065 -0.06979787858350575136 0.10830361190536935689 -0.043172249062060012725 0.124862612639972545 0.31759141197300172488 -0.098516265700090560609 0.2531403738391975744 0.10354992200586178586 0.044995217666393957923 0.076832590251113386248 -0.22565084204507279697 0.16578744556416846745 -0.12865157874984722852 -0.28245125999290598973 -0.079579729379876854023 0.15036677760088068556 -0.18927538860826284561 -0.25926707603806753433 0.053697691968295463427 -0.23643975642235914858 0.38847036544319091256 -0.0060864503314169513676 -0.29281220147288761213 0.17715773356872166477 -0.14917678223392710768 -0.15518975871184659265;-0.06260899865671797071 -0.10727541001097978812 0.022526107261231935464 0.39718961885388104349 -0.28681960135403206102 0.030140665224624572927 -0.29397737166633752803 0.093440197187442827764 0.24647567638728634654 0.30870474086784510659 0.22747172082609629085 0.22088354815071209458 -0.0047872269263207339884 0.17291214830581622119 -0.18497444477905766735 -0.45152031983036067242 0.26720253352264450308 -0.14067288758747320543 0.060903807019905484288 0.061919313909387943551 -0.025364941657506787087 -0.31109849313579596153 -0.21534075464436053249 0.20061273114894107028 0.35067241258611164811 0.21221521104129512092 -0.050587553944584418009 -0.38266223756199385653 -0.10056465668097021304 0.073545537144594386181 0.17711817182556457984 -0.18694313014020266794 -0.0195795614812101261 0.23186426735124870957 -0.31875827176548082731 0.042890330266881375454 0.18759071321183282133 -0.24916665976499272062 0.092951043623920065473 -0.038384890084139942912 -0.073767919564753106632 -0.0063628888875942252526 0.083203874807923905443 0.24282129674655339446 0.047474313907458730311 0.010049058323339712245 0.031480166355284625035 -0.27408028402820072689 0.011261841675351505487 0.028545289090337558346 -0.056021829255816647797 -0.090229657031491453112 0.055548461747115862597 -0.0089027631729501396224 0.34745376325205595824 -0.063343886167407742471 0.011685547454108557303 -0.34729958377329528396 0.14302809512644146239 -0.073580819344285314232 0.17279409589904798361 -0.17296658114501972658 -0.033004647442311310646 0.24652454823966690745 -0.29857226847586926244;-0.11616518320585855761 -0.044575409928761536293 -0.075283664072596942485 -0.20142495742311769535 -0.23820059325616191326 0.29527878592612216702 0.31199325533638783137 -0.079199226836762157133 0.17009678474483708177 -0.18582128368903066962 -0.23131862791203952612 -0.027099563515612986458 -0.20380496939185382965 -0.027430796507819231456 0.031165613898133527615 0.5457399025484814814 -0.24867055136351023936 0.064950344858653003 0.10365613182724886521 0.09892598312388660442 -0.12341893716816494664 0.12655122425293408028 -0.087832644038305915379 0.13352374067668448809 0.17849543913662810346 -0.38693526117679882814 -0.045496436572039777868 0.00031441043601385890854 0.29766343367528824704 -0.24591372836898539589 -0.085131390387174682433 0.012590906077093342794 0.1857483560866040051 -0.13106794486274159217 0.028528296350550187699 0.10592605436272053976 -0.033898702746087368276 0.23057078636497138624 -0.015345585588724227483 -0.23601485616226927644 -0.24893165906476899529 -0.005135582623035667843 0.3892718348441848164 0.1838916573182147185 -0.25697768006845811417 0.13916273811484364265 -0.016218985603781693045 0.22296045230878647203 -0.0076841348486555733494 -0.29477912427282387808 0.19823917393935766573 -0.14420812560967977145 -0.1483611937078061771 -0.036709166925994615727 0.21645256034244492183 -0.21571441316184825077 -0.1193413459831232093 -0.033178235424560831301 0.11468004885826574291 -0.2081873725609996173 0.11528548383323454496 0.060777186275963485107 -0.13872305908091905891 -0.040368642375619150087 0.11344038804832347334;-0.21545483682498045575 -0.19595805913100691753 0.34988378627991761904 -0.028710338369356380728 0.097678212672514946879 0.0036268556615182273584 -0.13513815602444889663 0.023800627560415017758 0.39794230218692167034 -0.066722566808192135257 -0.0011182751447939703882 0.23618086226350476498 -0.23551758953178902889 0.07533639805666716982 -0.31366521662356233735 -0.40066094617523756449 -0.32379740399581041777 -0.066512915098290811833 0.81030892621457795144 0.0916109518555975888 -0.1723714101228867035 -0.25184669113126872952 0.02098711086781035115 0.34476934588846036567 -0.26886704735000066524 0.079180941124952775034 0.18059793181625627412 -0.080627792173509169049 0.010633698754873455866 0.12974590795041610058 0.16588608992491671312 0.15099912214425517676 -0.14460015502768175377 0.32225769290863148786 -0.29664374497448470214 -0.34388078871518223956 -0.4015490335393352983 0.19803741622204071304 -0.32510669332875191673 0.22560430642121295786 0.34977457136303607976 0.15097065498097883562 0.10866922144885896029 -0.059835401757588113636 0.098913404054955356148 0.33174241086522521238 0.088264753437147014381 0.029800453713275457113 -0.10954492764384125836 -0.14650620728137564441 -0.18686822439638761661 -0.14120963872317010557 -0.11005817185264404889 0.12438338932811385251 -0.27746299221892239961 -0.18256324062495132843 0.073604065470551788275 0.13328674295435866126 -0.20619920688336842995 -0.12174886213410616997 0.020564214324772480541 0.092265575282791389977 0.0093918112748033362458 -0.22018595539882671042 -0.21162735174742014488;0.16354773517101220404 0.36876719740966551475 -0.12074695340368413188 -0.053363503046524526918 0.32621353671185204792 -0.022626151773096306319 -0.13426677332046213498 0.015177863762826926397 -0.04981395241153437764 -0.45763367369467472523 -0.40322075137441365511 0.23529592432991228157 -0.15895251281408484534 -0.27516714387620999638 -0.091208824245875091963 0.4906259620756165396 0.25445431193240058976 0.42897913137750859347 0.14535194574963047898 -0.16568237871258933991 0.053031482553685171943 -0.19569577573194854581 -0.021772205373332222111 0.22770154386638805089 -0.29875409050730095117 -0.14563151950295477599 -0.058022422832707969131 0.094078010508932927158 -0.056297060156865898206 0.10433419299491236698 0.047891214365575980605 0.072370344535426192611 0.07082227276399646887 -0.085666178770676948417 0.3045071507840345082 -0.025383619186000263429 0.16463051447028631546 -0.11879170887307009818 0.033247085520642774559 -0.23521467747561933259 -0.14270367480677922933 -0.17491565643981557554 -0.092313265783652093122 -0.33458340954836979231 -0.026989523282225313938 0.19235299597914212733 0.30586087955958424223 0.33319465227937555829 0.34882683259848118462 0.0065761416010741771676 -0.17412755500941867748 -0.26468294248863055707 0.12579782777216738654 -0.47852488388689312648 -0.33445694218875443582 0.10419186133485071333 0.32800458097847606798 0.066896733731451538119 0.11459727859937444971 0.1197636032606073514 -0.057885145711885903352 -0.002100960191606512581 -0.18685656860199797991 0.012965422248911551845 0.050327027328361730041;0.067565527425618929214 0.069172476817218900291 0.27128930047111188273 -0.14720993654004929652 -0.23732887335310171029 0.23330794546524113997 -0.017655681842401918513 0.25501071148216791773 0.0245147565847793035 -0.30360198357083284515 -0.19946923047129483386 0.1190607372870106373 -0.14029909919034591614 0.29292171938293004585 -0.14483637161019086159 -0.41389447410507795855 -0.13754727370561314892 0.13378940498473418375 -0.45973199841022738266 -0.076731516159087798101 -0.02019092845725727059 -0.3070127547780797661 0.10190011467209046658 0.2425440233976520199 0.15627761103125156761 -0.11702091807825375225 0.063591921806208429047 -0.02978639768052961101 -0.05817333826811713765 -0.12817695220609356954 0.24964465478122502273 -0.17816625593802681848 0.094443460515855559567 -0.41447256131712556515 0.087923229895423921088 0.1618821209928707483 -0.14291305961208894404 0.099801847863894899149 0.23886030656268311678 -0.22872087431785659284 0.059651808047675614066 0.18537901255905542275 -0.038891325732499329448 -0.3144224271670341686 0.17568424854536907054 0.14513434482507281409 -0.018698214962644454928 0.10781559480485645997 -0.18710152618285022519 -0.18792838103931649996 -0.12228924389592299438 0.12695209118651018532 0.22662971244693830286 -0.11647532403508351062 0.041441718640644352456 -0.23264318285822888077 0.235843214478429819 -0.037187864541703918864 -0.23110907905065300461 0.25447065797841567081 0.22820053755104754978 -0.075991973555684905195 0.056596516021843443212 -0.18543357955022560235 -0.081354930782364429098;0.026520446555323498594 0.096772940458772369055 -0.042649981082641584551 0.19629397721455663084 -0.1886058419117150331 -0.34867904544528083299 0.093311822407840791516 0.065302430062650795861 0.31070680774374875854 0.18677135759237600832 -0.16856144711771414713 -0.12552877583152854957 0.049460429148039636305 -0.12992141545731686336 -0.10709629582163453232 0.18118537467713971556 -0.12265102561983889928 0.17228313445178772279 0.17217184173428684568 -0.30978260211156227744 -0.10203815263815591008 0.16687431833910776335 0.28018116244091423317 0.089582820005547986186 -0.06231639183720059233 -0.21055473491850296153 0.030328458728148710577 -0.082589871287949562229 -0.17669852564190624555 0.09578866728592785873 -0.39587351150649296994 0.26238987615092668193 -0.13406758765717899373 0.015718016036709105826 0.036051322173779737357 0.20066507334195876622 0.16328623145612139456 0.10104285164316217926 -0.1135064701986151503 0.034081028027370993683 -0.053266366564384284854 -0.23739468626991924727 -0.27990404115550315822 0.26571385015231296922 -0.018430815782299322242 -0.25197209676002768619 -0.15401652064311299739 0.17110561769022558654 0.54169746655141526315 -0.18467706419181387223 -0.04476052544825905033 0.044211299013768481925 0.060915612144830891261 0.16980381335140973253 -0.29832339284260822598 0.0057951526402838966778 0.078391807905706989423 0.098461409898567206489 0.017183332981108426218 -0.11271432784587237519 0.023708943901653192765 0.045524121003568465693 -0.30164210538916108595 0.37875637629192854261 0.12877503480242732947;-0.02395440176689091899 -0.07312747685796858188 -0.059742496415212370531 0.28641774817623588678 0.11016801078028683192 0.02227352211037860949 -0.16850574944330953819 -0.098177338265565392006 0.20545986078644853934 -0.032085679118320116487 0.20727292282477519092 -0.10520947458618221115 -0.17690179517428572531 0.38253496947535564621 -0.0084387800473934050649 -0.4726016501412552695 0.16666616688001434365 -0.29479122182213213232 0.0267765559205229986 0.23532036635366720967 0.15723201129124897424 -0.17113796521066393375 -0.066717630058256788272 -0.27638056061721077983 -0.12161699641572831787 -0.083025978449501297574 -0.055705226043091804478 -0.15997894675457749458 -0.28571810726115431933 0.1493508310332912481 0.30546989394965695652 0.070380667045267547577 -0.21548508799790888624 0.02538599274204430406 -0.03975350808037859951 0.14821543231131642515 0.054588553961707732276 -0.3172030384661026492 -0.14941133539924206231 0.17622334194394592699 -0.26491795716044413966 0.063906942026320218142 -0.059292504161379308569 0.16834238003378701465 0.16773738054224374139 0.072595043564316730222 0.24936889659415548137 0.0074404436836657990295 0.14054837073374476519 0.20921467132571669456 -0.41391413908229218732 -0.46107554773697223549 -0.23715970957454790558 0.14411613968209716075 -0.015460907740548113579 -0.25670249808923978341 0.15071879008031502378 -0.043606970413593196256 0.50040503311536344011 0.070561937008401798277 0.21814617264079994019 -0.052890883094493273964 -0.18205227304447355041 -0.11488175279442021381 0.28877544534120680453;-0.056681153982234777633 0.078862752197299768042 0.052374090579809295942 -0.12692919422860229894 -0.12811645934829260507 -0.19718927001653285824 0.094844205518490265483 0.062461887986253752936 0.276046001544174191 -0.25355572141981186363 -0.099889822202616079805 0.041384354192144999496 -0.076888746491104567604 0.015000500741594983284 -0.14704018158799811444 -0.2873768160773327307 -0.11569997394209949326 0.32919813639329709165 0.32901824903026627434 0.061914220232352962237 -0.18744754359521562104 -0.11809929405404795411 -0.23653717532414222924 -0.028185047161032292934 0.021328188489468775935 -0.0098333084983963439663 0.22972478318576011747 0.13963969712332255368 0.3729967614056132752 0.019802771038582710206 0.14854395743666071183 0.085391582558693057692 -0.51476592128338827248 -0.18369183974764655143 0.24280813276264101574 -0.034374681573030876902 0.015660114709966286434 0.12479060715068700238 -0.16511459452270529913 -0.074063086932106669824 0.34578984808548846042 0.17039673667306057259 -0.14700605299843777507 -0.006944997742811751841 0.46457432461076586527 -0.087410832196396337501 -0.16485077275220061388 0.14387231668713049149 -0.13281819778971090673 -0.14532955280386056218 -0.03708299705783283523 -0.21603265132079915722 0.0030399463266320772559 -0.1939127549768020764 -0.06900097110402562961 0.37146007971606331832 0.05224742638909152942 0.035955483384832252758 -0.17517672438432999038 -0.0958620972326536952 0.041634201722788539979 -0.0016545264008934537636 -0.15154866252626669754 0.26138128969089458042 0.00080724007598210502368;0.10916525792138015438 -0.11591962359664159665 0.30800774303117456343 -0.18126658876472692694 0.05620386615366752131 -0.14081559880161764742 -0.19832631785894541676 0.13775723703350672977 -0.19725534172506181685 0.32892170429865680292 -0.17584909552112307218 0.11321731616731670056 0.065435305746449359821 -0.16137324578968811895 0.15104277446674485574 0.16173915193590232553 0.29100130538466612018 0.40278327428879895367 -0.042451585742948431956 -0.027419919357576059971 -0.38343137031451940411 0.075172042585639003986 0.23098200069109722787 -0.073468065921136693763 0.068071705129347362395 -0.037987459628239787779 0.062480867822434449366 -0.034887990967711911272 -0.06166582552512261256 0.32621747670054263013 -0.17952603967511837624 -0.22603415268997811838 0.060504155422540152609 -0.18949454599442233649 -0.15447469028987248496 -0.070991925533069891174 0.085493329262769299226 0.18816451610179862897 0.30766118024124694541 -0.28622571276568309351 0.21728723859172532906 -0.24009580008668529594 -0.28197844082787004716 0.091641002212588654197 -0.13515157697437607531 -0.25410309859090257634 0.094129574363548754179 0.2941442835378034748 0.19753073023845257872 0.045907597654923151809 0.022114495879646759585 0.091131010422966368667 -0.49232569461591552118 0.1352548206912903006 0.11500913182050157002 -0.11504293498433480758 0.12036563313223558325 -0.35208653762033803591 0.1994236034366055621 0.17069631041446631237 0.33935171028314586872 0.15483124495732214498 -0.074075939106269014789 -0.078084189485930016739 -0.11140373119317567574;0.032416378733943963797 0.0077153455132647590087 -0.33739739980548250076 0.14418888270515503591 0.038947447008741926944 -0.23527285700242531186 0.17151799266806375122 -0.053433251645319285172 0.25350417360139892997 0.15929383833315430286 -0.19353660099017577778 -0.17704465647309397536 -0.0042306473773031927355 -0.088136242300889192092 0.24439450800277759401 -0.023916916647995500877 -0.2244715330518575469 -0.13976380944751642943 0.28678536328531467614 0.28448004233830648246 -0.085970677118537175421 -0.15511887021024944877 0.13142463786537866843 0.24154532022605670893 -0.020258784513629873175 -0.14615005910994849359 -0.16617579973833609963 -0.12735838521007294966 0.15107960231710806931 -0.11904759758063888919 0.11529303924736555853 -0.067025987641726389454 0.10606402848910764791 0.15988362324133681414 0.020785845081646076027 0.13243355281417371061 0.00047847675099752092973 -0.11582976577393816475 0.15215710563537773736 -0.080714707028560511715 0.15820614901461044211 0.095148719882205898268 -0.024458962870549581098 -0.31698044678055531387 -0.039770225572324000018 0.33548592155719864083 -0.54613947596652456795 -0.23427834629863372728 0.018341292448509391444 0.095743107548920944327 -0.038580647732688690132 -0.081904626212037007216 0.26314117192962366287 -0.055070099982002192196 0.16689583188513756884 0.24024968881961489275 0.24121484598308240432 -0.25957995183355553337 -0.19126558134808333 -0.15335526338336905039 0.26803741804100594814 -0.1667730366171868428 -0.29121672773174889226 0.20219922815217636347 0.065643382009647546771;0.17397911501372465004 -0.3416978034116832097 0.19796078641926911912 -0.16467236507721272343 -0.0065626278774791012294 -0.029206456700434403617 -0.1169764343618975716 -0.13748560289354735953 -0.01111309468833558689 0.14715870397717620288 0.10087176033943545672 0.35189803769817901147 0.0139496302867526175 -0.14810119692427184401 -0.19470692704974432163 0.62810139800837072599 0.1463206718111924598 -0.45925181613169990813 -0.21044623145625945826 0.024775798172484944648 -0.29029298230858530117 -0.089170678669929601123 0.21766351026067090602 0.054133784963749535801 0.16802168552613216956 -0.093396231644628763258 0.23222524588273266155 -0.086042727897070639398 -0.061322251404427582933 0.1295844521811062855 -0.19636982743216116476 0.067999066513366679398 -0.2127246634247907664 -0.13310285996892262661 -0.11217078002203527409 0.26560347425425134826 -0.16931483276266243165 0.074915838004591089883 -0.11009473152574680843 -0.28326822271516655105 0.23121212764806614581 0.16628605110522010069 0.22943946889281965906 0.13139691662186070431 0.16286780579687190618 -0.12464563941864299779 0.046366071401185864065 -0.053994408381855589496 -0.14578126620014383863 -0.24483884774702963094 -0.054723248894793907748 0.24438498358039839609 0.016654145546215859408 -0.29347638392801417284 -0.12932457875365430122 0.061434906220286827905 -0.051858054680413601112 0.18050836890506904986 0.114569473021949364 0.49693072635172852447 0.045260814817488323469 -0.10412013959139045094 0.12338274862015556621 -0.25917025152912204211 -0.21785834753572994038;0.18170868840516668508 0.10250580471280082429 0.052169553605393506612 0.068736974217968760392 -0.20900430084463539337 -0.3862294011761579493 0.014917985606304622753 -0.42674578872435603438 0.31884486992720273424 -0.12227558147441862368 0.092899279345808882802 0.26780263882037363965 -0.1227194766216833377 0.14474227565265543327 -0.18674854633388751624 0.2748860772221617399 -0.12766120866002431122 -0.3498359186642683305 -0.11738402340940459756 0.18845842670061901947 0.014887232413825461988 -0.10445533361281723883 0.16346141630299049208 0.098296167387167052154 0.17648363914820766607 -0.39302801459892211522 -0.11104556987109352739 -0.25971014060567670922 0.17192480458785933117 -0.20287736477892981402 0.033517774845611442158 0.21623382779556354905 0.14900328114020747194 -0.070849889673950658397 -0.082203444309665432699 0.19884860722637034969 0.043831393953022518284 -0.0074315478657960634679 -0.29820976189964465419 0.057508608675778394304 -0.13784265985652924269 0.13722026477676727008 -0.028344517547834614107 -0.11695925998486260411 0.19510940299384371688 -0.27056827549068551697 0.073609287871499076705 0.27733204893750096343 -0.065166485573565663403 -0.067803009573723774239 0.42320352164614222223 0.087298283818559058167 -0.12641858328873878392 -0.16107095221236741867 -0.00058002785415354161935 0.41596647537661940452 -0.18858941256005773424 0.2970398877584866093 0.1032711524665141517 -0.33600676416385066858 -0.012319107070243723312 -0.23680708722174453884 0.19921066235556031399 -0.0063800343718047715716 0.03454975080272232324;0.091279716424068624292 -0.15994538904879151975 -0.093233602861749753643 0.33941893970678943537 -0.13274249716549429978 0.12454732454083566884 -0.19260793261404590693 0.027886401204263888687 -0.025333030007816868118 0.29119365112697237485 0.51053027533433470442 -0.0076907569666603073366 -0.072493344650039925892 -0.34854024910657216418 0.028341614125056466267 -0.27737913213993442563 0.038866041131128944985 -0.27746837805058627291 0.0028430614676551828335 0.12802752058520178169 0.21617653734518069153 -0.064130356825704212809 0.12171877717180781819 -0.18109546785004282388 -0.030654626440354541816 0.021749793955745930218 0.030096035498821137322 0.31853069077889600846 -0.073970498319015490218 0.070941940051109278476 -0.092356258328325641083 0.2758209460474487229 0.12948936529489379899 -0.13771645161935630597 -0.14975094652139780971 -0.010265965848899355484 -0.34870446023302859029 -0.28790371457709729164 0.057507958529509628498 0.07372739151896673393 0.11048548148692832749 0.2799093501920786875 0.27782539144786549956 -0.028687636235589640543 -0.31367160118299969307 0.25676808920239119205 0.10836268746348193259 -0.018233795689684847985 -0.030122146202492008221 0.11998382717735647796 -0.064551871922363890377 -0.33945149499274440696 -0.13036940917098135961 0.0036978216222991293349 0.29277383951642615978 -0.14480192052893817167 -0.4121164239396194473 -0.42052854589303967359 0.26452139917738054509 -0.025923245425795916896 0.16339732595827605177 0.084895092865276119976 0.0099862637048277330676 -0.092240767928897154926 -0.10906225474199690573;-0.19241460961191550472 0.19070883570468932788 -0.20607118398961293826 -0.049043234026115781199 0.20384118982164395328 -0.076626084463887494946 -0.11696723410348487671 -0.069127357917334097959 0.082804693999848175134 0.40131307670782118135 0.033011814958766393102 -0.10932727020413590679 -0.12458117741760652009 -0.0055231109786801919209 0.08443921933893958065 0.25534903194805275151 -0.2995061956866350017 -0.23586443032228909811 0.29919712268218762174 0.062524157384450440578 0.20235727453824386979 0.23452139738673832836 -0.029866126149011025526 -0.40335253534560916444 -0.036996011214410970402 0.081914214970778720382 0.027614543117220575336 -0.31012726270588369948 -0.062409193831684028897 0.2210951118544409455 0.064116724205342326415 -0.099461050176918711085 -0.18299806290755635252 0.015343148892499391261 0.37276367910169677655 -0.093448659582581777849 0.041566200160710324585 -0.34368860579949761513 0.2524535992466419021 0.20528048762116490877 -0.083815247066779785534 0.067028698975337183685 -0.20265805689397456413 -0.15128620834847630872 -0.16572954410657669833 0.23806299688345716747 -0.05860685111341836645 -0.12937342535551388245 -0.10437848050289687263 -0.30019351839497537826 0.073290661581900964916 0.24584152078148793774 -0.026520083618126154279 -0.21181620262218767148 0.313787205032023786 0.10042716889643078793 0.14848775122784022007 0.098660413813370637093 0.034078452126004861455 0.10005196930109980236 0.005344743462964911089 -0.15347638381010092479 -0.014953137593974251754 0.11357981772567113388 -0.0033105102287535222161;-0.16500364585415158714 0.23088768483389063291 -0.086704929765017271781 -0.17978540598315825849 -0.043688573328969408649 0.26367785061613197017 -0.13673549073966792533 -0.2580874001972805476 0.087806986578312581915 0.13794628328315150512 -0.29000877462591484468 0.05040978573152982839 0.20692196866554252166 0.0052611753335569649143 0.23104993705825210837 0.1943396749303644977 0.19876383054218077495 -0.092797587620094934557 0.0016767086947833491871 -0.10386070824786813871 -0.01403326398050675633 0.083931302336935714736 -0.27911657795656291681 -0.15268606128160611135 0.20403108300655700691 -0.15399152244195371542 0.15521235820079001821 0.021691803765203583609 0.22061592360220613762 -0.1868046464904611903 0.11623442251922802559 -0.14126211503946786707 -0.22403761681668318828 -0.20023444751492772142 -0.086302464129852610175 0.19434301806669071477 0.32533092449061479234 0.010605148770163282113 0.19462599912512046352 0.10985860792882956583 -0.1851145531829691826 -0.11300627021228568103 0.018020618544531345762 -0.27030180528372571569 0.012940421569828353468 0.22426766876306120091 0.17567109885389672885 -0.20927628285333921276 -0.14168156897956030171 -0.11758432866318759002 0.18240316776432902168 0.11819451845851354499 -0.18340245105135410952 -0.092995509032645806702 -0.043831381060864586796 0.29506519907172068518 0.22330683204077467208 0.24929288512022892976 -0.21211419450650692564 -0.13794537393198755271 0.073694778558695273052 -0.052555480845328877981 -0.24623652852693378446 0.38900335943028463426 -0.062389571134269301844;-0.076030316589005428329 0.067342365635138040636 -0.22507627529874890682 -0.072391257974193337632 -0.26721550524027448681 0.16276490119018158231 0.061584855100141382145 0.20510945531415816778 -0.061046284278016879621 0.45303691000560564195 -0.0410485330937865045 0.067412873257184299791 0.26843391124257565128 -0.018811174751956281914 -0.37581561775652605473 -0.23337594470501837884 0.24179015533395942228 0.13979301231620261392 -0.033951412793541489721 -0.11061207144166004812 0.13676084147578798644 -0.16846166776264789866 0.12011112540211832389 0.33879916767878864858 -0.21866142488956219481 0.022378784445463973524 0.44383226875812159529 0.20242790989119391343 -0.11595700674462527946 -0.1917467949931024318 0.02219253452162788659 0.21558432337224564534 -0.22881938050225247849 0.0591671644364789584 -0.18601464146621141116 -0.19183450523288611556 -0.32888256241768837329 -0.08595251131933856481 0.39505967051800283674 0.22805707122599150338 0.33572673565959515463 0.05922136022937474209 0.055461582230047795639 -0.19301574685077113602 -0.11237012381280216122 -0.112381988146001352 0.18840013342190772838 -0.25625893923704928801 0.075966088358821765025 0.082426793031075307194 -0.47336302962706749975 0.050826190133669409132 0.35917964108923089439 0.0099141367909146328741 -0.084956598014089987347 -0.090677778718667861879 -0.45017456157928981142 -0.1853482124165876932 0.12638117433935494582 0.2447224120736712083 -0.060452720377244903438 0.028562390946982717937 -0.024811622312381823724 -0.053318156593535635801 -0.022654803984596010025;0.13681050015275458831 -0.32244080822938925301 0.0018905849650169507387 -0.084785963382632917318 -0.093516309097306807296 0.15901712368158082977 0.22680709180761515764 -0.090323716093290248863 0.031343685008251041813 0.16272014405090040601 -0.20449722836961853334 -0.14706878870629500056 -0.09662723019631752619 -0.20968264289723018146 -0.12183718635313735279 -0.24049541387230216616 0.40671752972108132784 0.13801030087807966695 0.31663965917041231313 -0.077763879859450574239 -0.15446649976268825299 0.038490122360410133906 -0.10794317633476573082 0.23864201043807603542 -0.00086162412562447400141 -0.2979870967752898947 -0.31596763428384555539 0.19323911210174796182 -0.30292887149507508049 0.055160265781509863758 0.07676220474336742372 0.32866928171532716618 0.32539882448549184435 -0.051131150178890985569 -0.00031117937689867890272 0.068106553172172304422 -0.32615208825764646638 -0.12455296528219425567 -0.22690594038096217888 0.047130501801314346466 0.098775661220532440243 -0.23039237192180650471 -0.33111668263498150733 0.1207465619222054809 0.014216760036450167698 -0.047567990027413700749 0.15092787051302242185 -0.069292557612097516184 0.1225960349372306607 -0.086393960649944062657 -0.26210885796629707079 -0.20548491269808910609 0.038706547664819873633 0.47908476576430636396 -0.066033860282426096178 -0.15638859937399832156 0.17088144228026119764 0.087688700189390927919 -0.18944636585700697085 -0.012132638475064339706 -0.20698778794747657583 -0.063673996166284482778 -0.24683772447470050948 0.26840815378717508555 0.20397132374567364388;-0.096635163376412522296 0.024778303173550855765 -0.0091171933073668949554 0.072521954289878107214 -0.12542278781707053015 -0.18722756866462222924 0.02019747704334257446 -0.046406206862875477859 0.27008378171253966116 0.091784438997380993208 -0.15450143273540736799 0.13024724756551206428 -0.072289249146839096305 -0.058771302407444783733 0.085628850774000425661 -0.062749839316199609862 -0.50398862235761632267 -0.0052816639734297081768 0.25658785101555953156 0.25998716500806579033 0.28823730712816936217 -0.032930026194304379272 -0.29505290737090744679 -0.021781658268129586858 -0.23081872558091726111 0.11694380028365986002 -0.27290683790756631311 0.19426293533244345935 -0.086778189226208585216 0.043849996268030294599 -0.14677657384006079222 -0.05473885037096187095 -0.24960372907297076472 -0.22759653804901511243 0.15828918503436101295 0.33031652008812500965 0.3534334092726268417 -0.046705306245735468684 0.064472045284713452862 0.22673119272528119428 -0.010273297304673294217 -0.14820629226608719731 0.10110509573419164397 -0.24253436465762218122 -0.217831427583228876 0.40903915978627569672 0.1320322412118756783 0.079047346096848727925 -0.28285130543537756465 -0.17690224793189929242 0.13829913872609655989 -0.32769183893964315413 0.063684095484698458045 0.0091063177321390794544 0.35754457264760197699 -0.17088679731959843799 0.051745411002644438325 0.15375953958979987624 -0.18831197205736444067 -0.12173362914782115407 -0.16514035810426350159 0.097362509781851874768 0.062869791500616209468 0.068113929310954057783 0.0006294177217209921682;0.16176197924028867803 -0.22020168275998011631 0.15722584252497323609 -0.33778468884342749412 -0.0054236878852748386312 -0.22887487269249495725 0.052427938345826291533 0.2762881081216783663 0.2490845138236015277 0.01347754560252782674 0.23873260823315065049 0.0017732516918862132466 -0.060198822752741430742 -0.1211666586026423631 0.094598606803807952503 0.013259889903103932313 -0.36218622540512879215 0.040972825734918574825 -0.33313629450027110179 -0.23674553847076698632 -0.091978184170922586138 0.17548526766337124716 -0.10778484663292334234 0.2513690234417844116 0.032537146896176420696 0.12666275980883853758 -0.15275639896265225115 -0.014389647619597663308 0.003387098078830799372 0.2188326142359151294 -0.0064740911521999622291 -0.19449846067295689656 -0.13902884018513361752 -0.26830657702226101691 -0.18545554083417384317 0.24548009037403761834 -0.18230231108965730402 -0.2180117458636430805 0.31010227559968250866 0.2107499042197629735 0.31393887796025171655 0.31310583633526445357 -0.11116736390029779979 -0.18830085565085782906 -0.1197779382232191242 0.089131442726651521902 -0.11652963428028569048 -0.39963348485352134798 0.080095574602931055019 -0.031102108112630481168 0.040837109659391718219 0.061717345981325999471 0.47524600374781067469 0.10645733036713259101 -0.12006011614430134316 0.26205558286549779368 -0.25032153017162123154 -0.23683039141024250784 -0.22790050856181962025 0.1847987744110149988 -0.12636581227996165899 -0.05136407243689767449 -0.016805939636439490292 0.18917302934284774274 0.088671939275592290275;-0.36969520723943155582 0.11154773036688353516 0.29416619587617459652 0.15549159728047312612 -0.040144743374826916127 0.047914511101961571038 0.2573075585226612394 0.038699342697034205818 0.35985169167735653328 0.037288661309366553931 0.26719945947725959323 0.10708602511331888341 -0.063797815185837103424 -0.35838160319684581046 -0.094493371340408999215 -0.022478120988303609828 -0.39710236893404660119 0.034605854332718490041 0.34169581466017423521 0.043787794289708276141 -0.084953164841066131086 -0.11186083198207374956 -0.054668881222621423799 -0.03655569559620554243 -0.16803877338555797682 0.1512402304690954602 0.006331535324827002216 -0.12603158730986444014 -0.031730198723613219081 0.46325386359351289345 0.050027501283476716321 -0.075915649365785542457 -0.22292890869331832837 -0.27267289676624612005 0.14118581039658814613 0.25108621403801434369 -0.26709712526361145679 0.014938225992319465601 -0.28967791348208665747 0.12819137275471834125 -0.11964673992954744097 0.2313544270594016794 0.22394380210294914657 0.088023983236778943762 0.34499487549934859665 0.32141833838321420824 -0.36999549667553544019 -0.50892313922706422513 -0.27589907890948067726 -0.12213183134421287668 0.0874833639467480495 0.11337285205489001927 0.043671238409192757179 -0.030633267303652185476 0.038466774518501979652 -0.29143012678972385343 -0.24207403931839274747 0.057671579779423644274 0.17134320657444707114 0.060537078944563713079 0.047500985223188352258 -0.15328420600097864002 0.11046052989329938065 0.16343190180636293918 -0.22305272962155661687;0.2859713336471640388 -0.028355093279042658388 -0.084643578542880959503 -0.34980616352764581922 0.21295235787967059515 -0.020979821848325835854 0.078580570636646862592 0.10153888582373467309 0.055065027023740380219 -0.37692167204737669906 -0.074040320484820190683 -0.12694222089598672376 0.31820250488205614747 -0.17365021389545845509 -0.18536788085913447066 -0.25451273061727436309 0.073520503582554075361 0.071633440369071516018 0.28319552545987830561 0.14894932826572906959 -0.38723562791211163514 -0.37586777741799215491 0.12352360065853354443 0.073944724548041351753 0.2089163340331328389 0.13348778449110551558 -0.1963329826379036358 0.046147658989777753935 -0.16609860284702379629 -0.2229862006541176167 -0.21803532464316091599 0.33646827112220939471 -0.10660473061042159693 0.13086904161409690373 -0.26354312487143288779 0.18788570539321730601 0.05212218087604365141 -0.028895283321528068832 0.11644822098446504233 -0.070417046675417357959 0.018262372045845489538 0.16801787156749578567 -0.22512014131442423248 -0.10978563795347830168 -0.1079392711874932187 0.14982178016166514123 0.11606210163377661537 0.069546519789221217245 -0.097954620825695573605 0.046393660778475107054 0.095018677876453142006 -0.24785360861660954424 0.089842503327716621842 0.020695717787964775652 -0.04208257471471432698 -0.081682940396044373399 0.23146363907191541687 -0.036510778305158579637 0.12631659764092867393 0.10937395145111931949 -0.071048889758696623375 -0.13735439432992066489 0.093872313566367993065 0.14923584595063421609 -0.21755775600859930674;0.0097537508366009380983 0.3405794678227432315 -0.039673490527506675984 0.099672807295247869974 0.22352462386540603023 0.034480515860327229372 0.067892221714868125626 -0.088344420145910707021 0.065643217297897252238 -0.27006155720750130156 -0.23416714869673385668 -0.22190423654170604584 -0.23159968028270724871 0.3196455823371570637 -0.022199471009337071181 0.015900925722347931252 0.13758928049572263785 0.33945771321281348332 -0.060072272787926941917 -0.13962012246935007198 0.0042567129643397323691 -0.031990072833918373196 -0.090883967141818219893 0.12810118577344786761 0.24920223522130277582 -0.13801064332087328856 -0.11807262164391664483 -0.18226347315955424011 0.18889878036347820811 -0.28234239709926950423 -0.14237290211980571653 0.11789926867633203356 0.18885185730097420187 0.23528102062687700213 -0.0065666009653897808307 0.22464167593039827131 -0.21465435003542121528 