function [Y,Xf,Af] = NN3_10MHz_9PRN_nnfunc(X,~,~)
%MYNEURALNETWORKFUNCTION neural network simulation function.
% 70 Hidden Neurons
% 18 Output Neurons
% Auto-generated by MATLAB, 16-Mar-2019 14:46:55.
%
% [Y] = myNeuralNetworkFunction(X,~,~) takes these arguments:
%
%   X = 1xTS cell, 1 inputs over TS timesteps
%   Each X{1,ts} = 65xQ matrix, input #1 at timestep ts.
%
% and returns:
%   Y = 1xTS cell of 1 outputs over TS timesteps.
%   Each Y{1,ts} = 65xQ matrix, output #1 at timestep ts.
%
% where Q is number of samples (or series) and TS is the number of timesteps.

%#ok<*RPMT0>

% ===== NEURAL NETWORK CONSTANTS =====

% Input 1
x1_step1.xoffset = [0.000255651397895322;0.000239016066150107;0.000338123709845213;0.000459645933316677;0.00046084546625621;0.00019284071383243;0.000290641924352442;0.000471834462720522;0.000353173314190557;0.000772780809721984;0.000309481929041632;0.000542647720014924;0.000406961873702292;0.000486070472514958;0.000101869303026915;0.000583048151821543;0.000536203624363544;0.000378346082458749;0.000846669360824615;0.000383885084027264;0.000392965862443888;0.00139604475101873;0.000750707610666125;0.00108544484958018;0.0014170691885296;0.000554928619549069;0.00690997817737508;0.000678470035256864;0.00368477954850529;0.00148072664145112;0.000539824427513984;0.0658728458994543;0.880758388626773;0.0218009675538834;0.00356207085492097;0.00202138959597135;0.00576490668325452;0.000566738417013818;0.00149792855277502;0.00121293538981489;0.00126651936948914;0.00075361756779733;0.00072753362061294;0.00202119483842866;0.000411367626758381;0.000991013220869387;0.00133758292355594;0.000749506925874675;0.00160485597823976;0.000177228303773024;0.000748396275563949;0.000279291542700919;0.000509653374931303;8.35442742136482e-05;0.000837320209844993;0.000657904933695216;6.25721756571272e-05;0.000516703669429534;0.000177159294942782;0.000535283129956267;0.000488043557774678;0.00061999356148376;0.000394897670336672;0.000522508060818531;0.000285216181226672];
x1_step1.gain = [18.3165013411041;17.6417643403077;14.9343100193296;17.2546653091272;15.0382772682267;15.0901326159064;14.2632456378046;15.0497826935427;13.5625011836551;10.8010941562078;12.3129932389847;11.9973756353577;13.0212041575293;8.4368475395125;7.3479137408939;6.47658570672153;2.20254726637616;2.05678528114017;2.00273769015636;2.01586126275083;2.01386377917364;2.03693725833385;2.00178838118834;2.03778768388364;2.00650892612613;2.03593160412771;2.0222324068469;2.00340714908234;2.01878846884881;2.02208692848601;2.03055323873305;2.14262484350559;16.7726683409199;2.04562687221616;2.00867598745811;2.01534330226274;2.03876045577689;2.05432280598728;2.02566263132041;2.05037509228072;2.00437334738548;2.01620654496032;2.03682439397239;2.01120435684462;2.01213135207796;2.01505847487431;2.0425610644266;2.00755894695248;2.45213446526374;4.26691749786914;8.45894010601144;8.21382727217196;10.9682008674138;12.9393763947351;10.6631279232986;13.7963713584796;16.5725216613476;14.9133476743722;17.661406342347;12.7317117903854;18.1139025992171;17.041915806932;13.5044033375433;17.2741666253895;17.759821236982];
x1_step1.ymin = -1;

% Layer 1
b1 = [-1.9169642919861804575;2.0882047416442310883;-1.5257798126782420312;-1.3136042824809806007;1.3213371135060469896;1.415895262025570922;1.2426488105258168826;2.0914608278229787075;-1.3009432695506844002;-1.176425773003462627;1.0862191835273626861;-1.0517804862929649445;0.95904897418633516804;-1.0518140664019943742;0.48462244190315001413;1.5881638447361758892;-0.76670428967124704123;-1.9443797120906956;-2.3641824578551968727;1.3637932002712849222;-1.2172887846892870289;0.76875284517390762851;0.8657234801553165271;-1.5726296386292932805;0.78052119864072866395;-0.5045916448266378751;-0.81297713200895960206;0.54021350521952749002;0.082813314442043942099;-0.97300755633969027159;-0.16736148923861515758;-0.20678591253853825793;0.91987378687912779718;1.8531126788808318651;-0.25046722451043462732;-0.045344421271447700461;0.12098152629760806909;-0.23243122354351689052;-0.70307855954315967573;-0.76866203453124137823;0.45506241659044172065;-0.73961378043815761973;-0.93038793736458191841;0.82838892532035035554;0.25969902909921410705;-0.31387353770500431294;-1.8547600012931466651;-4.7458984729345976561;0.78105973254248572957;0.58427830298178140556;0.27255061235288069454;-0.86005564938461254165;-0.71362508769689114718;1.0426643111763314042;1.2205172835495163852;0.80327832779342478453;-0.26617435598934957586;1.1109887175413062366;-1.7277028176131250525;-1.1431309175840320691;-1.3303074124730460692;-1.0191052203594817005;1.99320754744356754;0.73331953514655023874;-1.2587361254934128496;-2.0929747540470291511;1.65695776117194149;1.5528108739610317901;-1.8886794188619626667;-2.2840049635116028703];
IW1_1 = [-0.021306903444458444308 -0.0014485942254868072743 -0.017336424152295793616 0.024492687870805752992 -0.024612799627468252145 -0.00059358142668191368578 0.017537529241284783438 0.060669391449196155564 0.050856452313596166304 -0.029136541531374640646 0.0064582618175066074107 -0.012893358730955950878 -0.045423854460272972133 0.088819536215052397043 0.033452174582063613772 0.19112847360976623068 -0.10776517785203182376 -0.14831355050859013067 -0.39070123290824460005 -0.22991362322789762884 -0.34385639740714390999 -0.38741866855658191326 -0.13317044235328126534 -0.96117461817655980294 -0.09233264324320678007 0.33949973850639275641 0.28515861962473149083 0.31869154909950686561 -0.055396808523248734779 0.26502044553284842543 -0.43947085263554153123 0.0031467051987573400884 0.025233910851155692823 0.13172644277430181625 -0.018808422473815214482 -0.0040067356972384952224 0.087771302939326181769 -0.026833758940677351207 0.016524238576036034964 -0.054497980771599445482 0.069008394408375611784 -0.11417557353243915075 0.016505885465281342622 0.048849259501133064643 -0.12180304628563501379 0.01772153011268962769 -0.0025512650292312888736 -0.022239399379509000587 0.038944261760092996338 0.31308990599570202251 0.21429299919007549491 0.048389192778925282923 0.072929935155238698186 0.050456467523433995437 0.0056975540039872077727 0.013903774560615828754 0.021351391784968254406 -0.01973522566253542096 -0.020894849290715767492 0.073807925294190043775 -0.028699357182138830052 -0.065568162497910364994 -0.10697525896633328091 0.0059438416085127922933 -0.021144063053348986086;-0.0030616385062077443313 0.0089527845533495624408 0.053717112268842584499 -0.069158713024861789842 -0.097871444537662083407 -0.092376358472721811776 -0.063760899709990173645 -0.067047985108987254166 -0.0034258707798370700501 0.021063596173735727596 0.045359212217603604722 -0.041675575472352885398 0.037559442234295747909 -0.066088740817553726092 -0.25710473270717953964 0.076877463328728024017 -0.2791031515356992565 0.21156025307483744546 1.3478369801178109455 0.24488796505091833811 -0.92522375923822908206 0.38989955005319376635 -0.10465893690946899419 0.081643865808628715564 -0.028759569318052485842 0.095996767066646296329 -0.04977854537946750646 -0.010279281304955423249 -0.047787085876093315928 -0.088419664726921878839 0.02461561901527381524 0.1023051288623970656 -0.093537848933272882412 -0.0046249196499054748277 0.082724103323694203604 -0.019433148416639255129 0.054002936129176865032 0.083421092848496830596 0.013089791925058541847 -0.093295817459561364293 0.26578577504192368863 -0.050322550650017158769 0.12105535152849410119 -0.042362980830210318628 0.11503980319558464174 0.017016507757390615663 -0.027550129566914050017 0.19176560741887618833 0.011216611081385323423 -0.030001516497389416754 -0.0021423463114495365674 -0.19750029524027151728 0.14440816228825881229 -0.021574287080249533732 -0.042776801847453325978 0.040842006618536458307 0.10877723054548937842 -0.004330055081553294688 0.02602680597498948506 0.20268587170448126855 -0.01985546246234516643 -0.094717253532556333617 -0.1193297263931918234 0.020605583545324837602 -0.0044747170815371143174;0.13058961148990161361 0.12534191791355614454 0.081410789895316540421 0.26336013631187543682 -0.019927790071065154542 -0.29360333836880281311 -0.32556362399710148114 0.15636581029856805314 -0.05097882406603836819 0.041535713422315712062 0.38257595876990307948 -0.15311137979435524015 0.22511363655897831393 0.033201232738459651728 -0.11958077790820514918 -0.31097251137737869087 0.064729809671836308071 -0.036831589221627547559 0.051451178990717126582 0.0020129915737193849329 -0.073795779923672838452 0.03467404681296040736 0.18871332527531237133 -0.10897477854522891194 0.05289776052193947975 0.13377576815311709169 -0.076962985877763886999 0.41470078023387879629 0.02883215215099459855 0.24430787863128286541 0.21246621190345182928 -0.30936681837832674669 0.20017268069668484043 0.046424868136603604507 0.20191165536490590648 0.072611868903312518087 0.41620655020154345705 0.14983479457348769515 -0.0064089322660362130213 0.023568184492176048883 0.35108826197522907675 -0.33004195227483762443 0.10249405793011630295 -0.260070411662569001 0.14794104770732399712 0.13314281864038018943 -0.13115620178049200439 -0.092670780796317339667 0.40380350109833079708 0.1614569404052867696 -0.037545390069188958049 -0.089006853581022435384 -0.12413470639313130273 0.18392801305617847984 0.060536327461770580993 -0.11296669352599048031 0.10773259443420604708 0.098989827507296554443 -0.16836845963282701111 -0.21030845291349620219 -0.13226230742936689877 0.027898140953090615202 -0.26701825104243720466 -0.028075741356714242758 -0.36195182689453608837;0.052033459596876260878 -0.0041251313989106360575 -0.023792471111061669342 0.11831779699755996804 0.11378994721900395626 -0.1134810594499599673 -0.028152319572826402932 -0.1506920551050111301 -0.081573497654622031949 -0.099798081686789094635 -0.14911495141965688815 -0.060773128266878168047 -0.015467735977392139263 0.007252187560338298547 0.0061619337295686672784 0.1742038444157998911 0.43824430159155836062 0.036449529579008876912 0.21544350523624683502 -0.041819509723497960696 0.27336770803098903171 0.064866053082977340183 0.30027091109570297478 0.31357010713236316279 -0.0028592204839355955803 -0.52861366368473583499 -0.25187815134914492976 0.41695584208953817562 0.059624984510705122953 -0.089452411534902936951 -0.12535993128271596952 0.13107181872853176929 0.037367871266760152582 0.022293877225600469 0.049826319486435122208 -0.010864234311720477946 -0.039660448089903127533 0.096283467296648564404 -0.1609897991696149222 -0.40505148661250761633 0.053640164829124814538 -0.00075277483795561928037 0.013045508665430059075 -0.051387553694180465591 -0.024531038423418034811 -0.071884172339286470099 -0.15786980386463497772 -0.14803493208148921223 0.13039927469721862563 0.24317382650069038763 0.050520880645868709857 -0.21608296684225322681 0.14386951894923752371 0.11550602081600092053 0.082694139736472591085 -0.18271721693102774275 0.10876888861848200973 0.027922425934769470879 -0.13588673371415774249 0.0026316191710540936047 0.035206694870226366845 -0.081876925930519997565 -0.024089851365032086822 -0.0075854513601052997451 0.045078559410669294394;-0.27125792785742341984 0.20715633618664128224 0.14487542622416657578 -0.072250874609244272739 -0.38966369456433558316 -0.19723619413701304337 -0.01903663552575225737 -0.071991699954799773242 0.20183243291298219591 -0.021402539497734872354 -0.097630863108330981359 -0.12627129564865369193 0.3148652627421394401 0.009460432953916088003 -0.20165146418871013334 -0.1643449278742901698 -0.2502988818636726065 0.026757905846328821492 0.0035984985964169088034 -0.33736963660024715805 -0.54115124894781885256 0.35581622740912871583 -0.014654818998045429299 -0.089931468278347526102 0.30560450758389529069 -0.053414967050982954666 -0.0045260055874026027325 -0.01832936343669869933 0.10629800600666165777 0.23351007833603398822 0.12984307182748811016 -0.028968644902079419834 0.027086394208370803 0.040630756264588702154 0.069133584336330003439 -0.066703450612782030915 0.18721813621633501268 -0.20052804425498479968 -0.084469586654605341436 -0.12700530564673206957 0.28993389216794135388 -0.040838405142262931835 -0.22121410962313223236 -0.10333482001084831614 0.043467364749912043576 -0.16889982853673549124 0.15186384986102541284 0.1703770052219870379 -0.26098406572825144645 -0.14641400493990591736 -0.22381846439072008992 -0.089253180474556506607 -0.31324513241770685079 0.21409737061269823455 -0.47536065162707896725 0.14353885432008725576 0.034423913539023236197 -0.06912257439012874094 -0.19763841773234766541 -0.16735051926114080656 -0.21951877132096619949 0.00041286523962608297211 -0.0068351839530055684413 -0.0034134031471134505115 -0.12992170008458175934;0.20696465879713088487 -0.055593345266468953414 0.10801348584783136697 -0.10349622843728820132 0.043751068939050868911 0.11175580514362648543 -0.18627073316539374814 0.10589845181810393637 0.19006217130516134262 0.10873502578853080913 -0.32454536828119695535 0.015331669733955870932 0.071301116803707736969 -0.035149309773760413489 -0.055219094893462716822 0.19762085192154463242 -0.20851116869581343138 -0.56030434669877837717 -0.062529353080711821966 0.52028168099800375934 -0.26403528303117979048 0.43589357424704000543 -0.096837307749317813599 0.17725486142625779262 0.44336602825535925687 -0.0093850043042873650123 -0.13533352015772481813 -0.10230692672900405793 -0.0042207225239855091642 -0.0055708437432641332021 -0.003427183293789869481 0.22364971493267576941 -0.058595280236702171339 0.082800668315027498023 -0.18976501435513604132 0.21369831212015041877 0.080093721645237148099 0.0057321479251016688172 -0.0063476473995714537135 -0.068083510862986959533 0.0077173665640071975255 -0.088393946789549412979 0.043182091598542221567 0.0041448764609143635626 0.15877941090358024812 -0.12821835625831806693 0.2846132944220365335 -0.11744403816953086217 0.18536631411461701457 -0.25800200445019338957 -0.37699874225445523246 -0.092067351264563959679 0.051140271350976818088 -0.020856566775848683903 -0.0090013798041751712231 -0.12007173762694373087 -0.13309802510747634208 -0.15982662431139943449 -0.082374124710660606707 -0.22720294124564299754 -0.11697477084735877217 -0.042508845402326113361 0.059837523892278587923 0.1642641115448283673 -0.060510751465366191537;-0.1487638717276194289 -0.1137493510624291021 0.16737948665987045782 -0.07546949379888547027 -0.24667611551953227966 -0.068992260230303650848 0.099140500607521636622 -0.15989933213793403044 -0.25552256561644365318 -0.14722926770402899876 0.18566865976905724822 -0.09183921648332138421 0.1201703962288167421 -0.085511860752590235224 -0.13552285501582089777 -0.54475397948011106131 -0.099746125313529943046 0.016822262385223666487 -0.035119704164158827009 -0.014897480107592266096 -0.086070300655844436677 -0.33566319075439599029 0.081423995747915076104 -0.54340432594361498531 0.042981284492886559501 0.139712560816480591 -0.3567497644855004979 0.14632793898749135719 0.0097049862968368507538 -0.041402830029977959192 0.020748233766314683191 0.089351101147987693762 0.1141424391732165089 0.13847621301532203608 0.29412987678066832009 -0.21183973123897970048 -0.19045822634103123927 -0.0056521554357024904325 -0.052280079449444620543 -0.028845875260290552988 -0.1773985170443412307 0.11438552405525224953 0.11509111215339098977 0.09751470492141033064 -0.11207528981504973065 0.035545133202718320886 -0.19541548450812001869 -0.2924953618920325682 0.15574356699229069401 0.043623199025449962973 0.30211729297936362748 0.29086872582972039813 -0.27428176003061210952 0.2928199782537297402 -0.011382677566030294583 0.17231731962361904187 -0.048644452968909540624 -0.15066045340390030183 -0.16781324892927684811 -0.034586385308149253381 0.25309007142730738371 0.32001339653069060809 -0.19241893178793767483 0.03606837533137241536 -0.050343941645116657702;0.059298228257374623051 -0.041332992797980673549 0.028320909052791637395 -0.042419774279383606896 0.042947779706220823304 0.014151131041526321397 -0.099883847506921724646 0.090164513975351148756 0.0067802521052238683141 -0.077224458941751075725 0.0053013789342929206264 -0.024877482639398609821 0.097295283516224143061 -0.03675421123806348056 -0.036200486875575664525 -0.029493976816504990229 -0.28682229923374824576 0.25236805666141520765 0.36716126087458322846 0.21646835366117445076 0.10665076096553563478 0.12976835251707691254 0.41627224946332647137 0.54290673846601478214 0.017421376279351377669 0.47023142211672797064 0.16918799545160273512 -0.51258759378225815517 -0.18939121694090568782 -0.26182289564161098649 0.37611415342765597281 0.12641448322069251398 -0.11086150655242713037 -0.0044780781933109799903 0.014156488500199404523 0.0080281663431235328332 -0.045995991006760043873 -0.0047779537852990806857 0.035576361752642136904 -0.075808736406238405592 -0.029464620833280222995 -0.058641640811998518856 0.082519284420094998755 -0.046191493543348872974 0.070735164610432790799 -0.018022244957949597882 0.039363839387073849829 0.069063683610603859853 -0.11848092589652252371 -0.067010316765047817089 -0.014880370390619675897 -0.15550794208383311723 0.068357806783983815491 -0.034702832612307242532 -0.058508756745554266199 -0.0675279028306749185 0.069546021464689286584 0.038066818570416112444 0.036042266498161203148 -0.042815533835141458829 0.0025528448413918193582 -0.021526005906877525298 -0.066896380645242142782 -0.025441090548568846136 0.014287680469618056767;0.027153520049995140406 0.050869344175203931591 0.13404952946643039491 -0.094469667986635807999 0.28287718774882625317 -0.080916445634241315754 0.059636077440102547298 -0.14620113949599691794 0.19417369501031872536 -0.30683455247964358525 -0.32305304199030826506 -0.21296086016204437974 0.24845423856017762043 -0.09528223462690021961 0.20891235300602872815 0.35329547059028837408 0.38875365891555208053 0.25697646573577365148 0.33560547107870858374 -0.018908088637251654202 0.27288540247270387518 -0.24978564071174214067 -0.019767675533090205836 -0.42110851446892094696 -0.24373709537458845831 0.20473872679243551587 -0.11346155782149242031 -0.03501245056178619447 -0.010664444403546156914 0.29885938161426228721 -0.23771687953277742533 -0.0035713016644146403089 -0.054742500006072794538 0.21161983098515810275 -0.10568194259387980738 0.098574654684226062362 0.0059354299690189682437 -0.14987462878219331985 0.1809408319942593657 0.091990707599560267438 0.14102391733471406066 -0.17704419549240821286 0.09465887659596315673 0.081373252319061215032 0.015458820443654578206 -0.018501005012597562804 0.079400974142015537383 0.23528170326645261867 -0.091082730227402999845 0.075956119900473753614 0.0091990312454153597838 -0.099447056156087065837 -0.048342136849392827735 0.019925188473077962148 0.24161105271652794091 -0.14050359778956889034 0.10854793630759675127 -0.30011427882718372251 0.16125046475920312705 0.0041363869783572967953 -0.023868473077742383137 0.19736117350987944508 -0.016499632193394904445 -0.13576625068313763478 0.077145204144593859663;-0.17764286450846131227 -0.092491355816964049286 -0.03469986418870716488 0.21108934815916707839 0.23259574551029663092 -0.036638716108720457976 0.16951001914660726588 0.13741887405855457427 -0.26688041178913507467 -0.10689977384494943335 0.18901340667948243746 -0.20591897813931561712 -0.27542695767642166871 0.21581697266911201161 -0.14889096319764585918 -0.447543097706567361 -0.10535833377464887128 0.14456924640950022387 0.22327327559290238712 0.056402233845018176495 0.053764457781502600353 -0.17007850751578090787 -0.42436572767931601824 0.1638544365854104623 -0.092692993502899473368 0.16725620685433237322 0.11377434569206637538 0.30472008376489190251 0.52803162222951738336 0.26634927825649701294 0.61906515326358535489 -0.67427881236088715866 -0.073379652203931097776 0.049277008793146018228 0.21278148662302126537 -0.22212348132168169279 0.13313550112575048279 0.14674768860089545952 -0.074049170881047565729 0.01327799480631590423 -0.026639447766789010885 -0.26168979904707623252 0.19195765928144647994 0.056713968061756422911 -0.078302900780529482994 0.016320051551057292161 0.059561166307651666751 0.29369986665739772347 -0.11730884233971088093 0.10681345005652573277 0.20873601190660076576 0.034644129110740759514 0.095981041351478196821 -0.14423632262831939665 -0.23051342062606644534 0.22077663091449564736 0.29717166861926802568 0.50060323674985562903 0.073524539346872253009 -0.50910746713245491613 0.22241974753394477826 -0.15553224819891992015 -0.10528008460485467623 0.2062701051389692064 0.026878458900300473966;0.081363519257813501917 0.085783796176448268156 0.080669050115581369953 -0.012669942791749247771 0.0026698497149761964836 0.087689019963704956107 -0.14983327617897182482 -0.16664422232479864094 -0.12672036737359390624 -0.029468349763119155993 0.081798610060616949724 0.021383951972919302414 -0.12191572052780318136 0.28500956468622867801 -0.023296508906660629012 -0.098424958215399663275 0.17617658931206622852 -0.28437211020065966682 0.34873175736547235015 0.14609689834197084335 -0.10617424794631305507 0.19500350111045011703 -0.065684421427867761833 0.0044284855111486678969 0.36009425752107387941 -0.29036912050131780116 -0.52276767460315809455 -0.32263985085492480342 -0.17149885497934777567 -0.063920408370378878349 0.20969609610011991085 -0.35375580547027168921 0.021669216464515625442 -0.16521015141924969005 0.053002246421668425258 -0.30470478982199661333 -0.15128117034388643969 0.11614075491797040685 -0.055544344431028881692 0.05763333142425554334 0.0063053824365341265556 0.14699796878212845197 -0.18566556141175413752 0.019697876567242131318 -0.057036381360987715994 -0.076670268355946258332 -0.23696928501598116257 0.008733249295039869492 -0.01236644856752749759 0.028085680940374467551 -0.2472792991206823332 -0.20536675218471511783 0.0360519132481374599 0.018418391458995025251 -0.069003783005773366988 0.017416219933274010301 0.07942198040940071091 0.14595628174909755503 -0.034101859670326431506 -0.017279636413827410835 -0.0060771434459403281952 0.1171277041061543206 0.19078619686671224875 -0.20925040115066168012 -0.047416570453128352447;0.19832740295287473731 -0.17090278006038342462 0.13651495132328153592 -0.12175456209852147937 -0.072890243339814642098 0.071517002294194609302 0.0033190270192495659185 -0.062233326944501662914 0.1290631805915515018 0.18774702969841111644 -0.12608379644080844328 -0.20893580095227046178 -0.080408663355358789282 0.046716784952635224959 0.12537742082930400378 0.073255365092839752617 -0.019051977920519217596 -0.0011835197895393029244 0.029466677547490299771 0.53630782744973481968 0.078288847303646658116 0.03497869655153130336 0.18160163236831239342 -0.09758586693003165613 0.10144904603279485122 -0.06293344636748304799 0.019239990866516700624 0.084974542741684588876 -0.03760022776229539343 -0.39458337374518603902 0.35852176246820832706 0.21828752335857168343 -0.019413555390505356224 0.27360822806253087824 -0.1457770595263101765 -0.15193705411683625095 0.074297452764874080677 -0.0059754576665610901684 0.06855404344217733148 -0.25127799519293431141 0.13905446855717082388 0.12558880381852943753 -0.039416790399735182615 -0.20868386817854009396 -0.090938774928912419204 -0.022899531265300587801 -0.19228397370796951327 0.068487447628778064246 0.31184030413122526548 0.19011474925598653707 0.078110197093292810244 -0.015175069467168164628 0.19781560481894891468 0.12907870393348502835 0.075476146152541875867 0.066595641796257112888 0.14455651423936866085 -0.05930864103779254215 0.049502867034949771252 0.19965384148014275745 0.037574158450995459591 -0.0028949239568500364714 -0.16527482916487085118 -0.11923582707005533909 0.048644274116250767193;-0.068138424731247357324 -0.056609953757933012541 -0.26091563946872714519 0.37777450203847467991 0.087954298736482153243 -0.36920273976992995513 -0.31742589056527753533 -0.19322416370708800359 -0.10651903137479247496 -0.18378647954847079915 -0.035976942870389438944 0.0011554370321689832329 0.099675849953011874671 0.093149539545418269526 0.11497914951080766277 0.13787120749996017999 -0.059388327658459666436 -0.36840753563326034126 0.011033722746992118482 0.051748352348082442276 -0.24151358624310745316 -0.033523403453910999295 -0.087411520652909441287 -0.29241236428289324456 -0.13811485498274170269 -0.12950384186535343622 0.14345502418423350388 -0.15243399025231474386 0.16887651045088544755 -0.19656462277482655843 0.21736561452015026874 0.15354369308058199439 -0.08170076009432050701 -0.07081646674014410725 0.15315272180126052182 -0.12408332377059588802 0.24396873822340953142 0.044656559131740256041 -0.3346312259795326538 -0.21124113411262487872 -0.27132218657190804167 -0.38902901085746099952 -0.16801709457226904343 0.21531934369239774663 0.017071003964907786876 -0.033025405027921755918 0.43789230293121028659 -0.29153707552416602278 -0.023998910496737854009 0.14877145081978004892 0.057999599166830090313 -0.11437807221508454469 -0.024824493907194451064 0.16124784656618090795 0.11317927101850978888 -0.30150029755043922242 -0.07323022520313406114 -0.35795802680768779025 0.16827883833189657969 0.025991261996036831017 0.025885116741082625502 -0.061111554145402084692 -0.20417451326566984915 0.12175323303828158861 -0.25810528983808633807;0.18506670624496143751 -0.20004133833661175146 -0.14297746428616089909 0.090634259195610286652 0.056410314245418126389 0.038380539235159341627 0.1323344730278861181 0.096999063988674166792 0.21081040409815621217 -0.0085583764440289866737 0.094507854549485612039 -0.12794813979945154903 -0.27727389888852044253 0.13269185215740161854 -0.073806784853625018172 -0.069180910785423557763 0.2388603117065501158 -0.061096250180287019205 0.34117853007283488465 0.0021673090077008808074 0.54674559185912363635 0.11352914857955241634 0.47588277031474501833 -0.13127816640060246955 -0.252879399042322206 -0.22032017400961231846 -0.27323886144223236139 -0.077676643426449129559 0.00073952037181739069954 0.049042101895469807082 0.53603039678760289188 0.045131093803843572165 -0.1326808105290461226 -0.16576907846449168149 -0.048492912587289181692 0.26073752526287241604 -0.17692343960130663127 0.002120302525024091167 0.30640334606216873548 0.1803982947332839204 -0.063008492260206688806 -0.13101788526399030244 0.064057032887620088402 -0.050407856350129523482 -0.14435109078019536799 -0.029646493927515144007 0.12622741599467302009 0.25840061837521172139 0.096384459600101168864 -0.1562897195924423388 0.16608694072680021958 0.05659380325392622535 -0.079017907732987849312 0.032624915914286040097 0.20638261108662706023 0.043690993627629785834 -0.11186574477563242247 0.083303782046271715456 0.18440090098862435553 -0.094449628811627869829 -0.10381459981098230261 0.045410954012570031724 0.094391176973630169789 -0.35743820394361125459 0.013354238587139088262;0.043445226511049386819 -0.098114465314857901568 0.028599432062664530835 0.043507759771330811738 -0.11738536274338681742 -0.036733303889668375564 0.090772125673495893117 -0.065258639267244039628 -0.032754624475471734446 -0.099930596612311364813 0.053682025715590581116 0.0020106192578166694369 -0.12988214998056774041 0.037159383740699054866 0.084694627738043676279 0.0047819181679405508081 0.33517651694105377036 -0.05004819939879864843 -0.12431021047050808126 0.22011933962726046299 -0.50522952163048073793 -0.098661334849996090712 -0.30598693406953297869 -0.005202908291634193369 0.027442050386715901439 0.15961957732050338632 -0.062176981322054424017 0.50616289257921254219 0.54425980329584111583 -0.041409067976684837964 -0.063308079823423415999 0.1162978409863910656 -0.042397717304375401315 0.12920923691696223345 -0.010339956712586719639 0.16619329269071589361 0.053409424550514054963 -0.0074113107069490487266 0.084298060543585559556 -0.068917525628271067428 0.048424482554632469755 0.18640926597957385713 -0.078487006346474222362 0.070097182737514904249 0.10203605768899348671 -0.090793003270517702585 0.14535510925181607811 -0.083277281214372778084 0.25787254906204820637 0.018922262529110830259 0.062032325409075883549 -0.053786486726578527917 0.056725644000291758351 -0.088220491595591976619 0.015066201439061576578 0.16361157734730502611 0.11526479548949840337 -0.0088640825467283385075 -0.12086427814933216329 0.10431909829269581103 -0.065952631111193510405 -0.023962119198479743531 0.15025247224198154394 -0.015551104905181967197 0.032311325532993893928;0.19814097601638591684 0.048607875650598625361 -0.42574814213584560862 -0.17509601048044795557 -0.09498734251633497716 0.074175425097279826248 0.05751561153236200985 0.061387705902586471585 0.025485905036500139387 -0.030834946744103149119 0.13287864060926801724 0.011700587519191747027 0.13921636036940687742 -0.38575458831600240028 0.25938448379237821761 0.16918436282393217729 -0.44027815136690695574 0.24488142470207902024 0.24177721327043813493 -0.12102780407684141095 0.16069609542996687868 0.093121453146652072297 0.67717042624616918811 -0.25970276471722758549 0.18242356196989253925 0.054126444661010554571 0.20177101399824171057 -0.21666625074999801281 0.49666429247800691904 -1.1161242758412388554 0.11380129802219923763 0.1844805034782206199 -0.0075665777061447239693 0.25771694347199219921 -0.16618829599165105271 -0.10108582422414962021 0.32302828274371964135 -0.073009823234127607661 -0.0074401416602112926957 -0.13722592261762439625 -0.12790523156394281723 -0.04884136807679840403 -0.048381904336139751333 0.036820846811226118356 -0.044043498668623670689 -0.0067572679892977834115 0.012549044481970778042 -0.0076328009884570266474 -0.21096981117395413596 -0.14441114750991820848 -0.21188372863030241477 0.032906497792261152346 -0.12516399215187876126 -0.10784047188316119026 0.11597712643546603806 0.072395940648427095643 0.070299665791279095095 0.16793299153546667468 0.10782725620823042922 -0.13464677780932557405 0.059977865068613626931 0.055511351396574107331 0.13502777063075563357 0.059935494281170627329 -0.017466530113436372351;-0.036163238076639722673 -0.049424649196442793642 -0.16375882923115234191 0.046254817752543787857 0.11526712351983359195 -0.090836866180354636224 -0.07118357300315131253 0.064003507344994048367 -0.078731602096371061661 -0.10543681938472225512 0.012567323664634710151 0.037076271052391404637 0.21322553566447247086 -0.04254680894089645643 -0.06119575420223218043 -0.14639341724158216884 0.39954295918380466901 0.17711573783068629284 -0.34482769133872570588 -0.64576576681544461955 -0.021614115923388320384 0.18488335940893133036 0.042677545984867309992 -0.21522073077683631648 0.38518328899031617496 -0.27869500049039319656 0.41337403539764799865 0.25730073862788710448 -0.41749663255961505515 0.72109141578310231857 -0.13948804615302912158 -0.83635342069428819656 -0.036828362201953027122 -0.31142855136451136344 0.040139898092879475189 -0.044682984212119927769 0.12921999250473042986 0.0017463653312401097167 -0.1558810135009870701 0.20074706376419623743 -0.13813474500699260417 0.024654433250251739373 -0.20826668467912709537 0.015479338816098680426 -0.049929443939004961028 -0.13817252105736840817 -0.17076198820329363537 -0.079780342097036105464 0.21156837462389063709 -0.020703228436995211453 -0.0083178801611579963882 -0.040642066910379401334 0.064958696981115601754 0.13121468640265712691 0.15442907678303172125 -0.019601950182870843398 -0.012585794162472976887 -0.074973585779742044077 -0.078710608237375440099 0.012183033224360144409 0.02628292775686264654 0.0068982326913078076749 -0.026667471868351937114 -0.034635980740814940881 0.12596711100329718858;-0.035729028817338012725 0.061159834352302780425 0.015840078101625375273 -0.030276800692200615817 0.064141116473961812261 0.17513047478118212719 0.055839613865683396243 0.2693110316553056216 0.013402856464338558373 0.15061607494276993413 -0.061793281477314339345 -0.11287531684603316351 0.031906284517331767736 0.090491110493263943182 0.048440602939325130838 0.073405923556813218456 -0.0088244284950552837055 -0.32945476499881803933 -0.26457811298020517121 -0.33551258524218957602 -0.15863641431756805855 -0.23649593497157045396 -0.16308731303345605501 -0.40082431518800348824 -0.098903613444115093256 0.71600728367018628973 -0.0010879196875507404253 -1.125593863935828276 0.15141991983202607308 0.34645157099865719896 -0.19944600042021348729 -0.085641276886932321544 -0.10804138408127836324 0.010832404843057372515 0.013726839738254142942 0.004896870060201956483 -0.12488260501619827259 -0.067034049247382460068 0.15759625300385063373 -0.11340724111170824573 -0.11751874448331899037 0.095062607646165295239 -0.0066616986306444313931 0.04500783310196704301 -0.0012495622949024506182 0.066577985646090992455 -0.05373442583581964499 0.041922614496396441719 -0.038480074119357193796 0.2138387669378589151 0.10933366648647910302 0.031490877448977341868 0.024356624455103881993 -0.035687916171233548257 -0.11500550938890183317 -0.11121984501984456817 -0.073584603695997702344 -0.10697960677538215224 0.0076639212956728635512 0.16461787802563748739 -0.054959972300168788428 0.071195514526337530525 -0.031803959144120090563 -0.070172152082752306534 -0.046213166281433640248;-0.039618110617883756097 -0.081517528251329671174 -0.043465538120319793802 0.055634012483104802738 -0.15072831484747098441 -0.0034826628815202548793 0.28553091385715823058 0.16190267143461511967 -0.16252573490757665775 0.16898269462884221714 0.022976202874760404127 -0.021987206636164283169 -0.11216778878836962396 -0.035472540170793438741 0.17205055103926644722 0.21597957962938069132 0.24158621422179338278 -0.17330731181988864864 -0.37609379882872412404 -0.11183565210339489748 -0.42756907735932192516 -0.34552492192640227309 -0.14633210499471638322 -0.79085470706166360877 0.19232042912956781588 0.23684243204716751152 -1.3679199061452915753 -0.3495809240353998093 1.4801499784800846715 0.054675838136529382461 -0.15695976373576420171 0.12988907413000916335 -0.17519053595984829252 0.038345041481594094313 -0.1365025986698126248 0.2146976874402604929 -0.085313577157750633551 -0.038838520175108894039 0.062255555294371996145 -0.06187120117555030413 -0.21405308470180023361 0.13195459040337428891 0.095704015773418082969 -0.041804604693071505117 0.084981919009111311913 0.018348462144468329071 -0.030836725943691994933 -0.079608463496149056704 0.15999648413231232214 0.086723960513451714416 -0.10709307123907255144 0.22840012991148866961 -0.035848927479301462284 0.15723638012191154534 0.02224107067403566923 0.035519526998284152441 -0.17126200626779833347 -0.14939196709898797111 -0.20923869452359111776 0.13331771096173972158 -0.091505530540989213351 0.055516251697114021857 0.20147286481017370741 -0.0069167371484318146413 0.091442850154719701461;-0.1083924602090694661 -0.10436982306440999169 -0.035689442913762692289 0.17397271702347300026 0.11652402455716272256 0.20588509415471945019 -0.12596163731142781539 0.13505929768080682241 0.019045033416783433561 -0.26420985851293238289 -0.056754818305362983444 0.013044840391851135128 -0.10312257274041647381 0.14232744614168005293 -0.10385646095574331549 0.19265632935120421965 -0.020780290624487780804 0.098663973580895014681 0.34960755476263638553 -0.29317855894758260149 -0.031927305194249334941 -0.20821179799787459253 -0.65264013692736744243 -0.013843993594734215619 -0.35677763936259287991 -0.09790006280396959526 -0.2664288321733950804 0.092233902781052035103 -0.046708745498607914803 0.1995576961002488714 0.0065679957203592783874 0.077649593875157879586 -0.093635895344885797242 0.11611493383178808636 0.03050694083880521601 0.10037592580230070283 -0.18966426252688214915 0.029538160100601413421 0.11959681362519278269 -0.17248097784936833321 0.15035375263867761797 0.10990170069263084651 -0.037356799838541149272 -0.055419310198571908321 -0.019336161789517327531 0.14662885353493296248 -0.056935413293017662906 -0.018411883272155357694 -0.12495367658378339626 -0.23126447448101708493 0.12506750362857974035 0.10894278529640126496 -0.22129174336589785277 -0.20526868824388699863 0.18722178482389026377 0.41704605173030723231 0.21046839074489254173 -0.019256087630782691561 -0.079060195455402590414 -0.1965578010611662152 0.19934993545571785822 0.1978319363209677384 -0.2010882640967810997 -0.054827811419643268653 -0.079378700254635017886;-0.14922446188145971346 0.16942299429175583514 -0.10287171372700253114 -0.17575980069103264158 -0.20425390792630865322 -0.10351853962269580434 0.10844799328152847362 0.089314071349708090697 -0.098325977614494255996 0.12662161235800592496 -0.045648106979208347145 -0.17020058264722998098 -0.28904470411831612031 0.27836766833379128494 0.099348557889122668385 -0.025189687253031479985 0.27225471248640853439 0.14668291112924164432 -0.045492956284630611807 0.15958971111457953551 -0.19091818374971269989 0.16337460431689670992 -0.33085813478698733459 -0.18096497201412450884 0.15446812236998916368 0.47642883912505734623 0.030649923011020645258 0.0060042308830593540958 0.35677918066952807319 -0.12740048472890705411 -0.11153941085418318802 0.21739680650565193498 -0.046422702729565876179 0.075530346327858946531 -0.077474656963348736971 0.0070086118992835743507 0.14658987552930671794 0.059338126474974467461 -0.016948350574461854001 -0.16289514849064307134 0.28374404270389513849 0.1001004318373487495 0.0053840944128680442993 -0.071076526458440827949 0.031962594876204647454 0.12147641546743316587 -0.12978443403237113762 -0.12401883486944517698 0.24120882256558495715 -0.03422849529258918666 0.2697473485518508407 -0.042805613343070869625 -0.15837738089603117797 -0.2024078577124568401 -0.29061442600819431537 0.07609970997013802696 -0.010453057859935980037 -0.18912927578095972692 -0.23503939125996181625 0.26143535463469064206 0.0071862777590058664334 0.098096533552131687239 0.0094297143199683214343 0.11493243192960223009 0.038635638931125940165;-0.14690517083291845801 0.05580898116771863815 -0.069254425851829157224 -0.041228286729532118149 -0.08864303024024992872 -0.021617704276117952894 -0.0815071812745333385 0.023283239602845402783 -0.0078329793406152793678 0.072110519581573870318 0.076749646561006204526 -0.03935425470242961965 0.053349202046072186079 -0.14698914347699845728 -0.089099501949146675539 -0.14952035119734519153 -0.26058273099639234216 1.4945702026620524272 1.2443145837135309861 -0.3051740414381591826 -0.16415046106971739603 0.014464304181059432081 0.15372064531104034923 0.086071822802189834611 0.12887251731554477674 0.2131715996123562662 0.045731204843679651439 -0.28072921512102760877 0.15629268338998703047 0.12801487143696638205 0.01660601687089518011 -0.0419376610235999564 -0.091170649012512983145 0.091712774708420305436 0.074189317472445281965 -0.0496695404138982749 0.06606611964752510946 -0.053474368210562291115 0.032925154608225044861 -0.05326323904036935758 0.059659294249625953455 -0.053828693958384903062 -0.066673875525336767645 0.012896304523752042531 -0.055166654295077041659 0.11560835743277821097 -0.054104436494163632432 -0.14163681357466534338 -0.33023253164540283811 0.023892688125437940017 0.025199627670077742042 0.0031959692526294224829 0.018287547355929408693 -0.0015530075745781623045 0.0026593175548074664792 -0.016945341422011865606 0.05467088262731477355 0.038120383850715790219 -0.053449010577835062707 -0.027795218055245925898 0.033374868548019298586 0.1194879692336709015 0.057592621535211732664 0.0068642287752481347812 -0.11258543989057960555;-0.092860141452456440581 0.073536552744299349404 0.10816925912739601412 0.043140012323229122437 -0.03825272882855636214 0.14264845056824701497 0.014388722521613651201 -0.067315411034598260365 0.0094645658889460377444 -0.13062053725894112732 -0.0084780045770879615408 0.010309484203211097958 -0.064272714875105718679 0.10212560469076213676 0.012989645519264493567 0.026085330412850320225 0.0046878666669980285919 -0.23137893962654104696 0.29879039342733543227 0.32207648494846602416 0.13865598316668684142 0.051562776120006321989 -0.25335488757674984317 0.3763283944761713351 -0.21180173803274077171 0.091846587518884637014 -0.24419539699593459381 0.08969964649175002358 0.36108171459326887653 0.025961884056378062985 -0.59538030173886047347 0.26861100137922766518 0.014099186607150877848 0.21742183885811458555 0.016785805639038541698 0.079294527631574698856 -0.11783982249227599459 0.067781131904360220064 0.02604290685525963156 -0.050145487187932172302 0.080597857363011435328 -0.048545289418558144889 -0.021577439933071936029 0.073645486517344829758 -0.077988065288954633303 0.05572843445679370733 0.073009241454845372199 0.021785208808181990431 -0.1795698576309564809 0.0016317457135008707828 0.16664906047113123289 -0.0041460612167153075222 0.0080604323185961678638 -0.11978853575638662154 -0.08952364075423432932 0.028055777773993907653 0.11079162475786569209 0.030402759470366403499 0.051050366034965044548 0.052733838646569837494 0.077354958559759962045 -0.026015003439905995397 -0.078044478992632809744 0.013430834760277694101 -0.069236152750655810539;-0.057540866249925944065 0.055348743966050405196 0.13818160128415710175 -0.0059929380283850457872 -0.02403255056222099173 0.015592333393658053958 0.061608095662702325179 -0.0391702956227437879 0.11425517906997738338 0.056674462647212847655 -0.089888531366511495446 -0.054579188364955261159 0.030218867778661475526 0.02385449248722426932 -0.076234179271970903269 -0.066141825858719291431 -0.21393400584922087071 -0.39794169840589266318 -0.34302390993732267965 -0.38455426465331610242 -0.39218556999834963683 -0.26458996733667988766 -0.038144203837198818741 -0.6849841534060323589 -0.35857201736229560307 -0.34219846575179485582 -0.19809617774628637821 0.30402924738476649891 0.19135608728048378313 0.11700389143288632277 -0.19550483167815546626 0.085618638606392793999 0.001910348962444647497 0.070529756989256967015 -0.013793460717151711722 0.092690048286232187835 0.046692053124331528435 0.01691367049985949278 0.060180081672674565207 -0.014122449448663710811 0.085568364477490430064 0.026561217381525337178 0.10726499944680613352 -0.076897396026637684918 0.17529264283068152208 0.075651235164610836081 0.032788753713118269639 0.086455247857300590586 0.21614780880615941383 0.1731683249383034473 -0.029399890866261772088 0.16369410271818929381 0.058146796917378680558 0.066791640315214687029 0.027108201150578836031 0.079258154712200573622 -0.0012646045634325177743 -0.030519404287617204335 -0.061490419338518967352 0.058913595686993669442 -0.022706894378386868749 -0.0050960650807671935975 -0.064446657390093836648 0.015349025699731518035 -0.0092275367051323359258;-0.065268237621955396688 0.090268403348895756566 -0.11665953704532261437 -0.029619541538958103072 -0.11881975995993543371 -0.25803287825698445479 -0.27604694212043662249 0.15245923205219802377 0.0017066091814403917815 -0.20197212751947354881 0.24306230986596316646 0.0038395545572590815582 0.21876707731393260636 -0.16909810521234325265 0.019528361733595150929 0.074645559240624950736 -0.50902858240853310345 0.18205420941088343301 -0.14842535872771472905 -0.74104855781840850426 0.28669108676849353046 -0.19267037040481954646 0.29755176868194049833 -0.31764582290643028628 -0.047425785246214484381 0.02716781208058829597 -0.066227742888896545814 0.20669708193341995717 -0.38499060735780787912 -0.39893706516314464405 0.0098825799949121620469 0.20771824234018643196 0.30867421312825377155 -0.042214299748120298617 -0.040856770937205737215 0.083916100990020447981 0.17038169381794057711 -0.099051782336917248983 0.20871184917241275558 -0.23924821865970868906 0.18428019130784970003 0.050796293568537848051 -0.093215086552343312531 -0.062366015845294747733 0.21155851534538802627 -0.11833035916219115935 -0.095310454909562303261 -0.15626346333893936791 -0.038987003464188055291 -0.10501624681750006129 0.12636996563827937456 -0.057004046286851121905 0.13609908057299915929 0.46031735674324081309 0.024414965848437046592 -0.26977561732561761154 0.10651293273199423373 0.20941015960314229849 -0.13490052253455916964 0.22883796813009754656 0.059887444332148619119 -0.040017591876086680558 -0.29294800039678908776 0.19826543604694124578 -0.16701961440355764243;-0.17374885507523377126 0.14251506206531314169 0.12434678297188953011 -0.12892315123428460533 0.17430604285584208601 -0.16099048314975550333 0.10086731567135565069 0.2717595184228914218 0.006114105928701955503 -0.084005261378692491769 0.135679136938733097 0.19558660713211070692 -0.25417384328354797329 0.024921354375337767539 -0.060013824988971821439 0.071783023835937653789 0.53715487583528531701 0.46969733557045301175 0.33926535832584875374 0.47067237574565395919 -0.27027022989714238888 -0.18208930755218030728 0.1328854410250084328 0.15867322993455021396 0.13305601558319987698 0.15530626222833465722 0.38672978099794075302 0.40511912113573905758 0.29468834931906029428 -0.29226854849836958472 0.095539127815912880393 -0.21994636119585184164 -0.14315388953218372015 -0.080007829453132200959 -0.30025813074299473326 0.054299200547029372044 -0.15308922873277985843 0.13822327928702649036 0.24563793986265330949 -0.18301922924362909462 0.2275241654399291491 0.25867063490679842452 0.22538364723541132184 -0.25675742111525723388 -0.30669952353257762256 0.094600013487204454021 -0.071004360004775113335 0.20536414991455334556 -0.25607613142834512177 0.028019152677169950616 0.16437596758357309046 0.052731464634597061125 0.0068584576371726992464 0.18802217719902764026 -0.091923481772126641731 0.053610200285172535106 -0.33441426672524049435 -0.038564443383616420213 -0.038787370062316015029 -0.093204868231621107455 0.27142730730774089487 -0.15056646560498221366 -0.12191427774328311706 -0.055505397972495831849 -0.035564496971111525525;0.25876957579157860989 -0.072941363341460077607 0.21895789885918062745 -0.017128769563237170731 -0.002721291020704991355 0.027513291895550035654 -0.21860149725800659404 0.06401551308870788437 0.10732857354008064343 -0.023601882285978124237 0.047497322270980982251 -0.039309707856676916193 0.065626295281960261851 0.086357854296407354777 -0.14686784945187392193 0.11968204044613267589 -0.57338206719658191268 -0.064058178317464423146 0.4711999645894440758 0.1125231227966919656 0.38613088964266445435 0.20024642259447023029 0.68946787011758936536 0.050120543165479647385 -0.4118727300756869214 -0.74253700305291325812 -0.44509321970943521718 -0.29774035300346013422 -0.25204223617328791462 -1.1260076108979397702 -0.5778407566101667614 0.096109912588550699963 0.025642608127957947084 0.043063416379519242616 0.02668151894466865709 0.033939153447163430966 -0.060069121068081592074 -0.13532408557733460741 0.0045164379211603423309 -0.0029733152354504757686 0.24093841532329504651 -0.31442189902719624994 -0.0457464133599975592 0.15486961871321872075 0.093105591175991569974 -0.26406193916189529824 0.13836761366365887826 0.047797486668866656645 -0.1668724834194177109 0.15815196598601899414 -0.080236267386905452126 0.089134766003109169863 0.12920468206884888618 0.25320331985037264344 0.025638145410602834057 0.035228513645541283117 0.044519931400917825415 0.062845930767669769268 -0.0502252472329839314 -0.14321831320030783963 -0.037469372640732169499 0.013306675417619822852 0.15883821924626567723 -0.092914273445152836817 -0.0022962074906876248429;-0.37349088794778456668 -0.046266100038985707998 0.0043635232665893176895 -0.084650132928518431741 -0.058971666838253958276 0.097354982874119269654 -0.35474664813501438632 -0.021798140291880329505 -0.21675945982789937561 -0.16557895609910922019 -0.071033848759117543259 0.27962147909324364115 0.13064051722224487295 0.061704039956001772993 -0.22915464473529376099 0.14642975853055550939 -0.18972434933220080899 -0.15332398145202588702 -0.00962243311554344255 -0.1141828829873126061 0.13037097571736833146 -0.04073229141963104899 0.038942857291040702816 0.11040941375004965919 -0.17093350111195820817 0.30491718929036920605 -0.10463287058999910795 0.13314492523104848321 0.06306181479271655288 -0.13032409989370113967 -0.22070866641494563121 -0.18288519011826237515 0.15373248255177085486 0.010006315698826715246 0.35901990841146330657 -0.25933200353563590213 -0.048874833828782132672 -0.026998657392874689936 -0.12088168548063399355 -0.22179478743624159165 0.16556131935831347457 0.021753845953740545693 -0.073490759058797330838 0.17711385918778255188 -0.15545348481654269746 -0.013084603717616655541 -0.38511517332751243892 -0.2923584103974802284 -0.25249872062942974038 -0.34267167522411806635 0.10829746875904021353 -0.068396361498136937218 -0.16926993425059400078 0.050981064979734591613 0.023677818028639139453 -0.001955499904587754828 0.056201547791835115842 -0.062616140901840811051 0.28951592386632934994 -0.11134538336129679026 -0.1192008226788965064 -0.11123210553824861013 -0.17461399794097687277 -0.017742025428120179742 -0.52054952751213312556;-0.19727735499088824844 -0.37732844046944968852 -0.26672582552485835095 -0.18320038012446795972 0.10460426092260881326 0.15883313889926078954 0.2015795171225229776 -0.25483521626848409936 -0.038539479410844568186 0.068604400012823987809 0.10358975519602264814 -0.17811768175200609621 0.28227395542183003618 0.32478099158855744388 -0.1377799141058830279 -0.0068962127026469619701 0.44474120125683125337 -0.033444910233011763967 0.22003080016011716813 0.10631915037169634153 -0.25360115733992816267 0.13637597588983405017 0.02362326545584798182 0.08311997105878964065 0.25382664200422144773 0.40951162248307426683 -0.40514977638476440402 0.1904325656667811284 -0.12423296766923339063 -0.014324971788131628248 0.24774032489909159072 0.10977466989197211256 -0.40309863658239108997 0.047311007666894708268 0.15969498408442842075 0.12095829087174818361 0.044774076560285272497 0.087979302885567434167 0.44309168347739497085 -0.032081590481965398254 0.12666968574464629316 0.16064995646146215669 0.024604981339774491256 0.12732092195577410232 0.014459393160356780877 -0.015605503083289307478 0.28453051718232413858 0.19351365056093977612 0.034390653309760862988 -0.21391931407619368954 0.1470154116057205973 0.063078443655338350959 -0.11361417371642781871 -0.12210140449221197623 0.4002582530436912811 -0.0081102773409081480027 -0.20196311381140005792 -0.19228561359405413334 -0.21439213940614429421 -0.12789761547660855046 0.29962570061218180006 0.079813673113412947346 0.16182735473663914516 -0.25205211509565095263 0.043436300613055874031;-0.037227483183463645766 -0.083316091040516043753 0.17453095280785618781 0.033561433080710911803 -0.059035820193006967316 0.053561242657311658455 -0.029397016816812737011 0.097421879585461931828 -0.028911795226530777325 0.041553601679486081022 -0.10855244112408203583 0.057276814053358104939 0.1837220011434660405 -0.18876365794292682132 -0.046844283501157019112 -0.25260850503514109544 -0.11463291581263992946 -0.83947029229251890481 -0.88717974978262437169 -0.51239568668239376947 -1.0424787074345887028 -1.3820535187322560144 0.42299865604008618503 0.85407335450032184632 -0.26311354906667849818 -0.008418251035882206787 0.11834538244740441804 0.26310318481894784393 0.19857127959198794809 0.42321394934521527897 -0.15293062023769127267 -0.098446071077119071124 -0.047732863492154713192 0.024055727437756205256 0.023088148636882192127 0.15701725050922143989 0.014069981630639077919 0.0099229684407711425675 0.080414415686256929261 -0.029716701775204655556 0.06026936032200582577 0.052163897029982822517 0.10923928889519729513 -0.11193214031009625364 0.27847823557737683142 0.10200633125926915346 0.045150256207029650091 0.13585579274997433563 0.10207372813079906848 0.16147938809089074086 -0.18927188442594400364 0.12206741981177490763 0.25755267702223655357 0.15315650210247530594 -0.02026697487789914584 0.056671327931632972663 0.068592770316132617436 0.014175704767693230943 -0.040882147415283343062 0.13024980378349809707 -0.0044406792626429840778 -0.044006360957166187897 0.030531853093461416848 0.057006159630177945241 -0.088904085251572589899;-0.077687698408050509524 -0.023985873590855195936 -0.07056600931346650174 -0.17581157049281853633 0.12182165389578103465 -0.35387418538462422912 -0.057576853107369714568 -0.12297030634306078956 -0.047987086933294315072 -0.011369940197708983121 -0.096104671385848924881 0.30727316767586349 0.088772019090714984757 -0.1734359285586375421 0.024858033631251129358 0.26446544464331772639 0.38786398284721496088 0.14417514708313389216 0.090084612187644186321 -0.36674947386820583306 0.3522531903597616032 0.71932879873627353362 -0.042106903866842709805 0.10351240672665325271 -0.10033229768024115591 0.05034115984888395956 0.2019533986015600302 0.029149376238472989031 -0.15959668678354940741 0.15806718155069088283 -0.023115565049294229533 0.066974421053188015751 -0.28233837466500816271 0.017748486772708245429 0.19248013400289279429 0.051121493805541151634 0.059579728246949750781 -0.10370945306020640242 0.24867786189188281765 0.07849493138870418385 -0.039263171474127687988 0.043052913328912104096 0.11105628626265537373 0.055971847647225535238 0.13977338598628560873 -0.12869532004607428521 0.29318583133131559393 -0.0572716189580417534 -0.20166647664633180481 0.093163152766817275419 0.50054355170062470037 -0.13370502578572057706 0.19112541923194223403 -0.048226311223184131771 -0.23730906957433073323 -0.040759030221461545196 0.091414713679047535089 0.13011397011913702904 0.0045128882148739654645 0.19192340314775466203 0.14374898796919324817 -0.090942490443464293892 0.27950137207431147157 -0.23794915616480080689 -0.23478048087954483947;-0.031781302462117889951 -0.027961566419801325845 -0.10663160100383141382 0.010157785340247155875 0.022735966551286790338 0.00076244850877115258325 -0.1159721343536524174 0.013554695312749165392 0.092445863093050542614 -0.13178163724108679644 -0.048254240335583821475 0.13350721023106221219 -0.022620232575115584162 0.082157387294071501649 -0.034016022871939319283 -0.039368691618597004278 -0.072812635609756606869 -0.13973528873893187319 -0.035526865655336539729 -0.15959711955077124368 0.18532279937097739797 -0.24582832901039203266 0.30978513838813059866 -0.21148851288570805207 0.33198051639558934234 0.28788257699083419361 0.22237069161577346921 0.011392208888245483264 -0.10426409144995910094 0.084732710307701936125 0.12251129711615153794 -0.038787757156626648247 0.082350845725046140089 -0.064284742905765968057 0.17194076012587936053 -0.21379146264240292408 0.05397916367274946392 0.091967919500989633863 -0.20798457018913721339 0.063205586169053015744 0.12206285338104166938 -0.19520410091042278422 0.11395150594177441694 -0.12533574118024526367 0.023214965500322856662 0.1805399299314059125 -0.11498631582627696912 0.074503738725525847642 0.26915224250799496541 0.47249846708215487157 -0.0052582507017903011223 0.079510264155670778985 -0.047873463781422070928 0.062214203321750871645 -0.13156980905845161445 -0.11073318440456726697 -0.064508261767774410789 0.0048260418777560654124 -0.069234073499492260195 -0.17973975449076298738 -0.023591169501849397483 0.12198357835386317016 -0.19889355643474165847 -0.018036127454665370345 -0.059193032106908502477;0.0464552980851417191 -0.059943334873412988661 -0.066549574873348379955 -0.031985827597279352374 0.046878635233322654696 0.012744305118281160083 -0.011602105155876531878 0.084115988673542613219 0.092116860690634669306 -0.19189600767235631684 -0.11019133977915761269 0.070916840753150786614 0.11410132767295110001 0.029948877486069325898 -0.06794856998322647279 0.54335856706061314014 -0.3702469129250218205 0.34040007408770783792 -0.10276319821297426327 0.38440319473355261115 0.36470963995073674146 -0.028134953045460597831 0.33846499147369202287 -0.059374170840941459248 0.44593427590674838967 0.24997355259891088086 -0.46188508177810888577 -0.26185641397063669222 -0.12806048956435384101 0.10854256180486930583 -0.41583522579317649948 0.21035081179548156816 -0.01909761863460911549 0.14215564315635584314 -0.089965770532884375976 0.014491775221193058804 -0.093276543558867039407 0.12569511458274107429 -0.01567827244951908866 0.00068415873843392059628 -0.13771575138060551668 -0.10978776078617764889 0.11238956406288011514 0.034456392199093022199 -0.079297489161068698826 -0.097171348520328604259 0.0097685681792864971495 0.0082108155575218305655 -0.12652075204824467236 0.028940403265612039269 0.040315887483130918856 -0.030006499076281584193 0.031884927070052790365 0.011785510076016535858 0.083129823618040193933 0.031081756111565717049 -0.023965378979644635232 -0.065538175893182087917 0.092685856167155480922 -0.19096754887883041207 -0.094659761529817046388 0.028975694512327357377 -0.059564162817211663281 -0.013073585722441855017 -0.053161365416988654031;-0.03370789164242241065 -0.049473681509923914112 0.053429031664145268388 0.012941635004717922178 0.049950797133300917086 -0.039367412279674357523 0.024543547707925147949 0.034205692155890997375 0.11234712881175203114 -0.19539406803436501492 -0.18695787226917098822 0.094545464369921061731 0.20754867480838362637 0.14050160758951463214 0.01389473592660442347 0.095140938115099216166 -0.16334067056831916287 0.12143661885466533468 0.00090735208890515943458 0.35783074938870446102 0.17951597950029335449 0.10292072500793077172 0.33372342960528028621 -0.16019673451489954696 0.32278145995397483636 0.53278372051160205469 -0.21777270358735825728 0.02039071572135303656 0.94384336516755884539 0.31316411545403605166 -1.06144835159848272 -0.33705197992729529766 0.026971681028304203553 -0.10239355174941060234 -0.051824520001969957839 0.025237463260679854349 -0.13724723842762517889 0.012367738308991441457 0.010636412504255744402 0.043883181382194720588 -0.15639349730805660044 -0.04702964647521941377 -0.0360225117696044983 0.046461872099566037253 0.039778355440211507488 -0.23346625192243422586 0.098804166157410944216 0.063244195891583643299 -0.12933550587312833691 -0.11946564196125088186 -0.050120165382054368552 -0.021766164888937455935 -0.026909207620735293987 0.047922220865316618454 0.066910847417044838625 0.023890496990784142878 0.038879571668992182754 -0.017126593092064927581 0.11485630662290403914 -0.19258172092585842949 -0.11269438853091627573 0.045685537645250941241 -0.054881560476006750748 -0.029776100175615521914 -0.0049431898868690978682;-0.19879396370350044254 0.152221924010542492 0.041007444642873494556 -0.031617537926088443156 0.16727011319525530997 -0.012065404656077666212 0.045133540177773441571 -0.23515132895280044245 0.29493169048011558253 -0.097639855323552918187 -0.28218429829225566419 0.085435638896124141417 0.0018805829672651074198 0.27327954990714753425 -0.096739938658386731563 -0.12635012080182628225 -0.06059480330160824102 -0.62066591178816110652 0.25863362858653066167 -0.12615049223999758032 -0.39004118402469706295 -0.30423730957711969669 -0.034170292493192061523 -0.17159093268838387925 1.302496487646040757 -0.2569363758979745227 -0.082008849614263565342 -0.074155031259475409633 0.30884780533137029535 -0.0394841052317756111 -0.2520893316235012227 0.021262211343571479905 -0.133554536372925442 -0.16639738775060561315 0.16798325824153698127 -0.15558415821663507117 -0.023477561796409109757 0.097054045878694442107 -0.13009318237358136194 0.00065716812585935556468 0.13320346663670906695 -0.19171987443340801627 0.10879174379310832532 -0.067706430314959889505 0.099543797324742416821 -0.17040054842570340199 -0.13579512527448481252 0.039116415935268308846 0.28369065358673745125 0.13855636181845931709 0.0024529240458713071765 0.055689392505619501883 -0.046525345564654249642 -0.10896379776651225757 0.0022108598310328388126 -0.050128782733734611465 0.018957650201942677359 0.06977255435161865138 -0.070507377693555667308 -0.14173383447063495066 0.027349642759259565339 -0.095503543618025724116 -0.057204578147305840119 -0.04367108036742949756 -0.087402583301341013611;0.15262614240977134816 0.0015780811817720065762 -0.3710896703107001704 0.070644870806860313173 -0.027609057621121507742 -0.012508304388245922861 0.30111033226134603646 0.087764999739127033673 0.2986855141458298335 -0.012097207581574476523 0.32748874784676612615 0.21341389959719464509 0.06753727057557994129 0.082081774410855026791 0.22387399912835787008 0.31096326448040567669 0.15893143726110683933 -0.058822008384165611061 -0.12512659392559136173 0.029282641819189891147 -0.22258933271992337177 0.14029826711617526813 -0.44862080621140298931 0.34066035500100594335 0.17908460794122940674 0.13602725395163042799 0.51695538183912614905 0.3071530262283787005 0.15564680758509830127 -0.049822725070831408445 0.044574497835436349691 0.11123803012168322069 0.099477776141612503369 0.18744121539840821744 -0.11406824710405255585 0.13336790681113469548 0.20132369905162797452 0.086470057367929301084 -0.18118242887747762482 0.0082536586948745056802 0.0068618534617378634452 0.23511599701697813436 0.18370433554051102121 0.030899618348731009571 -0.065266170760138977891 0.056514295389424581972 0.26268773031699149678 -0.0075785189066238829725 -0.21849468907122576722 0.062499705752828531302 0.15219704335270611839 0.22736113301724861224 0.042578515005665465432 -0.26342272537137634281 -0.063738247122832991653 0.1839791630769034847 -0.17791153086411154449 -0.0925761494724114814 0.062666993456496164483 0.041435720105658553625 -0.020829368188612903956 -0.20758099805373642077 -0.033607004008175900278 0.30551830719276978909 -0.11573565888731730811;0.21068214632245016449 -0.11263376333969682408 0.12601490122815151018 -0.0040279354016484331114 0.0095218149298379531342 0.063569071687909664559 0.055494767634631694819 -0.093996733216811775846 0.13848792876555876541 -0.0059925157724791244113 0.00097917308232457062056 -0.027840975269326002917 -0.14533327309152166418 0.093726637056636849521 0.035478182403199227946 -0.022495105907971005288 0.33902128470752340705 -0.11533843770625197556 -0.26897150611813641641 0.80882341768429755202 0.062154758462750980819 -0.22803522679016324792 -0.036501091442646141361 0.2204008887495372826 0.06265227448616124406 0.033318431610583523761 -0.05889513607490135666 0.13981043697940823134 0.16680341738909576499 0.21915937274478525243 0.12536212865758106227 -0.13327189462180991097 0.012899282671505307718 -0.018520080709486286957 -0.030828825299007833055 0.076901055969855497407 -0.0036727193126368986448 -0.10411476526168056411 0.13350160050285544977 -0.065334149459187099152 0.12103496272786123944 -0.090866044129706821653 -0.010673084262589714946 0.0059661326305232506573 0.066190724083031560188 0.01708608778680141202 0.10042065498398364265 -0.018068232694534471644 0.060665439002232549037 -0.27796942876370667186 -0.13583148315798224126 -0.095892968231321498718 -0.116574271093854126 -0.068494559655236250673 -0.10368034092649593136 0.062454539975693411369 0.06331287366548229989 -0.070323004825369225812 0.00042844950679022872353 0.087792782887926149038 -0.020832002350097189591 0.031305178418107981742 0.13789207191444236011 -0.10826734370150263576 0.0035487656225885854527;0.015487348358761787379 -0.071191506118815986448 -0.016401194109432533363 -0.036430637718619415799 -0.13532797573126248425 -0.018678081306111406212 -0.024890449389036711086 0.13736693420449588854 -0.090997754844911821204 0.067169658985771180104 0.14506096116116590222 -0.0047620385635000856903 0.012908082526376410751 -0.14751606247236628833 0.04503550943308383403 0.10885873054098550716 -0.43758758017962340325 -0.17247536957347461839 -0.094791848488258931282 -0.24330990817961781203 -0.044221371948785372086 0.24641780586198280822 0.12999597715466648662 -0.38228168787850919097 -0.66626589752764020513 0.41871302688363687405 0.10236422803719798236 -0.15464512573022570763 -0.19537324838787251124 -0.12383385053574368084 0.15961264134453670427 0.0078869367126661541617 0.036352629707598824171 0.034377237356016804304 0.025139246129601833246 0.020317321221953059396 0.021761679589368476684 -0.057184252141461833219 0.1466519170994841359 0.033514156008074350024 0.063073737517281028286 0.074327194708636357134 -0.043449253268300999653 0.023971012110466545508 0.063832602563954191077 0.16881825412301934564 0.058708322269197539545 0.079410805556357780266 0.045069280210981547963 0.093081802056099116616 0.0077457115494913679477 0.061166853242571456173 0.0078476478228668364312 0.060039756643447288187 -0.078726472257098389917 0.10246450168244078394 -0.058951908498879296294 -0.043526161104634003562 0.093664042408158801334 0.1039221511697823036 -0.046770748767875049146 0.1491802919828413565 -0.058881444684323255845 -0.036057264060945171114 0.034117063196805810787;-0.01963849448903531511 -0.0035668401012743117945 0.04070036085280429039 0.22355466249883423902 0.038954982349211957071 0.045198709279711792031 0.041206536481166934627 0.008005931773839363233 -0.038671474990946690109 -0.096515458297791539843 0.18620786639970440812 -0.16075361562508505564 -0.13782735267602611029 0.060934079721592121492 -0.021742240806901937111 0.26343954967171812065 0.090449258459402243071 -0.64069095752978011404 -1.0035922099520591111 -1.1088074324172851881 -0.76781544242466637229 0.34450806695131519497 0.27812747951604815944 0.10666117522913301507 0.2915102588279000484 0.37244099400640601205 -0.38643148204096305909 0.12692150041725072662 -0.14182627033978528752 0.31362390627981301394 -0.48447181104814995845 -0.49881192575108390663 0.11706585995080408258 -0.12827960706391156043 0.149758285701842353 -0.15321630917171633057 0.19850861302456174196 0.15992707707342698753 -0.10960980471275119652 0.14016942188470682407 -0.17554094311045115306 0.07630052815932039656 0.19199715560860142194 -0.09297649860410414635 0.020563794509600996641 0.20873472938269135857 0.096984538730791075567 0.079197944839180134391 0.23574059832179850016 0.14462847589922728231 -0.016365742683366255039 -0.081002118597730085603 0.027203634637868585183 0.063272391196626170951 -0.0149271547408240772 -0.04607280627243664356 0.013052387370098582353 0.061207651275766952748 -0.078811791349585047506 0.071290742639339849118 -0.022787687970418437494 -0.065475140797106895496 -0.16334264386468388963 -0.044039674757400920635 0.051505968845306587811;-0.026271285953393314072 -0.0054022385371016723443 0.10085439624832726047 0.029828550734568710229 -0.011969929972621508318 0.079095324749156092903 -0.02961713856133990283 -0.015452943381381929744 0.14403527264027898847 0.094737870303164647967 0.016262809276907271017 -0.11574368101019083532 0.0039235708842645430211 -0.090132122667088976353 -0.12656787009355471851 -0.10180149149731453073 0.22127514287758837108 -0.14712495898648531023 -0.32932612910052816435 -0.26343829065143109514 -0.37614247029376068898 -0.82152673256172115135 -0.31306840577844358142 -0.096203281364117002039 -1.0518745684405186314 -0.032209162518867164027 0.52086641123968313583 0.28079155869286237523 -0.020712121091849410026 -0.032947233661344020594 -0.069659303900104621587 -0.13483882570074828822 0.052833435645648921253 -0.049882326876010629757 0.11010926263876855136 0.11282643243713558201 0.064625214647377068888 0.016754259595960149798 -0.1238686849924429817 0.21613630034801475932 -0.041141462492932594219 0.19606700516781705446 0.12263422997587317131 -0.00351581116604801798 0.36887566166319418759 0.15806012693128748681 0.098441738035588893796 0.28031832858863436897 0.25527010409375910926 0.12459071102182124602 -0.042473350361756395666 0.25061406039283767866 0.0022563016315804264658 0.070796573200520726554 -0.016293227522340542751 0.11643002274887437331 0.033717819425947405387 -0.1097029434772200801 -0.12834269041287285629 0.043474429097868305671 -0.043356313567000606679 0.17982054822326504206 0.037346080601622713702 0.00031645333859861221604 -0.038851828377270650194;0.251636593405716813 -0.084136123407281951381 0.10969401847017001828 -0.061474224878449286458 -0.063385775778246958301 0.048212812408529363839 -0.064128589218566539598 -0.067592609766889591438 0.0071166453944547895805 0.017555435973785275816 -0.28133171377088739273 -0.069514301166975184243 0.15633373737527683778 -0.1256347477948308311 -0.090579031072770932465 -0.18937707489243482684 -0.19624849949685924111 -0.10525169734189862569 -0.32937128924571401623 0.0052445484873448232691 -0.20176833443026284676 -0.086378016188479109227 -0.057036503425950429991 -0.47907323726953865428 -0.50299536090316310233 -0.24046997383933466086 -0.15824507183217317863 -0.27885633036316653799 -0.23016621647431548259 0.041534154592614336288 0.21879299357817988403 -0.18260279153945238595 0.032402252261932648625 -0.21731453332331376882 0.0007289608627039020905 0.011586125332994863524 -0.20998709891560141116 -0.0088113086720131156282 0.20064200515764482602 0.08643733626977870288 -0.076578210594765924735 0.29426421316111678328 -0.06261846581688826352 0.21850174549986489669 -0.067498922297171581874 -0.043568234426846992602 -0.067182469289406909763 -0.25244338884228689768 -0.24464920494706843268 0.03194997584688614306 0.13180473664877428996 -0.29162275371050244699 0.02950281370342019982 -0.041121583749409579278 0.25557394905530894658 0.098737469242719172469 0.32676051632384717216 0.34047929077358818351 0.013462932452202761718 -0.30266454051395041969 0.045910816740781817957 -0.12347192484448926697 0.07598845869301006084 -0.30686912336511873445 0.33062514407919657566;-0.0066590188487443517651 0.12358299681996046115 0.015727557372470148123 -0.028027219917835712731 0.056114198043257929038 0.098665082334953940757 0.055435032775084637502 -0.1243599146512385234 0.13897095917414958866 -0.035812830356000704968 -0.019303804085428984127 -0.0050832396559699621896 -0.16348435970492541935 0.16807656928310388267 0.11253192004017946448 -0.11886418882648094875 0.55940765518342461249 -0.33641896692198136609 0.11829981068762576712 0.14051786747446184944 0.092063996218764848622 0.18352910857125340205 -0.48295243372431473361 0.013598893582590032558 -0.0055029463550257916304 0.10021822096098711996 -0.15917998777907277352 -0.18718391488520019772 0.37675767731261183835 0.45079842459469116056 -0.086117816202323907437 -0.21587724925139928356 -0.11015912418668956374 -0.065479010151427000097 0.19784653397959947596 0.017216646916266599432 -0.14172756785874812691 0.047962458472136322574 -0.14584525133440856548 0.10149101482301986499 0.13203396792704460982 -0.025042172218640305209 0.0061853623282014024917 0.0031705548075040019401 0.063018626782811323905 -0.0097894026641754602891 -0.03551862296015713405 -0.055955125914784215047 0.19430655451452499838 -0.18807944909675652911 -0.059380927446481782117 -0.015674366057155279114 -0.15143851132626878764 -0.25035318337558148949 0.0038215166570419421832 0.12490877719998964845 0.032796142749771016456 -0.092054963963433433793 0.10611660628264787953 -0.16023322499173631162 -0.063123031971649173899 0.12941638857502127391 0.12655499377567722141 -0.19198714117428108961 -0.066838107969225540872;-0.051127393090998340952 -0.017027498228962743149 -0.030124588679386627571 0.063727882020383985751 -0.039682127670915758044 -0.028698237308757493236 0.13052056138092063553 -0.052920742861748415464 0.013328024620236068182 0.12418650087832311391 -0.037116361586034374298 -0.016959969539901701557 -0.076269397944363534481 -0.014548692641737998033 0.01471951190305634434 -0.11895318326416265409 0.28774104293848223879 0.00079286539843897421622 -0.44963751331878842876 -0.098824073299835807349 -0.30630455354646485278 -0.42990837866097808551 -0.29490961302000062716 -0.31751089009090782689 -0.43626626820881980739 -0.15942116401668782188 0.052684029821630173895 0.15508039808658155567 0.11783870885468472611 0.1322895141120062068 0.13003224653606690331 0.022362612626077159328 0.03366902666686402007 -0.028974660144966996045 -0.019736340520705664137 0.10278729099315069007 0.035166288439839619995 0.009587584124847288447 -0.076486535305479858016 0.13230991365950867111 -0.13287710177911432607 0.25958769838190509649 0.033682344376574878397 0.0022402097901435460287 0.13743777324233930059 -0.033352999333419897088 0.053163159326738235189 0.08385413646129470655 0.16452218998120465843 -0.0088101543102505012334 0.025180985402221800484 0.088396382199798922974 -0.011615501035866528795 -0.0031040230089218225074 0.088591204809805923492 0.083649463064147541735 -0.0090885478091956156677 -0.051597162563546419833 -0.070293064056458645639 -0.021373819721692381701 -0.028062460405579373046 0.031086307129841492247 0.075689521276967888785 0.053512544537922465682 0.023757093911670842945;-0.10233471802293095387 0.070295079716468714115 0.10779965437642960446 -0.083991440033709036106 -0.12254434804636535339 -0.015040764577327154702 -0.11453345675314099972 0.043119125493414033057 0.041426457052975589057 -0.071226512723138332706 0.10302683227128754673 -0.083435215244913291111 0.030834688089988071535 0.032245165616068841019 -0.19184773943608493529 -0.045322341392791315462 -0.7997744682951446471 -0.12868748001037780271 1.445086521059433915 0.18540660750053186701 -1.0113016637530571895 0.40007166080896133797 0.21824994005955522525 0.034254310093689455119 -0.083020147009435232843 0.11002651870635625497 0.014126685439813737449 0.14821299516159519571 -0.013585796350988860182 -0.374253036755351709 0.031689460177156916765 0.28538219405799797324 -0.011784061321876336537 0.15381595358508670657 0.050702312904642381219 0.10028340131842872207 0.12383516801790084294 -0.13648547002814423457 0.1535278064112446661 -0.15720221714386675704 0.11606174755347542504 0.013737704194084987552 -0.054292913642084134063 0.051872662201072700094 0.036729558674925270878 0.093002984868476579194 0.099430315725315340791 -0.13976606380235115368 -0.13490499442530501373 0.12108504425121702219 0.17895056929118380307 -0.064523383900444250538 0.060772484247436364679 -0.14373894492986943883 -0.14736329274151555024 0.046099582678927643331 0.064743184520782315339 0.15587434481485193394 -0.013303916466479066144 0.010211553804253471062 0.0030841563754405226447 0.0010534877208163168777 -0.1525653270644944659 0.037941897177892425219 -0.026845896537669153292;-0.0080740449553519545028 0.031168559632579129898 -0.11850397667825611492 -0.018706578380032479192 0.037227248666939681543 0.011903868157141506146 0.044599032391817346188 0.021091846611047463528 -0.11185726090204245464 -0.074990005880176513475 -0.030785821108954319197 0.15461419018611255449 -0.012416071938059221325 0.067538127405333991948 0.20845129158154879212 0.029879105727284385047 -0.023838256961623977004 -0.024948807751542397687 0.27749859508464591595 0.19637930370100081801 0.35199210586943063817 0.24010345340068101061 -0.122743709015177907 0.39110833689438173622 0.592740311856909452 0.094065150981284179066 0.10364893779526097861 -0.024328204558998256513 -0.025671938144195077802 -0.2067338442198907722 -0.22503486021667237771 0.12134530881301172633 -0.026854252920390182802 0.069967119199773941673 -0.059260760528543995895 -0.16714974212495192774 -0.12317254057041038262 0.065349090297050632659 0.0067630645311163809646 -0.11501827958182433975 -0.060350504376257697869 -0.11601189115218285552 -0.076482008749802432579 -0.04232373629778455465 -0.3164364921892475202 -0.047556909846546972787 -0.1433702957461358285 -0.26164794954163972385 -0.17310463937729994588 -0.073781181413575341876 -0.0030001140313508467376 -0.11191388323072429256 -0.025544886513721935806 -0.07929403773211562978 -0.01786785286093270364 -0.13348627020075176652 -0.055198600973151726312 0.10274699636070680486 0.098240132851106484746 -0.075489699212504798864 0.067680530152411516598 -0.12366692160191326832 0.026484290882854862742 0.018485309019214024584 -0.030287495493416801556;-0.22530135879086043982 -0.19596234109267540724 -0.31093975702489407009 0.28226968066065177831 -0.1502962320076219882 0.24043950793833582247 0.18751373640275573185 0.19776255236823811479 0.10738787874214564266 -0.063226765481022143001 -0.094818232328659948771 0.24130995252506770576 0.18192580516396322787 -0.13871774003571962774 0.17257186053229134348 -0.25512103957890031047 0.24905067161081800853 -0.25231130902452469922 -0.22615572358635177563 -0.24328402134148829905 -0.27579060572399061169 0.067411859384326325295 -0.46573839993937560244 -0.25580682140694188664 -0.3035664024519475479 -0.13612336460807392124 -0.15501108646842221006 0.05553381293571237054 0.0088531055289007513226 0.14194347595813366913 -0.007267181548355891238 -0.29450618838411268818 0.10027816155448941726 -0.012253548135829211985 0.018598212512250609368 -0.22948496834139686662 -0.29413529807085558865 -0.13272859924644067608 -0.3050352736141903609 -0.15862481726633223533 -0.080162093682201104872 -0.088076938826141856764 -0.040744337440400853201 -0.10198702175082059729 -0.18514322707081226627 -0.034507051325187894364 -0.33407459602389688591 -0.078535692010850657874 -0.27426171289240985907 -0.23472930436531658227 -0.17438204496507331287 -0.32128115125311734745 -0.27714139803268855733 -0.050073688485714307195 -0.33934813185561024662 -0.14334201579499225576 0.18109811808992226645 -0.052101568565328548743 -0.058041382774139393952 -0.007188950757423578225 -0.36762267323706893096 0.19782808943175539396 -0.01699266818682419744 0.2631792042204837978 -0.090252357057637552784;-0.066329453482190978142 -0.039234135619444575338 0.15071202793616103599 0.027380478308121437847 0.018643587472190741028 0.064206932535085747826 -0.13977151738690613003 0.071939211919411591434 0.085503462997861892636 0.076144723788823906463 0.047981308947052533909 -0.025873777332415630326 0.070962656141388177899 -0.15140481750159923147 -0.056500671890280546039 -0.077117084251116643778 0.089813571796862917695 -0.49272501775094851295 -0.48156952371458683348 -0.41724322634673804977 -0.61404630889741584898 -1.6497465741584438348 -0.68160062078102967575 0.92980453772157778403 -0.63360517792615689281 -0.34236903299384846555 0.13768652216102553187 0.35855573278431102091 -0.17950695603586966365 -0.090111582322311367665 0.045313647866805806252 -0.06796066744230533363 -0.0098410641656898820151 -0.062286798235293157344 0.12455358579957062637 0.15134573451300986635 -0.025845758715114412057 -0.01837931677254445173 -0.089470684587060686499 0.21845742536821441404 -0.067108533616129908972 0.08804376612768419208 0.041900104433304781459 0.045278651521129392732 0.19292203806790392262 0.078872868850072344604 0.11828409061729908136 0.18153921564375224973 0.14633339193321753813 0.22570778282613307431 0.015419600753336102153 0.17605797417275698136 0.1621551137940704379 0.11913174061659001501 -0.030450249722099479582 0.062187293641239108077 0.014222329569088365542 -0.090023566740011259912 -0.017228945962733083208 0.063070927302190424313 -0.023203292682565237331 0.11976842689971041456 -0.037077188229541500897 0.0050441196581998389362 -0.021717163997054748925;-0.023877831447964847911 0.051460361379240378288 -0.067140426754613999338 0.047004267575285252345 0.020642968576383244339 0.10331538191560928064 0.023403089345522379988 0.25228762905293705687 0.042398384748171480396 0.021697542979394451174 0.15837043026901001519 -0.26237398578865422927 0.1354294261130156718 -0.20865725746117810835 -0.31088731961473331511 0.58242194584590789574 0.36089881493735703755 -0.70189519401050637359 -0.33687404860005859542 -0.64640982731759555335 -0.82510794203053761109 -0.65739609882977900757 -0.52948272242597305137 -1.0822309397929070762 -0.19351338651798213886 -0.87344152414497810977 0.057665580491210399749 -0.72346668910319988921 -1.5733413485163139089 1.0108247004196768692 -2.3750647973233278698 -1.5766925412562800002 0.12857233542934634607 -0.20997959958626136179 0.43589488126025094372 -0.39034564573148222699 0.3965788829841362384 0.3383317372214253993 -0.12122248159472309714 0.18717512748721401583 -0.068345782701257781766 -0.063807698864406764416 0.083232842007489274416 -0.093453968144640811588 0.10362383883443070098 0.1568310564550273456 -0.11244485427456610283 0.15428542888849061665 0.72456525772354374304 0.75928147247239408113 -0.016025301244809546375 0.036396302161510005191 0.096194544731765641021 0.021065581224982601882 0.058282596611732712111 -0.012202592539662642651 -0.060678035220454604182 -0.0088376894807743137245 -0.0079679215416371077657 -0.014031267499509390492 0.063575840634111188687 -0.020803913122630600385 -0.17406775908958327381 -0.020225837323423589975 0.010309420446058347939;-0.015753174546908114279 0.0097878864310227652046 0.25952052628321053973 0.071240241022439448892 -0.028685482718695302917 0.12734053668102771062 -0.030103192643840828713 -0.10103257954190236756 0.2499421110944270441 0.023613419780649461815 -0.037692065223943554964 0.20929506822120980125 -0.17248839546097216591 0.29230828317843071673 0.093840454679850485165 -0.12866640197140927215 -0.13948627151420489589 -0.28567760189719615393 0.18622678925458896471 0.43165229100552804375 0.018255523891167680511 -0.0045608221106741581724 -0.087998987536371503504 -0.035485123588235661929 -0.21107165087592849595 0.33373278185892651937 -0.31519404122811106594 -0.30551763069301107745 0.37988151513429618822 -0.17418149192629125976 -1.2487540454092658226 -0.29245949196441745066 0.13653970974567297691 -0.079410428497302926187 0.20922505306893765531 -0.043534630218040715199 -0.076802692649952555848 0.050807782517690122659 -0.023498848138011129566 0.084727388475611800644 0.015750194109645957591 0.051885443999658831249 -0.049262563444218920861 -0.029207417675234957632 0.0041625461810746427344 -0.086361896973702376168 0.45998289069565673204 0.16693592481110661185 -0.17203274490385861428 0.21050549355937872575 -0.1026075107242506862 -0.18657373454940001656 0.13555396040468062346 0.0026388152414179005117 -0.20829547853274127389 0.0091223579498117407516 -0.084925874288464514583 -0.01155039959784841079 0.012638296056313471499 0.0061374586311698786645 -0.094384753751710098735 0.11150428766766909416 -0.1095170706608757788 -0.0040259810563005472145 -0.15620087660009479569;-0.092182291959666914916 0.022060049122036472918 -0.0111253695944576389 0.034586573145288561359 0.033640779510854347534 -0.041736846298637317321 0.018084307284310097153 -0.19949086782738464918 -0.019424687164784588261 0.0096992688141504922877 -0.02391572827156540279 0.06579085637963345834 -0.12491915338008470482 -0.027927001997043912618 0.0014918893935471780679 -0.036327856739612737758 0.96066522396192643996 0.66307234169053574924 -0.41963936705504800706 -0.16540204143786865765 0.3871052735733779282 -0.038912538815859570862 -0.11634204323179411777 0.44807574803177185885 0.12011106925536368939 -0.61440472034789728184 -0.037448199128602109587 0.46913618474289842109 0.028320006430984544926 0.047749558521874985173 -0.084947690186140345503 0.093783065477985344538 0.026375831239702305503 0.013446474447955474724 -0.002964720794433882943 -0.053111762930975130181 0.018784560939527399082 -0.0074342508009690990919 -0.13492403534297225942 0.099062144841833510434 0.031123916955656506789 -0.088599105731028832134 -0.018333367240178016083 0.07111771351912098138 -0.084804414424429791497 -0.01103640729200682305 -0.022680120284569151023 0.038684776786953839478 -0.061122565427163766394 -0.006885866358972123763 0.023600669306005652576 0.044671707055485856963 -0.054434132684420918902 -0.0079519524486089832732 0.015993103136929094632 -0.056536635224998729732 -0.0027542389149784528117 0.034485079617413497144 0.018733870381133180261 0.073817008449548721094 0.10463658249925675281 -0.1182186067034967647 -0.013953330029291079878 0.08144750068052575287 0.016364092609749820301;-0.061227425682750552527 -0.026526989395668755523 0.17396114209953494889 0.030474758071816279714 -0.1867188097716596662 -0.086765886922529206204 0.05332799621166516707 -0.017159602024598635123 0.018438398113121961391 0.07731575079448520238 -0.011730044243900039289 -0.065832539302489098687 0.084964337188585523086 -0.17838798826581830914 -0.10750744310995091757 -0.30676296758607457527 -0.12479882220593552233 -0.10856209588794481224 -0.54348810908960953903 -0.41506130721741030243 -0.53330729025676937294 -0.49522131170993111127 0.37290978994024859272 0.47046905045948211876 -0.1724997716518970603 0.08303471777211518523 -0.022196019589448265363 0.24971596921339855868 0.44031022960867616245 0.21117330637747805389 0.04991484853780553399 -0.039904663184129669784 0.025380602149572308035 0.004226612674696596586 0.070933012163226311086 0.06996285609183393317 0.17959572750494928739 0.020489578913764027596 0.028946072283896298605 -0.032833824224809682324 0.11436131888830683434 0.047940179866658619301 0.18538937316789239063 -0.18935704929524471707 0.40744447568290464989 0.10288511679480891181 0.11704298835968324211 0.1553825574865474457 0.25073889842807012274 0.039496135100904675164 -0.16530019794800393518 0.05286233099923173806 0.10486366292404426803 0.10586314184018350004 -0.0056616007681770282034 0.0023013139748076236538 0.13811587292507024327 0.08487746041444761691 -0.13856899912213163639 0.031337063630754752319 -0.0093198389421378126374 -0.05655070129724472372 0.024170009865969038776 0.075267682145214426237 -0.033492881923725681403;0.10071756062306397306 -0.0015956009176539606015 -0.1537332651648866122 -0.077410010651175364949 0.059698697123980619395 -0.038435479375158176918 -0.0035579188216507103351 0.10392620140777472648 0.011630796190295765793 0.21803350179238167872 0.061612164455429295484 -0.12340899030882533649 -0.11835934686520026282 -0.092689504101807346226 0.028273910382654594831 0.13760694112931007305 -0.024513645878297241065 0.19348889593557230815 -0.47356085454216906294 -0.33698559793767368653 -0.38343152521228940355 -0.19650726469201881819 0.061103150559425646604 -0.37370326037469242531 0.18843131322180484144 -0.10343437372625677306 0.27773426428930825249 -0.39490022448061612437 -0.54370639017610422616 -0.057803719550087846735 0.97913892847222472327 0.02693716944312945713 -0.049674345720839181706 -0.024643009114299310042 -0.047382209546153117308 -0.099337718736004387843 0.18210063574445012335 -0.13990527949123410245 0.11455593328322075108 -0.04754726244146219305 -0.12143760059457822664 0.17936560736497919599 0.054785967489139879294 0.0038428926116785286707 0.067129213110973473544 0.064628334844755441768 -0.057290973877489159705 -0.042652620598697260634 0.11916160170954712139 0.031723948896000234154 -0.041786949570976929247 -0.032635569790545014557 -0.051016079712686207559 -0.060499188631647403402 0.037861485648185227992 0.0011562072821209804646 -0.10512866515353339048 0.0099719649957169271409 -0.017234616922137849931 0.060745117378894902815 -0.086997700497712215917 0.032652371437879267047 0.10339594673987986817 -0.029116645589172252678 -0.013630123021126335989;-0.1420035385915042192 0.075317917698473402233 0.029992531258839660868 -0.025800571983236444962 0.07861023598102616361 0.03068766728470157662 0.085816647098955242678 -0.021146586777786996469 0.054542553614527353179 0.21682595342121721571 -0.20129381432306325816 0.037404377780175183943 0.10950843915991634314 0.010020089333720536701 -0.026587874471862431996 -0.33216584336024040924 0.32535789361486644466 0.092364719122923252814 -0.46536140050241581179 -0.30205230738977323357 -0.092715088591832750531 -0.35978620438121183822 -0.54078659738060841367 -0.02718228906835570835 0.020388620815564618971 0.019356290347297883114 0.26150536377883232264 -0.5245962489178771504 0.065330240358173335968 0.82878217415494614961 -0.12556244822374171277 -0.24914167636584289012 -0.079258254575034409184 -0.16183392122057269069 0.0354899331022405784 -0.0032748640734512769052 -0.13581895784688188811 0.099633959090851265117 -0.067735566645508754613 0.093152723912757529057 -0.20951978335474635839 0.27006106525369660831 0.081780669232478162001 -0.09118918231856223966 0.09824582889538699404 -0.11679987848098868919 -0.025711796242261563544 0.12600356304846768718 -0.0093983290383317288214 -0.10721065771165874669 -0.055900448947684193424 -0.086398213884304797539 0.087191031787961878474 -0.084482128810450932144 0.12895081354651435901 -0.078311265458365003633 -0.0037167787457133608618 -0.064147536948916172861 0.10613171348867371513 7.4187840086348006557e-05 -0.045546207182328969643 -0.067504509177128274588 -0.019501669404232899879 0.065657563505098506806 -0.066207463823258691504;0.13950443841409521095 0.1225792577390161231 -0.032205423421216849977 -0.05878516942107497173 0.024130397046231152197 -0.017492395987887772446 0.012370934026020689173 -0.047512106462094930159 0.083991293879840167591 -0.094357564191571194345 -0.070189782962761890217 0.096213232109189389396 -1.9828943781611402253e-05 0.28640141625339154974 0.09312816461746223351 0.11888124738171856887 -0.28675838655409352507 -0.0093679237759621940274 0.4758852157224232049 0.0049977521060349770765 0.80800952073198184511 -0.067276431728682264954 -0.58337794622209082629 -0.14695439278193761501 -0.11163631269618577713 -0.004196089708582404626 -0.25647345058286274977 -0.27347279118466305547 -0.0088887104432718265501 -0.21682364265501305467 0.0097741452981623365426 0.050052106656508887905 0.097040337921968269908 -0.12555565397625029211 -0.024166721832167878392 0.078201499645562028151 -0.10079123966577289984 0.052091416409750762595 -0.16430182256536857155 0.042515414757951390523 0.056356508061434683332 0.028497490164245634775 -0.11646427802197793777 -0.0016367101294311188053 -0.04597615384215943124 0.038129085628113033868 -0.14804121503725328757 0.065340482278955031026 0.092809338619485176602 -0.15759231499452769354 0.06939281827238855116 0.00026813690678941654033 -0.11821509183715619984 -0.16095762130011723179 -0.10521621540196174349 0.14694759778081528667 -0.0053729997304392323673 -0.095606421486609249882 -0.024687041920700251996 -0.097995599138792549576 -0.014538848513963495077 0.17898935063541401846 0.024009065390032807707 -0.037518448941951471065 -0.0054902206008540632015;0.14807846092577942043 0.0050496836151336325221 -0.020829268634057544057 -0.050382426017265176388 0.0066110848816548373891 0.26706427906599805588 -0.029747853696859477557 0.39992726854026505734 0.48908053931114348067 -0.21588148051396491289 -0.39783400818295960866 0.27082316382594429083 0.26424948257780950245 -0.12508097539300905288 -0.0094840718826355169258 -0.047752929106464100939 -0.39560912676770354501 0.036208559771106284264 -0.076334303633218386631 0.31574776907752472033 0.33013636705712195996 0.35914906175895827678 0.23163753863403449551 0.37518882996696217846 -0.34483076545810620317 -0.23644171598926366773 0.28059987889207571587 -0.43899682178719834358 0.25299143491470632572 -0.25026588780049768834 -0.47547737154242702973 0.0069217709742311105472 0.28875791322321719967 0.32655263541387741233 0.074361813947784557999 -0.35364082318370643199 0.11925178455808821409 0.047934565775460770409 0.11881486268489505065 0.033858999008200246772 0.0834740015092185067 -0.2363250570726424804 -0.3538036175918578552 0.21365009766145029446 0.008334762435961123872 -0.031788488716989728167 0.042340057081267867822 0.10367356095663124438 -0.29600096260367625423 -0.28810059934243648083 0.091973325115254550566 -0.022007709951967047157 -0.25354844680558763503 -0.24210078722147632124 -0.32148526283299405648 -0.15145257960626243299 0.099365925536687119135 0.25537975537930157621 0.38827969899746045401 -0.40197152908000649552 -0.12519617942309382852 0.070968580322378946312 0.044915941372033287016 0.14607879947931584619 -0.27060343702011541156;0.18739220320672028697 -0.19295385643229739925 -0.20910010932060255073 -0.0080099534900543861715 0.12035965850788626907 -0.075672988052369646872 -0.064997797870864931769 0.079051876247454341828 -0.045200380908931386825 -0.06571565734234129097 0.045102083063851175493 -0.074251753706685602596 -0.087952056975702963548 -0.31080486246862176758 -0.16241011892884010814 0.10137062499397118953 0.11546431789352662456 -0.033313800287320519122 0.096164404368517336641 0.24910250393018476545 0.20406147829846771335 -0.11886830431439625311 0.28168079083070141078 -0.037998425907271843327 -0.6060094409790303116 -0.038186758826232361508 -0.070682076130774804112 -0.087323778572295437939 -0.41936087589747067517 -0.57963672325979731514 0.1706416471520073308 0.23096363431399263844 0.032428910756460933851 0.049735162822501927105 0.00037903231128728551158 0.32848355009897439727 0.013380106988059643769 -0.18066445873902700625 0.1162597520575672505 -0.061428221139767057168 -0.13979576857946796054 0.16809010293777643108 0.23352665036705161361 -0.02488780642184834635 0.15035604830664509035 0.049665198503964114174 0.024486666259277714564 -0.097770123122203872468 -0.11528784216448899336 -0.1852508889830469796 0.063658059452419854529 0.081332338588638225518 -0.065464243802685020968 -0.1583467320408454837 0.015954264904581311885 0.20868141606903392593 -0.061184414594155495104 -0.04201377060644530953 0.049441774389656564792 -0.38722126146661467461 0.11037850137286255026 0.051181677120285457017 -0.045821419785734514296 -0.075286582365180390597 0.18036574058122414876;-0.18418099304658616666 0.11676930949357260114 -0.25372887440980096407 0.13032629293073305643 -0.033835309189664750096 0.026015863141099656447 0.10711961847285755844 0.026287107484267657753 0.061194250999139776503 -0.012500265203389763352 0.082797075476229359259 0.0053327618875369095161 -0.1170697358556981732 0.0060852675751457575154 0.0064118242491359583868 0.2933861384803632677 0.1106168632681295283 -0.11031559821899036833 -0.49172608372115872433 -0.16057996439806362932 -0.088561296896991173466 -0.14767436733504565871 0.15697937262866532016 -0.41728152027979387162 -0.22966809283268058151 -0.068348980065882455892 -0.16269671464615334533 -0.42199430429183010238 0.14072849896336858677 -0.71974479611251573896 -0.017284056132072490863 0.1798010306882930065 -0.02975952062354290592 -0.054482055123927938811 0.044298922365844636828 -0.14542122073977217789 -0.056237580724178712344 0.16556279886724925565 0.075330751282364882826 -0.10546074245348326104 0.13846578624520025635 -0.030008933497976515714 0.17182342804780728618 -0.081691010830396718068 -0.099976201218755958444 -0.13708813099432665128 -0.15327144820194635311 -0.027586392748721856594 -0.2030433133406296109 0.004397521315849382828 0.081877980640118919187 0.067889143108578964281 -0.039616464229424774857 0.034508026108744545291 -0.073728659419465034097 0.080482195731506611658 0.037013671592640066954 0.16398045251046750037 -0.01016913448703812145 -0.062691192139140428097 0.043221160974950288691 0.15543359865461112146 0.12394762282786421503 -0.042121388716236052296 -0.018678659011101286791;0.17634900453911891982 0.1612096003581826309 -0.08411236986441822383 -0.015351793542028768086 -0.15772823417634851406 0.33710930716208048485 0.062313562887957266168 0.10960910125150800931 0.19554734403125947906 0.02302156342243559875 -0.038189053484430593444 0.15628364200348646151 -0.041003516911258405808 -0.1770338843262499462 -0.02755629006974246592 -0.082484390257846554317 -0.015754684023795529485 -0.19614483110488470374 -0.32945516470718422264 0.0029769353687233105626 0.090588295611532032581 -0.0016057979779666373132 0.32609834102868179295 0.094340613417881163949 0.048200426262536705257 -0.35867900494875143425 0.0080996340536737369831 -0.38120441904186835869 -0.42084609978148906917 0.28504023896605762411 0.10887922349382600506 0.14190377274971768817 0.24501605993661948468 0.045208975583368941897 -0.24433960205748950223 0.10117594113409847378 0.15597940492657472178 -0.34473457665283735452 0.029692078727617070982 -0.015745291158005936261 -0.1563987844535755789 0.0086652967149041075501 -0.061192342886588806106 -0.068504298369772967381 0.2200685758247839241 -0.070663588835495727558 -0.0077678725858362513562 0.053704388606783608207 -0.23874161425012244142 -0.36926783668790785775 -0.22728757326319865006 0.034737670164320284816 0.017987033923045663703 0.15578722057625771225 0.088708921370077534196 0.00024242160857071773372 -0.15582421544353075582 -0.048887363001319773803 0.17276272583799034965 -0.26952989367307778057 0.26957349953960946243 0.020437859220638648905 0.065890529694957802875 0.13112342759555895011 -0.12562517811151124869;-0.072309765822560670423 0.019375386645543991176 0.002867337533558904708 0.051064706164842189884 -0.050203971500913359416 -0.038312447421314066442 0.10631483601675378869 -0.066126234510711562331 -0.05302192967344987462 0.091544900500878434446 0.014976276015369325775 -0.0036651568526641243456 -0.076781667683964729965 0.019777842613289416118 0.11331068372088010099 -0.085570695835420373943 0.17761385774231719381 -0.52327507268952966335 -0.35099533849924130502 -0.31647120804150691287 -0.31158268208033068625 -0.46613876801892806245 -0.85703909024572311193 -0.36463123930382274063 0.31937720624106580303 0.19583815417715813578 -0.052550021135065710931 0.22831757944747427258 0.17088243129454955271 -0.37296671674536746588 -0.2168777542004798331 0.1381315838536277818 0.0042895568309369146859 0.048204014972954567497 0.027665922141793381633 -0.068337869007871893112 0.051000230489074649398 0.057954475427239596219 -0.0020778153433147318954 -0.011404563624693650481 0.088277075627417073145 0.0012451444511784575536 0.040185541396301489858 -0.049458665922174828433 -0.012774068085491823224 0.032993766319543926802 -0.042397907865949678585 0.016246773162269106949 0.18469767905199888092 0.13450451509281097229 0.012632401062810430167 0.1094562808886921923 -0.00068654331662088702304 0.041065503120120798453 0.022242186887191560396 0.0026765872204041539321 0.0054195387224143121846 0.029089264883895828151 -0.064806779454393850792 0.11764785308634391481 0.044303872803043792272 -0.096800846364210629824 0.0087508841460534701057 0.021894060781840304214 0.011888992532172043548;-0.10343759862713966524 0.16150730124108619856 0.068694797107962599081 -0.0090378894698578959854 -0.044031724423989650197 -0.01606706283992630907 -0.0022061742333335772684 -0.019598729002958240053 -0.086674602125738353653 0.37153657851642707399 0.017136195162570529854 -0.091196728869816390262 -0.06737130464202104041 -0.13532713110598623696 0.10445590080805008948 -0.58914529274953242322 0.069427645285962957811 0.18173909505027316391 -0.21224493159061538772 -0.49418026261647607367 0.05468403508277923375 -0.16126342007808275314 -0.029001451179979938211 -0.011376558392148284488 -0.18493522343308160805 -0.059780644493024649722 0.29309571278601281863 -0.087103213187487968372 0.10133367601599514718 -0.22438446018223745515 0.30935004154534917475 -0.26752199135598153656 0.019501992179451782539 -0.10004836383547133227 -0.070194646029909074647 0.077425248031285115458 0.1383840028859724125 -0.18432235254191550733 0.021621056043110559869 -0.024006311431735490036 0.034123620729086999448 0.2030577498958806848 -0.1028121017889096489 -0.059874466639531200018 0.11292296053776401665 0.20521263020784641373 -0.071143307692537655074 -0.039294398111351429292 0.047127199127879576546 -0.061678578925822791224 -0.090528168725091839875 0.16651496418238101449 0.028620988170301338988 0.098974129734252111468 -0.099814916189859048679 -0.060917354475479808251 -0.061100489896960444303 0.0044015320377884439157 -0.23676498669360976357 0.26370952840693606678 0.083258981010026517078 0.041460858743708500773 0.10193304839067941769 0.085488043273856603732 0.026802171759071125035;0.022678415612470366469 -0.083069306276685087043 -0.018114808450629522885 0.30106729920793573463 0.14574163670663908832 -0.15330540040172813132 -0.023935743691240234099 0.0071092087321592105364 0.083162158309861580752 -0.083157011500876718002 -0.07293762113605645192 0.016733546234363700506 -0.2175774782959167819 0.14126719880309190902 0.34857339322982017205 -0.23235849359201538045 0.29901564585942785879 -0.082267802286859925687 -0.04567724617891637251 -0.12860217204717125372 0.043801705134265039865 0.36317460955807356893 0.31960036148807657863 0.2735315057816012918 0.098996323511884129487 0.45003307511884821368 -0.27078068354826012598 0.062724082706615003069 -0.022349251398731295043 0.022816345239887521334 -0.31262197778876804621 -0.41496123956577968261 0.30414983693654157326 -0.037234066920168701342 -0.041529940025936074033 -0.086530710629684315371 0.087654116815965132936 0.10595861392433593429 0.10792335393492333284 -0.14921183485362729537 -0.085835998288624093533 0.027054934671010069658 0.01727169301831191911 0.13626448870006760417 -0.14615564767696365145 -0.0064342527011180226937 -0.047617283546019822937 0.016024344791947676969 -0.041808330679428448717 -0.19184378490794321004 0.30881518844823779846 0.10267389638605374513 0.21358555221764624621 0.17556945101376991714 0.030025226062495934121 0.087298876618273360539 0.18420968366320075726 0.16115739321576086351 -0.20912506688701626434 0.26150410363043680162 0.074180014483532563663 -0.11848534857833867284 -0.25532826849390760637 -0.00047843388398964657032 -0.091431409333782479032;0.034919438434240251956 -0.050553851701447480305 -0.1154142195499075485 -0.079000523285722920597 -0.010306994450864614618 -0.0035159296342557005803 