function [Y,Xf,Af] = NN3_5MHz_4_5PRN_nnfunc(X,~,~)
%MYNEURALNETWORKFUNCTION neural network simulation function.
% 40 hidden neurons
% 10 output neurons
% 35 outputs
% Auto-generated by MATLAB, 16-Mar-2019 12:00:54.
%
% [Y] = myNeuralNetworkFunction(X,~,~) takes these arguments:
%
%   X = 1xTS cell, 1 inputs over TS timesteps
%   Each X{1,ts} = 35xQ matrix, input #1 at timestep ts.
%
% and returns:
%   Y = 1xTS cell of 1 outputs over TS timesteps.
%   Each Y{1,ts} = 35xQ matrix, output #1 at timestep ts.
%
% where Q is number of samples (or series) and TS is the number of timesteps.

%#ok<*RPMT0>

% ===== NEURAL NETWORK CONSTANTS =====

% Input 1
x1_step1.xoffset = [0.000242721734821137;0.000333464236790137;0.000162431898402884;0.000593040294203208;0.000644881970084635;8.39285455971863e-05;0.00155942703474131;0.000750336107652531;0.000948284050648692;0.00140173225495087;0.000975903079015312;0.00393521247208007;0.000916713459676229;0.000324493700796338;0.000756234312876483;0.00475230692288015;0.010149622270129;0.799940876167834;0.0244604533984465;0.00452426168624107;0.00332295326314917;0.00390304719633434;0.00288172454507357;0.00160752561352546;0.000493578137656122;0.000332637888531951;0.00126965517567929;0.000356608430176367;0.000702284950896407;0.000788548691521632;0.000744320311919279;9.41739476736567e-05;0.000558263359768132;0.000426727071222805;0.000731727313854997];
x1_step1.gain = [12.5671837918935;13.0240252577849;11.2627819908943;12.0628973638613;9.62192579656377;10.8026311122011;8.86328916546941;6.93848817935576;3.86623489244221;2.09550703531316;2.00985305371991;2.01935251446916;2.00342035162925;2.0112214576007;2.00162072572522;2.01180112780941;2.02281812537138;9.99704468204033;2.0513870320369;2.02422304348968;2.02620479089471;2.01822934016455;2.01001934642518;2.01221562861977;2.01750865118576;2.03138236789827;3.33182866417265;5.71851281412952;6.62687572473133;8.98631110107205;8.74467220863126;9.62109311158084;11.8884297316292;9.36851419645839;10.2045727885157];
x1_step1.ymin = -1;

% Layer 1
b1 = [-1.8752356640856369108;0.88677271156141201924;-1.2348984347204581269;1.7886878836714379393;-1.2253303544320588436;0.29387176260718506082;-2.0551779024232463833;-2.2812338596170111948;1.351024332695694774;1.0726923068012206297;1.113320355952191365;-1.47349876631222787;-1.06472384754196292;1.0813502708593591972;-2.3946550366868772919;-2.4033312730500240306;3.1749347001396102108;1.2739277934313888441;0.2986097462745187503;0.55255049591124771879;-0.42071715186548241938;0.017090105707493391529;0.28512180315548957266;1.4492705783952331;0.86874367305597433031;-2.5746787882568060724;-1.5588110300774302708;1.9522288838708905523;0.62143326443679169913;-0.77991291425148290273;1.7881673291480995047;-3.723883796837566873;-1.2949949071388047184;1.6497698783568002234;-1.1099509516159309364;1.9237112721414280081;1.8019001359903854542;-2.2450125592371246164;-2.5249391803689174019;-1.7970965372165952356];
IW1_1 = [-0.085824910713937718754 -0.011958884245612134284 0.41919868688464684281 0.10496273837408906515 0.33855014004239553094 0.11071542459706837369 -0.056340281163754536708 0.16185486314422087295 0.14283318734004452066 -0.20573985807988828811 0.18067216717648265645 0.021726329218147651806 -0.15043368237723320213 -0.046528904727419960474 -0.23987765504214098033 0.049226620457410809328 -0.12877797504502652703 -0.39655492788509622004 0.55842143206443362047 -0.11074800352284035199 0.12148448957960111816 0.69584139256705657139 -0.15825774913336915217 0.35259752406953787096 0.080066889576700300823 -0.25758291057807336522 0.27530703045095261672 0.37101135313462424437 0.53714958225035491779 -0.20834335879604337638 0.15208156402304442989 0.33958063634562241084 0.26840187009746230284 0.36092824413008517404 0.16334975578681268371;-0.020741843759398956304 0.064785070316661488854 -0.072387193176395608907 -0.32164248926133010009 0.1152357710461600071 -0.22421565936004866915 0.19700557755969086426 -0.37453436483234031629 -1.2591375177880783642 1.8281380205026029895 1.9187537951888369303 -1.3467189411513027508 -0.33034535313525753564 -0.06838008694883047911 -0.17013526845975021629 0.42073339036320267503 -0.015855017848585048479 0.04389631828920988188 -0.026481173202281639567 0.047513384487375638632 0.16778708499251629438 0.084238732526777965193 -0.030203879945355290026 0.12024298817119812022 0.31999473471936912272 0.043199159820526564224 -0.42789049364453590751 0.41270607008241944058 -0.29499192677566454801 -0.22715011902848475378 -0.1357837977187376366 0.034595750074699282983 0.01750257472614673987 0.038295228681693674333 0.11875742575602650508;0.22796232730266424715 0.45493395852058282625 -0.0068913311659884943228 -0.19191196782199770876 -0.043219553481532592409 -0.007906978991308809615 0.44409837985691713591 -0.0076577115328970131805 0.20448056137562517498 0.29895517110041008868 -0.079184161138372302635 -0.13861646691433612832 -0.35459187025666677462 0.29571222653426881832 -0.10854389389973601032 0.52434319584194566399 0.42293432994167423633 -0.54359447845157360391 -0.078817002265133440098 0.032195219878612256481 0.33156581298605902752 0.0031665699932969249009 0.20099274257648691577 0.28159511079124005528 0.024215642923500219769 -0.38534796734693388398 0.32361053091973090989 0.14311637235964327908 -0.34545015389118222116 -0.1425282224765389294 0.35213265789427578012 -0.38016749309009367774 -0.2259437275179068394 0.34998178950434633006 -0.32941940788226925507;0.083623410504093637075 -0.049909767274578527296 0.07290727151122419758 0.11360781770715293326 -0.1080773331623307576 0.044538939717907122251 -0.10377711188131752418 0.27212819931284432107 0.17724135204381497033 -0.490783221978602191 0.8190204988191784885 2.0963661199898449006 0.24048187848848256998 -0.23160557507686693746 0.090831521007560561687 -0.40273918770041744475 0.018672304950732219325 0.026651018198879321275 0.059714387501338360431 -0.20788663886225541844 -0.056127609979874405755 -0.018759671736995452845 0.030172050331969107323 -0.12777069912957364495 -0.089842345493403488743 -7.4020213132679202328e-05 0.12499609257767742287 -0.40715247405347604337 0.10229938584675164759 0.0097872602555984043043 0.070217411660192144418 0.032655958846864119316 -0.012923925693075911936 0.031191663586884910142 -0.1304852403148573925;-0.010856332781985063296 -0.3317798031687956839 0.24772815454171476235 0.14351270392358819739 0.11400315224912033196 -0.010074167615606808776 0.17199944852372586745 0.24674899394395108376 -0.5944506664205969626 -0.31921204053143581447 0.30060768301452556184 -0.11661975555912826308 0.76216035056906994427 0.15372581819145875182 -0.52151329584073125023 0.93972157404504697009 -0.50491483154561833668 -0.23634886205981869844 -0.12943386294494751976 0.38695257572669411461 0.35906832267892208055 -0.096599472826344151555 0.09529414346401761382 0.072151551426341331563 -0.30383867553416471496 0.66508064584417581067 -0.031935073295006527472 0.12684077514030875355 -0.65352946877889794841 0.44784503900838079637 0.02702386713849121852 0.38524985576895764972 0.2276995327599126151 -0.17807252674745249754 0.59701955472686329962;0.10676361280297497203 -0.19396353772783508917 0.39857976703219971659 -0.20421340567402027077 0.029549872496360159169 -0.051087214923875509665 0.079130529328830731539 0.15691729389857575483 -0.1875636296878263054 1.0419033003470326015 0.96426783317261155482 0.38818041786400070414 0.79271619462269449219 -0.28720236499680773523 -0.85892038915713342373 -0.081034113241111621617 0.12270341623797267894 0.37945571130893490652 0.027571767460833833396 -0.38293370821737277021 0.099002881848514259766 -0.45351062247248336012 -0.05636168897296242597 -0.35166926972312578803 0.035747536260794979257 -0.17401335253922448065 -0.23830255629430668884 -0.53822824101771715721 -0.22300304364135600799 -0.093849696380197245027 0.11524320916795344205 0.033846884076505767691 0.013346263078418921233 -0.079390037332752905197 0.26386889516498152064;0.17856680763529830802 -0.15550196314997410951 -0.46389889069813816658 0.05094143351173278933 0.076509358505944008444 -0.084294743354574638849 0.13623812355355610637 -0.0016668275703684565237 -0.18999400680817751796 -0.76202181586022954551 0.77226542130167652456 -0.92413954156206012946 -1.5419345428132389397 0.42058771223988677956 -0.31747799976799068178 0.14823269318979706566 0.034134335706415191991 0.1768794624031597984 -0.081182748055950951227 0.10399676871948240753 0.018788339712832530237 0.025282028010906929666 -0.32144332188810381679 -0.20783686486090591217 -0.20302083970174883421 -0.088158675964971122685 0.13314492511459027901 0.37386872428710937744 -0.11172032254230149229 0.30269908627323549588 0.028295410405781193375 0.0020807712520242230281 0.21033957511762740866 0.024197844030200289789 0.09831032229204753059;-0.026567757992700138242 0.0063480618280901349865 0.030807194681111250284 0.13527854059351862581 0.034479987940988408857 0.16580165323059189997 -0.070957962829613391298 0.037658017145928854297 1.1613671774717995167 -0.78364906422437496936 -2.548767634598634757 -0.83405438482880334128 0.00017038203408013471996 0.24047107315448937315 -0.0019434534707809258958 0.089352746499915786105 0.085123604251339468618 -0.06991145843222279499 -0.096471642452669398304 0.12264949205511856134 -0.016244944352197750875 -0.091223950859108018929 0.11167549178944663479 0.04322143418821361438 -0.16851723079521996329 -0.10219290227070876309 0.17339499708492994712 -0.065599515130307997635 0.15246467515771217061 0.15027960735473455678 0.093157148257097838195 -0.11647858947194043855 -0.046256832887022703016 0.0035637127614775096496 0.031569617988404193032;0.0011269909885415277384 -0.017234586568488877156 0.082620298551356510797 0.18587004770610512927 -0.45263070293999330129 0.26992018043729143484 -0.00017620150450458910846 -0.42657655215082451727 -0.63094382211168298369 0.099071482317076575708 -0.31882268758267051645 -0.20200967505017214387 -0.47516696306414052398 0.46025299044882095334 0.47157157788593206948 0.11168992776728310645 0.088936498963756799307 0.14554440356082620767 0.031072691586395757846 -0.057376100861927542551 -0.10126210148109696108 0.054720078724274479054 0.24780490923255762969 -0.19360213472073434238 0.082330223219941336965 -0.21934846514463654521 -0.45846671087511242648 0.29223746132829409028 -0.024883876027445524237 0.039661793208342011052 0.025268646781791817557 0.044200814760676110371 -0.32049986038423117218 -0.27458523120712968746 -0.33538499975970381684;0.19355480552354417667 -0.15460365959583638462 0.11116650654720595937 -0.052834664808033685035 0.049344596379084830484 0.2499660527310698932 -0.0085420682382412321809 -0.042439750442201509828 -0.43277477491006899335 -0.53750372502824439458 0.057831780260822737705 -0.64185732661180727732 0.45984819360642881225 0.34885455461493319884 -0.43252130421962825535 -0.1754101643119325149 0.19044897696469037518 0.54020500855687614283 0.2573586965811718863 0.049760657015261285097 0.010592905727466211951 0.31088408412344636922 -0.29954152295855085431 0.17890443230789240814 -0.23465428820294451095 0.14616936831517438056 -0.45819212930375174953 -0.1113048158783672692 0.31003085532050939088 0.10817540755264004604 -0.037164674671270644946 0.069257190331104223624 -0.054727430757726146238 -0.33217584621873608164 -0.096145884801893413685;-0.017991985190550820184 -0.036407338654427905122 -0.00093135874265084551971 0.029580016726262332166 -0.0055980981546218762032 0.077204438746452899722 0.12599450089801611519 -0.0039007093694116007354 -0.89146541968328207872 -0.1392552563058788162 0.50935529788259381601 -0.15031014265703870891 0.33054239316720290809 -0.033405937282249803522 -0.23970377472403184282 0.11157294705145656688 -0.076713396157069860259 0.0065489800420156550967 0.1835290344863708123 0.088614454240822801423 -0.12357273591019192482 0.22370404091752202347 -0.046443264615930332506 0.086955858643505301586 0.032327082875372989412 -0.013529771506872239825 -0.042183167231574003608 0.012122423708070158288 -0.00056578002877080355026 -0.010796123539646134554 -0.096455915775433831438 0.14047251380964870249 0.13569640026260726406 -0.14759475170175240244 0.05668417073314946375;-0.14678371698168055093 0.070176054062341508555 -0.11349145934497466282 0.18692536973185824856 0.0413958424717034007 0.075280653645457468182 0.099683045257422081553 -0.094185672741909309824 -0.15499058749988270378 -0.37589159837026508981 -0.7860355632401078152 -0.51845117980374777478 -0.083493774739688164654 0.043182025284290159739 0.65626989067213170603 0.27841880705386840011 0.046005405633748150396 -0.2428152252611981976 0.30821633493998845665 0.3262600974677506982 -0.16048971027350877883 0.023401213869596832612 -0.17636583394943489145 0.16828777937637795503 -0.17338314415064456919 0.026104854590384370117 0.066557366425000985544 0.16832618073116834001 0.003625356819015129739 0.07716431786390544334 -0.12950484464116782113 0.017586899700405597691 0.060471059447127897823 -0.21867541676838239684 -0.17698782766285636736;-0.14468270853164874601 -0.14549256062046048155 -0.074435161578674455263 0.44837327720027564393 -0.26612834463086770809 0.19452193141682180832 -0.22764368137316498553 0.84632796075528693436 0.76955005461987013859 -0.15548843289081656915 0.5139224179864902986 0.7990602941374195245 0.70293202781481822772 0.057516148706222215703 0.88185321320019594005 -0.50728847809682708903 0.14302880481328478224 0.097870959370069871008 -0.50011270281420805439 0.29330218926931000967 0.24571806550852071105 -0.39732450929085527669 0.32145555403564923802 -0.12634804680902766982 0.45033755512583839575 0.60714159899901998241 0.017894973181775096494 0.039267446419379972711 0.29393746225417821671 -1.0110416129738177826 0.055795956252923509244 0.15163767098631208974 -0.50489976018849569428 0.053426234198061126057 -0.039929445063462992715;-0.079433157808731572058 -0.14095294398492144716 -0.15673588733146842644 -0.060315785318246682711 -0.14497651451308649073 -0.091481258089705697056 -0.21828871007519090597 0.029696950473070454074 0.016961361266259265823 -0.0057853345910565817656 1.9648275215702735164 1.735095020321613779 0.1256865400571079705 0.034664555593620652307 -0.50319912825639823151 -0.13880207512994963137 0.11695161028537648384 0.098828135597703467563 0.021041449355369834517 0.017477118941728896073 -0.033239182919439426434 0.10763173217886543021 -0.087124658188993175933 0.017928732361075592344 -0.038232888920819246836 -0.050107633637891363376 0.015359056587141947312 -0.15633615830633620924 -0.11064275320363584076 0.021836533830026549213 -0.036699301381000214162 -0.034103477181279422126 -0.042189031593973053136 0.026858078484258019608 0.0050792669337522272643;0.057909519829344904829 0.0049506053770958721727 -0.2018711868130562137 0.020294382609707138643 -0.24020540272958151862 0.41817436998964807593 -0.15803718944890043918 -0.17600446999470861775 0.98187550170732507127 -0.059613729097280007685 -0.8426574572467383506 -0.62957783455577265297 -0.94954036328691437951 -0.65455043903014575868 0.021160731985543468348 -2.4275581864253825692 0.12395209672968453274 -0.22974665231301649726 0.027695719477674907161 0.15809239264558969107 0.12283204045049642139 -0.34737450814512976782 0.29704148964296844815 -0.02053816859488128907 -0.24162301468181981989 0.31487911500730625391 0.31951852608345426843 0.31789151125578490875 0.52923676942298947257 0.27833468856497434185 0.0046889063932603492618 -0.15783204082798976686 0.07068705876248788933 0.51298668102950573111 -0.27402746642165515256;0.1634009635567336971 0.0045004761726454081683 0.28730443198597910293 -0.020483359164057652474 -0.037197313209668944611 -0.11007106666291056885 0.12627606691127218896 -0.042891590907858406778 -0.099435987588498711554 -0.41830561672317467803 -1.318725324429496748 -1.5367736698971250497 -0.94830269355558050037 -2.2522426395880819072 -1.7395963202258457603 1.0715486625014987165 0.22920394296880744478 -0.16591262097401948683 -0.13987791940479571418 -0.026895477816566169815 -0.24624040923586734686 0.33538641274591485253 0.093280859870003035583 0.052149046470842598533 0.45489521146538486329 0.3517953772510892807 0.49674652111099115714 0.17347176177871986846 0.34418575849373411746 -0.14382330246034266685 0.10359113041075455885 0.21028282505067147357 -0.035900200654110057952 0.14378937822616405517 0.46170686588639409109;-0.14836701513455802237 0.19055002128424253227 0.13170597261719274584 0.11522670003200759237 0.26840882778233293715 -0.11766055852879610255 0.10002308053531608345 0.52402725812511496972 -1.3706128545779847627 -0.38163731622467611526 0.57790145943734005929 0.89326986634420324496 0.88413949876719188925 0.26324898977048027948 2.8199622356242333154 -0.3136246687423184798 -1.0307782634440472158 0.17036770353151262092 -0.016740411435232735449 -0.095496822043345169773 0.15015755621877585613 0.0083043704497774706308 -0.067551638801684216196 -0.070433439367948602605 0.027440875937342498747 0.093827024421405891275 0.0015440525611861467825 0.033032302052459938668 -0.22210123062734651866 -0.22289800195651557346 0.099750279272127650998 0.2159624750650180891 -0.035081341495460313662 -0.39684774192474625565 -0.35223913109560828216;-0.59382227132992981833 -0.10056792998833224972 0.54447386596901781175 -0.19138481687274042087 -0.2487155888738152576 -0.13468280147194869323 0.05228889550006943221 -0.2633698156186096706 -0.48537189157588161992 1.8633346894950844064 1.4609587216139878763 3.4424566133781557831 2.6063679865648285983 -0.83626354400348046347 -0.09409376199088623216 0.018037647234545310659 0.083832444677126000121 -0.20160292132738921733 0.19471296122412520835 0.26244524376444317015 0.082378771614832785319 -0.50051119187873094329 0.080217497594655601256 -0.57379722726745907568 -0.28248983243930647635 -0.20704016904724117931 -0.36540001374385905342 0.09415569377433165299 -0.64775167627349250488 -0.55323943898247240902 -0.36501727531721583908 -0.44211690951456950049 -0.30574819676172770855 -0.26081647076328667856 -0.37455141130385649628;-0.17454580355839149908 -0.31065818224710584072 -0.2056466857686027605 -0.24515570342609233068 -0.064379869065205735934 0.018498925786889164335 -0.22378186117204448835 -0.11624911576445656758 -0.33676820484129849076 -0.56153042098055272469 0.19900938133796247653 0.36335854137193857039 -0.1795524279161241632 0.23504212635933854902 -0.17140089674623987248 -0.26832384596524405662 -0.016614744162259092314 0.45123189986001466245 0.19584696347030844388 0.2757488514926415557 -0.29076356274675113633 -0.17950594271149394876 -0.45428655454374189393 -0.18395651305497123795 -0.35802971582934139949 -0.095464536543014136272 -0.20660076790680445558 0.19571038102995058638 0.24274297044854539762 0.27144285943472923339 -0.18437206445141202105 0.037087396581036567722 0.22034824839512295869 -0.38212274118256545075 -0.25306718365434832663;0.093045439507611793495 0.018325834358532043511 -0.031733969754594644475 -0.12456833188847021843 0.050842860910887549553 -0.073657892352823897686 -0.071703498244463217959 -0.11948013116070826944 0.62146908248355459126 0.09381060517467322557 0.63899693465130225078 0.51442379126479131912 -0.61582136659443087456 0.26589202330607608626 -0.20532713646161987464 0.59775565832968446944 0.57505277273525490234 0.072218382004548942188 -0.10120231870189858037 -0.094753340859836734933 0.32178015217106981094 -0.23182457100418224494 0.096813940122050912152 0.027651149464798907562 -0.024690261665283132209 -0.39526374089375032606 -0.20053266224962612574 -0.18595880662070599088 -0.22266911964633798182 -0.0024910640362787537377 0.10900775797288976554 -0.24856602677254460709 -0.052442192485199073948 0.079519539892310503459 -0.014078426761422858579;0.15981107264259789003 0.088630018750193384491 0.49973166432002619208 -0.44083219141556484466 0.19004194763020432202 0.3709530983470436527 0.49189484026270907657 -0.16689351388109291419 0.4881599895247839549 0.40055516094180343423 0.17241829417482371078 0.2078400602621639226 -0.22103155048376110781 -0.094275691088672244899 0.32537307575679969007 0.24089757116435953077 0.20521615991914068933 -0.37632689215976861119 0.41207845964255707116 0.15666300676361255562 0.29428547260176063372 0.35805717922173818657 0.25772356181077843429 0.34762746986151910056 0.085687970433967419748 0.12578921251234836953 0.41776261767003247671 0.14407096081435896706 0.21830857535545405979 -0.1723733137123908965 -0.088858399113951394566 0.49418172770914109426 0.33433838051474407127 -0.18752071658851887648 0.43524926693830490176;0.02698933729738564255 -0.059710779202228961293 -0.0020601129521793538207 -0.064306184218079209813 0.092415004960888572083 0.018885504738736718505 0.029748303874850806627 -0.14780881424744163333 -0.13596278149691309878 -0.300631194394269885 0.1913612861365069362 -0.14808114422304372026 -0.45374601481605453257 -0.24113853003185209412 -0.14240233553040979042 0.20414551817970280623 0.095868341004749377254 0.093333360687001432066 0.024760239747633257246 0.036248598734425985235 0.015598696936548889225 -0.13546195691785384296 -0.055563275241404808114 -0.11099316428552169489 -0.10857088798250574824 -0.15391072933039962045 -0.12076384909454278282 -0.028335717934493673265 -0.07028077355202075327 0.11614142736530869149 0.072731143061499636815 0.013160731106304496621 0.050905101090752059856 0.056164257458090789676 -0.050542474995113370606;-0.18960416326522561148 0.04413260097284467387 0.22670942786505277056 -0.36549969476892008036 -0.03826345391868309076 -0.13407013624120592277 -0.16380316343315495797 -0.28935956330824824656 -0.12930200755707318971 1.4300375644741669667 1.3972928179654471315 -0.37699167759934182342 -0.22891532151269414208 -0.58126496576336683653 -0.026400362546239480865 0.34467124157899725612 0.00066421442030499197595 0.12380930370703138732 -0.060988913816685585978 -0.13939932459772264028 0.18007031041955390283 -0.16931829141921564408 0.055853983318334535224 0.032792511209330466038 0.26833892893638694455 -0.041129018411871665073 -0.23425118039275105719 0.074079350189797305015 -0.25560187302235726214 -0.19956207519090932156 -0.11965440714662964328 -0.097342750231977706599 -0.049468574329227174569 -0.0040504105913049398557 0.087406591308026457265;0.61229786866870772322 0.072277686292676154856 0.0013437955383671373877 0.041147200920873344687 0.22619680456572349714 -0.3761585362692670409 -0.18773094293264064314 -0.092573957800182668509 -0.79257204203628017769 -0.00036245606428764176599 -0.14808928874009749665 0.43356972767296064752 -0.058652275983104969204 0.018662469256596897482 0.42321734025776891475 -0.42992036682063849984 1.770534954825981 0.45921335003030994137 -0.41267798227740953854 -0.41437522423761907753 0.013355369974611813744 -0.072316237465183438871 0.28900036157092884315 -0.2089848073931659389 0.038459770207198498704 0.5283516047596555909 -0.67211867519991208564 -0.48278380246488988847 -0.0003158027714295977284 0.056914467501917850867 0.001555691650097425216 -0.063737448877659932944 -0.42995574522419666152 -0.089999017908051523462 -0.15253201011668554576;0.25877133083212899844 -0.000469286178412908761 0.057923049229169180918 -0.1312770223867148478 -0.013587899757857173355 -0.13613676877049374347 0.21648237719072288554 -0.41646877802195075846 0.56810815970791694873 0.7655266593999801028 2.1939125075843128876 2.4060359419141441606 -1.7896659122860287816 -0.69963105685093096575 -2.0457233206527347669 4.657276284919168674 2.9608603738743002332 -0.0079635006750190320823 0.50549572662859143524 -0.35228700476056695745 0.44769682876643795977 -0.19132268797972593055 -0.12670317348693960202 0.27787124900806459138 0.25681887142962445125 -1.1286221423774427386 -1.5187360563137120018 -0.53151783468890811957 -0.33045822102320343561 -0.25336332491605351169 0.22813946004088270225 -0.61636515173707051574 0.17521347219108912574 0.13640495397783800047 0.045669854668693381228;-0.15872249966876061933 0.16555167507159151974 0.06721613004508028566 -0.011970828773621626159 -0.18985656843630954738 0.16666386202115768267 -0.11949137750042104766 -0.13509520501147889715 0.34715879586649300848 -0.14573641316604654672 -0.42228542465627461056 -0.47846530637775397388 -1.3908026684954364338 -0.45455506146020668856 1.2520597709649896601 -0.34626817428811945687 -0.1158763964245179412 -0.16478694204917831989 0.11110230937406530283 0.078899150269050158379 0.1012601785508019242 -0.11282974920222513249 0.040172075139306442915 -0.020117656540060865206 -0.045998012127695393769 -0.088851244032690290808 0.34488533058400305809 -0.082332291069237034664 -0.061047980652163449933 0.05673261187584847931 0.16201696708753016152 -0.043592659675187314661 0.01379580089447764342 0.0083540842890728883585 -0.1744487977791765454;0.18339884950471393998 -0.34576890168634105693 -0.12543212778659151851 0.062802206779212887966 0.16031382809078564833 -0.31230015455826881654 -0.056040396534783341875 0.26230168305045348243 0.83895665566951771464 -0.21107103937950580375 -0.098395027768425513681 -1.1337740557253013218 0.44813546295707556988 1.0973997079644213226 -0.11774612148078210383 -0.38044148950119971442 -0.36378031441766617293 0.10747417152531829609 -0.26714167433119534456 0.13408572699225709823 -0.10531103473136042836 -0.21714378601294903604 -0.17051676445456656617 0.24038350847571254842 -0.23489375756123098693 0.10864107143700210689 0.52819148760284651001 0.39949594688231815365 -0.25178881443072831381 0.043591863458322430147 0.082196887458875517174 -0.046410837137057098234 0.1747395024476238734 -0.19269233994235562824 0.23080404346378757818;0.23035843645216963482 0.089922912274560520829 0.062525061232497708419 0.16675942564274348623 -0.12414886226071729369 -0.16839787990880591972 0.17285891387662125074 -0.18967304104880064464 -0.57041074234549604682 0.23467013693662192031 2.2692644290978924992 1.4152581911417212446 -2.5556413283084769006 -2.0296078625483700009 0.12267752720007524259 0.62389002408227478558 0.39668249254332504927 0.095123284629110765875 0.10779550086242470353 -0.45438026562825406529 0.18076630604731144802 0.30774297433578157168 0.14240181791348710538 -0.23360888838556054248 0.75095435546500588497 -0.2784731096804251016 -0.14861923151791570086 -0.11509543265065054485 -0.16604094536882513244 0.14229873390850331094 0.25878942680530064857 0.3851638370834338243 0.051840852073147675183 0.22694172342285504063 0.086870896017277501877;-0.036100080597188249909 0.23962066172691426358 0.4631326965787508354 -0.14341294973585777539 0.019560613862897278936 0.11791593288546789453 0.12617652890922784192 0.0096719294417089048121 -1.1577195385289480445 -0.19499581961649248285 -0.42989006028600595943 0.17616247599911374899 0.90885289333025787162 -0.21368905406182256423 0.19435454845270727642 -0.28351676304013356811 -0.60729190590612192047 -0.24731937725494726465 -0.037675404423914815588 -0.28939374659599270689 -0.19983175854905185775 -0.010483079514231413709 0.12033865990014319669 0.39604918513711351302 -0.18893402581428109244 -0.099879054505524783591 -0.11668538430482983115 -0.43266175629332459529 -0.056041425634010336165 -0.21603354107538386142 0.25749533528688572925 0.16678951703682715069 -0.21570817677656156652 -0.25006327078374396278 -0.093343254120090646264;0.032438271199014233337 -0.074579547374937535387 -0.023541195356475488887 -0.095502458258313757677 0.09083780124423730673 -0.062006241304245826584 -0.035151244078964291595 -0.056221636589213468127 0.37597780855684276302 -0.040212945728027749137 0.28694141910408155205 -0.086349048328149838327 -0.40619343566151627778 -0.028762474958122848101 -0.18842670929059188167 0.16845060439055398183 0.17150355474291148483 0.12741471372595197797 -0.074639852355272651163 -0.019730207947535251256 0.16391132490042603642 -0.19303577114784467583 -0.015877570153017654675 -0.16016470968847612566 -0.05499772412627793039 -0.055514554824838253932 -0.064890324101474272656 0.056219378809115587436 -0.10446207387922805399 0.063506976756136312989 -0.039286984317552030299 -0.13487238615976721023 0.029676817855667347174 0.095423729013384764319 0.057763310763231559553;-0.076852611266631953857 0.24734047974906195333 0.45071195415253600958 -0.084831289406642279571 -0.16769820666955612132 0.014215518379353333372 0.063951934699956414221 -0.070729306553821008618 0.16909418597699596432 -0.2058597457543063225 -0.2449285031698906212 0.91475903581482165272 0.82879455499978960109 0.63854507094108181597 0.200666642824639474 0.51156325954382853016 1.0659955559202671793 -0.34997180284418116791 0.37384033961152385306 -0.11015042385326487273 0.37390658056595876824 -0.27521812156542879713 0.276209251659374877 -0.22231790389186956158 0.1353443150689159491 -0.31990990444035716234 0.3323522063024920703 -0.73778987879140212058 -0.51289808916090240398 -0.12707396038642501668 0.15154287417883915978 -0.11535920332894129825 -0.13043999986948118242 0.10631927518076966788 -0.22087341944705690677;0.56368015069681698392 -0.092194999187284784603 -0.21014178002010874824 -0.45848780916656006745 -0.076310043621374251677 -0.050957602854555000826 0.080719977559116945498 -0.10724289750433248225 0.56550606457281060724 -1.1823367840839424936 -1.4723440812614565498 -2.1464760873910764261 -2.3985785979940570378 -1.248892530229050335 -3.3016379546404395207 -1.703374918383501635 1.154072692727222238 -0.41299395834926816429 0.11530661167684411184 0.0091481530623004451985 0.13895989046085860386 0.093418766450535095647 0.34297385263831858815 0.67621980542004234138 0.51490888031657222612 1.2448861965506565763 0.73986782283623098166 0.97800194373130411307 0.68080887277725821161 0.090199928535667411866 0.16345800582949343571 0.10990327106699307458 -0.16435066397430211915 0.93162009176324112047 -0.12354388604862417966;-0.38538652150689739484 0.11899040664144953927 -0.16470352390397471898 -0.27188766788306617528 0.29129019313563669913 0.027321877152216240969 -0.089128128980770049417 0.091779203454205565693 -0.11658399380219122698 0.20532874421810901056 -0.24095342671129105216 -0.04275394987951681991 0.33571782758743023978 0.29792348751968550369 0.43334761541898508819 0.082212789534919658574 0.038972396435165132522 -0.52730906688216006017 0.13358949096667929735 0.64653134143487067664 0.054669727746165595883 0.20882379361651276506 -0.20707818646121020634 0.24558273904926802844 -0.23581960564200671326 0.46822383207202222799 0.13852373276279089653 -0.17285269360068525324 -0.026046929686719406949 0.32714432028294976318 0.22224573461091520765 -0.23512238069098312376 -0.10176374593560179316 0.29102027392124757421 0.095306086514690524503;0.40077260986513618679 0.061538729602458625001 0.28306731078282132419 -0.27185313477848610519 0.25005863399852340523 -0.30492291792717263199 0.34033820464784109161 -0.61053419908871986443 0.055764767542354438945 -0.47583421333538644671 -1.0818223120722862962 0.097773917657819064964 0.18443058197133696541 0.27405425793489540665 -0.19042025956887195792 0.082032943061960683639 -0.0020855927792584709468 -0.15933539723083145478 -0.4125716716659145189 -0.4024730537257730778 -0.29204273199244951131 -0.17008444295385419243 0.10676769214881420833 -0.27995557830446488046 -0.17835717671715434207 -0.40627984305711872803 0.18806705268318654745 0.20875735134415129846 -0.50581219763088114405 -0.09595868078124718259 0.39915921597338543947 -0.047638889843965984139 0.267036530520758153 -0.33810251993306739138 0.029934846398272669382;-0.26937329070232440831 -0.050797439227720030119 -0.50659096541694648153 0.0024497919893914192613 -0.27077520845268826521 -0.26772930624155744095 -0.73360693072749760812 -0.39518352290526120862 2.1887104530198837615 2.4959421967905686124 -0.67777615394480306144 -0.14771675822796656585 -0.52101579970094646921 0.089738117360622413066 0.29953166892810911826 -0.087742003102472793108 -0.26585425696451436828 0.15275688713366897264 -0.51318716901453098611 0.066973191989855476725 -0.11899261981551720324 -0.19633530225321010887 0.038583129693716099184 0.10156867628031836237 -0.00080077254236410756044 -0.34210068472250571014 -0.094654671505588428015 -0.07288402224640008753 0.23357283954398949666 0.20772285469230103438 0.25729185035624574374 0.017548004946221478634 -0.58403145098626441101 0.12373178168248641362 -0.10529438129101706401;0.48406213387079560784 -0.096094903287623170685 -0.073249672938198090444 -0.086462859798435445779 0.67203973102501812775 -0.46375203198897102519 0.047281982505005142048 -0.10391277719673211455 -1.467207517347809409 -0.29937608366517193259 0.19155656795257805514 0.95379314409155491195 -0.092305965601315931313 0.63338045940370235609 -0.62092951104554450215 -0.1017572231386435766 0.46213307335819836519 0.32590542565340924197 -1.3513689355845421858 -0.14366414745527178454 0.020884642816750714073 -0.10777647316738522831 0.16123463212957106494 0.18408247049072720691 -0.47062771752381055146 0.85020235265035415395 -8.9053355483634244472e-05 -0.38395807867187381479 -0.28945385683835123114 -0.0014710824409792187112 -0.1272570914363495842 -0.21058333077627813812 -0.23360205665542743692 -0.016962931648896464876 -0.20695182232635619957;0.092971655662497043604 -0.042566959020545608317 -0.18583601441181898939 -0.12534745949069109328 0.069502837217805008008 0.095166489008334478883 0.059582527983076789824 -0.10200451892162620826 -0.73986760046739286079 -0.7010501906097179603 1.2148473125565466546 0.034107789582114009241 -1.1354066626763215098 0.55442353709338509926 0.84221369596330386553 -0.11133275471952769342 -0.31880524896232420584 0.052433231111885997278 -0.0078228824648527116314 0.064724894678473920973 -0.055464196666102805189 0.26537777843147147827 0.064182269891273194262 0.078806566548881573642 -0.092491836382339889799 0.023742804301808442119 -0.18845963230908679975 0.23425637068208002289 0.016730880829472466464 0.0049812506820610738534 -0.23178220705428048687 -0.030031330246866477091 0.28149768976791805786 0.020632966292840622391 -0.36888174645478022384;-0.25700941001519278517 -0.23153697000224024438 0.065894812880297554125 -0.18047400306624353239 -0.011909936156377441685 0.016128487572075710099 -0.11937828261033084365 -0.039275347772230725929 0.39300199112598654949 0.47724538099762831012 -1.6573433981650611546 -0.91937509031538555693 1.9678374631724520061 0.059212706262008384106 -1.029739857698949379 -0.30824191420265051322 -0.024478066190934982815 0.13425508610179040514 0.01191840033104489896 0.25929812161217546951 -0.19124674509310773951 -0.15153354037773478225 0.043957734885969622363 0.072213577911603502035 -0.027271725410623282038 0.13340791440251206779 -0.099776933279564716806 0.052000711559145526564 0.037269859620543362155 -0.019079724352724512088 0.042423198199387696095 0.062334303243595179378 -0.10361097366335933478 -0.015907753179865778692 0.23778389913455005855;0.032507656730409763279 -0.024690328343835228619 -0.068376654895278679569 -0.089928927421044330126 -0.11935291807731363001 -0.077028001312021171509 0.056507334560094976683 -0.34851107595496211289 0.62198029132617194126 -0.12945113972846006289 -0.64502960104045281575 -0.16102778691984259707 -1.1596362457893616416 0.58712252148498822457 -1.298975408641642515 0.17051972415018074036 -0.39203346790244597564 -0.047676686606019133552 -0.29166236395525024783 0.055566785243742158884 -0.18029217201763064748 0.34648592132583555525 -0.12992948388668357218 0.057959953628401082726 0.045702561953015377605 -0.12448072106750895927 0.065683619547997146304 -0.17996045642645797091 -0.1146475737268895928 0.12379281152670038035 0.059902262006254182458 -0.10482020698323035734 0.029570357164182443921 0.19793888854525701348 0.27746293115320136424;-0.11398343423604144486 0.46955176066409254343 -0.21953468772934925379 -0.38687589751083412137 0.12698616698354345256 -0.20068788063077341866 0.21743907783265742362 -0.023597009665083122643 -0.7362750591144952006 0.057732828910861060112 -0.12246744654493293969 0.54873772704101031472 0.50039369983128689778 0.16669775711499146276 0.55819052545616287819 -0.038919735924028669993 -0.064488350932903032442 -0.46095040704967116252 0.22073818520131988086 -0.26594954992741753896 0.044365221094856063799 -0.0048281230308555821151 0.2766184918021163397 0.1876929317408965181 -0.37409673545009852758 -0.0017834075756641767918 0.48526046787623844381 -0.0826258770596889347 0.23602596704794501226 -0.21735141499849633395 -0.069324263870039343205 -0.12340252095197204452 -0.088002470033919796832 0.08118792888223441695 -0.17806479327548851987];

% Layer 2
b2 = [-0.41540359536394660944;0.69987220494269686277;0.38172701562614475002;-0.4010733347908496671;0.44231373986752164917;-1.1913109733743334484;0.25018959995740985836;-0.11251491938457820752;-0.677111043027296855;0.11364988060524272573];
LW2_1 = [-0.44367645787525750167 -0.037752415364979058365 0.64362002515583971451 -0.033776781845220378575 -0.20042707893941216768 0.0010502079488596879203 -0.049555021801110890611 -0.059313962961793635642 -0.25834827356777917418 0.33178576967352452209 0.6787671476212578936 -0.092915780149086704687 0.11501713817131996309 -0.095085186130431945117 0.007898491005000859641 -0.0045189337919585414322 0.011736648541423960052 0.036015134826520044109 0.28601837940576935182 -0.076356499014130940761 0.99646762164530378048 -0.082830826273798632831 -0.046546544027441870417 -0.035648298188065995207 0.022215880627575353146 0.12503427313574105861 0.017777937962339056266 -0.0062056163820983362145 0.00023883788152317128942 0.23948565752560363462 -0.010281139228857824955 -0.012603940503056455108 0.47508398301913451478 1.583311094145517961 1.3575494502538978381 0.015846370063717044041 -0.02201753074419322137 -0.066611488011675518139 -0.010778727866230120719 0.0153642882932076702;0.77003180402313675668 1.1474002852401301578 -0.036639304498233549179 1.2538635578741674781 0.16522843120538643902 0.060494325912067797857 0.37769101704987595447 1.5184107388061329758 0.89336157861645215661 0.83102911353486230706 -0.70802022456120616845 0.15725094465838007629 1.2891034617785492866 0.53563521933915048123 0.021044786604305969202 -0.10789305180741549928 0.05304300317083071592 0.055293812943645465063 -0.083518161045367161899 -0.38427676102463037555 -0.34287929490010643496 0.45949209997190731958 0.42718957736859913821 0.024728272782647244682 0.035987511683084526248 -0.18139251929853150713 0.37646511784775438247 -0.046194957155623127265 -0.089279371973141702368 -0.64526789193929445787 0.038607081038969898179 0.0086641027640526058207 -0.43425623170160726483 -0.73512687221169992213 -1.0151493596464160607 -0.052252045317755096976 -0.44494356052155742409 -0.20806167368847811039 -0.01575085341517346374 0.67726240568074802528;-0.660103417594490538 -0.97258559155852375433 0.11664250703681738885 -1.6953462345939092071 -0.17063717228554881045 0.27562766685390910348 -0.4398926790516895502 -0.97388865874693986147 -1.00403426315835409 -0.68338204875730490517 -0.6989219272244021619 -0.29736702866541342427 -1.519397019761487222 0.84087706375041681994 -0.009167107653650558019 0.034059081709486904721 -0.030891370516313958194 0.019263375173489485914 -0.45995655362635295971 0.12756813104977329787 0.5441268042942908334 0.67555798523884225126 -0.51270622949148991765 0.08476486142218167541 -0.00032559447959407128437 0.21200304380396162163 0.31437905878443178631 0.18545669958148686129 -0.1777300850643168395 -0.15446005075362292946 -0.051094424225326291744 -0.057709772093445875496 0.72466511771915387286 -0.35107978814362755804 -0.14832917862194594516 -0.16393359404426413595 1.5296521772947286877 -0.48468913062507501532 -0.07732143536622934632 1.1360456345720693072;0.32542992783062579809 -0.16051406574458984555 -0.81978220839945370457 0.55758896460549034479 1.0149672758255263716 -0.37317787410557501371 0.28161716573150807896 -0.42918186984587908261 -0.9875232742098853933 0.73583698315386414368 0.50309522191021960325 0.002712621058874764568 0.53256167059455084001 -1.4771407271149998852 -0.058997926116245616446 0.075161023419310662996 -0.060881649216912435418 1.0595901743302600373 -0.31123631058441247887 0.42336151452650111482 -0.88117520737486076943 -0.026594544131246178331 0.27735590112578911715 -0.0056106717376248581297 -0.062863861878695054264 -0.11880469959526201995 -1.1403016187488641542 -0.17206490321399928178 0.079478587514372450729 -0.12079500694728814714 0.00069535980374299706519 0.058945574308423183407 0.88944848048061408985 -0.10755618884690429371 0.049020224125136666049 -0.018373920328814030006 -0.73116772296671439513 0.93770121432823683172 0.029347149293574490564 -0.93195194531270897365;-0.10848790706957028851 -0.038068271623092293787 0.66550124187626868988 -0.40733003065685946531 -1.1968047497491818287 0.073493647090367125729 -0.066529400077031689009 0.2663561327894855002 -0.13584424819014567776 -0.58197805387675849431 0.050648859310994678862 -0.29415058641742741763 0.13137427284095770652 0.71570115761286956513 0.15423752454595707206 -0.31526485326489628314 0.11446072725115183366 -0.81839381580878722833 0.25398849681069540773 -0.4457057943188821314 0.8257890989230913803 1.2194438315562967645 0.14222344824820931652 0.17887348252799908921 0.10722710986881439643 -0.83443307727693483145 1.3544513577692913753 -0.82728417214100791188 -0.028310442578177771183 -0.2775643662771611897 0.13353325520031666951 -0.090860650232821638106 0.6371753401388553506 -0.31091064637893933709 -0.021701015827823074561 -0.36623860288320714274 -0.83252662183975778554 -1.0183654238801864711 0.081642757345449942785 -0.75409939450868046507;0.38959288333956515471 0.15916477294334996362 0.52104804909919633094 0.28662949151137001591 0.049116541874351993258 -0.10335357678463873154 -0.22682981135306951037 -0.18948963103348037684 0.63204706680803923735 0.62748818838700337608 -0.18966458301639627093 0.019777648745207918046 -0.097568088372081127058 -0.5635334495040035252 -0.28525788361303655583 -0.6213680071803406868 -0.28739913116821047545 -0.15679003686303660814 0.93425928846175609888 -0.0084470048305604703703 0.86718499656833136768 -1.1296220640516068112 -0.32650676808647027816 -0.40394094511954325988 -0.052666415588787734992 1.4318205894494770991 -0.54302894205030660668 0.73647923058311748346 0.064565140565401829553 0.7246415810469747365 -0.18695609368369539571 -0.043239118347540093923 -0.32630087770576543527 -0.063746770430998800361 -0.21658010265950605744 1.1361993250775279662 0.17903985162156416111 0.55900982273363775121 -0.17556190473832078425 0.016743296078463101861;-0.41257775481364972192 -0.030571135096811044574 -0.97523859263102219419 0.027833194517194806417 0.43836181957040348811 -0.017214358179696985507 0.17147395674199994442 -0.11911529177322796591 -0.69759246856757683997 -0.28398693504916289188 -0.30546721471028304151 0.38994500846327978527 -0.23116205035360554154 0.10531727671927069989 0.24225416185619391696 1.0283878660604917066 0.18176086739317298679 -0.15235180649125609764 0.077804461187912510312 0.26393857135214904286 1.1713785751570235938 -0.49596673098554361347 0.052670697268032702631 0.32807365252701292668 -0.013406832694287870722 -0.74320819460175013837 -0.26311866577762249575 0.087232132266152451194 0.20315311682053399656 -0.038962888406476041403 0.12366651142195975166 -0.99636704150168697858 -0.28562697072569825929 -0.21824031417436498548 0.055999363173838190288 -0.86261382498554151077 0.45841686862313979489 0.3202046468812202451 0.20577224125761323092 0.25780646363624554196;-0.81089699177065632796 -0.11004516936563205065 -0.055300072370550762413 -0.1151325795481767944 -0.41716580078532899956 -0.63009566425914009802 0.51428025718346692674 0.16419893613846325842 -0.52222621411429304139 -0.83074055762180742946 -0.020498210087836324367 -1.091708916877503599 0.30255792645014573106 -0.2120136050762799762 -0.74584812563792501905 -0.22299512535791080059 -0.99783592563866962966 0.25136263306944506279 0.19904271960507269323 -0.83365868088840744399 -0.14933074523429243352 -0.10447535623671388993 0.055132868597115178289 -0.20352272785803990351 0.52429404987410799244 0.37825710624816272221 0.10725291781849821682 -0.28402231180930792576 0.74834897181951642864 0.40889887375358785482 0.45541401539694659206 0.61665280650216081071 0.78674540567494455345 -0.52260466465371702149 0.20583249561168801001 -0.36233625178857487015 0.28953898038267911197 -0.092509547785876444781 -1.5745507981256727792 -0.084127118981177667623;-0.12084631048874912296 -0.037585432478110095134 0.91564277240711700045 0.10617035587159356913 0.68293337334049986076 0.73824511059526243262 -0.49643241215852651482 -0.18658669017319007288 0.92703994022387481433 0.25462514268006397611 0.60493062591037094489 1.1881873846206350009 -0.35726742001753958311 0.15057728044574217319 0.72190052650173330839 0.13510360178990360458 1.0090647165015333986 -0.29419040839325599768 -1.1381483647267260917 0.79410822650637724607 -0.48417111259626077757 -0.22711499066717014128 0.047822194466169476446 0.74692012358496395752 -0.51010403402604043155 -0.18465890467802414943 -0.12401206547680841685 0.30272686794708059121 -0.79638532534903905269 -0.21745715995374328977 -0.48582458218872770495 0.49472399287190454986 0.32382186050353162221 0.49143086643702194038 -0.25477559687585082937 1.2527096584112282773 -0.23777045887005238134 0.10197020163333034293 1.5748059626106452047 0.0068621036347429392385;0.90482385839788403992 0.044965199481586941299 -0.77367445541369350703 0.027325442119790162299 -0.48859497925671141472 -0.022000062985627909934 -0.027923508960990946204 0.012761582159394813801 0.58612180996888996187 0.52725480927168477674 -0.16635882683315567077 -0.022965437710726045728 0.056669408406333839079 0.0021229372887240360868 -0.054930439552621571075 -0.0026557113064468451658 0.016738469586550654145 -0.009694802481887084683 -0.18780315270380323889 0.092052237270264944402 0.51008787412221634483 0.10050951553758827317 -0.052864808726487133583 -0.65908543653081497204 -0.036199493382517648754 -0.13908656085360299182 -0.0037484445314913579506 0.035105826451905269847 0.0058755651807840944198 0.014865500140321414452 -0.019207699240514602979 0.020123424903811720776 0.33552574796474421426 -0.019517187539939057084 -0.017637265351041982869 -0.69960973307619633843 -0.078331447860595954102 0.021712665097702726902 -0.042194306498225260527 0.23804401386809401209];

% Output 1
y1_step2.ymin = -1;
y1_step2.gain = [2;2;2;2;2;2;2;2;2;2];
y1_step2.xoffset = [0;0;0;0;0;0;0;0;0;0];
y1_step1.xrows = 35;
y1_step1.keep = [10 11 12 13 14 15 16 17 18 19];
y1_step1.remove = [1 2 3 4 5 6 7 8 9 20 21 22 23 24 25 26 27 28 29 30 31 32 33 34 35];
y1_step1.constants = [0;0;0;0;0;0;0;0;0;0;0;0;0;0;0;0;0;0;0;0;0;0;0;0;0];

% ===== SIMULATION ========

% Format Input Arguments
isCellX = iscell(X);
if ~isCellX
    X = {X};
end

% Dimensions
TS = size(X,2); % timesteps
if ~isempty(X)
    Q = size(X{1},2); % samples/series
else
    Q = 0;
end

% Allocate Outputs
Y = cell(1,TS);

% Time loop
for ts=1:TS
    
    % Input 1
    Xp1 = mapminmax_apply(X{1,ts},x1_step1);
    
    % Layer 1
    a1 = tansig_apply(repmat(b1,1,Q) + IW1_1*Xp1);
    
    % Layer 2
    a2 = repmat(b2,1,Q) + LW2_1*a1;
    
    % Output 1
    temp = mapminmax_reverse(a2,y1_step2);
    Y{1,ts} = removeconstantrows_reverse(temp,y1_step1);
end

% Final Delay States
Xf = cell(1,0);
Af = cell(2,0);

% Format Output Arguments
if ~isCellX
    Y = cell2mat(Y);
end
end

% ===== MODULE FUNCTIONS ========

% Map Minimum and Maximum Input Processing Function
function y = mapminmax_apply(x,settings)
y = bsxfun(@minus,x,settings.xoffset);
y = bsxfun(@times,y,settings.gain);
y = bsxfun(@plus,y,settings.ymin);
end

% Sigmoid Symmetric Transfer Function
function a = tansig_apply(n,~)
a = 2 ./ (1 + exp(-2*n)) - 1;
end

% Map Minimum and Maximum Output Reverse-Processing Function
function x = mapminmax_reverse(y,settings)
x = bsxfun(@minus,y,settings.ymin);
x = bsxfun(@rdivide,x,settings.gain);
x = bsxfun(@plus,x,settings.xoffset);
end

% Remove Constants Output Reverse-Processing Function
function x = removeconstantrows_reverse(y,settings)
Q = size(y,2);
x = nan(settings.xrows,Q,'like',y);
x(settings.keep,:) = y;
x(settings.remove,:) = repmat(settings.constants,1,Q);
end
