function [Y,Xf,Af] = NN3_10MHz_nnfunc100HN(X,~,~)
%MYNEURALNETWORKFUNCTION neural network simulation function.
% 100 Hidden Neurons
% Auto-generated by MATLAB, 02-Mar-2019 15:07:47.
%
% [Y] = myNeuralNetworkFunction(X,~,~) takes these arguments:
%
%   X = 1xTS cell, 1 inputs over TS timesteps
%   Each X{1,ts} = 65xQ matrix, input #1 at timestep ts.
%
% and returns:
%   Y = 1xTS cell of 1 outputs over TS timesteps.
%   Each Y{1,ts} = 65xQ matrix, output #1 at timestep ts.
%
% where Q is number of samples (or series) and TS is the number of timesteps.

%#ok<*RPMT0>

% ===== NEURAL NETWORK CONSTANTS =====

% Input 1
x1_step1.xoffset = [0.000658777947189116;0.000104102890505396;0.00306577920630883;0.0019489783727782;0.00514611311195717;0.00931775656555949;0.0153374040378409;0.00319456800186372;0.0222585623687478;0.0154241602487643;0.00367401925234263;0.0113374581192352;0.00427075645982859;0.00360930524283184;0.00513739739975118;0.00037152022962811;0.000398740612062226;0.00287225898912391;0.00025666052999505;0.00276741667919722;0.0093132837185137;0.00979518476484586;0.0724876472392999;0.0674259696795707;0.196546406297799;0.27730554343907;0.294176545687011;0.34621244556173;0.415316952447638;0.486669683777594;0.552661090192722;0.60565208154173;0.589942449436454;0.558310764895201;0.515072712953599;0.462016341677186;0.405137456895332;0.35466395336176;0.322469813917411;0.281611958447934;0.195053419922636;0.0841752152200267;0.0220110193525692;0.0337196552330739;0.0129612051785599;0.00607839639518523;0.00220921523921898;0.00135875073246305;0.00387391976729756;0.00243216689155475;0.0038994685496597;0.00576320229579257;0.00245656106863286;0.015797173135769;0.00229532241822702;0.00502951956217725;0.00601256535966468;0.0133200934182938;0.00702517205300348;0.0021526151980906;0.00825305965436104;0.00365021981952056;0.000684253778323113;0.00178754564891273;0.00180793736534191];
x1_step1.gain = [3.39248240976188;2.98629619682029;2.70347182512201;2.48739085128004;2.34915603721955;2.26040308064682;2.21778585605773;2.17322167508989;2.13452513720061;2.06499234639066;2.01088477078707;2.02773882494107;2.05422861636902;2.05332946417375;2.06369724721852;2.03958853409663;2.01821010179482;2.02968268499288;2.02227893402433;2.02793803092449;2.03297097900547;2.03857360360052;2.19359128208015;2.1793024537789;2.53505136202649;2.79439759505721;2.85273973768398;3.08638500597871;3.46110255208239;3.93733970375828;4.48439951078134;5.07176510369987;4.87736415840016;4.52808374424716;4.12657855125845;3.72028675679529;3.37022729390835;3.14260310518954;3.02451488813684;2.84633430065747;2.5399124188872;2.23772813182729;2.11330802956205;2.12803977035725;2.06387770219634;2.03937387112654;2.0214445580151;2.02572828663035;2.04964462383909;2.01940091557562;2.01513779423022;2.01275460158318;2.02888631851352;2.06330327457901;2.04151728432228;2.0699356138096;2.12802222279008;2.23977240125906;2.3603226975421;2.53186367938942;2.80025970010303;3.10431924278018;3.51709509109223;4.11697266525889;4.474356556392];
x1_step1.ymin = -1;

% Layer 1
b1 = [1.7420221514380354044;-1.6939538106173634979;1.6984999310582360454;1.281209438200852091;1.6558011692471950038;-1.3223450252141757399;1.304219929486714058;1.2852891064640763474;1.1727576718231391695;1.3882786566053497701;1.130233675559362494;-1.4550751156929393471;-1.1475207193758827362;0.889860551761797125;0.78687340001361982811;0.97031553181668972474;0.46816194193227306242;0.7695974572230022126;1.0945818658534540724;0.77075368094354890225;-1.1066955609215272105;-1.1409065444825425839;0.85505803005469704914;-0.40084527514374035384;-0.27305534166096601112;0.78347302324227940939;0.28704064600321221867;-0.98753359869597556742;-0.60243490522964393552;-0.66662897178957392086;-0.40914237259706059957;0.41445466880746967275;-0.66257135444279091629;0.81195966830041554907;-0.50356583376349794978;-0.39857781482525267425;0.25688640681156033052;0.34592200944901113635;-0.76970577077611479488;0.16936083999970569236;-0.16453966546098411361;0.084381238533234939614;-0.17794334454799073941;-0.1695857085431396738;0.081335198573918562892;0.022722950681717004467;-0.22134985688589889352;0.13900414138337049974;-0.44420652272605598565;-0.14167490583347749911;-0.010949566040130392919;0.30657991201937523362;-0.042856256199406306262;0.067700833345259336937;-0.13206418802950845026;0.084417839004500949684;-0.51873285485180464782;-0.0016938236324102531882;-0.13927830556972661813;0.090909693546490033533;-0.66469033033910340791;-0.31143900295525522859;-0.027837891996258842808;-0.50545601213063318102;-0.73541080434645555997;0.81066481982682936369;0.22516052675009223805;0.51431894006787848284;0.50171811993704429344;0.58868696595555602968;0.52791848271470753762;0.58240504206543786125;0.75266937241960218952;0.6710721778085745326;0.6751133904161328303;0.75389240208933583354;0.91242508010557221709;-1.003026680367377077;-1.0176005145083404368;0.88353799004381206039;-0.94236064435884125956;-0.91501518363694100966;1.1883935161135676939;0.94707437460229648707;-1.1256012243344883927;0.78506954159614539268;1.1198380853889691178;1.3039046599025752027;-1.0547105366905813462;1.2714940501733649203;-0.37487525673107918722;-1.251271616726469027;-1.4832169136702608725;-1.2443773257416899103;0.80573962857068348598;1.3372552010976401782;1.4498590670913544809;-1.3353689494029952201;-1.3552791056369646316;1.578099416185050341];
IW1_1 = [-0.24934028335142563448 0.24057769126244352154 -0.070690365313455919005 0.14350932558726001154 0.19816460857466150491 0.1846460007483743393 0.11608003505800845723 0.14457514494117443271 -0.096342567097125061948 -0.055992529761387771492 0.19883023433908905697 0.087529041669158133554 -0.015999598124698581614 -0.0039023521490537550066 -0.2914456678387155053 -0.038354937052361440242 -0.083845606967344915583 -0.15035042484553134967 -0.096847015409217807047 0.074604230793691120316 0.22921537930287394502 0.040044498526956899542 -0.30227715627723666936 0.36101095264310861799 -0.2524119512905408369 0.18168340358885098906 0.16330790255504654129 0.18248227129565727789 -0.21122011327290582394 0.34090270282587686879 0.13328102368760338936 -0.29281973649758530343 0.10896635893117401217 -0.036914751565496811692 -0.26697138926404179182 -0.052992280917656078842 0.37337887159565297246 0.2524122077639773809 -0.29779714125641049138 -0.065067344367187529564 -0.13444974936702872026 -0.13260746040699869508 0.043808311941595019789 0.056376985140167867883 -0.0092553344623857135287 0.023844690253824393777 0.096270913362120028034 -0.14350259085493033417 0.14526686080629500064 0.15117361294971021213 -0.13815983808573370495 0.1251894335217513532 0.15024881133494830121 -0.1153934210707945468 -0.21961928553548620835 0.037317891526435206795 0.20200616419050868022 0.23610695498398762138 0.18195130905121623122 -0.065893956213866358707 0.34835306809685939733 0.079344259672736949796 -0.2350824939548945558 -0.02577118003260124926 0.057353553119115496806;0.20505723492966396182 0.030680024881180607832 -0.14906468101184491837 0.25305564193853680166 -0.1188227572119013864 -0.24056023731021475287 -0.15069685071351504591 -0.18473110170460854684 0.077690961716886081101 -0.15209310259537875409 0.20885768857398631648 0.20195089772685020924 0.34286258776824590777 -0.10068671390344709204 0.23560718135825614583 -0.20565569927161353458 -0.19227652915209444973 -0.14271621365373679535 0.15614695653413704357 -0.10280339094249088538 0.2802714746846362015 0.074227663799292534219 0.003073999643630420664 -0.092673687637715218557 0.23873958032002876029 -0.15846724638385503714 -0.19842576829211183709 0.02849290640540259878 0.11550983504181501493 0.13691356286161104894 -0.27048802897784401944 -0.078645707905493023038 -0.079569742325857006904 -0.22180220579306841877 -0.10516648420111458784 0.085302098376670257296 0.16965760539321833589 0.27662218254661008476 -0.3248685968274526159 0.049234262667008046876 0.13150839813244183385 0.1547602334982384753 0.24602345364641281522 -0.079594162245602187444 -0.022209381958376964855 0.29114008207491248736 0.18009783067892962127 0.05477568283768691898 0.30581451670551740296 0.023953176644437391973 -0.034567425723835983054 0.18291093047685039186 -0.18304983752170370104 -0.096589125431282757406 -0.052021789745516237857 -0.35297670185994689529 -0.25749516099085723031 -0.063628028494556204686 0.18031087346883664657 -0.045089422829022514361 0.14734765353981194025 -0.10353062400551979461 0.15162872548867620259 0.27145311537123306689 -0.27840125393932058095;0.0052453192659916991758 -0.05920209833933111343 -0.15180544491893169234 -0.25188582602220743745 -0.25078186602937252436 0.15145729877302369082 0.24034676213474992501 -0.089823643734645935988 -0.28065304735037011064 0.089170022396170695034 0.17942401177131447887 0.011295565083084145933 -0.042562116067088449911 -0.038218933634549229206 0.12863700514521286822 0.060751784093003892429 -0.057018258818494267637 -0.2798541468910237251 -0.2758807194707315058 0.27389997395560983229 0.2848821072924709874 -0.23361564437149978657 -0.22503920465847368493 -0.18360943640608162752 0.14464245820148707855 -0.12816053289722897923 0.26123160433594116991 0.048367421146065125992 -0.19164016171234826702 0.14787013593591499805 0.030053923703858717587 -0.13619691731681091151 0.18327091186824973068 0.081239333438870325876 -0.12583665734463422847 0.21527933678798011341 0.26971363381297458472 -0.1691344787159405616 -0.23913080457092675268 -0.15255085722406716564 -0.23225216562293277134 0.029922072789573726792 0.1175342108182075157 -0.16577277030644502198 -0.057313181004266695873 0.2790317813002022862 0.21744835492779621133 -0.23822580505443732846 -0.047960991097593802523 0.024077195100179294568 0.21270391809241759318 0.2124981052884847843 0.11246096032627113381 -0.1773420215651997367 0.1790222441185458091 0.22365094632387422235 -0.23767846111703350154 0.306899541890353178 0.13396107891786179778 -0.1135514617042338581 0.016582684229489982886 0.15376510853850183791 -0.22461260989417200507 0.035807390089251669996 0.13317157114246089278;-0.17949888635582450513 0.36852561925404808685 0.13298166752798176726 0.066040508432455430343 0.090594538105658303784 -0.23961574239639060746 -0.039118699353407337949 0.12521511606409724271 -0.099065018610289864998 0.20517377017853294374 0.16083145316984492901 -0.33577548582130611887 0.10130389313130512552 -0.041127251913878351552 -0.12846995032301961048 -0.19121969280301059912 0.10530458713785205427 0.48723215855264651042 0.045171783888624819636 0.08828691183668373188 -0.29585902690347659627 -0.14758498616070830911 0.10627037681990965379 -0.047044060662027709085 0.14375349951343674437 -0.039890903665810786838 0.084100703337883553345 0.33735091335677391822 -0.22270908104460948596 0.21941489769622493644 0.12389723979523648012 0.033951156383443592546 -0.10838383888825442458 -0.29086480466344594165 -0.24784664905119474509 0.21735829680666970964 0.079839910381022213826 0.14582959098627623629 0.14599093951913408307 -0.22184510956851966057 -0.00076678225235443219637 -0.022309284198173774671 0.22167056079448302364 -0.15344291760522021928 0.20633512174411483553 0.15996361531053238103 -0.022831954549158647166 -0.1532769190911909829 -0.23622680898948553163 0.092126159339768282086 0.00092373313122806784137 0.24852301076306057559 -0.33867459235062613576 -0.31362393111180397742 -0.12603976860105742253 -0.16223492389779003986 -0.043649750119455266173 0.0063458967236699730802 0.034798143374977989761 0.26889754906408663837 -0.020362505163541599895 -0.023801395722455761378 0.30179351157990202958 -0.10311430961944430262 -0.17329048457693238539;0.02184095704455581155 0.12976527740975185576 -0.043532862210355315058 -0.14701601515449411184 0.037189940676947315368 0.069865307305616033973 0.13715772370702583594 -0.053316501518535890092 0.083501780847309331479 -0.087755105615448456002 -0.2853248434516587051 0.14997474429719873101 0.018634276503710391071 0.023292606038466251439 -0.20029059027362824952 0.46682078289011358363 -0.13493868191069385842 -0.37250672530915890368 -0.16291410579923429336 0.18597951853784955301 -0.10676329220611958937 -0.12358331199711485027 0.13763799620385752664 -0.012666177635002866947 0.24411926140614909064 -0.10067777594172939992 0.0022097667156020604079 -0.19481034672214730952 -0.066363901924690216205 -0.35375615472795129968 0.00093928927479719828697 0.061328490443063717052 0.004755721457919979793 0.31516782430928491632 -0.12354583447695542675 0.4121087498516116665 -0.041280830901873850902 -0.21739358649408135893 0.12748188846348829095 -0.14100998100006675862 -0.23468328010524955318 -0.16626489695056573259 0.34785154351098690473 0.099787116943597903296 -0.38151698028139302554 0.18399428251672492185 -0.19012428016860502544 0.40160239612357817585 0.1307799871252708912 -0.0065191130321521871538 -0.20817315989550935762 0.047297295669619592029 0.1974385002831932634 0.21984306946708009889 -0.14305830819321066483 0.0017607403773547023948 0.020704706524925304417 0.26446231647513773755 0.20745976348100736431 -0.069329593232867831043 -0.20925161657377353008 0.057118056803087367823 0.1940519938004035827 -0.10455958133416426437 0.29946998338704255982;-0.25806454193471445313 -0.19544562868492398877 0.25792327120143798691 -0.066309358041671956352 -0.20333136056121328683 0.20095486470665113732 0.23506085311872862431 0.09932660182631800061 0.19159403872767716281 -0.06195045430367940309 -0.33838314626934407059 -0.043268929773107193959 -0.076944658297372056643 -0.091652523167281368943 -0.21620373521382058035 0.33195403662720807114 0.42697347355316755957 -0.12403310226590195942 0.24677556166810993288 0.13550724601725372409 0.073111997783103455095 0.060239587602844348047 -0.19755876467557034748 0.074575692001413410037 0.042001423526098334571 -0.1311018675614543938 -0.18395992732625765509 -0.13715930892308075828 -0.040272813787418378084 0.11447249718208139802 0.18211858101797515075 0.30092727109112715755 -0.15865053566287778963 -0.14683544845168503001 -0.23588807717010587539 0.2694218701103552327 0.19125721348175839243 -0.17151052695984506102 0.20141988317058867608 0.084995440051745682619 -0.15532572065766220293 -0.26306610494637883146 -0.2836445877969760998 0.015549937626094644666 -0.21926119052454789982 -0.062295419861393364069 0.33171574576675649793 0.33179317051410006645 0.12305938759271826954 0.022734090997776644494 -0.29810396260663540868 0.041305741327512510153 -0.23884389054565133281 -0.24353189927761442757 -0.066829499380304066558 -0.1656207637215091899 -0.1112531744971618497 0.38852694181172314769 -0.23881439115286309804 0.3122583477350578951 -0.20435148212539169799 0.073744536116538875192 -0.14047367696048368435 0.099964086587415373897 -0.019332857064587677387;0.038519305779958309954 0.073419855604753586631 -0.11032320680507673449 -0.087955026004945854878 -0.14028997990857372535 0.11647286101080356335 0.24557642344323807326 -0.13444704238802610008 0.04978794041241704077 -0.26416452431666831435 -0.26538547726795019832 0.13909909416329147014 -0.32003424568227700764 0.067102661053579093497 0.17458150844320674544 0.21221087941257446574 -0.2549005165982495269 -0.23418109111700055602 0.068537209993280140408 0.23962555416797806651 0.031800626324141940959 0.092972728551805786101 -0.17707389515968824378 -0.37603767417693484409 0.12372245616149325775 -0.32259881262603734564 -0.21590294578488911093 0.060256476227416630453 -0.054723734042820153245 0.24191725293799176688 -0.11366179659487440912 0.04465825455984878678 -0.050826933934070957222 0.14715068385211810265 -0.083051903430860607447 -0.26339401324416944483 -0.081651458239688903817 -0.09364348547265119449 -0.042751870000663341753 0.33902096665722702973 0.082198914904865638675 0.1211888943787423345 -0.18031533816243031088 -0.078955918071803743441 0.21936313864486345349 -0.017170873755718445847 -0.257307073451560675 -0.094696977530845008464 -0.012712662834645125157 0.31878329236309493888 0.1664482770845924775 0.099755046362707530672 0.1897383767735653648 -0.088081419299763416553 -0.20524690662036595978 -0.014568082192182895893 0.24887094463462261507 0.31199956173631576695 -0.11806210942802239372 -0.3112518082466136371 0.11837834583692004309 -0.09542673988841478272 0.077254440826783427054 0.074364594655390012234 -0.029401876397716193712;-0.11123433690285702835 -0.13542189998494666425 -0.066828817883081981233 0.33467908030660731278 0.23659707623130604714 0.015267955419327277483 -0.06972172705025575512 -0.23026840214301441678 0.077206239528108719372 -0.21377790270392729721 0.11999848382764938259 -0.19780955406577580002 0.16014864541947929077 0.30155670927123817693 0.081645695295768219713 0.13450817268557396789 -0.032404466495646412627 -0.47201362367273747012 -0.19465529377394957811 -0.077761629470657234187 0.20071653446108073116 0.26370965029228993215 0.18743838020397743382 -0.21992553376210666194 -0.15982153074917576641 0.19439400726534181163 -0.0025760078312922810549 0.24672601430339621831 -0.15692780169777004184 0.13531824594721866828 -0.066800714225310184324 0.13339800256621395236 -0.002860896593476081138 -0.090571742773667959781 -0.18402882442045775946 -0.35516696789661750255 0.023827061413470525253 0.22658187517739372674 -0.40262728699134847643 0.14490477846460053657 0.06419622969543029023 0.21365200309953058522 0.25668935922843322261 -0.27004617712122175321 0.14085241212731081095 0.085772178583833208476 -0.13171572088125563238 0.23797881970619988445 -0.081300282566248216476 -0.11167876414671371044 -0.035441173587539648304 0.27059033113854608077 -0.14477599945544653015 0.055587092941510825306 0.034529328885120974535 0.054953712699506711281 -0.21218744858297075573 -0.3266916867327406826 0.066990052651089510016 -0.19877181459356590976 0.12401011367034213417 -0.048427816065327117245 -0.30750068809383940271 0.20451880179017767336 -0.05213655167620803027;-0.13996905878293036674 -0.070263550935299956546 -0.24919769625750481934 -0.037901464749046112623 0.21597550411998683861 0.063720888399199315799 0.0093323020269317699671 -0.17136384357040335136 0.15961003752661456767 0.19707262570762540399 0.052161950926434705322 0.27699474409170860012 0.25825112419574497435 -0.15805752455511065668 -0.13226236077950676018 0.14597367645094477817 0.26583882454329077483 -0.1070940924536266381 -0.20511841875478503683 -0.2219729314728549896 0.0099893609289585620636 -0.090705503204906820502 0.16726965834913712361 -0.066176687061771238829 0.20175982638382050638 -0.017630327999616009216 0.3815768540486042526 0.0082867267117611338734 -0.14589294994878132528 -0.24453871087231685011 0.27822271750351024178 0.18014411659282147937 -0.31304395177249155768 0.0068909113931706501149 0.12625588668466214415 0.097808050070742447168 -0.23490535514675425777 -0.076205837600702541756 -0.32261846555635864675 0.02115092416568872119 0.18793923258161768231 0.084096713855118201963 -0.12863377764626385269 0.17443827627929986424 0.16922206764075856111 0.12421017009843574042 -0.3285606963676546699 -0.24540842854910008275 -0.16285565059958451162 0.14639264466399001807 0.0040115708261249799493 -0.069921026289150423061 -0.088200258785517765547 -0.13925760660160818594 0.14754012135864932875 0.082142828754200189478 0.10026004102050545264 0.27597163996226514726 -0.10158477964971271423 -0.12410344244127689828 0.2522023075496329092 -0.23743307801115726141 0.11557769567641558439 -0.28999799177505652947 -0.060104040056754459709;-0.11551469592690559451 -0.33479708368360361348 -0.4147133079655086485 -0.45414772008152254346 -0.17051980221075363486 0.14745850757683953702 -0.34407703481675616652 0.05188554028845585725 -0.30506665132129989759 0.0090591051078483617737 0.052932637942120518149 0.079924223452160880754 0.0041786748398716534042 0.092677307504720654596 0.14585859659731376103 0.13736056225955051158 0.053665694517094054972 -0.032297260779613277959 -0.24851466490109616614 -0.22222443087708321219 -0.13870700470232297241 0.20711145813117001757 -0.078419484400585645623 0.19350848288121769158 0.043442896881232213879 -0.205641300236898944 -0.0071062283522564852895 0.31392117743829867083 0.082800251939275204549 0.024905909331447959737 0.29465629153450167976 0.15710879142261310881 0.33544018748471654545 -0.23229749445403446995 -0.16465097130677938675 0.024828095947409086625 0.078493919577356394135 -0.2638461402591388838 0.13545222968275266728 0.35631529420642260586 0.22463481059683410024 -0.039109459048683743732 -0.30617508986927260972 -0.26957449496171992376 -0.091586414134025836975 -0.088878004559224205172 -0.093661019475641857368 -0.018979797612981560984 -0.12344331148630595385 -0.18860751154179036804 -0.022887773296109859 0.16170162268928839344 -0.10131655690184426799 -0.21068558248501131902 -0.15528882143026787044 0.026843488654258132464 -0.018309718442846453085 -0.064359556483960439488 0.14103861463026637346 -0.29946077131278853178 -0.10975998626956048887 -0.25950645257175042335 -0.1971975094622617497 0.31355008556449531776 0.17373097122521757862;-0.12405661808735121698 -0.10483928368461278846 -0.11640164126636508291 -0.23084751818796128697 0.18209979818954782904 0.14537900120610788846 0.019505439355782857452 -0.13715568752644688444 0.077061981465162507354 0.15926220686509720559 0.0028576140101087346701 0.1955414920752546748 -0.066675106799365099763 -0.070341598444836478388 -0.045827659654302535519 -0.27582751737111432799 -0.28926212279059132504 0.089713480002325901586 -0.045384863280661762175 0.023694763094185222752 -0.33135059097613356327 0.071133957596781399735 -0.089885694186056172561 0.1611452942484276063 -0.034503483594658164446 0.025141789635431691097 -0.23976587683013322883 -0.27995033740876190675 0.20930399836468771557 -0.10321606582774138505 0.2536266201779520113 0.30743632265145820481 0.097148494261962078933 -0.10382112405629961849 0.060628877055086641268 -0.0067412139669549191526 0.16642148221708574773 0.2539263984551396458 -0.26752161187125300668 0.34852852071398376932 -0.10991961103379981057 -0.17747638647724775507 0.1556247425121468908 -0.011164403604818845875 -0.064953021312491393546 -0.35646381827048717605 -0.37430917849193495739 0.17536522397726395095 -0.033150789983768108593 0.056645251570624798043 -0.24241540427301602745 -0.14642868868631311874 0.30506804764583700385 -0.23567911590815218692 -0.14800826370142874944 -0.16714087908636751645 0.1912514056128458706 -0.20173639647541696807 -0.11139604064061361943 0.26878052596307661082 -0.036566564390610942215 0.076211351389577824955 0.14736714054615041025 -0.21161055055470623376 0.26101957594481373093;-0.21733075370539853277 0.12433969857135106218 0.07688403337400701032 -0.0099220757386736420369 -0.32529235743108753098 0.16422144957269205201 -0.05781976058004128366 -0.17355853789899025608 0.15537749353471028146 0.22205280149330092199 0.014139566619869552502 0.050606545913982531326 0.17076787575044150014 -0.043014614601096810842 0.16931305976126717616 -0.6155407719766475827 -0.37701987148385357473 -0.092173527188789183828 -0.064416799031321858582 -0.17130530918644495952 -0.080472202813893292661 0.077724388406802874529 -0.046646948772046378795 0.049564578261933771308 -0.12397967628108014226 -0.19373030823943973577 0.35429436606145053856 -0.085000796972850664601 -0.11701232349793935783 -0.10115235360571890599 0.1514215137859497573 -0.15316592838518769404 0.31476296279115234533 -0.097101310408444010958 -0.18409786051301801901 -0.15681599799961370989 0.046772278531900121634 0.17862057828058833242 0.19317545931487403732 0.035313031345684128826 -0.20055895746518534462 -0.32461465914270493105 -0.19883886141297510419 0.39059807996014672682 0.00043730929605356738676 0.25617067761462708475 0.24768147874523505081 -0.25419108591496974991 -0.21382778006202554644 -0.36110736224505507463 0.11007897611884844002 0.040839854706572628618 0.28884384351444170047 0.14109986060332818658 -0.19705579194760083905 -0.0056519558407066815275 0.12769368740918457528 0.18101674631996969578 -0.13071053128551679556 -0.027153700653157662737 0.034899048305529756231 -0.29287446324390620234 0.077204076692927656178 -0.0075391307580974196989 -0.063878978140804079655;0.051705523241380002553 -0.49522544081446362441 0.082454726115768373074 0.075589202363030974507 -0.31374859904186463977 -0.037674951545119961249 -0.083344184859616199379 0.17034190316214847805 0.025576601337060612951 0.14499675134121756126 -0.1862453453766168554 -0.052297860248873742628 0.19465498282382512341 -0.11242660861871928146 -0.11737630635239899857 0.18605763907555625258 0.15100815430594805022 -0.27366569716630362308 0.16432359093882506484 0.081906209443238744972 0.20564369463524370674 -0.12472261736450872271 -0.34380236825179366633 -0.15693328853235816167 0.26814086149066607145 0.15770282986918507384 -0.074783411439190372594 0.085413138570302887809 -0.10701498515399454625 -0.22980048647388026661 0.10006633195404426862 -0.23513484332276990418 0.14213559591909916135 -0.14635448993059960165 0.24610096277299917111 0.29619278800332105028 -0.050672777675245882223 -0.066104141450940290259 0.17477540359438470396 -0.022681944373081699973 0.11905772481945041397 0.21746751596560315312 -0.20940130162382680767 0.17486460156882732697 -0.12549738088192308183 -0.22713312623201387108 -0.14058598607193750762 0.43555654746451916148 -0.14880528322917649375 0.22968352279457029952 0.0016030941508974987098 0.19836012803608721322 -0.2372360555581814745 0.019621856628384864996 -0.19320685449817584511 0.12889383400243481503 -0.030301519057261881718 0.1027021091384222734 -0.09106737271481654683 0.15076432371510872787 0.23069624695772317224 -0.0066256867119368649185 -0.16773129805781045176 0.1168319709603642953 -0.085264586858178934015;0.008394442742740723315 0.14733316593207726464 -0.10146922521840062714 0.18045206410927683294 0.19621393387631183569 -0.16756000511275173648 -0.013311132673264294835 -0.23335693912866783961 -0.044949569077048591448 -0.24207488266696600143 0.18777707678626842647 -0.24612999630698975673 -0.047443265055941895303 0.19227318548442559609 0.29090463857786141855 -0.021384103977017347026 0.11432977021690397812 -0.15342098436092441172 -0.11986886420603733161 0.26119702728064320141 -0.034638543731435184059 -0.16117349542046971456 0.2166643806018192786 -0.17057340032307771738 0.27540176464146487456 -0.211542772438855331 0.33976031358062996901 -0.22916089172161577259 0.27988093262611291046 -0.17331064757520395214 -0.1184331424134987959 -0.042819193635784041918 -0.047247877549790262552 -0.02271279254902094577 0.25752341867915362617 0.075293231391394183083 -0.30726642048337898805 -0.11612254782180284063 -0.069257764633445309532 0.0052494527447993072355 0.0068584457306272265942 0.41836642955530795041 0.0303652356895659295 -0.19317435337148586294 0.098264459531996820041 0.062127612323042202824 0.15540544954228449614 0.074631417303967134691 0.017195368194052748634 -0.12861023511159536126 -0.13483320441526264188 0.025396993773671994177 -0.092679248498234612086 0.0099932557313145032457 -0.080870358757047941523 0.17620871887648259513 0.22063225744232167758 -0.22188744885692079922 -0.13412968342412151523 -0.21000435331425856833 0.19470559748159724234 0.044200164708051881135 -0.12314197428567384696 -0.16524520849493790076 0.17455642341851548838;-0.2892097460620686733 -0.18797643016752030309 0.304900611404606392 -0.045855767665003342726 -0.27026411694421204057 0.2308640625645910216 0.26012686838328996641 -0.09506024773327256816 -0.063543692264574166972 0.10973180948921217037 0.24107925472890992524 -0.070860017245426024091 0.078303811908308526557 -0.026947137347058409268 0.055919358147818329363 -0.14618234595035978218 -0.28707887877748283767 -0.32796537941492481805 0.020183120526315344312 0.37111452989446813699 -0.17201259295548554373 -0.12493331069207627704 0.19987055953925975116 -0.27962922196978468037 0.11274549591975871476 -0.10344200958759336428 -0.10163592693360484764 -0.20274581838798191868 0.13546894883020971223 0.16417683930497672939 -0.0086017723870662303465 0.19455835856017558716 0.094627724654229972145 -0.11911292890165985081 -0.15494105924694057119 0.31130101460261694335 -0.26974284687093558199 0.048887023079295002792 0.19536967597804749674 0.11913917313983653223 -0.27226910810664861629 -0.12654684163612855974 0.18990234220987092795 0.18425684911040629554 -0.1456948593255845692 0.17601778029811215864 -0.21477178976387722997 -0.1715207316045103958 -0.14477725995559836969 -0.16778285126983608078 0.2742223787342021879 -0.24765804676549918462 0.26500052275079355457 0.095671564976105960554 -0.32762169250272593635 -0.022987040743862464931 0.0049948190068891448051 0.11335789869607534874 -0.048041739581626746736 0.15397679631030875003 0.16205838792840562834 0.18507960137512077803 -0.17734890874424011353 -0.34346184878984320488 0.087194690714230180251;-0.014828515766941297374 -0.050192787601609674397 0.087020404230648051858 0.13044602800743876347 -0.25471833546412753213 0.15161683259870253893 -0.098953547672622238496 0.088949796990554982901 -0.10204250809169707059 -0.06295436446913178774 -0.033305389662099671444 0.048652216343499532503 0.24337410158407343785 -0.1436401230185063993 0.13245561689960660967 -0.15063366612706102776 0.090232250565819974164 -0.04960999094926802494 -0.2555568173203456861 -0.0592544526544373229 -0.054492367700887597848 0.21281628588694723181 0.16800242234180490231 0.31559414893682602443 -0.23091395899869660013 -0.07651555536722684514 0.2779316534317119447 -0.12813323639237744755 -0.038326485331360515829 -0.20228534096673816967 0.17428338380206973013 -0.18125764351576992284 -0.22884561334098760255 0.098592741471095785011 0.25199924143783702934 -0.01482198830455564581 -0.33419101849428306528 -0.2023962027162421462 0.12204800309512219003 -0.22255634716987712785 0.29598678558275370865 0.28800278113215094233 0.24414765533856022661 -0.18813634401567361221 0.066841625719105526859 -0.3227556694958072514 -0.36769793326807193035 0.1902783983386921729 -0.19376376074459700227 -0.032339017758812635406 -0.047170176094229139541 0.26461858848698915914 0.16383126603720216119 -0.30101592040777058745 -0.073596119290529712909 0.085460552183971874585 -0.013595087335416864913 -0.13942197206829920475 0.089021416221133201074 -0.083867656567593151795 0.34092895190173416742 -0.07687696136240332323 0.31654436472682478954 -0.10060290404810506848 0.040509713754967410781;-0.0045557727625451290704 0.24149415751247127471 -0.071021129060704304981 -0.29967542196261243159 0.11589260942675042032 0.33458715268479966021 -0.16698202099558359657 0.053856105284577772407 0.0076001024088956231628 -0.12226985797079513441 0.1689837980926372496 0.32968876581804862358 -0.01487880175327769075 0.066798264315578628758 -0.19507656602770681586 0.2330174735657087326 -0.20556423361064909971 0.29731085943272023142 -0.18940375883560731096 -0.21265102570743768529 -0.19645532404498630696 0.17924827125373993253 0.12736424742903521001 -0.21496881610039952903 -0.020243637795137901791 0.073994233066874554039 -0.30101505726295185728 0.22287796943255627768 -0.13261383823684674832 0.085144264562583726885 -0.085775016325242703363 0.071922424782190380599 -0.16535106772946228659 0.33589394943147138362 -0.24529344284101053941 -0.25392999363144597158 0.24365839966634442182 0.044257151620537740766 0.10723662303504609417 -0.16200063995559843555 -0.16942592201635689464 0.040738951454503076477 0.12922825393455908416 -0.063372517787447887883 -0.24268981928143293358 0.10766580185442890805 -0.2109833433332090058 0.28651897786007463065 0.14213459235704042904 0.033890118191497092814 -0.016981673638680083727 0.13355644977837652365 -0.026460661485304806662 0.018932558844071148418 0.12828641585680192194 0.089963377991233536846 -0.0014997551592590210867 0.083675552787186011083 -0.44991095776337730605 0.010650655723895337962 0.20564078938713234446 0.074475695069203207144 -0.083778138522068931748 0.15950264953722451122 -0.064509375438878857612;-0.28914944670662973136 0.32844319808922745052 0.14271414630651238498 -0.027840299720423018759 0.0032949608290767885485 -0.055077314313260600231 0.043729401172451880242 0.0073945187864351055035 -0.075417500712270740815 -0.094826464090641757188 0.041598615420811391186 0.086279707105055947203 -0.39170800101083447231 -0.2930240799963970133 0.21293001162677013816 0.19808592130078936377 0.26451194172566572238 0.018949707715297515326 0.38418208693246136409 0.10032646176273837813 -0.46779907811979559717 -0.12338885872505188368 -0.089683136191122586611 0.20274725109801458589 -0.03503799777773130425 0.13496302302101020887 -0.061435479039382234756 0.44522992538882305569 -0.079623796613408528988 0.1399580750775424598 0.23507318452548969789 -0.26221511978902534157 -0.078616382481785304637 -0.11357861426480826694 0.0095045484858496571967 0.060752964595037664552 -0.021246275793416882771 0.25809462570107699619 -0.013836935100779542557 -0.065739493552814706745 -0.064747792453644675836 0.21144645688343105538 -0.28290925720700682566 0.14481875238204897083 0.23879186484676515057 -0.078599115107417696913 0.065171581883513254874 0.12312608293675522675 -0.30343097212937270024 0.052180136041808024283 -0.21395390838628072783 0.16631410583719266616 -0.27289116465999524452 -0.13130052891819113392 0.059020470108458990277 0.060490476002752709139 0.0073918397896029826993 -0.20659458949362344282 0.026245923048056497145 -0.36992224929699868419 0.23025379002008314333 -0.15258862892204355655 0.19380998309853350592 -0.19613652869550168845 0.038236091843950680003;0.12639371391188250482 0.22441279665209884486 -0.0079210612244779415175 0.16977345960814355097 -0.11922568942279383741 -0.19875231756478775602 -0.24802033336408418895 0.065131863343885432194 -0.19987754806149710118 -0.2335637755470684751 -0.1982907387542549027 -0.20465973156808192623 -0.073683066983585648879 -0.14499679045487662288 -0.084021605447134162237 0.28551845939140813035 0.27097955492516473397 0.17426961280385258601 0.086985064657808350286 -0.14113180917454717922 0.045115934122853904031 0.038798477830866630323 0.052990291118935675674 -0.16869886291245470011 -0.23595197546897758722 0.0927531136676892215 0.12919778984539692646 -0.27265429353064402074 0.27967928343978976091 -0.1818811157431226011 -0.054630210640073555151 -0.14906572578163923559 -0.13091793501967921576 0.25728374154769717563 0.29975343442579666098 0.0033143823397488083454 0.22328961353163279124 -0.036395616684435541655 -0.13324529789590849882 -0.14281788325746147539 -0.23968291999830113048 0.26531535511097564806 -0.16083016365599170361 -0.21177089036514418208 -0.1023024329517541603 0.3032488648925160124 0.20050789946486671789 0.02356320608710375103 0.099718713575502535007 -0.18388419098190073031 0.14373213495713854648 -0.015625929338297928073 -0.098527239109772749015 -0.086144747888555056603 -0.070927403277265724246 0.30663846756476248467 -0.18343131399634199363 0.11457170084589476944 -0.069160218029775219484 -0.13658615412151192681 0.10185636889386354142 -0.093269466186162122701 0.055870038886401587885 0.12324495806072099935 -0.0077565333857665327844;0.091279677173958129188 -0.067232118351850195248 -0.29059813157109182225 0.038069762422328644325 0.17403628872664489435 -0.012363629371974424465 -0.2631530246236437609 -0.1042274967397700397 -0.12641972797410991336 0.24566782758142807763 -0.010920617932298318925 0.043296000390380229295 0.39167845729253347731 -0.068670801348741705716 -0.10028409793542586437 -0.18527228971804060587 0.16145578067978641479 0.20175335087223950081 -0.10648870789570012707 -0.13631111729423961432 -0.22026592028584546235 0.17836178680844189115 -0.16916446696145934214 0.026077467349338096653 -0.036426291579140492038 -0.10299591095657149864 0.1544335735134076959 -0.17150027040062840178 -0.059556553421020744232 0.26434920067992745407 0.0035634637370317765424 0.28377321786916714919 -0.3748665197504685298 0.05233851876768119693 -0.15366885056738940896 0.27240896730568137096 -0.23636060451106069569 0.17955111927402936378 0.046561135389315978783 0.37994136905321079789 0.062997424121342099346 -0.3420767918101345062 0.17112485923164952317 0.048437844944346088172 0.050525206316718737631 0.047879434529634508355 0.14965404619113997775 0.03567432625610938296 0.013114155718530645309 -0.12273825796683514311 0.10514275124378613668 -0.034622052076203752025 0.094211028909473970572 -0.25355076933460152233 -0.11967978014460232961 0.065731857406321897441 0.32011981984478027341 -0.032469207304922011181 -0.076468821016566240756 -0.084976034691573901214 0.21202509037402922365 0.20259457617046972011 0.048829648843311160289 -0.085165249765572284546 -0.038392216452537132609;-0.021345589617584530273 -0.057530938867031505835 -0.20411024096798782712 0.32045934453229169003 0.17259085660674847174 0.25635320269264605386 -0.30417348624550633041 -0.14434239723641195674 0.18284292780525382427 0.024547317681962887992 0.10358103765778761685 0.30496961579342490856 0.05996761457283313751 -0.28987186275236587196 0.014981990732168661354 0.060824789307639307023 -0.23825781129471806929 0.081811871376482561691 0.28246408689537871872 0.32104165975165599445 0.20437723108066518929 -0.080475760386545525105 0.12518149902442382571 -0.15832446279490558494 0.12943317567456508188 0.25371752789712226361 0.18663882696126374294 -0.0014748871460639036233 0.012462421110285061901 -0.04828209549073640694 -0.13561397367902153221 -0.23969095122202396797 -0.051949261294851722948 0.21650567220734309726 -0.27801191409378328556 0.13980633525478430856 -0.24421864266456552728 0.081315093637690391559 -0.075891874045361795709 0.024547516032323874607 0.055472893449305560321 0.0068808784810689901934 0.32306007217353649441 -0.061636430309394536764 -0.024295685769100527213 -0.2578209599759903603 0.20638567282878195197 0.19111578376453258743 -0.037775093617281124692 0.24262701338645101257 0.19602639825337886403 -0.1851985200245747365 -0.15108883827723132431 -0.17409797458087514221 0.23053179673268817118 0.26183047695306183034 0.19257782944482657039 -0.037685347401398512635 -0.024604164015698405665 0.17166673031748447276 -0.32261763487840761089 0.071444181657360758542 0.053772718897020829742 -0.070652126739485801576 -0.11095370937752879748;-0.10296417052359563282 -0.1166305439918183251 0.17339292292044752863 -0.23098815887716298012 0.036029092642524546131 -0.043221729202426582839 0.080306295275709427273 -0.25406867528193022299 -0.2674644615571684092 0.081770726895065370954 0.10990457300546170594 -0.074775374674452319002 0.011921766691994472448 0.3210762240847656046 0.048489908218158503383 0.11961630504834454281 0.23589384509036406823 -0.079468186503841312107 0.25048500312048355143 -0.23824031737326203939 -0.46843412964825903444 0.12655844697483759065 0.045736840460471689385 0.10202609787930719265 0.14111500100813209602 -0.17750915685368792718 0.01372677046750553527 0.25768733383058500808 -0.069298969940007212887 0.2579754225968836634 -0.15411057008550804737 0.29388313160034928995 -0.20233553214575397683 -0.21763296458049932736 -0.29757272967647407924 0.010472543583839649325 -0.29319375813797649011 0.11146693268496626894 0.32419677347635955655 -0.016869046219438712381 -0.22079032035489659647 -0.05868303792116380535 0.14471416061632835781 -0.12827250776650739317 0.046164990029069874478 0.11643308518627255854 0.26846406127519428786 -0.2197515681657916109 0.2493539743103723727 -0.087353416522655991105 0.04528201597027871339 0.024620622546273254055 -0.12850573410745302905 0.0097645086745950810531 0.092683543452908648264 -0.11852105701135996763 -0.050867962381440631758 0.15700590545334974779 0.12652775333382509926 0.097132816893801349201 0.26931398882348506207 -0.22830075571155081238 -0.046941150721193397599 0.13021435090013508407 -0.11359706633108307416;0.018834038007212106774 -0.037955967158913937742 -0.28063537138065985932 -0.0081430938258658693008 -0.18399896603105753146 0.091504255649241500459 -0.088714011956790891911 0.07146250363017647711 -0.053096100941949789243 -0.16404036155613480052 0.11332111971390321226 -0.2220366709081455503 0.13248804149430837285 0.063961297816758452828 0.30803535686625271861 -0.05720435149915700096 0.1633446489366221499 0.037926565390609401351 -0.24046085325285107559 0.062944167308384230131 -0.031245500747743210068 -0.22560453587578427337 0.11237446167581459366 0.23691576286036308829 -0.25320733499474018524 0.01015244973018888941 0.046002209736765893588 0.32314935557673163391 0.26838596223089000725 0.055158965635632051239 0.27155299240701380459 -0.18190033362221388891 -0.31795850516288609588 -0.1107784525722235458 0.24620562740436702232 0.021659916475144938564 -0.16713613815620390057 0.33431028713672628072 0.2521999342646957798 0.16314890788148439515 0.11056000004181168461 -0.22698236353744027927 0.0011129745442072487907 0.083056288901916783263 -0.34006002864845441547 0.14518666779588107474 0.35531466369504149938 -0.24585620126083043702 -0.071891345164261988288 -0.11030984463899461134 -0.20778938546931893794 0.12427508235571482764 0.14240016993105492071 -0.13629720668235284498 0.28532624298462910817 -0.13559407289032526789 -0.016700843086430196271 -0.082221798463420175951 -0.087093575292380209785 0.093313848598894716391 -0.24626168812672055708 0.071886743143076803353 0.1879260494664233283 -0.021910109971073947477 0.21253878257358166382;0.027922622577062183868 -0.37070351817532548599 0.11916934627825287452 -0.14945613386516895527 -0.29381136553673226075 0.088634974934762481014 -0.10476561740110641729 -0.16026197569757036354 0.076681791873999788356 0.019738328316413852881 -0.10454907352348266625 -0.24967060433563467714 0.079816293719841710508 0.56019604030273961737 0.19487326698647253198 -0.14175306246176033742 -0.28956085292704331069 0.22793861838125289987 -0.43864136577245588233 -0.072118986253099010009 -0.073638772262334326046 0.1079880067100161406 -0.11909075649143713305 0.093574104053180923168 0.085007031719994005647 -0.18598114789710204486 0.1410903669096927604 0.015172776993427099929 -0.26547408818267215214 0.23014808712040427108 -0.25711241538270862561 -0.2753958450406452374 0.24139322154778164453 0.047956278455858515619 0.0068509393620414232168 0.22044531496714103724 -0.13946005089624058382 0.11518527814205721527 0.25303194512120086301 0.012711783646254921909 0.031056903855908795514 -0.057869595424684158735 -0.044017018443435584896 0.26326238127412376899 -0.17947396263754467061 -0.26002456115124333857 0.10711468202045552889 -0.062417155511498005616 -0.058804168830233302656 -0.22838774549710680328 0.23117941817981507713 0.02979311501727526304 -0.16757732629084734488 0.061973270881761556572 0.33996496202948783827 -0.13919867973591623644 0.096030321711409571961 0.1107558001818927107 0.073655057200795320815 -0.0074657881226331199165 0.36216706755857952515 -0.35034775335680612418 -0.21778769916457493827 0.15947722908625219795 -0.088038754568840998926;0.10583117508825244657 -0.13113929309476179963 -0.051699189365343796443 0.019748554866722906748 -0.19652630796092016019 0.072743469330077387136 0.1841471704070707649 0.30110978214824141164 0.039355524146420427234 -0.22000431497936509539 -0.24376153155039745335 -0.22952662674427529166 0.15308304475782733012 0.05548051653702663899 0.036173497846381498511 0.082309195948695151879 0.44853327818657651171 -0.017592998235078753655 -0.16198989245833173012 -0.019294592553419219472 -0.090594351970884806624 0.16454208503941350483 -0.43447143830055362512 0.17642472187858260213 0.070739284583691053321 0.15161231825903839776 0.20029564037369229634 0.25730419318682329344 -0.30767946368732373985 -0.22961826883492697515 0.05473406018826466185 -0.043256725655717850887 0.0085970286690880155095 0.090344325632473562737 0.22949043220336873272 0.048097742850182395591 -0.049008195093290955746 0.012016395833166174101 -0.05004248258143445538 0.10708395478031311476 -0.13727271331749610339 0.23781148311900562886 -0.097362956214818607847 0.288665593561394207 -0.17672742758327755763 -0.19372640259656839778 -0.064661235562944105459 -0.044028928725538547806 0.13066829297961438106 0.30681336929985159045 -0.28428662535266030487 -0.17770748940570380014 -0.12762342466064513502 0.10708840481436820991 -0.34810655858683592356 -0.15885016022513318013 -0.0059188138413282902206 0.038679320728659129236 0.10370065373993891944 0.036314645591629265975 0.09869611090796930053 0.21168849202783135421 0.029427726662831665827 -0.039390511308399905888 0.088966280375856687801;0.0074084426954888552008 0.33300573219278956083 -0.10285581430721579821 -0.36860877604432484844 0.11016702098746342098 0.21443469657780470095 0.17762808134750143751 -0.13373075731260219978 -0.26490676911096072699 -0.14629250631043388964 -0.16716880877834580654 -0.26911003473912675776 -0.053472570542219426126 -0.17698784626357388916 0.24927704679430195966 0.15002914005900272465 0.058327755998688800287 0.26017303702397576171 -0.10638633374268419152 -0.20712309916281027022 0.26285578706511369962 -0.020616722983689206999 0.19821769902882990788 -0.19326252553927802946 -0.15524283141416841958 -0.19278952828469506087 0.23364979666497828759 -0.029403691848539095788 -0.13595471178855392247 -0.024986671819805891803 0.1027159076721337605 -0.2081453595921118338 0.22553979968824611202 0.19613209649643931209 -0.095160571744069499811 -0.046269360290751550269 -0.10224666953386392365 0.091183357214321567041 -0.14000509150662704405 0.045728874321584116192 -0.12835959986508166386 -0.30049627900636538547 0.17519013781816145103 -0.033277519349882773991 0.40052820294343438601 -0.1431935439286644296 -0.35585269741480607397 -0.24720748287761434847 0.10088925790779333658 -0.056844033455352459272 0.090063254883100810066 0.057650955457675859273 0.2881660239550314917 -0.024712163420503932554 0.14141264447046197894 0.016910100012575327022 0.1851534568613740217 0.021355583868733547803 -0.19876025899250845952 -0.18014086221778366492 0.11587637062525546483 0.13309182327133622925 -0.098665035156913660774 -0.16476125118018425386 0.18958396534606211659;0.058430040258906038031 0.20248913964713022295 -0.12409987818362257228 0.13165404989705767336 0.12511540023689010637 0.10800568200291595089 0.26721982076489608771 0.040188781643722235049 0.26970673292298308343 0.28593638281985467309 -0.020251231440951922291 -0.20656351421337698637 0.027858703289599214686 -0.3014391739750913457 0.29546054479751787669 0.048670084742042311887 -0.28087606424718108977 -0.050954925950235083199 -0.0027744356508913083081 -0.21743320140438041066 0.18417314935536757692 -0.050423306384623001186 0.29345015000209312417 -0.10119379038402055715 0.24729725134924734897 -0.090580719312541385646 0.31860918033758350854 -0.075621227335284021964 -0.18800471811154420565 -0.1543634752495632867 0.065484581436058758586 -0.27292539876385707442 0.25438622482970996153 0.019273898874443157886 -0.19395293298015303662 -0.20827598576335448755 0.0071819813021977447348 -0.070180518808244898854 0.17407573096995090922 -0.17011451853794903877 -0.034360339870859749056 -0.10223060470004111111 0.38559587950810936263 0.028453744744740286365 -0.14544984652403747383 -0.35261011663040364716 -0.049207613076733783264 0.097179634639667528129 -0.28015707278064549968 -0.076602873174099708753 0.25280481916969488321 0.11302828977974897773 0.29024358115325404883 -0.09068435637369413882 -0.10758774934610713936 0.067244721384226963101 0.23385561683879529937 -0.28237533899081140865 -0.3192002034259780463 0.080855350488975658019 -0.013153719291708311501 0.15180031486390307971 -0.16515364220493583547 0.023569048026160159537 0.096905381481207947258;0.086431509874230025292 -0.14430702761974856241 -0.1457744893861736557 0.2025448299827091736 0.085226214831187696586 -0.23447871656468563528 -0.018056568107252174427 -0.14420130166042063879 -0.015828079171590309776 0.065429177190634596473 -0.20603208023760680168 0.37121545702550540202 0.15292867883125860207 -0.20901657130719084043 -0.1579031626057854909 0.31826238837031628481 -0.1777583030526051211 -0.19521377342679024913 0.12358141175732609285 0.21996192508910969443 0.2432649664290150171 0.099952035634782415707 -0.074897743823625309578 0.18096842511522298613 -0.370665643217641394 -0.14314555927084487985 0.063020821980144137164 0.01960326771699238968 0.13429426960492341081 -0.23279345620910563142 -0.0071096794717595956231 0.29309616621572559536 0.13607692091073089746 0.19923874607448011087 -0.2129825912454156589 -0.14047110415585112309 -0.2386631293893063388 -0.12030745669573061907 -0.18611309698692402037 -0.21375030622521246082 -0.054581614044220322368 -0.22174272850920018207 0.13031775409315643488 -0.034688943390731849514 0.14498454671107230407 0.13225017518097342828 0.18867252059828454325 0.31625411298223632395 -0.34753640131318258577 -0.14450471841207945811 0.38918092773649659577 0.058087571811388169496 -0.18946084998374998487 0.24537602006178949043 0.0014157080305167324841 -0.080224521115444896724 -0.16265097552282031801 -0.0062837168041522031142 0.14997248663735371355 -0.057531633616496317962 -0.041579536353925396208 0.14406310994692139715 -0.095651378139403095413 -0.28097696844833319751 -0.12133711224731771883;0.048143398354571244335 0.080231925254689473448 -0.049332721881538421638 0.11183540509277378749 -0.22057547955399114947 -0.33190910992493710685 0.1147467206028180281 0.1668333154128080198 0.094899577309889751597 -0.28881055021644846947 0.033294993889774443518 0.036054824147037339843 -0.25182414890274962271 0.2124733486954984707 -0.038642450506564264556 0.17797929814706806018 -0.08180201566372743982 -0.3268205960484255046 0.054066090427372655303 -0.14963742540550731275 -0.039102352790893274426 0.034743979972746134866 -0.44914528434674849677 0.10201414145266099465 -0.047018752234439339932 0.18487325165970708296 -0.084727568767293842678 0.12059516930841814031 0.12384420907259417743 -0.052633024505446310282 0.30524678887008965811 -0.3052457311332104628 0.30966052794730369868 -0.097281658184834571279 -0.28474624788684821386 0.041354627565735511963 0.14587852697246520006 0.12926285211283453092 0.05275931133015324126 0.15863319581802229341 -0.38988746513898786539 0.021342253007706542267 0.021397189564043926635 0.028367549616432806425 0.087656167231676462848 0.010194221625332688247 -0.11139705425406253025 0.18329735338874930672 -0.24557201074844292599 0.0071559653939514134002 0.11548744192355417382 -0.073760577193364054716 0.12802677899343414825 -0.23734961403120330425 -0.18811524823195549527 0.18693870456385597301 0.044230084426018903554 0.084117382514290420237 -0.2311372707156231221 -0.13605417967052552131 0.049798127642323677944 -0.17503846809093731585 0.42234054766089823563 0.073077005985653309406 -0.16259293904693397637;-0.065370125737698500656 -0.10321206801397775354 -0.25751311608347754456 0.25135509836361719094 0.2028811462503535834 -0.052073518088315597085 0.3220558646621788923 0.085234152161653226054 -0.32321601201622562893 0.094029753494436332795 0.070611193211583073159 -0.26823324387650121503 0.29993696834720579014 -0.028616406690393760004 -0.053211489291760401266 -0.19700969350420846626 -0.088034056713598929367 -0.10646494624475656698 0.29106098455702583694 0.15498406836057554425 -0.056191466806983565718 0.2729661477695339844 -0.082916591313036011601 0.039735652737271497104 0.24988886923609943125 -0.1189477732377894198 -0.23679693081424893486 -0.1423549379571347473 0.20521742285760263824 0.15928181167383273498 0.19775585202999504397 -0.24448780579645404409 0.14827205560612091717 -0.19096946517595914106 -0.18967020330773282089 0.15624219843636127925 0.15434067180345759085 -0.23982082408389521211 -0.12227943946801202169 0.058780116737020486617 0.053758104731691840061 -0.17736526939012214887 0.13215448682894817556 0.0037730923900977045987 -0.041656519367984312652 0.035392949685463637177 0.13630463306415543934 0.13200259336824260448 -0.14426315105024645202 -0.12771354256273209637 -0.1982861811092568316 0.13388338601637869707 0.10447891013446430897 0.09776011104712310773 -0.12637578678926869591 0.052477588567416154353 -0.14855087908323791335 -0.13949573002269249899 0.31272841014871866072 0.2424764997061802374 0.049432585694078046146 -0.233297705848678677 -0.066100519497964319027 -0.10153129839903561604 -0.15325473977520348567;0.11561691952154710961 -0.083136724092173430734 0.10738894176476233844 0.011139323203557142949 -0.080575223792548306134 0.19478068837940595848 0.046315444329313164296 -0.31379872035084827031 -0.065164151184563770536 -0.18621948016465716957 0.15454975458473341199 0.1727418105082709765 0.069460041750714074382 -0.10577730803953255823 0.077394833860186681984 -0.0032163095314156966986 0.081766999551133340285 0.42393915374953067277 -0.049555177614399328889 -0.028539737910348347838 0.13476153131870177715 -0.051934107268314648465 0.26240525501617639748 -0.27224439500468067266 0.13611888681278500046 -0.20332508104095584067 -0.28150501333866340126 0.1177805611354141857 -0.18248550429915888493 0.097349047969541857572 0.024617220769616265236 -0.090457033367177724914 -0.03687526227839127424 0.14233125529943921328 -0.09105885989325133989 0.20643190382530457461 -0.15701021601411183082 0.17799761568420924274 -0.15887369839210527256 0.24037731227139605417 -0.38094210661912908389 0.11515776271172893652 -0.14495256562355776642 -0.23915982200989097106 0.30133323672435763374 0.19768643370488192534 -0.19074850523034678207 0.089047572821086995454 -0.25528301105399137105 -0.22491631122408914378 0.20814835375889864655 0.26785569581108903403 -0.095262516984004091958 0.15753328631406074423 -0.14195165779285218166 0.18058958170044248082 -0.11815115850218244065 0.12791304611029991056 -0.26833600499623805336 0.15482995779543004544 0.103282870214740502 -0.15869628848616190719 0.16602498473611732033 -0.06552865664530760359 -0.0066938503824399558928;0.085635908277781142006 0.035274979924546714938 -0.18391129129072120163 0.024935733133193842964 0.027225001737680276648 -0.060264933304020787408 0.30020720122971034094 0.063508670521870258519 -0.11014568690071244172 -0.021872555309067231999 -0.23479125559676528034 -0.041816893883818873068 -0.23561071259507673781 0.13915438184135267563 -0.01660606034955867949 -0.24880183003112188445 0.060582933664035137911 -0.25305122166305132891 0.058202474220316116615 0.12668646696411786645 0.25841299744721740739 0.11665672257486971175 0.10259310437793496551 0.056195557972083517995 -0.18804069136676376806 -0.036529562315547936535 -0.35338009605343517761 0.12528610465300007992 0.11236129809553897785 0.15658838520433357444 -0.34635126179290759429 -0.10436775132136502653 0.33744959495010590222 0.066833386128895222456 0.0050584493623273898977 0.043011641625753146978 -0.094552883198306555967 -0.061916544227240695453 -0.17148000956015932439 0.2803210321701529173 0.23328407791646427194 -0.17988200720462635407 0.11281871277922055075 0.092945099025036351237 -0.21705089236358979243 -0.30854958731454534826 -0.019378801761022225458 0.11113649524750342235 -0.10395901523443247527 0.38735756273433669117 0.095540980130906658085 -0.020097011892988615039 0.014035912823647691064 0.0080158887441201635837 -0.2887909075476284837 -0.026155841373245752868 -0.28759767082234066748 0.15326744493625818477 0.00622682295295475495 0.32518584636566244539 -0.098158764053072902755 0.19131525642686253441 0.0040943853391971520017 -0.094402294206375858554 -0.0021908188979297871408;0.0050896811315981598661 -0.2920725570452556985 -0.07060248454867519563 0.20065056427294131192 0.2765131899484808975 -0.20993695009395096918 0.28073082393539305901 -0.16964867360465446522 -0.116408692638461847 -0.16865816884443868284 0.18476849707986411908 -0.18197516322516613108 -0.34599108192368421832 0.049542512439904082266 0.39198435263194569833 0.12751635137387026808 -0.10492092056705282221 -0.31061837850501272662 -0.071057874469450124644 0.015411570606359812491 -0.03080200720370592643 -0.13389786578927809213 0.083120817336759078575 0.15648901315881888485 -0.084489858798801734108 0.055547239606336361317 -0.071388837610761882169 0.14191638045029369986 0.17304207688581671465 -0.33746848678662910714 -0.092976566982005265372 0.067450216954944380854 -0.22287052997542730615 0.17604599060512637898 0.11911761845556810557 0.019779168649853098166 -0.14311861655222932188 0.072847910513617608608 0.15445717351888407776 0.095608351166512006714 -0.1116982506970073119 0.23136287891142962025 0.10506930688760163228 0.12271895599039257807 -0.381507644361160414 -0.01801982476061215338 -0.23402365435135916161 -0.17139224086610688191 0.11289193456783779002 -0.024273633001185096481 0.08717296912786778873 0.087884764914073487674 -0.019176009507247702979 -0.052766439003801908492 -0.079386929160216390677 0.035646963269500182847 0.16322803046990469467 -0.17582194857857186276 0.15825895878805573691 0.16934652993959156686 -0.1229664617282974215 -0.19422398516312264216 -0.041380538660670145024 0.14818376930106202938 0.020044543718781636377;-0.0063492019181050967855 -0.24805528786878300318 0.22203902843773359876 -0.074524281253280783011 0.35276426351411038773 0.02345873640521574377 -0.20452546463110518604 0.22550742893934172528 -0.25194969630329511201 0.21211988572473569614 -0.23437474753932202587 0.034324025605906055558 0.31945397437709377453 0.21488154816353344234 0.11012247835730523682 -0.059295636240994112343 -0.41838236239545412154 -0.11017190046231409295 0.049192564022956089542 -0.22433167574578677383 -0.18390336706175078318 -0.18204285336701472864 -0.13482864611829800672 0.10061441895270617497 -0.11094592608504154352 -0.069469877297808360628 0.25125798415597999647 0.13661717534390033224 0.26262306360898646229 -0.28044149885965768965 0.1492007376911609895 -0.042341595497054559938 -0.31170683594520942616 0.020111822894610179024 0.19760611271505407194 0.2299756516586865529 -0.21155427126643769342 0.0509577469192422014 0.0082674343674942630394 0.13615288288702906416 -0.10952802608782032101 -0.021850097743631339414 0.13526799862034741273 -0.057241376070924734898 0.2181599757703984177 0.13911335087545023681 -0.22461309260628481432 -0.033103717749378938628 -0.13240020003499705648 -0.2267739049171238197 -0.0020642325494190059965 0.16463530489641248211 0.064476297116279945865 -0.25303957556293765752 -0.19792015060469583809 -0.13169672190132969414 0.076809618858296166422 0.09972521001853716649 -0.16649891872051675312 -0.20401757228510347675 -0.064611251140657535719 0.056942287416539442979 -0.02962842253305993101 0.17716093906435470551 -0.1518663062273034603;-0.035737493332227109055 0.28209989220732578641 0.25618854204189450696 -0.15167682533040419135 0.08863565451518516658 -0.087066710753678305812 0.081566737454493554171 0.1222658588395604401 -0.20247755053105601086 -0.1450629894559646027 0.081974187322741420836 -0.32792736730594967964 0.014879749813713427642 0.46406849762282670335 0.39320273759016749482 -0.41810266930328643387 -0.0012296705013342748569 -0.20209103193446403823 0.16504301961541906207 0.12391127522597958355 -0.19469290513949771837 0.081664739527298219057 0.040403678272206235145 -0.022662703641271514376 -0.10385337577762100703 0.22264870722179902485 -0.072649589607529874158 -0.14601789335637890832 -0.033737704094689832668 0.3398013956648074374 0.14377114534190191253 0.18470492441550362406 -0.21113854653705668718 -0.18659240669604498786 -0.068761132729630872196 0.34150547150495119686 -0.12912936057118690192 -0.099086556841933098871 -0.1281747700261364753 0.049357842837675268421 -0.13397075980388423178 -0.035018641676196241019 -0.033702240107023190285 0.2413671322621910309 -0.31975787735333333073 -0.23897697506696474745 0.12916304550807763962 -0.027255165808238390746 0.1576540540439070881 0.011438747588681831557 0.15009338521752937923 -0.031125737842171964653 -0.084257443080408542246 -0.26440805474138079356 -0.33963275030591549841 0.26656884924467433295 -0.3423491163694465933 -0.20443125479901347319 0.15042564645481049102 0.26309556869595474016 0.02825388462257551192 -0.17410600636665643504 0.10588406908593939182 0.051195491956583273618 -0.19541872940348989363;-0.084471327002080973112 -0.0036616975670615619851 0.084169395709507266456 -0.071639152565962732622 0.25406034875219896119 -0.19593392463521486224 0.1271535696006538263 -0.11884016687118223454 0.23271194757302796075 -0.24891340084925361875 0.065737797253240110029 -0.19868526672303093994 0.01220091739567176134 0.11145088839281855342 0.12331708349915151968 -0.39502197280447143291 0.10202104966387244567 0.11911185791661761668 0.011109026898979282652 -0.10644433948981238403 -0.0091548370596189025672 0.093431018079136202159 -0.10341867228582406202 -0.15201263146760041201 0.31905250944734964147 -0.14535167892603806372 0.35454278201584893404 -0.17771965241812304193 0.054479416349798109875 0.13498454834591408491 -0.081759302954603513269 0.10784597942969004203 -0.12411786074499832344 -0.21073112486675718569 0.21792274014567783458 -0.085081132319894614557 -0.21316963897326596244 0.10006179850916793739 -0.13455377300833240573 -0.27553214302146067372 0.13884014627010396459 -0.27381558995128196798 -0.0055530086934619544287 0.046318408272393009339 0.029703450175303083847 0.13135568020851612347 0.12012389110879607979 0.23551290484753090171 0.021762896245681968149 -0.047350022664880128676 -0.018900490567266524378 -0.17479008545725346901 0.063877714990211054147 0.21174256430039456456 -0.011495275586809648727 -0.3632542719291448341 -0.18948375818345450372 0.32901294481107939971 -0.065396502608786294397 0.13909588533748390438 -0.21829266329126628676 -0.14371461049713185609 -0.061346661350065417873 -0.0022851717056812364398 0.10158493535511689543;0.2882831124764987929 -0.17169418145778661544 -0.10074334991533165362 0.099511523358402950712 -0.01060077091081483569 0.054520671203204446043 0.065740681883388704665 -0.14236200494918249682 -0.035703306655295558025 -0.22243631231082494626 -0.37311264027784790676 -0.16466619811735785928 0.061003965594749090529 0.29071754284909023802 -0.2806654462018067786 -0.40896097528381275543 0.06506361666944446287 0.038032826503052369338 0.026264619816934432761 -0.0035569067839657173002 -0.0084290699021915202471 0.049875509549469398962 0.12203485826919145685 0.058254986353467708149 0.16720296962010983144 -0.21866937318189116901 -0.20436298737558122873 -0.22768842119890500553 0.056267080288871736127 0.32954132145546477517 0.055062207156303791256 -0.23171462868597164642 -0.13418780133227392604 0.20350011284783248167 -0.26389664646243643498 0.075564883555167189355 0.36290124291214309604 0.10020036268214929653 -0.006655438359949171663 0.11706401390853637956 0.13176683292732768726 0.25040888268533700867 -0.10547589569327404935 -0.31461077083554089828 -0.017778874420797129846 0.063463356774623447265 -0.044705669433549435898 0.052797226599944291348 0.1196795992883339238 0.082652327473568432126 0.078267302672273941777 -0.27595476501727150831 0.097061414652144378801 -0.032277525423330753751 0.13052081480536423252 -0.076654892459444567976 0.25074787212718552265 -0.0984011223776282834 -0.19467172935982116067 -0.30320992059268159213 0.030303641677837570012 0.13466338157617069315 -0.13284222434760889486 0.095671398211674307799 0.21641637560920412575;-0.085488646661319223075 0.26534827307916653005 -0.18022306000720281216 -0.1552266014966022234 0.19377400784329731898 -0.14540923572443334444 -0.1455459546529936643 -0.14459138821543604525 0.16990043157958423237 0.15174215779892921696 -0.24107167719341973666 -0.12996551631890240763 -0.27115594243741886205 0.11458751137447563406 0.48111754512691395913 -0.25136495010257459137 0.32511913533419400935 0.05850195495521300082 -0.33562144851191394457 -0.16600635637652105814 -0.030907429667008635976 0.017583626211250515115 -0.096186491627598125209 0.18859060579027567273 0.10018495830652955625 -0.20104920499239356535 -0.044125293572102201878 0.093031678435725517762 -0.074194688759661439614 -0.13632408571591292379 -0.13895071785002671705 0.073760918486295956598 -0.249455817267213803 0.035954272860759695085 0.30758816601906524557 -0.02589530905381560652 0.10636954186550807988 0.06054683185929946726 -0.15248129425603315634 -0.15806784716945868063 0.25066067379392326098 -0.05744811201817288937 0.24528423473288155088 -0.31307783476175710113 -0.065536744356480589047 -0.44434368501530213669 0.0029903325145145751018 0.13787436968590563446 0.39537147029842634183 0.14493996938490538717 0.035783898478609563187 0.19722163381074059307 0.16209392975752470734 -0.23210172445236482153 0.0063939742090168769084 -0.015621946562942082976 -0.34925208137024066346 0.17359952887266072441 0.1757076456365961048 -0.058681927777944585534 0.11916587048557983342 0.30860123226677338426 -0.0051702243468653638625 -0.12487121982700431777 0.12598451381431471918;0.075682204540203398824 0.12131800317020793867 -0.046805911419418054498 0.081848492707333450613 0.21653971788160991663 0.015947305012466370111 0.26336834425585131658 -0.05853704764714195985 0.10231093348563297107 -0.022817962243029402819 0.057289941138131739162 -0.055912554181215039228 0.02774873149564505842 0.039043737804533337754 -0.022365868878190170443 -0.35252946780862653986 -0.041156333984120684055 0.0014378789964204427565 0.075263784260371197066 0.089762223284777842292 -0.15963859304112129611 -0.27019162243193933781 0.054442439013713997409 -0.081191375971557983027 0.28264086957605499828 0.042911788882596592354 -0.040691543841097535528 -0.081038965885933525457 0.027614890853208201582 -0.17952306808152196371 0.023085478496174999946 0.16628399434718646455 0.21852964415313563817 -0.30668615649332126027 -0.006550324692244712671 -0.26122581673225508947 0.067250622082811128966 0.032801126302348958264 -0.19563247325518567932 -0.27995675345429932301 0.25352095089722803678 -0.026858882032260562867 -0.060207775163378302041 0.28571963348504253455 -0.21820814144146888358 0.014621028448310056935 0.36672835031150069485 -0.34045003818166513776 0.028554349263855905577 -0.010308156586819789552 -0.19756591620216373828 -0.053750074723898436102 -0.18609074777256706668 0.14011790280208652471 -0.049765799269290866835 0.24958493675861714856 0.28365731266219490481 -0.096284747894638478272 0.35867396765393233515 -0.19156344598495628206 -0.091666868138244012032 -0.015658557514953583278 -0.38775403902671995438 0.21658543062909701993 0.16119466721225134132;-0.016488267318899796354 -0.060820386511581787936 -0.025200373020259424217 -0.11091608833262946165 0.053154115321659159421 -0.023093891540054260064 -0.41794212636149152829 0.054349370639542780859 -0.1656276453445350294 -0.00075487919735062539162 0.27933023856897470916 0.40996934902966630787 0.0043524883279733549146 0.17778889690590185535 0.17042468394871995718 -0.053997690935726525008 -0.32756263388888023913 0.1113418648246328746 -0.072853400469924098348 -0.016181695019605632502 0.20669351214318271159 -0.1875552365694947432 -0.081922542167192108353 -0.013257159418375130677 0.12566365709709892418 0.20635861378488321027 -0.24143603762608348284 0.086999958957920536795 0.38005894207693946552 0.088946265252148631886 -0.085265433634475265579 -0.23478222216438537906 0.31497573810633605618 -0.17741330785625267219 -0.045275831257770814131 0.17830977935332961715 -0.15193007282110287948 -0.017169553509137135822 0.066771854878934666644 -0.19943805210709877884 0.088014431755083832876 -0.30163145428636423118 0.17382372940273135842 0.10709436523053059154 -0.034457430566010111006 0.001742612455023577131 0.20162593963638056338 0.012253264663495883058 -0.19537354892480268687 -0.089254080221282450225 -0.22549537095619412441 -0.18707278061874091368 0.071086893481356869251 0.13199895293739238866 -0.10687372868297195794 0.087898113901328206454 -0.075163383359856658639 0.31224578715895118242 0.058048082774192599764 -0.0070468040465670612332 -0.22324379253302403803 -0.28837768780512273992 0.12739266784492545015 0.015261852188294814867 -0.12167652217295166217;0.071477883597914626534 0.038408172705364639066 -0.12777531894372839982 0.008140257552904796301 -0.015814293711685970673 -0.022188732766846415434 -0.1564217593503531567 0.26415864974025132783 -0.018272904153658939275 -0.080659356593134778901 -0.27523934319051707176 0.20694405673671820156 0.017977576781683296536 -0.031449603914856336107 -0.25784239255522201084 -0.35557760221945111656 -0.051978928403833571381 0.18958532372550881973 0.17107462632181327788 0.22691850815823688681 0.091367752164994847641 0.060993865403285545124 -0.36535034753593420564 0.17841697295679870283 -0.014887337072930488524 -0.03734206357073244914 0.099939326154796545576 0.10414917087934325024 0.16844263249857993614 -0.066138968391809424552 -0.064164922880142236106 0.021257308711923095929 0.053030617853396112837 -0.12993490540288771262 0.061203925643912096555 -0.035230972899433728174 -0.17320154623438929753 -0.26537882964420506093 -0.0045335260599135424053 -0.01414136333331995031 0.28082223135822009796 0.01679760660236774214 -0.31865135075658651553 -0.070062727931696280881 0.0013970753954406084363 0.054772664895336255209 0.0059652526319639680163 0.067148830795375924474 0.34890042252238001597 0.25395106431886377285 -0.32701989183285223861 0.15067042058502613799 -0.047253769637359777089 -0.11276922249633158923 -0.037419539284941613633 0.011283631872001282509 0.19449821682331863704 0.18056251896295252846 0.022992521773666695084 -0.11612728152519802283 0.25174855392474049243 -0.21287629403964314356 0.095155078008673663059 -0.29370733847162944219 0.22205215570291736427;-0.025143534617967193412 -0.13253492792063445438 -0.12584885279626994992 -0.10388435136276696902 0.016708337783566971912 -0.15288306672078433301 0.24702945646718582617 -0.010765926930545725859 0.23765939050314593972 -0.22071576144290599997 -0.23151970452324924232 -0.19813821341296841694 0.14895056964317998638 -0.48350738658894409916 0.022908112864085918708 0.096007505750687838209 0.00487773513120445118 0.045376011559735085488 0.37862953646086794368 -0.25038545294385861073 -0.047960641222516940674 -0.27318740000555402636 0.064674034068350164106 -0.24977585290645462623 0.16912549390705486352 -0.014155810011701361675 -0.13328128940826147741 0.2512429104335555663 -0.0044213109289130102242 0.33878218492441924958 -0.049738192930626645705 -0.061728107388617461937 0.088876445455638788951 0.1295810398317969736 -0.14041449703333713783 -0.12461195999324047035 0.14910904976467764804 -0.12046962516967009427 -0.01510722356622738044 -0.3353118923935844431 0.090592075219423834342 0.057761700552772334005 0.2891033790842154616 -0.14120798119433716766 -0.0075216612926649502324 -0.17091525944430330242 0.14212504129847225443 -0.007400047397564843768 0.030077087359384808984 0.1063147092035409691 -0.094881009542260960621 -0.17942989474709242215 -0.17460609102633817269 -0.15325796436684260837 0.027905060351847300187 0.29637667478346924055 0.053277387956392516233 -0.099318146276590191235 0.1918973906583512079 -0.23220102610910911545 -0.049935067162351701175 0.14643941967456045039 -0.22954410003288489017 0.24704265393601890222 -0.14239821826739784694;0.12871460153229813406 -0.028569030950811116071 0.15063776541476203708 -0.0045707331344404080256 -0.0084222810432604388459 0.08037678186578203765 0.02285758171076948328 0.066956174059841860879 0.18697735830557229986 -0.050155330337167292054 -0.22825044861667673213 0.25262991094663778124 0.028339422421797138413 0.039186621770226810757 0.14249412255631016544 0.056494970885397961802 0.079042265499618291624 0.24198013238598986563 -0.26253677784241230553 -0.25439239441214706039 0.2203640427172724181 -0.20897665716484309373 0.16604356813303305929 0.028986031587011195504 0.12795234325483612059 0.1057680230690277029 0.20563157470201054444 0.080173271062840223422 0.081580954273947500766 -0.22338802339415755882 -0.20312724441349144788 -0.26036847117168260279 0.1090689022539489822 0.071549717883901992055 -0.15495856121763113 0.096001109463405231992 -0.051396810838139052324 0.15467172904723536231 0.19973644656637992711 0.15321929926478533579 0.094368782543555712605 -0.315954812399383278 -0.0057993449538665427234 0.11223262509549056243 -0.19674415264494166111 0.056583555505906629746 -0.085718322481742645347 -0.33792829862490669779 0.29838354203380657026 0.1264383254047121985 0.32662179286152137614 -0.20545059539766952206 0.11575827896093060509 0.09789902155628166236 0.035934648281095174505 -0.31813742357851115816 0.079730623132701253231 0.042565137639486327892 0.22579205029153071038 -0.11109235469445508104 -0.12782835964672487061 0.065044659119592701524 0.180409596869221589 -0.2715503031002785006 0.09828729790128648558;0.046472578320766434745 0.22646549741566429637 0.12906289921844152357 -0.22454922619402387096 -0.28330876258328163697 0.23057211325104970401 0.059505708883170693735 -0.082022744400089692141 0.16804259245556998903 -0.36979431770335668972 0.075199869418056147774 0.041575281638827503439 0.16018061082798881745 -0.014108674403613057774 -0.0011622046689353550397 -0.20606705077385806257 0.23162699455452157027 -0.12865242724458647583 0.1449395269834429234 0.0011691918505321828581 0.16593617595194046221 0.094019227015288558968 -0.12733162313402346388 -0.10791082113938298137 -0.10918706127444084697 0.11121985662526275018 0.0099848588238649529231 -0.16368292652750465743 0.28100541878561019482 -0.058739181828376112182 -0.064443047249685483924 -0.072780964195171937714 -0.14114193362402058241 0.049520457118184563194 -0.12398070843325083301 -0.091040312884817786721 0.23900359790288891459 0.12742713237249769787 0.0050883739774481174384 -0.14702612963157710158 -0.02661512416733031669 0.04111772324521259514 -0.035401208997657890309 -0.026042478161411291432 0.06268061540973741963 0.11893232243785391289 0.18581779555968122586 -0.096521686030914377596 0.1348750610253857396 -0.22582159608039761856 0.0015596301250261415672 -0.024543668454503786425 0.29168003708900197557 0.021845961209391414476 0.12982292611056153731 -0.16835611792367527473 -0.13391945906426888646 -0.010725176352629251647 0.090656387827331708085 -0.16138308868284331754 0.080064173552428688496 0.11316442013157408664 0.13164918027649319399 -0.25201313774420425196 0.17560700143595228684;-0.074538344725623817411 0.22148017617416673741 -0.11962803417333105205 -0.057054181884157575966 -0.3625997532907531129 0.30964314231906586716 -0.186183503632228603 0.25608008281493022107 -0.074848753256674976919 -0.05043490862080626802 0.23754002164652202045 0.30998469116427468384 0.1666552863750940805 -0.12354815393946827484 0.03660584047063213109 -0.28205005114134595878 -0.26427878715352948191 -0.25967920318894766041 0.0070639237991267575523 -0.0090245669355440011339 0.32895172594286259393 0.11718128997070108299 0.20182524709791654915 -0.23652168229662662302 -0.025587416208700065889 -0.21025773705782677125 -0.23296240751509705857 -0.13938416360288660711 -0.056018899949789743853 -0.1671420944516388285 0.22417222713534096235 -0.075399383642329315114 0.16231277088589277091 0.099589271915141913682 0.36184352653336371297 0.039380869567044757273 -0.13077911466268402063 -0.047530961565230171739 0.26911847335596272845 -0.23905090206546966702 0.14693931363638934595 0.33974592051072532994 -0.010943461071763006809 -0.19675436399178092284 -0.16243125144449130359 -0.16368484424102092145 -0.073487946338117976497 -0.086597931727064564322 0.14236033181387419688 0.01343726382938432995 -0.020891557728938109362 0.082662003160005298463 0.25193019197594507252 -0.0035935630532061661746 -0.19736276661727319981 0.049938825228372486775 -0.1480566935396575301 0.041850939408070109149 0.098463288271751436831 0.11316234867968746891 0.17023533143922284228 0.17309868727697350077 0.017721283253437674493 -0.11394023561904595421 0.17816207574823311743;0.009093425326497560357 0.21231164369282226612 0.073210239995760970078 -0.15832088805652733132 -0.1058463323388996874 0.10602456509617531888 -0.11160478079473754032 -0.030210170096847805549 0.33095557142601911282 -0.12344494465316097065 -0.030031733897009908751 -0.065974050835004127702 0.086164386339187687414 0.16777946128949969284 -0.19739465973452352543 0.14840848853502081051 -0.15983794906984688522 0.0043039270101719109829 -0.14170795447421619118 0.14839722141752387241 0.030125451248397300263 0.13585864919205620227 -0.075045836363605886166 -0.077415376711651814889 0.23069541174812796536 0.0079536452326651897043 0.063224040758242949778 -0.069193034471643988237 -0.22064557876961099492 0.31524942219037238589 -0.27809215496492850628 -0.25220168506319262658 0.24549990449679359727 -0.16095250088224571927 0.12878298586412009752 -0.23699840249059658803 0.40070312983243022709 -0.21503380045383815866 0.21781136606172651904 -0.24133002214053933532 0.1310029254085859074 0.041484843613352667679 0.18355556387972213339 0.18334960513612721944 -0.24910580235525686676 0.08320993890911268509 0.073820087642316761789 -0.154365847150373936 0.16933140630077297972 0.31752596899750323844 0.24642709016473618444 0.054857202188617108785 -0.24222822626750517561 -0.1357308423672244635 0.050949771504222668428 -0.16639943328584247406 0.16758210423636643593 -0.021680592571002139934 -0.21994684179297910309 -0.028351880023326954394 0.14293913623746395958 0.10133380978708980691 -0.056519984530692263247 -0.10756452400707450234 0.2405821450462946598;-0.19785172291277522416 0.20869263549821623349 -0.25191965905328500552 0.18612245987891223864 -0.02580328041587931498 -0.052681798375131927425 -0.27691631814828737701 0.23461772847123224528 -0.020956908698428373949 -0.24513298071564673664 0.16055232009935710424 -0.14481015506798314285 0.17103720708706204867 0.018626334187853463287 -0.14961954773508390204 -0.54541337506319143014 0.081740243766577042051 0.35942117257234873495 0.25237826304963256741 -0.062857850894806416298 0.032762576806918936034 -0.1517887748781848456 0.17574882953477657943 0.1655824371340233192 -0.21227977081362733869 -0.073714929916458907244 0.15100182880366513904 0.14007113837603871187 -0.32282725897452257957 0.21881764561978933603 0.08218545841805166563 0.14206931885035958829 -0.18776900033615695484 -0.058406973818479611393 -0.026598392240604961517 0.12630170653745501075 -0.062608477232222084496 -0.29574732587687319052 -0.042591525635413754469 -0.26911850602879977545 0.31641285301580757139 -0.032500274694065037218 -0.12351642289065120628 0.045863068466010625812 0.15993306158309331111 0.12820835593957580212 0.19755873332671605724 -0.0030858558471963679418 0.22886623731959490624 -0.021385328721204258096 -0.17148338786769248832 -0.058677110417750810711 -0.028507815704513734395 0.12128329613854060831 -0.14497775884598509966 0.038465790629552715219 0.074051157762596797607 0.17895494557543289993 -0.13178324961353499178 0.03660159435432016467 -0.0051872501594131363578 -0.49413835297315894524 0.23952293608764743671 -0.11465360371020325014 -0.011178264057124132069;0.10108242399412799284 -0.27566292019419508241 0.084478077089170752756 0.26898556033032522405 -0.2645780930896176053 -0.39323536643937290203 0.052350195657636058866 0.066676024040959014361 0.17345063281653769205 -0.064421495329537378782 -0.0085622222159665514751 0.28638030853178747526 0.085529921237088135655 0.3574801602380092147 -0.2542170748736443664 -0.027079211451121801973 0.11971758186450147388 -0.29273251494860036415 0.11530869058422892059 -0.10631824059902561519 -0.058098934505860330701 -0.053341053889999684445 0.32912859839347058388 -0.19030769897190488726 -0.14378187971291064851 0.19781446259596102699 0.28959880549620709012 0.032285855649812990331 0.17724069255474378393 -0.18710603196381098146 0.20938490859778075004 -0.11959274784717714712 -0.2130121340554183007 0.030065485415811984971 -0.20669529905701655714 0.058147382660816301914 -0.076435506244012144106 0.21508892903811782649 -0.13269381073460884135 -0.050765705403469280066 0.062770449731432018114 0.26817913717670582852 -0.21193718181622583918 0.18747949182383275013 0.2102633400555815324 -0.063748559438523200171 -0.018329148168400980629 0.2096497641188192762 0.26622772862433508045 0.015499500829028636795 0.017421892034462628518 0.12163088811370663389 0.081758099344820700516 0.012860247200157111369 -0.22928754053938307789 0.14313039283111347877 0.052651917144332087417 0.17821353074249568493 0.082990784441677276084 -0.11653850476275533221 -0.16022578577811641409 -0.02463401699567823247 -0.11588848705039732356 -0.017834494126805433556 -0.080441590248514827088;0.33361377302088207619 -0.19923708858145194878 0.059661072786564933734 -0.097376758508359306798 0.035734843025972420905 0.016337414092091523399 0.11926158956026929048 -0.4279458894861610796 -0.075440834562011699349 0.025312899733125591301 0.22346227503273258241 0.065277549356630465427 -0.055792859139931746948 0.33188617282269949893 0.091314566153047171948 -0.11633379923795185429 -0.11515449620532997033 -0.042943180732651096976 -0.12864321197225267457 -0.048789384271995250852 -0.1530124889894725615 0.26105291182458967292 -0.052648573368629804359 0.2789838287184108756 0.0080718448561305153333 -0.1764080621106630109 0.09978509721715322911 -0.30425693506723999748 -0.007551789502544557775 0.039669249598256600686 -0.12191825529291520913 -0.17192287668473885121 -0.05578400596046255433 0.30182094297957723361 -0.14581605129202460103 -0.13703590581286539951 0.010283055637623031778 0.3929610609771459484 -0.13264418929450860762 0.10654563286919040144 -0.19211525661949332977 0.22909151354742723905 -0.21133711027645349367 -0.40165290667564496063 0.027419953627697335463 -0.22225445112243624735 0.1886106095222886414 0.33930989620793183814 -0.00390277517266576085 0.34007362371819854774 -0.043607336365008422807 -0.16202877591480180364 -0.015573722219424173188 0.23738620547018143836 -0.055870177892393728392 0.12768457816661937798 0.15221158855706778956 0.13286326509484774894 0.054499183891191307905 0.053076695218394705222 0.055252167663925315366 0.0053927776985551248434 0.016095434609925286101 -0.1763301340901091141 0.19874060568489343437;-0.0090990778187174277403 -0.12397406429579678477 -0.15156375185707482434 -0.15981045683471939434 0.013417624197928785731 0.12441546368088188257 -0.056430663301702967127 0.09757155834753357404 0.13564893371169961522 -0.17610467712172317434 0.014202571925452638774 -0.17078527931131767814 0.15218360598699459674 0.21242172291436944853 -0.097938690954448709425 -0.43456363111558232726 0.00237396117903668517 0.27716089119752246317 -0.095406434957122407403 -0.27002627436125264948 0.20465677813703547772 0.0074600170313321497589 -0.25627511280278281181 -0.32208632545539112035 -0.028529930368915573657 -0.0087390603064520927523 0.29208104355563646592 0.19076292358843452424 -0.13396015634690985885 -0.35320284214538466561 0.1119925285370272916 -0.042082270791665099541 0.18826113049865814131 0.027482749995158713141 0.20480050556021719976 -0.19607693385970048627 -0.2311864741329902051 0.17128136013985550967 -0.052176608595540199809 0.133004332022315791 0.32974900882843588557 0.16429566895661637527 -0.33740456794472428736 0.1817603678478807161 -0.34884779268352961168 -0.014387032671704554077 0.051684350524494881984 -0.13147740147146880219 0.21011021981943009407 0.27260069915884360681 -0.19164175045569131761 0.00058836241001919073468 -0.019445462703528367671 -0.024458822593186761718 0.13291289503097084013 -0.33597342101479854559 0.21161073484901291031 0.096063205966455650353 0.041416228200225627121 0.050017093957266486881 -0.055862452779201814124 0.036472010499023446717 -0.067424717541555559408 0.091313839572068275507 0.026909921864362990745;-0.00014054405275658682036 0.028964378415941963857 -0.087739918316534215581 0.17091100308682483089 0.063668064429390339165 -0.35152543743877168181 -0.00091006402193757537922 0.012434524489970441574 -0.1083870640211661851 0.1175417915868904456 0.16587162709343319933 0.21057283009273444763 -0.10660473374384775436 0.099558660679620103462 -0.031442806975139750425 0.36593122642206971085 -0.02759294659957216983 0.16328425664159790243 0.016777183617050682451 0.042310108691922788948 0.17237503680058871569 0.072920470342618642912 -0.28115598336407732205 -0.11796868871666062184 0.094345968161026250165 -0.32294609896661080617 0.21274191850292215045 0.1230579967965793331 0.094995308744079839935 -0.14397147549053559978 -0.080907837630583373523 -0.055034680497372791275 0.3314282613134959532 0.10921564122651984674 0.044535266324006644867 -0.10246065845959149987 0.063813650077933797844 0.11650827657655211944 -0.16224496571986893323 -0.15106514006150950635 0.086088889802753754132 -0.27838412138373114235 0.05751624467003836616 0.27616412137037232855 0.08705094218768096026 -0.16002521671238670309 0.032948989869626882365 0.1528324030199116057 0.080090897159469653932 -0.18436506143081993203 0.12041954365584453535 0.034131383214207909604 -0.2213636960293480227 -0.19665136526477508538 0.34470434560469509488 -0.13095488754340145476 -0.21734001266596486568 0.074764987817421010852 0.23812294212924525749 -0.1235754787204891153 -0.017341996826490835987 0.018147564748880042756 -0.037085803581843670984 -0.028630328048119595141 -0.094909134258693003683;-0.0092967477656067248892 0.26314066307787459253 0.18530577794721994622 -0.21910601532246468115 -0.063797338173172180031 0.24482388666031396074 -0.0091217487131670521583 -0.21318164403185446698 -0.10080286193173303155 0.021231138850649637628 0.34757894762671615041 -0.027727750260804109872 0.056241364233973953346 -0.14189895468115501509 -0.23347996605720472418 -0.08309131402807505562 0.23370945437676968193 0.077537875612732662378 0.22753179035498152794 -0.21775510160953034933 0.046838910503141900632 0.24061259154426581364 0.039884627769449038093 -0.1821406981383646706 0.12750498025421580506 -0.17903584646079484521 0.18725624540610766311 -0.059048953955671876215 -0.22038400838847119201 0.24589898786939093367 -0.096143978040118913131 0.12479368569796950306 -0.23376170068513993372 0.18850131386845528358 -0.074458493840078243675 -0.31336762195712203338 -0.16074278855389959042 0.067869569587847372594 0.079626538943472213727 0.12443217802042755293 0.0020233118830805651295 -0.047481845909544601048 0.26279656868660650204 -0.27908560052496161896 -0.099727788454203908364 0.027204696503100287558 0.12809046978264501671 -0.13831891403493468129 0.10607278195764974216 0.030963811859858240971 0.073547139082842605262 -0.30214194052578136063 0.25316370669587728859 -0.26271243624750467704 -0.18128612185651094002 0.020758116724704248068 -0.24049331228029191543 0.02318705779471763942 -0.015828725415823662048 0.19783301653317347801 -0.15079707074141820988 0.054051144765570637019 0.17425180227401293465 -0.04834711261895324047 0.058888552944081240526;-0.12027029448454527871 -0.12945651856926582157 0.22069910363516423435 0.034211202978919962037 -0.13279487291766173263 -0.13511145516276568124 0.032114317956029730938 -0.2189640175796524757 -0.15149183852476064138 0.0093098702134201734987 0.027406224293900927763 0.37281416271072315149 -0.11149815373484260606 -0.15135068028452455802 0.34022905823598420527 -0.03224260840762316338 -0.38499953399685060695 0.11288985626717151778 0.26986112138685791617 -0.061556524411285500065 -0.15518548254157338295 0.34786939772784014613 0.043848600553420727377 -0.017182403076886135218 -0.073129591944469149456 0.054183768801742228371 0.026049340982955446894 -0.099664213831263656629 0.0099823622891289289644 0.084386349791311751622 -0.090940924803671135956 -0.073396214724024674836 -0.097092706317115889947 0.19834557972296901207 -0.081779341366266841695 -0.065981196588302509776 0.2414422437815782474 -0.023074210888217500798 0.21401034570750032682 -0.231441762652864369 -0.13722856058682245117 -0.14464122852852459578 0.13766957984375588486 0.16838863755233676733 0.36528248986869948922 -0.26338591882517731202 0.051310698735052659436 0.44617205482624039403 -0.25243320907225641481 -0.27918815836042809586 0.056028189109192140516 0.18995513281006509709 -0.085710548934736716098 -0.29790671031511817279 0.038826607665870899178 0.26515393040885271159 -0.22617617151303456846 0.29787522471902888599 0.12033473253232329636 -0.16205100812942016542 -0.24233697992608926874 -0.18173945939845673192 -0.14407307712053815663 0.026273339044813277809 0.051379474615272598126;-0.099068741290342474115 -0.1155307440222538562 0.16409573135737062777 0.032989537001093124924 -0.18043196644486900193 -0.1141677660675677608 -0.068952235463892050382 0.32195327850811944481 -0.24317058953101036711 0.014817756959976034065 -0.21385310905082116628 -0.29042531002958954511 0.033279554705407235482 0.044243427795598269658 0.54998311515871634025 0.069491565672240226959 -0.3332737123147153091 -0.051104150145898016855 0.1933439943193313304 -0.15406417359215016094 0.18854108639410241399 -0.032417644835022671468 0.045859760893732288978 0.17111754353925284766 0.13436011115565982266 -0.059714606674767425898 0.0097122383515182864749 0.29894110033320575592 0.2205092244306210425 -0.11807360757074394919 -0.23615740852595751287 0.092760662184693601362 -0.24485866551193818941 -0.071702361591780311434 0.29719829883173792817 -0.18533068104932665099 -0.054394115292360295522 0.063725815379645528447 0.16965070298105697222 -0.1202410211481332869 0.083737030646839044623 0.087213384634032151133 -0.081342637435158141046 -0.11656692683124258991 0.13715587488907565739 0.29524834369826108427 0.092572804185035384439 0.042739209671105782284 -0.28242798137976260486 -0.10166103764553344191 -0.035295270800659181432 0.2699052955412694077 0.014508197340864614766 0.12311019079069707161 0.10895401636955058533 0.066864981797633643579 0.27772847673834660798 -0.12318492989262132264 -0.097485772419526342536 -0.15442995532925521407 -0.20831914689966768428 -0.1243995878525034765 -0.031357816208145150583 0.2497703605189962317 -0.024437213804705749248;0.010608003602507416752 -0.067050789702240334855 0.25779028514604696021 -0.18304663617968461309 0.0050646581822478362739 -0.03238097329330248686 -0.033165416872333736142 -0.12143967577118482126 -0.1346325680363609778 -0.25706353784021435116 0.14978166951827567854 -0.27402714431595726063 0.10130024810367235788 -0.19053302616242548395 0.085300711699459588755 0.17502306186432586843 -0.09409278025603198814 -0.14409449035023935703 -0.084413943436709798496 -0.0096534048392295894458 -0.27966833521064782264 0.17272721279710689934 0.0047133039496679608737 0.067944322876195922811 0.041371306151686951247 0.11412594571882675454 -0.20947638907643195694 -0.25016595025072685399 -0.096092189674017391976 0.060823525589274521352 0.12860449711814997409 0.049240596456988562635 0.015366485912543848685 0.14640102209846930781 -0.067960899007024830332 -0.17943677047559888904 0.11154317414020004096 0.41679876418077299594 0.10914567861697134499 0.32004205904155724749 -0.27342591479016320477 -0.017650695147804019991 -0.27209622700610924806 0.1876792214918945878 0.049868805875649901971 -0.14063647353993319333 0.21095929771745247638 -0.17366311004631779236 0.10727345406653232551 -0.11719346083449203033 -0.21182656918092312992 0.1579869314893207477 0.059962650118510339714 -0.15695574873752118905 0.095980629864139993535 -0.07891909476022994363 -0.011548811013116229429 0.22941791136354791614 -0.15377256611205034065 0.03628428276658270113 0.14904547829304823359 -0.102413969008866651 0.17206074647683936019 -0.047771347986189191537 0.02391032711619216905;-0.13128199121279174322 -0.16326063279265984329 0.051121280600624860457 -0.09815584319876262398 -0.13974962765461973468 -0.30763226992827474859 0.12212566547748437973 -0.031268943653520002435 -0.07512573203420672141 0.14889720918807650141 0.13880748904012907285 0.3533026284145590612 -0.01957370930680787241 0.19289881247383361407 -0.1425023322249495128 0.19502668738436837459 -0.041587815355462923184 0.028242452934107594581 0.072586214770356025094 -0.019268961836940795562 -0.089630128046165713496 0.13793461571579462843 -0.028788389845403425382 -0.2370086141860561213 -0.3487753188323585718 0.018285331132490402484 -0.16342322727888020095 0.19936026493767275425 -0.066808143701195366049 -0.16410470882350061683 0.20238983131868051868 0.025860153471128188851 -0.11227312198191367887 0.23717376605958942482 0.15856828811328493867 -0.065686709303986193231 -0.13025212039259159713 0.17530862659939580595 -0.056929672837771228 -0.00036440111273428055227 -0.0041144509980313749564 -0.0026968686270718716935 -0.20294233012452436715 0.27153778533452477273 0.026475382705802325001 0.060389556576337946603 0.029051299032213408202 0.08855522790712458403 -0.108456360422343287 0.051244078740507542635 -0.00016055432883464379468 0.14799523331276989713 0.052189899974046993769 -0.065356659027350785807 -0.090345527449977813816 0.052968327941206046205 0.17116965944545559086 0.033672323738697072792 -0.16020516371693815927 -0.15730301828882553572 -0.089067593920526141882 0.17861171270045919646 0.20911399663026294937 -0.10827514614284959593 -5.592700857485338739e-06;-0.02766676819524855474 0.013182882883241549277 -0.11394106731745060057 -0.33432839692356858263 0.074616219727670712869 0.13154397906785064709 -0.17989771325567091576 0.17266992715547224702 -0.31475628662634325128 0.14093837953286347808 -0.23139159308905712931 0.14816741951814377254 -0.23340403894586969624 0.16563785451001508675 0.24909360526120166712 -0.05465066591552035502 0.1470365156814597285 -0.031295404368157773989 0.31768494192057622483 0.23866613054297097785 -0.15663736325284541295 -0.094648475447113522563 0.028868176400074545274 -0.23856804121757257953 -0.19536725696412338138 0.31291171217070989918 0.24078413645243570973 0.045068689635454822762 -0.074139540240686030437 -0.19846059456595999126 0.18281034975378399055 0.2692973606702017686 -0.1127560137909196375 -0.06805729708151574131 -0.28036790470166428335 0.19219288019094024622 0.00084895866571038777412 -0.21842745236570015877 -0.14824217093612393481 0.0056272781725125852609 -0.10538235631879615262 -0.20842772502931286582 0.29399035837186426878 0.12164388528569439196 -0.23992836464714792366 -0.065691527015870720962 0.14107532985270582193 0.25356107090854612673 0.2274622076362526335 0.14110243610266173797 0.071173300512238704685 -0.21172367113188522714 -0.049126434847315318677 -0.29007769097464591868 0.12187967451071232694 -0.12835325088973867369 0.1555899054135780335 0.3118816934716842626 -0.23345608125550065814 0.17402312207099229768 0.035178919419538781654 0.16523565633674658359 -0.11115184916563508599 -0.17051376206018825643 0.031723594147762587681;0.12930271491853179144 -0.19786405799841408348 0.10424666481113353811 0.083230618257268532134 -0.075903735985743597814 0.087582270651553439933 0.12860544096635909139 0.0011858061228814283095 0.24321095925745678246 0.18545897437821629028 -0.16482921296908106812 -0.25014785975526471207 -0.29969024765112778352 -0.089961423864967943187 0.066615020767681609737 0.13396622234600480406 -0.081865153968227674652 0.221937348842378257 0.28586115616969803854 0.064675773274665671053 -0.099592998781310546064 0.23037021485151454314 0.052703905446650087252 -0.27706170959872777892 -0.18800263538078584857 0.20066423129904142897 0.10517362387122146383 -0.27069408083082940886 0.092289190782772687061 -0.11551698304819180141 0.16488426511857298684 -0.023891054318570675158 -0.15498834863455152044 -0.071743237284954380906 0.17900572449242144191 0.023273201554802482038 -0.25337147608289140033 0.099269042546533375893 -0.019855017551023000644 0.036339594290165956603 0.017324779606958634615 -0.25894935367174903851 0.034568457247613558481 0.20063969705787826348 0.16239478654429240212 -0.029922803661017190191 -0.054032653619026156655 0.3554932772521689488 0.13954969964666286142 0.13585256617036264859 -0.14343747100228493307 -0.35749158451191537234 0.054454486421819887909 0.016756043408174256526 -0.37213334622310323407 -0.085642444618302948633 0.35092260945169523323 0.10560618201415665485 -0.20703039576756340767 -0.29617802178688595882 0.23805671862355370916 0.19313968907279388532 -0.027187050230245167481 0.060033558173374079736 -0.19684176497701841302;-0.044274105380532655096 -0.015608034401527354565 0.26002322890815160461 0.013088115521156906684 -0.12843940254220578834 0.19638925004475726865 -0.095677402885369425278 -0.2143023951833274432 -0.071878275149843656733 -0.29071306743634139913 0.15663887354462854851 -0.34917377735705767972 0.0094216344865465512237 -0.30262556063239426374 -0.097393388237517808381 0.12971870641338237307 -0.01080720312884880796 0.45738188168543514323 0.069647902872454620082 0.055038120666614794019 -0.31630103229764594541 0.12685372022189786434 0.1331790128946602203 0.043298230302170920281 0.25927284950458617807 -0.27078621522072154892 -0.16301244815680809852 -0.22078919132666852132 0.25998440464526817451 0.039773426954563415037 -0.16856719085677690506 0.089322103779570963256 -0.10402533969977981188 -0.049295649242165014148 0.11968553956384643533 -0.11661556060746239294 0.12256542587753840867 0.11743384917359049602 0.20550581650326291139 -0.21413466277095652424 -0.035076777693725968987 0.25128848821838772887 -0.22955017974475913634 0.063651161790023946807 0.00080207678993331936804 -0.02814473282674822413 -0.031550442981406717768 0.32536702288794483451 -0.023978175668425336792 -0.21270697012432665529 0.0046331343256378575146 -0.01555441630574842804 0.020963544199255633449 0.016597285971835754048 -0.047821792268306059781 0.17727888816239978365 -0.0095042307963055187164 -0.11662668461423002231 -0.054413505356463866269 -0.048522286690372472273 -0.065629938727020817324 -0.12842904093902296481 -0.023519490153375934016 0.20620461076944798795 0.014689081347301485847;0.2460939762175464729 -0.18489022071248600865 0.077392542224701293962 0.22121139384841398412 -0.11188014232950629911 -0.39931274368956726217 0.12094103300780559285 -0.0037560852494920027311 0.31332166391912946724 0.084974522167314020527 0.24695248734241703747 0.047457616118592643728 0.051611804930719193396 0.1060655316822299854 -0.28568501392545020412 -0.0046570801390975261058 -0.45086196471377271155 0.33869148206845317572 -0.077161743783597150359 -0.15681701206496170831 0.23255456944612756809 -0.1504225773650159359 -0.23647558880117927615 0.13141865693480495048 -0.038864578302881258587 -0.054059960686572851307 0.15375254279172645422 -0.027769043664568868884 -0.22387007637670214288 0.11376016941858538289 -0.41899534650596648166 0.019577870782248998904 0.15999439895045641791 -0.25245880381029850437 0.27361628896278356038 0.048059310689994236276 -0.019859110633291401221 -0.13449150516314853365 -0.14570407941816407305 -0.084145204084743935313 -0.042697874127633698993 0.076567138215032623516 -0.072790936433443614861 0.024172236010103327619 0.0097900075700973910459 -0.049508055203227950558 0.29603720038063552344 0.25368921605215333237 -0.3685414648107711022 -0.016997168118385599933 0.071623699020470166232 -0.093472717103483177192 0.21186043640563828605 -0.17306211462358869757 0.20677026270532569696 0.031953355370901728727 -0.10975958494160928391 0.2693577209149259355 -0.10313459583099077177 0.24892599654647856733 -0.30130125700333132421 0.011834235236049249831 0.062269887445865521047 -0.04918011923962433557 0.051875716760716644727;-0.15846455817701310398 -0.028901159967752935998 -0.041423735016636993589 0.06914096538461911301 0.20258247668190235147 -0.15098510851654226017 -0.16504446960539265188 0.26485677956487108098 -0.19991970376003137533 0.21502246600961083534 0.30617737813033490957 -0.087884928512589624572 0.18312599911788232654 -0.41312664189931375125 -0.066722266269567870323 0.17890629537966187823 0.070830774301041898866 0.068291101859065575508 -0.31657379039119915021 0.06875727759280081397 -0.24821926293511675787 0.15504209768339635711 0.080905291840635204514 0.072573979968851412559 -0.21451167698049133925 -0.32952580585531449087 0.24302111881691590423 -0.023488374463144653936 -0.25690365804331427579 -0.012791207336310506104 -0.056555923160553994711 0.071503513658927403407 0.043766350418387972576 0.19263280768360696582 -0.26016760050978987584 0.057811724893829220806 0.046480489189083144808 -0.28596671147843144567 -0.16543880229450871888 0.038750657392780302191 0.17550289160482895889 0.0062191547863879523272 -0.23793176447872702028 0.16902014493646477789 0.12336135448840833406 -0.16657352503598366056 0.00011812355791084028223 0.015462899895200415967 0.12535924268294176831 -0.018161704132990119653 -0.38221110206668762466 -0.088873865281504316194 0.13409932583203032497 0.17568137087411447861 -0.20076686943310223521 -0.16136799916792538001 -0.03175281548880615895 0.076615095867998417312 -0.27647331704473659952 0.28115786398671566149 0.13229976694563616579 0.083190697250685757824 -0.12597603680327204567 -0.12923044632347666094 0.17826179541812423035;-0.3269566273257439315 -0.16023597645298548464 0.19191701599765326192 0.19961973706440117038 0.036947355161675958513 0.10943202205960234075 0.10319225789357644452 -0.13577012000411403658 0.051441969495483103048 