function [Y,Xf,Af] = NN1_5MHz_4_5PRN_nnfunc(X,~,~)
%MYNEURALNETWORKFUNCTION neural network simulation function.
% 35 hidden neurons
% Auto-generated by MATLAB, 06-Mar-2019 14:44:39.
%
% [Y] = myNeuralNetworkFunction(X,~,~) takes these arguments:
%
%   X = 1xTS cell, 1 inputs over TS timesteps
%   Each X{1,ts} = 35xQ matrix, input #1 at timestep ts.
%
% and returns:
%   Y = 1xTS cell of 1 outputs over TS timesteps.
%   Each Y{1,ts} = 1xQ matrix, output #1 at timestep ts.
%
% where Q is number of samples (or series) and TS is the number of timesteps.

%#ok<*RPMT0>

% ===== NEURAL NETWORK CONSTANTS =====

% Input 1
x1_step1.xoffset = [0.000432008946327818;0.000576825236958809;0.000396909044230847;0.000613024580952448;0.000578039937136672;0.000145424227302243;0.000490618406684846;0.00078744914082772;0.000209551614442327;0.000136081313952905;0.00126212618928166;0.00460108904496391;0.000872622401401462;0.00505764450982876;0.00148407558112947;0.00214216361332687;0.0219964952476676;0.825532385873775;0.00296502528102845;0.00288515595342213;0.00327349203946461;0.00245883160536879;0.00106767974407319;0.00339395060172629;0.000522872960525048;0.00145504935163869;0.00155418352095266;0.00108470170322573;0.0011344951365683;0.0002055625514171;0.000728634536129833;0.000204079771975616;0.000374423835694005;0.00101723240610885;0.000310159434606737];
x1_step1.gain = [12.7941968156041;10.8297294868447;10.5142405277468;10.2630669223666;11.0641078851602;8.94928717868746;8.74102707402404;6.62866898227818;3.23836530969086;2.01268377553825;2.00842549956063;2.01274687232892;2.03495494150152;2.01819408255477;2.00838090458994;2.00704462651864;2.0463037484612;11.4634455799517;2.00830454600922;2.00770856763282;2.00975172121809;2.01728690819055;2.01524210836503;2.01467331706382;2.01014844763082;2.02482656504376;4.32938214860933;5.74218447596426;8.33888363701363;8.98814827867781;8.97478917855763;10.441108827294;9.01032797642606;8.55382842015494;8.75330718801832];
x1_step1.ymin = -1;

% Layer 1
b1 = [-1.8652705507225380011;6.5846966197101153284;0.89338812934647948705;-1.3181091766197960968;-1.1587530628092526097;1.6449766849602349694;-1.1768293995992054057;1.5080355831566210068;-0.49092028619044819626;0.44368241259365348572;-0.24406225738603071207;-0.84657355038788328905;0.26159204892477511128;-1.345707365095634378;0.38803147258076137183;-0.010932181251668351973;0.92120842584826456712;-0.0021498503294216765938;1.073315663341284365;-1.0647566812538908909;-0.09827865097271176742;0.82009979483013029089;1.21822119905574211;2.4994309009278685707;-0.86863290589893848992;-1.2285856162535837566;-0.93757921074678507445;1.0037070733537669653;-0.9430147524582537244;1.2400619495346896226;-1.4096246470527824535;1.0945573994890016589;-5.8481503831589058962;0.62238973808219266726;0.019273882044243167283];
IW1_1 = [0.043851502403922736073 -0.014365077382979173082 0.48345790564951696133 0.71865154908846096138 0.64809889031907119694 -0.14567907425780510233 -0.027188637259836008486 0.082156761557671223462 0.27157463523404545835 -0.3537560165210624219 0.00015158366205711079622 0.033528628846270350228 0.045763815485361493407 -0.14723540200562554303 0.26106841634892041792 0.031502424270123188799 -0.11965231582753521611 0.85248885326752221747 0.15140356750356459559 0.15474279061034429406 -0.044251121555206621161 -0.24130631134169300278 -0.5003764939087657071 0.064066844289303884197 -0.88659542041295080761 -0.47348020366695781069 0.62768071842480721578 1.2337410026723911738 0.031713632973281842553 0.22414265168791785987 -0.30045772947621796067 -0.40282361784615372535 0.046945187276890829042 0.21039632868851074199 0.29193438560075091193;-0.11464400976527402976 -0.18141097612342607648 -0.29162192978117928988 -0.043083543795982733038 0.040244142467394862506 -0.32616359082952350867 -0.12973904306841091416 -0.20196337498957994683 0.20412256257694982864 0.82544565147520310155 2.1443587187516719439 2.2825930103691511874 2.7985008293776547639 1.5411016681043192555 2.7215721132097772106 0.1091577336239240581 -0.63404735655207600242 -0.081895864978264926171 -0.082842787054331276653 -0.22219422534526661606 0.050434127462246583495 -0.095393873628905168083 -0.50627825907619206092 0.2648518472565153381 -0.77151835700445658972 -0.5916387257710287173 -0.33438398411238118291 -0.056762826459081636155 -0.27351435878044888517 0.063523587540436479704 -0.20137728319727790649 -0.37614166142496668899 -0.18308668945200931577 -0.14617316089433582404 -0.06392928835796243825;0.22833287018905579213 -0.20856811686231316316 -0.1875957733299664365 -0.22578412612089307498 -0.16169640865808873609 0.22326889521069295808 0.17253457143046924127 -0.30519819910761741832 -0.073454881048580042413 -0.17567426242501241185 -0.32463826853151994678 -0.14893872482663464418 -1.0623266132321405042 -0.35868323394844681129 0.73113155376862581925 0.53783108268512003214 0.52445573247245391713 -0.208767339403529123 0.65966039090499306585 0.24380895973813909716 -0.12687664206206980544 0.13901706315918044288 -0.12930890147995241501 -0.08299365220287613365 0.3112161783072435739 -0.0075993106411344543 0.32978017030426576284 0.27272868202179562092 0.011311672342676359557 -0.48720862342172244208 0.028023566968376420472 0.07502970382379392511 -0.0045767523577987714173 0.13442854400992998443 -0.58003975938565088821;0.134503327890308777 -0.28193521619030975645 -0.068058701746276081823 0.015471114478709788176 0.051741395054434549672 0.027737142067855116712 -0.11303158556704066828 -0.061195828013062864015 -0.38543215265070213116 -0.42576365200449156623 -0.12674543874460461601 -0.11044408366202138061 0.25526307274807569225 0.2186237508039293731 -0.13438915456439579077 -0.26754534995140671905 -0.18200406455725065547 0.021799013413179951087 -0.078515735923635116 -0.053263406420613369774 0.097787395268551707828 0.10885582539391282231 -0.32830871645009879201 0.063419398512464350559 -0.1962668519363954811 0.20879624032097843234 -0.01116905898069381689 -0.16271737771722208366 0.20065645713786045556 -0.30078440961229657713 -0.34695260569884384116 -0.13078332037480999706 0.12455625421674933195 -0.27984416702403752675 -0.21742758336821096932;0.22266977376975088943 -0.1667914252972086675 -0.054175535717756885534 -0.23027654443662390338 0.035406419721931640943 -0.085516225197065406927 0.058593349706336721183 -0.21638222164829826188 -0.37941761802649975888 0.0039217211299290479637 -0.1648154642132174108 -0.56371468930174728484 1.1374454220658534176 -0.1396853936424838627 1.0851865582282642642 -0.1484432484145482567 -0.31579677169431119577 0.07454107392256681397 0.010893161061614791557 -0.0055262856378224915754 0.064738150258651150359 0.017510532879458102357 -0.029837173831822355607 -0.23735736802705195703 -0.022023145386226180426 0.079297336687356612117 -0.20116954952056512185 -0.1265530912831809851 -0.13319936836768347943 -0.18233424887431173844 -0.17171394206005141658 -0.15929691963193706727 -0.16226805590594622908 0.2227650115194318714 -0.2377241954279392111;-0.067949279175809548792 -0.41612271053980048885 -0.1275830399336712051 -0.53671645304002357779 0.19951631874763131602 0.062692117490523696643 0.065892405182489177662 -0.1311528290087804749 -0.32830770668420505842 -0.17798628069186772649 -0.40350685409176317853 -0.20610670265167671533 -0.72066885170724603871 0.99261106243536989524 0.38340346900867294799 0.29815394165379577318 -0.12166463762759563427 0.61003115160857601662 0.217943747424853701 0.13611689547931996036 -0.45567865640880933498 0.039532997005135329938 0.37507383504651536921 -0.26519545130117616605 0.71443692105318012953 -0.10750150226542354304 0.23291553355274471904 0.28561184823515589626 -0.36813974546254957243 -0.28097013286807770438 -0.1655831035077133806 0.7952023015445864873 0.43822210960654200962 0.93402328647969212749 0.28659541168959279389;0.41015752461252030781 -0.02136815145247961123 0.43529108819961526144 -0.26674905304622537061 0.15435728756025837716 0.15329978858226381289 0.21299336839323856907 0.10056055798816987412 0.59855399012089149924 0.45269605812464758232 -0.13516954288186813771 0.11825226801530341891 0.51997023123550811796 -0.19293879218618445459 0.51340108993183208863 -0.32928595919051312224 0.10865651720995282703 -0.23886957536182651385 -0.18468767070637687189 -0.23654315053585525663 -0.11045872201878637053 -0.32934037968959939402 -0.38750560949955736856 0.2347553845762848368 -0.37344418538617529801 0.35955578452845332604 0.084822980595090080591 0.27566275222387287558 -0.3816179790839407393 0.1357465840212284669 -0.043402921049540466036 0.24788866725479472009 0.00028813559732943083702 -0.24235179613663873632 0.41505665138924452418;-0.25787409762344482012 -0.15716776385228165003 -0.0097266903210372381017 0.44301890084007239379 0.26793124804791323967 -0.38845342116943215593 -0.37969725257621211867 -0.34216356233817685206 -0.22022179716527293114 0.10783419927692652895 0.90946105393376741599 0.43252415450544967612 1.5420238392404490568 1.747161035340843771 -0.23502142787887692066 0.59224117813069299121 1.3811145064148118156 -0.016633795927444593177 0.33744062010679881647 -0.49727651612387385738 0.32854991286831580766 -0.12020936710936944158 -0.48984125792248234266 0.7092524623211244883 -1.0393987562232029909 -0.24674805372135438786 0.21728925092325357404 -0.086549033177750464563 -0.18268923417188207003 -0.026870438144811832626 -0.16575506880585630376 -0.55311886518329467233 0.011515734841070116024 0.089810302025982807761 -0.033303039554815325185;0.11451658633485320427 0.20196479565035657666 0.12814358348831142442 -0.14702262622443534879 -0.030525024501486117817 -0.090560380462835751714 -0.33774499066784502421 0.26889031674048469167 0.30731397721936887235 1.1765789689722256917 0.14341666225252691635 -0.30727915095876018325 0.063147403309181851516 -0.23036539869892758148 0.23504460506127244912 -0.84812711265479523437 -0.12801040245049943866 0.56925996254999056134 -0.023462442270680776424 0.18184421005632309121 -0.06870494268895928347 -0.16260454141885644086 -0.083049711194589107 0.18229759411948651127 0.043025756398556005977 -0.020872691433607211409 -0.032951287955269678576 -0.16642109804081189894 -0.60178739852818274869 -0.53254057335428872655 -0.43261766641531573807 -0.27757778305228808513 0.13587596930463013978 0.85838286328684054727 -0.26544016510363438455;-0.37993920107657441765 0.39240562205379936334 0.10572056415776190375 0.23031732612685199002 -0.10575861839970844558 -0.29708013010823675071 0.051654035415399986164 0.57655483251180394966 -0.36551266075312871529 0.60952576131683600114 1.2533210750820003021 -0.79631229497436251119 -0.026663375313568462438 0.12032658162478322705 0.36193695562580197045 -0.24076493291350034576 -0.27219603369503253543 -0.045891191710112536062 0.099867374860648810975 -0.048016052654447902159 -0.35549643233047933943 -0.35265634526539180182 -0.42316755768072866761 -0.10547125870386911406 0.07447306870038676585 -0.26482240693233483064 -0.011753647653571515364 0.12127619623742265376 -0.37846742017078199849 0.088760943266362107851 -0.21343395480527821428 0.15037378811132329215 0.59236533666164714607 0.32738825627219853009 0.030103769254229032631;-0.12168274494541285458 -0.061773518689453424391 -0.14909652295646988462 0.032316776372052685717 -0.12199157122307138779 0.042661788708892922628 0.27410206176596840777 0.071455811960440124286 0.034008120673173845849 0.47535838986194228761 -0.24422176082399849051 -0.19698265582011581509 -0.13865383611966153321 0.18574255496217162431 0.04001098632353060347 1.4546076813066737277 0.58657569814734522584 -0.077147993368955836146 -0.17186061898701313067 -0.21842026354659788145 0.13717541598591839747 -0.1570644944597080761 -0.028088169433837944372 -0.085856779428929774767 0.23012241427167576258 0.27777560263623435333 -0.19707657633312392065 -0.46317980052787588452 -0.32498039718197913039 -0.1315850654128782049 -0.10450322492842940847 -0.006465629820164610353 0.15554850838995121221 0.0037992200159779315055 -0.15164461382057958794;0.21451652246364458221 -0.50041523884662608701 0.24659782413697814429 -0.029094701298635065184 0.38074364215657002797 0.23657228046016104406 -0.27032595576492995937 0.10925622544261404112 -0.39041256695054177284 -0.4573811494130630706 -0.82750493005554492942 0.14624405967635259462 1.4483614437123983887 1.1877941841765742303 -0.53511720770282689141 -0.091677179634231553695 0.1649217033321899728 0.38445946519787288498 -0.37638655413659183324 -0.23643800944643383888 0.34421724083236637792 0.51583820065303220836 0.32736851214467110882 0.31161599974872478125 -0.33203520783000239902 0.091274624293703199296 -0.16115386857849481328 -0.28781095570969034148 0.41630876116023868283 0.027629006119631427385 0.10626282919580996855 -0.16403408263704016834 -0.25674925785224639307 -0.095582081110779107402 -0.041528960172921000615;-0.10320518897428836158 0.056760016262777296392 0.10635133163683520297 0.16298946941133746202 0.040871073367502709639 -0.13156092123657511794 -0.027537305071986900584 -0.38395491206325582656 0.7027117696004876457 0.56877127313341280246 -0.48120030352862530609 -1.1145389956036586554 0.093262130966799208776 -0.076863609014841932643 0.47206410062146092477 -0.077368160898215548871 -0.76141187285722655709 0.080696230801359070117 -0.36932562993981504773 0.23799451898718898546 -0.19211791567450106633 0.026311277224706192124 0.30704581995488972046 0.11410210141543498941 -0.12400890938732173074 0.53871394417668805321 0.2259157161139610237 -0.2493074565832310574 0.042229258505076305852 -0.057527188517158454883 0.055355104785311172455 -0.042387603103654740433 -0.23231348382634237071 -0.32345158545256919025 -0.21778057747680873435;0.28042979793558864277 -0.21000397132407799816 -0.10277073322228277852 -0.32666304500938536659 0.093170840927402784337 0.22439416886141785867 -0.033844535096842709443 -0.67685261010613628763 0.18771649366384135504 -1.4932499904728460116 -1.82205098434044932 0.39864231218380763444 0.4470123033846302163 -0.076216959037614620542 -0.039443731599179437941 -0.20479543399757743627 0.22007400733510806834 -0.16130031160804739199 0.22740154483194197077 0.23609937775979886188 0.2887860676408836591 0.16289719543643846333 0.41366863592981417685 0.16933091000235916956 0.055800024869711778441 0.25203292329671223015 0.42643641305491003513 0.10973864475673855701 0.36512811463766348119 0.11878729348610740646 0.10356212020321332867 -0.24295615015391983094 -0.52154632206352413704 -0.32675376596972877108 0.035060039639869047812;0.51328215560774115289 -0.28923957350172940783 -0.024406399684486781987 -0.61101186519190153756 0.37948451107582548136 0.37649711868654556213 -0.38583833055482591456 0.1060545245534494363 -0.84687934023354261015 -0.44680115648536805617 0.73400361593965668394 0.51400825835699304189 -0.21734772372157407094 0.0026361726318860183305 -0.407812582334286855 -0.061857905942878037286 -0.60506806835051640814 -0.35379070055669320505 0.40313511778177230083 0.53792071055656476286 -0.12453627500486029456 0.70946278102391713283 -0.14788681439167997156 -0.049429478021327549753 0.22097697665837490177 0.61654816967476955281 -0.56990418958098754132 0.6751885745049627241 -0.55342138578347688238 -0.63303037049309196505 -0.23743538064693442413 -0.27504982419448931186 -0.65028842956003152231 0.39252479598138612094 -0.1140710418782210217;0.053133095432723327634 -0.3980874748911287786 -0.39746972501627281238 0.076772035644475822291 -0.12664124141200233664 -0.38113189839747518839 0.19601253142123351014 0.38440663504057170918 -0.82748545638445225592 1.0126398891330672392 0.10980556196226949617 0.10864759498924653203 0.92313474410749174481 -0.39025730871069519434 0.88263494507705686498 1.3429665487195585616 0.54619778874769375765 0.16100938564188344015 -0.29349138909979533008 -0.26843366759228814988 0.2796596834385023933 0.16572899826806775092 0.045731924650289121348 -0.4379098407954957195 0.20570357020761961819 -0.035669515382062068343 -0.64732474242343507331 0.19340477718954410258 -0.11882892144762459419 0.0089642458590026979914 -0.35272744238077435863 0.12952142576779096528 -0.046808943010081149882 -0.12780369139920921828 0.2702348855748963885;-0.20765007940873264625 -0.24447009657546764361 -0.21968661503276920577 -0.16152586460460888196 -0.39824689003361068984 -0.16325488427830295302 0.32966010938442974476 0.52585843681772304059 -0.52636808491235020924 -0.093926816520500902574 -0.12050607340383644173 0.72352766200173623812 0.35766189293222638845 0.8191176467335078426 -0.18582776853231122716 0.51348372083845683633 -0.15753775303553393949 0.46427931394300653301 0.22945847656768572631 0.17327259177477616348 -0.51417489663155946378 0.050895416893015729687 -0.098924596900038824776 -0.073669060272743114304 -0.072797527932718875121 -0.49817242598338890014 -0.25589609398654838968 0.76102207023796020202 0.04052418481234445341 0.15518438685766744456 0.16477315718896931585 0.016410873910683132504 -0.14627097827687463028 0.085391634078049616363 -0.19431949520039987211;-0.43965909954004689375 0.44386017112603692869 -0.28061631447928736538 0.28262044447262379965 0.038376781934007800356 -0.044808790827834121817 0.31020633520918061699 -0.24900587029427911911 0.054319938835002835875 -0.95114365086155139295 0.44403291282936757645 -0.069875110452645217141 0.41433237673622802522 0.28842589628896514453 -0.10731631256987413103 0.034452137857189840675 0.36718689607784110729 -0.37962224228663732362 -0.26044634284737244734 -0.32966016032125128321 0.29565052205607450508 0.061373667815105989454 0.040152918672247420173 0.19046708117777633174 -0.22828648471940088394 0.83050358996012807467 0.12665726626861492643 -0.74515914102919933448 -0.5689020811128066013 0.32852139747798236868 -0.45466481467211738998 -0.10342520765028843932 0.17557523735304561563 0.24772872241526255888 -0.091033677853151778736;-0.33065200342006201284 -0.15694978389291067145 -0.19936095230767283959 -0.25367274964313563101 -0.029072250040982936664 -0.13647796239656528883 0.097681049956799465006 0.14572614563323138537 -0.23145990480763636854 -0.48639471621980928662 1.6274008974552121032 0.956578187440069172 2.0320537887135916577 0.3279830136570623389 1.2336329638792467023 0.982717344466169207 0.76467721891715234594 -0.098115950962091663667 0.50643730074341264391 0.048353073399713022984 -0.42817950321659797863 -0.40208918424821848969 -0.83650730477095536219 0.14541073672859455845 -0.17205440346620082259 0.20731397333599127508 -0.29507320732039160616 -0.31385383231449670571 -0.46654602732381011965 -0.22348105240408944194 0.025694541348972359252 -0.37054335512467623248 -0.04182462290237707464 0.1097874303329166995 -0.14748552035221942913;-0.2827640191725500074 0.19509008330949254018 0.21459711057456021255 0.12036997122068499033 0.026266373191841042162 -0.15973052371675053318 -0.19756869253860781521 0.11163566671855863766 -0.064588736606233099202 -0.11066280468652410496 0.27141521147335978537 -0.24636183254003907184 0.53456630560354190251 0.5441019395216326604 -0.7564629627325875072 -0.57818311160306756769 -0.08261248521831496272 0.13601913521900318993 0.083787340179012750885 0.038042225334767490463 -0.26090519411233992209 -0.35980306166883907482 -0.23718625888561348236 0.12316528683280844603 0.073160194248493098934 -0.20808548169056750865 -0.18701350550213419188 -0.09256765095600630322 -0.11206711299863855724 0.50948223091186273237 -0.085610617562639657052 0.18149642241306507273 0.22303305322049568615 0.2167279232703542835 0.20702031921252825319;-0.14076689122819455169 0.20906234940274825984 -0.40002565543385432134 -0.061026285165647453645 0.013160771320141149629 -0.065124744077686771981 0.14318599064193965331 -0.12290726076236133113 0.23209802840330334694 -0.82461561325250765098 -2.273019046280138955 -1.0908969758340449907 0.24237953218801353006 -0.57167654659396516248 0.63352348397233759769 0.1464028553155270751 -0.29889522347087466025 -0.20408645114471313242 0.055135148964666612359 -0.21552465208331783586 0.39897721321399048922 0.3082009799881679224 0.36538280868402833734 -0.44737071867747235654 0.10211167929275163924 0.38263792271415408841 0.35659577633190414625 -0.17976808291028570364 0.19745783037369701862 0.08302537882444790962 -0.16595759214692737404 0.13631840612912404787 0.27584532624022367608 0.53665925419676974162 -0.29613643098593311898;0.19636441198061654889 0.34874512261669676771 -0.27872666806434504005 -0.16487243898402587083 -0.36386257278507144752 0.34369764068173241922 0.16747662968450061083 -0.2917634555516817052 0.22644594893805697344 -0.23747579402927104786 -0.13695291546713997399 0.83226670274578662401 0.93174453662379264074 -0.62278101204948688174 -0.85049532805251992773 -0.09923684270167797139 -0.17801734388704298917 -0.46075299650717332911 -0.42067245407053577289 0.14155557923303790924 -0.32289096852997528631 0.18826901402313031553 0.05228964152930319631 0.17440729836213325621 -0.16998969156137411218 -0.16370765456217994949 0.25819521393185501656 -0.12497002257332279207 -0.1569489823716410104 -0.7591177277721271599 0.15517109278945334649 -0.29116913076161765606 0.16466309645243870641 -0.37286596272906180616 -0.46175846947794613184;0.10577828462365465589 -0.20588704773373911472 0.1668123621755653041 0.52428485156645232568 0.053749786281609077121 -0.32100581791539389842 -0.3050167961294494301 0.079833262567927290587 -0.74866421729929866213 0.053342629293224613773 0.73548297644913662729 1.5437114571207883884 0.76499574924813307231 -0.30695168693437835383 -0.29212868638205402583 -0.17438995660505282603 -0.18313991327485690253 -0.35942063287190223475 -0.10442647853332549801 -0.10889476218234371563 0.50190940019699537 0.051840575868118327074 -0.23795008618764762476 -0.083616532276211949504 -0.14017506024315748436 -0.092410447117843214082 -0.37843449628002395757 -0.02210400356901934954 0.57871183565732386977 0.07689263582588357071 -0.31474176531727476869 -0.53337095173983584129 -0.12391658507663901034 -0.76794900010450417582 -0.22622876650523104924;-0.23761921968359189794 -0.082549973405824622619 -0.07298547096946336743 0.14859548784875351024 0.090830827582406528653 -0.24607304648617323029 -0.042445860054209291756 -0.024147937555632437157 0.49857145155751952936 0.50570849310914944841 1.6280768040976330013 1.5827174248812068136 1.7601514232685238071 0.27063220108064156566 -0.70811615580002285064 -0.35430130880972221519 -0.036427531721493350281 0.017166783477951762932 -0.1363532303810763846 -0.011913908060447384041 -0.12509382730403806328 0.018027042682769021942 -0.3867130695670000784 0.13803896830029019349 -0.33255302066125091986 0.12111691045161263047 -0.20816344474799822195 -0.3686821469967269671 -0.071633783491808850075 0.1270883418208607063 -0.078633931985701538414 -0.045236076481128033311 -0.10038559532439760014 -0.11810770042232449084 -0.020450239674945171198;-0.18014072424496682667 -0.057846992436428441853 0.1098935280720383656 0.088398878329853436409 0.051506735240824330635 -0.079562986697491094867 0.099711989888246005398 0.45054483170521053559 -1.0013462790852007966 -0.44169046019019664318 -0.45160074258354537813 -0.30689637798012975312 0.08669024298808886142 0.71489905111493290413 -0.2174965091653468241 0.47661595092223063563 -0.22576341421458342995 0.22121259703651191542 -0.50431712558322017159 0.16880831055695363907 0.081109486950346462719 0.21366438365118897713 0.20826109894858618743 -0.096858500799156158068 -0.015252215654386898358 -0.045622985183748299143 -0.095647456133035033132 -0.061980486479385032972 0.24346515023747697382 -0.16302727691468860138 -0.18045920659444927847 0.18635289989274067546 0.11370088070314991746 -0.2136049805906964083 -0.017909035589486085177;0.04477793356296114885 0.07598040185934495927 0.12090598344837009959 0.076661338595784875305 -0.059208679448779014121 0.040209524805075273768 -0.23377196954183687705 -0.26729819387019082555 0.23625025646007241642 -0.39458999885775852823 -0.18519614994604466363 -0.25897829293563273678 -0.11404692466123128591 -0.11056094765699892024 -0.45831352429847110885 0.065498312578403494744 1.054847071304827022 -0.19081043734638461484 0.11373709532990641802 -0.067743870240166537133 -0.023626487326894853036 -0.11648145283934555061 0.10761117180368089119 -0.039524916721782307749 0.081225423319088704832 -0.34948408635836170077 -0.066048701250490365888 -0.10959619654071996175 -0.14852262720901102111 -0.12749470848602062478 -0.0082080548810100056184 0.017272006883877727423 0.26461374107054702609 0.17057319813466356728 -0.21783242860972371058;-0.32526157225770052639 1.0378160951762764874 0.070718955358386223486 0.13938622584683546535 -0.33791244801906150652 -0.2017255844305615442 0.2425750717199650075 0.15122415461559576833 0.58128656709308801354 1.3067372656977540579 0.18317645610133503897 -0.96385105938285453586 -0.012528363656898629935 -0.87174993829625468944 0.867293324005101951 -0.19963260324174961213 0.098662119431698766525 -0.50497235300944143255 -0.056802857753263991114 0.098607856753438041797 0.11144806670465154386 -0.11766147927658536509 -0.12722914870833146317 -0.10710185777821872033 -0.86061182798933311133 0.49309993069318658332 0.14793314818919206521 0.31368080700215983381 0.039763112151197474442 0.34264720675514798165 0.16178134266905047634 -0.46577214555782781025 -0.38535374599036453791 -0.71210318433945407612 -0.29980347924551375982;-0.020047974294356805947 -0.032578570400052297984 -0.28312128451032497756 0.44935922221118906883 -0.39974159732669078959 0.11897244037701151798 0.35273294520354703252 -0.17080164119365093267 -0.0011911256281584292616 -0.50414309649311206396 0.4777935459896521242 0.35353228243036638467 -0.78415781872854117829 -0.035359461979346515359 -0.07491282070121400849 0.24198648620899076978 -0.010086020732560006807 0.77864923794824936198 -0.32900389218578268702 0.24047390656556805189 -0.56431375723908383524 -0.1608823835621176479 0.50300993494982992882 0.27749686917587490509 -0.27981370774177632965 0.17945705276943929585 -0.073458971761186861449 0.31379630019575044386 -0.24042430514866558466 -0.47993091769026496873 0.37203569894722937628 0.22875002538998545631 -0.59683683438620138695 -0.38331822887696354041 -0.1446277138307925092;-0.45652504655600717465 0.063178016591559582604 -0.18579174736310305471 0.1739354228190221896 -0.5510522853329113957 -0.87231047262659366925 0.067875080326662229346 -0.3698974555005252185 0.1944744516292167269 0.15542479801901576408 0.27059024397905384607 -0.12552011645118407723 0.33324310967954540175 0.16908725035355942623 1.0394147632602392939 0.8174644876034744545 -0.69090054945583212476 0.11772997335192358914 -0.22549123950923663506 -0.09144696730283206898 0.20293776066648366863 -0.62412466979022862557 -0.66755630245930119848 -0.021795523238634789687 -0.065701736754440853705 0.14974418810560252702 -0.55128173043119210739 -0.75984672264889696613 -0.57435525114470198371 -0.036358963571841471096 0.03533047926716491316 -0.076534926728060406753 0.44981562465359786751 -0.2035536533556019656 0.21125032423419812244;-0.19523016261026907014 -0.23031846576571859964 -0.041915088584873028132 0.34711696400793895512 -0.31325577556916300859 -0.41711813303398675989 -0.18312892170211089726 -0.21405161573362926908 0.45623961284192204868 -0.13754291504348906128 -0.077618350914985603795 1.1641144851879361433 -0.050639129756943859761 0.69705404452760766354 -0.33055289653467917477 -0.9397679878485312166 -2.4323918163304338869 0.37933814235977358909 -0.65502943145571790318 0.25955785314970863942 -0.45904430678802538024 0.34698720432584406748 0.53273149854588730534 -0.13087941636820310531 0.16640275979926424932 -0.29066061262549275357 -0.12118191530412199264 -0.015174652495791449841 0.2237999654093686952 0.017914478153888940826 0.27402195557053260488 -0.042345204325798413425 -0.0569565116285037365 0.031995494378167128879 -0.53057628322032313051;-0.086942382557602504445 0.24407305942183929459 0.022035044506213560811 0.32570473848508690873 -0.090231940675129698737 -0.059128423012213000842 0.31785553194227289531 0.44007016724042213873 -0.075238301760958428699 -0.5362449664943497174 -0.32773239744943044593 -0.78652631969302777559 -0.71824956591775390713 0.60746535807809287633 -0.80905848463298124518 0.46500723756799999808 0.44215157344170624709 -0.058103950363724961303 -0.33434771104924709828 -0.26322771615693729697 0.085542852268892771717 -0.11284079111657409344 0.12677891919226444428 -0.31044604264194769483 0.20374765581674397774 -0.62965763237750671522 -0.30529686394933364113 -0.21223039827475714825 -0.050911524544722197572 -0.019548562396698207499 -0.024946816081723457992 0.076650692629512753862 0.33956058255103238608 0.12497297229334206059 -0.26489318101713066334;0.016516612855883603533 0.23108561413030287435 0.14417482611787449387 0.3655553292941207677 -0.00083633728272929433456 -0.018324892698072643704 0.08777286444069322402 0.17635484304553256107 0.5117917766654556111 0.70750538315653810351 -0.18393557388190023838 0.21962611679743374027 -0.030162063000151097258 -0.31969295946618375703 -0.038861458495415487913 -0.24237458435215336605 -0.1807554126179822529 0.082266734967822524593 -0.15491673619468490641 -0.062368431179121171237 -0.042093082328252831581 -0.0426437850604116514 0.17699164053236776661 0.15342320448430896151 -0.099064291092063688771 -0.086070935765091380332 -0.10544958093875000937 0.072802684925192498455 -0.081251471632931740463 0.31403876410712761036 0.2319249264638284791 -0.18233954255983941817 -0.14796022359888941211 0.04299128271489566222 0.11766428939493531192;0.086330858631245760426 0.15929707628033143441 0.28216080508651264491 0.052470964085391605392 -0.024806586051047276043 0.24519029417880730537 0.12775107772771593373 0.14466292348580206406 -0.25755800813202295307 -0.76011007400783159316 -1.8689268705371040458 -1.9738566400329919936 -2.4008789289797722866 -1.3051535271124816706 -2.7359444403111656818 -0.27433725892945087788 0.60284646341574910089 0.095868125508360380049 0.097386891642684617065 0.21982399830146243103 -0.055830761161422187699 0.082368093043080861659 0.43999177835408492809 -0.23418762716032440196 0.70723250786193581074 0.53731511701859335783 0.32181446850136175009 0.034130046838210803539 0.24826527108105594932 -0.0447405378906485518 0.18564503250239869359 0.32653976084089941789 0.17120855865969306087 0.13788398452732714139 0.058041929836194008918;0.40365766395995994475 -0.52235565516284399035 0.20522241907697008623 0.31921395347036718437 0.33953195497391602808 0.24425770938075258565 -0.2064290432493962324 0.030303442831331333512 -0.54913866536751265723 -0.19525701688238430997 -0.9453394523721668774 0.26209495071406258004 0.4682354688371977991 0.22897375788581275646 1.3493472634181662428 -0.14694540229158639666 -0.70979817683764101499 0.065811936398054785013 -0.19714031110992749629 0.10646360866076452767 -0.12305635631610667424 0.1491434714149548757 -0.3482738915743589514 0.21212975442245787794 -0.5574298297700174265 0.11197410933426446555 0.076860704630831555573 -0.0065058521858495626383 0.05078040051875157973 -0.66219858177838097912 -0.10204368069927788332 0.049600546192120884004 0.4242033504907975483 -0.27743522845251278319 0.1766628698382851359;0.02499711568204672843 0.0011875329930610308005 0.21557096638911227293 0.070152085191862875724 0.011507927498980823067 -0.057151601467908222376 -0.1566905158212606175 -0.055869812438098881424 0.10226879091309881709 1.2017245937776530607 2.466794864191656167 0.74396221878849977394 -0.26737406398457547185 0.12425261749315055781 -0.60205959308019985077 -0.10721384924331760213 0.30096420193802231324 0.21987493012110734258 0.051793691336950158088 0.15937176152374088467 -0.37966002499734119446 -0.56370791937446318443 -0.52120795191804514257 0.23570758234112887397 -0.063350450654812734408 -0.42897381950534113626 -0.10968271416178039523 -0.033308678129478561103 -0.21086573947120279549 -0.031971605186863517878 0.10141774697643768377 -0.080682715753634892675 -0.13750496173744122808 -0.26624683173570423689 0.1553990395024845983];

% Layer 2
b2 = -0.11097962220453716498;
LW2_1 = [0.24810191039410697811 1.5440357047079740216 0.26359635937812436746 -0.39833372451272092141 -0.22614522370745138158 -0.19306150547309175458 -0.2424829354737380871 -0.10807285755807255478 0.14197718460962208131 -0.30396393938117954869 -0.22430963974867609845 0.15594386834777992923 0.23688333640438069549 -0.25667996915966301286 -0.05462995259518062946 0.12504639670453585043 0.13293328913356156074 0.14262235409149970344 0.15506198028217571538 0.27184500364032665454 -0.51999817125278391394 0.093762971538243589098 0.17924371589674109595 -0.37064012618980962666 -0.28780806389228863473 -0.29746195615883136432 -0.1756115782703228656 -0.21796012746046955488 -0.034268812058482679694 -0.094966420993439604192 0.19700751228534374437 -0.44690449252420633153 1.8820654064240285308 0.14570342109509559769 -0.79004305632806670623];

% Output 1
y1_step1.ymin = -1;
y1_step1.gain = 0.226924594795245;
y1_step1.xoffset = 9.90031274018975;

% ===== SIMULATION ========

% Format Input Arguments
isCellX = iscell(X);
if ~isCellX
    X = {X};
end

% Dimensions
TS = size(X,2); % timesteps
if ~isempty(X)
    Q = size(X{1},2); % samples/series
else
    Q = 0;
end

% Allocate Outputs
Y = cell(1,TS);

% Time loop
for ts=1:TS
    
    % Input 1
    Xp1 = mapminmax_apply(X{1,ts},x1_step1);
    
    % Layer 1
    a1 = tansig_apply(repmat(b1,1,Q) + IW1_1*Xp1);
    
    % Layer 2
    a2 = repmat(b2,1,Q) + LW2_1*a1;
    
    % Output 1
    Y{1,ts} = mapminmax_reverse(a2,y1_step1);
end

% Final Delay States
Xf = cell(1,0);
Af = cell(2,0);

% Format Output Arguments
if ~isCellX
    Y = cell2mat(Y);
end
end

% ===== MODULE FUNCTIONS ========

% Map Minimum and Maximum Input Processing Function
function y = mapminmax_apply(x,settings)
y = bsxfun(@minus,x,settings.xoffset);
y = bsxfun(@times,y,settings.gain);
y = bsxfun(@plus,y,settings.ymin);
end

% Sigmoid Symmetric Transfer Function
function a = tansig_apply(n,~)
a = 2 ./ (1 + exp(-2*n)) - 1;
end

% Map Minimum and Maximum Output Reverse-Processing Function
function x = mapminmax_reverse(y,settings)
x = bsxfun(@minus,y,settings.ymin);
x = bsxfun(@rdivide,x,settings.gain);
x = bsxfun(@plus,x,settings.xoffset);
end
