function [Y,Xf,Af] = NN1_10MHz_9PRN_nnfunc(X,~,~)
%MYNEURALNETWORKFUNCTION neural network simulation function.
% 35 Hidden Neurons
% Auto-generated by MATLAB, 16-Mar-2019 11:44:35.
%
% [Y] = myNeuralNetworkFunction(X,~,~) takes these arguments:
%
%   X = 1xTS cell, 1 inputs over TS timesteps
%   Each X{1,ts} = 65xQ matrix, input #1 at timestep ts.
%
% and returns:
%   Y = 1xTS cell of 1 outputs over TS timesteps.
%   Each Y{1,ts} = 1xQ matrix, output #1 at timestep ts.
%
% where Q is number of samples (or series) and TS is the number of timesteps.

%#ok<*RPMT0>

% ===== NEURAL NETWORK CONSTANTS =====

% Input 1
x1_step1.xoffset = [0.000109478526891616;0.000503954377131295;0.000170557596071682;0.000476101310172661;0.000657936043000532;0.000332285642634175;0.000886782534428861;0.000791664795176882;0.000187010990601633;0.000560769721435092;0.000287557593632436;0.000635822716693112;0.000187760116873283;0.00030558223594753;0.000758626191376821;0.000448052841503155;0.000248705534855167;0.000311254993062853;0.000454892327741119;0.00124248043392997;0.000315830954398217;0.00139601799111101;0.000634076823696464;0.0013115066500992;0.00133614254246548;0.000230346034953362;0.00395656956785773;0.0011372491856165;0.00354386931171398;0.000146339475063611;0.000458259434681454;0.0497147532059794;0.875215681664374;0.0193979138119948;0.000776792631876906;0.00162262606700888;0.00143895962844822;0.00204601075802124;0.00444118057512224;0.00104728399733563;0.00128469988705917;0.00106756803735065;0.000722349847009172;0.00117978391789775;0.000378479184838779;0.000984224617232441;0.000414879999484645;0.000392106533341248;0.000519976073370264;0.000537947802062436;0.000916815678176365;0.000374708600216845;0.000709813669947882;0.000750004601933098;0.000521462171781108;0.000723791685000951;0.00018775795431684;0.000274984902494619;0.000235898663084049;0.00010475899347498;0.000691623055905559;0.000453233883380379;0.00060857240311262;1.03117356664901e-05;0.000221095477779073];
x1_step1.gain = [17.712346679878;16.6162884013871;15.6804730898169;16.1999252747674;15.334099186476;15.6869175510893;18.0948464250527;15.0940127318015;15.5903793896103;12.3047815463544;15.2909031049576;16.0466695231829;12.0489360881619;10.0124034565204;8.07910727087435;7.70680500311997;2.0347331042486;2.01472741174639;2.03549790986969;2.01104578403847;2.05165344253458;2.02752519115778;2.0062836367412;2.00859265202027;2.02795952078384;2.02539402968366;2.02955813808733;2.04555859568079;2.01048398743871;2.00414085621314;2.00194210387085;2.1077041682699;16.0276549704002;2.04105612528422;2.04069470117067;2.01183981596546;2.06146234728577;2.06083431510866;2.0104065718882;2.0094112018818;2.0164003005268;2.02790673046162;2.03711893374913;2.02932913651358;2.01505406589476;2.04139810030221;2.00099521401997;2.00841918838879;2.16011577078064;6.54536914849471;7.47883319053003;10.2197821540344;9.32598576205977;10.3467377743946;16.2310110272966;15.1753043090226;17.9962330783498;15.5549431682529;17.7515515560666;14.9208966701288;15.7491591538123;16.956875126527;15.358706951346;17.8288372806416;18.1871159533757];
x1_step1.ymin = -1;

% Layer 1
b1 = [-5.3301681691104718652;2.2134673155709281289;-13.449940918449366123;-6.8460566547298435935;14.620829830274935546;11.462099406838653692;5.9040297585364625021;17.240730465590591081;-3.94693382759012934;-3.2111677718841327156;-4.1322305118501665433;2.7518237668126479534;-22.943705732790721896;-1.8617361531620419957;-0.45699188427322939843;-8.0613214207448713466;1.1391310412916877404;29.115152096580366958;-6.6093800727919811422;-9.3701073169464574875;2.1778363480088676063;2.2739076048395117091;-5.4675058575981942965;-1.1553762491404540036;3.9843704199789775622;-0.50977635355687556107;10.290352343368578403;-3.8489075908019669825;-12.583645103188068504;3.9460550837792358614;-0.059640766529275246466;0.52399426636548152025;4.196207496986001928;-5.343962495913705979;1.7105547147164139599];
IW1_1 = [0.091980536523912970193 -0.12721650362050707095 0.037165896732609705888 0.39826302260454099491 -0.18533612321613518459 0.31610034062501013441 -0.27965345404865676882 -0.35484655248045038345 0.50589082771758153712 -0.32654685208295464172 -0.0056769353665021352051 -0.06936329128854991366 0.10435665902244975478 0.16883348733896919036 -0.80749799289756840626 0.17837802406704875158 1.2756024704887762855 -3.2016464538012829877 -1.4419512220810761782 -0.60451363490940279721 0.56986321084293511952 0.75630015948794360181 0.8723723742839458728 -1.6063995714037573315 -0.75071479334147883655 -1.4625623550674375917 -2.0208850628666041871 -1.1314599674113035022 1.3619011820682267455 -1.3738893002506866736 0.72168807982777360976 0.72486999976220667374 0.15299346352304646346 0.24053231910176334218 0.19887970276073191345 -0.1833219483917139514 0.44799003492186034725 -0.14990993575040004182 0.32092807769530007356 0.55239314158200469862 -0.17711433205132526281 -0.012846192408577872257 0.13124046963863700288 -0.071381944358571619569 0.054852464147159274432 -0.1971658670432916427 0.51843938669175915201 -0.49263685377778887453 -0.11580902532325508536 0.37680217664975973468 0.80850669390588714158 -0.06637262076784661291 -0.48691601586599625451 0.075967701058216208221 0.036108656083913261148 0.10119653353123299333 -0.070876600155157884475 -0.44588992689856832285 0.14685602216425996946 -0.11328402778333117318 0.043760732702893309631 0.3789964840488646014 -0.12629483416238257432 0.0075925890290572430052 0.067751150106976049114;1.3417965611773210455 -2.1812748690815029207 -8.0173247062396342244 1.8859262814315578272 -2.9157693618914786171 4.1703602996012660853 15.83273440914001462 14.454696718442457737 12.687082497398430192 7.0825237357143366879 -15.063088831151207003 -4.2913437925702373477 6.2258611865428150622 -2.565455984152138047 3.3643617898940934019 1.4963741918831987565 0.41516811630644528952 7.5108982447106287239 4.5817877239832727199 -4.0324019013595906458 1.3362840899379928583 3.0677096508882879533 -1.9131279563670924304 5.5282682553419473237 8.5561821048756634411 5.2042707704763069287 1.7538372173055625236 5.009926212496673692 -1.5069242450766677788 -1.8674563958319041479 -5.3671051522185875271 -2.1689982253152852998 0.43611375432532700769 10.171991463118301269 -5.7261904826647729294 -8.5856821276471908533 0.74767850367743105 5.0166270584050867143 -4.8686877087494178085 -14.116168424422960825 0.38190483488194781891 -10.47106685026486339 -1.3352858710833417355 1.1999196247811223515 4.6571546480160392889 -2.9798371411510347073 -7.5215468039264488098 -1.6435243630145035532 -2.3396229528971059786 1.9989981035397057507 -7.0037181143151840956 -0.093865648988127076136 -8.9358264728796701348 3.228445795658740014 -11.599223258288516192 4.0278881346090091853 -0.0059814860599778588851 -3.7654532616920399768 5.812118854908347565 0.60742343477072713309 0.039225032954241866034 -6.9401462960125437363 1.3422297311017314936 -6.1207114093214372019 -3.7087492549429152966;-1.1773283173279827096 0.39879665867004965296 4.791570039461269026 0.65753096842290703616 3.2952634407756780099 1.4018081226424623509 -0.63566113458701756223 -1.3642589987011846109 -0.022837928617688817157 5.4185389490862192474 0.93093456536191576678 -0.77979716632959217293 1.0107974210908159396 1.8954029626787225471 0.033797996692441434341 -0.94082680686494968292 6.260591369371554471 -11.504991331960990664 -3.0126150833111995375 10.733660495464450335 -9.4971128075885591358 -12.524755643435097952 -0.3899274886232259596 9.0470545398768802414 1.0311736804108539989 -18.040198485130389372 12.863554145916308968 -2.9410478392726515651 -0.088020891938723824777 -0.75372563288499649925 -0.41011952464881173963 1.5690830630300565129 -1.5649431817554781965 1.628629181525897085 -1.9018958718952985176 1.5692219451692117627 -0.30795132650741469105 -0.24636280679658761894 -1.2726569603906612294 0.27224984857388284665 -1.7072427777209469024 4.0173389435117643487 -0.85697865112913917951 -1.6918026853234588991 0.75538369912785341409 0.37582652509086833525 -0.46867539787768597304 -4.8089322582268758666 2.5039640379215781785 0.08101470830230735054 -3.1571102958438022057 3.0774590557836654092 0.91648548247193983851 0.47213827791425544422 1.4576601276832299448 -2.1014599761267116484 2.6227902389373536352 1.2416553861958483651 -0.20363821217550764908 1.9412527608142557956 -4.8888135119601496825 -4.5760907226350413524 2.8393823259116568458 -0.52895505845006773882 0.5332943092613723346;18.826761925852018464 -1.0454748867926602074 0.74728810839712767056 0.8091327329309234706 4.2801725476125973557 4.7928612719012235743 1.9861551463269955242 9.9681065860966651115 -16.378139453696228145 -12.527447566815380853 10.430004056365374865 -9.7552573767589816356 -3.0036928851619975056 14.473160432861199354 -7.4341079858939806968 14.520739866066064039 -12.980068657270063426 -19.520429553587398175 -1.0438283812788928806 0.92815245471888652151 -1.0764555281953951393 2.7082139658924901937 -3.2692541364464693388 4.2275354492823886687 2.4295016447532371551 -13.59786050570122562 6.4693244851080251578 3.860343794081064317 0.1741395271168778569 0.4139793192643858033 -11.334111423349208181 -6.5852502033711957097 -11.239106031289678 6.6131161544962120402 14.203357031811821187 26.026241460331963395 -12.171516610318418472 2.4531072910233007178 2.7704999711351918634 -15.691650854235652091 2.1395572089893279966 0.19934378162378579846 -13.338792474888686357 11.490024236048695272 8.6827384652125374487 11.148049250470119631 -6.5485679979963533626 -6.851534877446913363 -2.1340384179876652482 -2.0861438896332669124 -1.4104597250644486106 8.9248819985097771479 -3.8653510614874373452 7.7687534914786144924 -18.209956513943232892 -2.6514719902057541923 -3.0787655661940416252 23.599002709935227529 2.8505459039177867275 -6.0201294222686740909 3.2146302470170158294 -11.867430742603549021 5.6437826810752973472 -0.6628948323319010516 -12.588108644707507011;-2.5411341537127287715 -3.5042058189250253619 1.2057302784076391333 -0.88767722906957002849 0.75282366403140377198 1.6738859613272309979 4.0089262074378098077 -1.4777632809963003879 0.4409259869167797552 2.2705866083586254689 0.60876021877108654756 0.85134536348773581782 1.8106128956198257463 2.0041976054874099944 9.5798282738338897957 -3.1970221283015014535 0.057942489187614916457 19.497825098838248437 -8.5202172374846103509 6.3553085652568421793 -16.014374028170340836 -1.6104011968712941272 11.29133664473966725 0.85882104807031700577 -1.9074068600730775813 -2.6418524993808243373 7.4959209355490550308 -9.3592485815487087564 8.8245325620961558855 1.0242547115296791738 -2.0966925028599616709 -0.61774538192722061591 1.3639429504276787686 5.5979364182786488513 -1.9064253292693515984 2.7461784051397257755 -2.136694177011686957 -0.16708354744843079143 4.3630519113187151703 -2.7055402235260022081 1.9407759815984755303 -2.6045508506166914486 0.5614333696867895851 0.60612126636686258774 -1.4792751762343054889 1.1351578463830640509 0.077060417163349853586 6.9883123067106405202 -4.0496946718687754085 -2.6435661290881724561 -5.6979788980022485489 -1.2841608680742080395 2.8048698036778505482 3.3569739606238147012 -0.089971312007651224607 -0.46968891259414080608 -0.111920941090300749 -2.0507125279409521568 0.29342908773682696566 -2.9991027612338525543 -2.53644719936248908 0.80948140909940202725 4.1899414017385501197 -0.23937949973666244885 -1.0926453063156778001;0.34469308788707442304 0.39671132165518729895 -1.4855732609042782144 0.385070297800062189 0.30708745932902903331 -0.15443875041386601055 0.20981832680011666681 0.76350982395109423528 -0.80044195403389484245 -0.53385469628107562468 -0.81116395377945149647 -0.61440821597441197532 -1.0293230235737471645 1.2763154132214602487 0.1100253346378467223 -0.99128384043671291526 11.273063112589222001 0.22513192301566986586 -5.0596888386896647916 7.3270466424726068411 5.1745459816034244938 5.0450860690831396127 4.8612663018461761411 2.0263489255758186935 -1.6819382158141502615 -0.16538843127758126594 -0.54173716689315409845 -1.8142032824921503487 1.8358399416346293798 -1.1380665985596831735 -0.57709437742979563524 0.4871704630898840982 -0.42322899673494013273 -0.44736928533366782101 0.38072706912741249852 -0.16281761640536177027 -1.3170666289463326404 0.56681152463457495916 -0.24421629679678494296 0.33753791231003327233 -0.74197254507797283374 -5.0325546527388631546 1.5528969751213441697 -1.6502173333260496957 -2.6617529416517573537 -0.042880666481020540681 -1.5814960371251340909 1.1629952195480715016 -0.96710807210917304477 -0.42708047588791248073 1.3170475925847653365 0.42077721979747567671 0.22247620864941353158 1.1512529293706812439 0.13261745330116050945 0.36826389452429669769 0.67534207562269055192 -1.2109449525865971786 -1.0056345339411554285 0.44010116632909163092 -0.75543578862338345292 -0.26423674327021634545 -0.6772954384299827435 0.30004284132612418778 -1.1634890957489985031;5.8484846019513110349 -11.108849617545544675 -0.67204179850059275747 4.3956463688116738098 -3.5033386239613144575 -14.226320962539587001 11.523679541353372358 14.195716159772805653 -4.8437087847744626501 -6.005895067545850452 -7.7178541585630586752 6.5497299558815234022 4.5543640121588033765 -7.1334194439832545598 -3.5364272068668811677 -9.7978184880468486284 -18.160724411072905582 -15.110578270043559357 1.1132346225829361508 9.75830246008339941 11.996514032027871366 1.6301861251193499047 3.9683562375357959162 -7.267552753278719635 12.367853028864471909 -0.066310954284073561626 -2.4801155479272445348 -0.63291490474998179927 29.049603263677646225 5.3414251083504904472 3.0168363420105555051 -9.2943299570766022555 -0.4485925146696471133 -2.5960925038404822907 10.096727359499174881 9.8847668185157075982 -2.3524654963929618745 9.1707634308531087441 3.5068680978631818768 -10.204491117417946455 -2.9540573240836907054 -5.1598234860644476285 1.3900448059041592419 3.4407978092418378679 2.2714862169926557378 -10.603588968265800219 -2.7829739058113132089 -1.9956496803742476143 -3.4226744559196848883 1.1642474428580282808 -11.74454685572701429 6.2138269009149027511 -0.10723455024676854797 4.0473983224552956273 -1.1969217360711348341 8.9443660982044352892 -2.1597728329124983304 10.269891371108913702 12.88406211438220339 26.744741760492708238 -1.9219661754223174022 -5.5766231795486005396 -20.248045002786994928 -0.58442194022102833539 8.4692954331020260383;-1.8606106892648910378 -0.49496512347425158929 2.2366269394248856628 -0.81523085496965819186 0.29357776047989669888 1.2885731014885595247 -0.95526877473491278447 -1.6291195044996464869 0.50785930604410434164 2.4210055300423807267 -1.9969086648293015163 -0.046259594491185246357 0.85502158478934109365 0.42221946400921189779 0.3557624845458754459 -0.34289306995332680117 -19.770171798799683671 -7.6832590427823346246 18.721233514646534957 -3.3445266398110611306 11.145180422065207537 13.137896520504327214 5.8855203295692666288 4.7033965765644163426 2.7267474863789002981 5.2410381900815972145 4.7609337258860220388 6.1510664731443567277 3.3560937113173148205 -2.8351182352250750007 -1.5179866644676551779 0.26642317539622251132 2.7077867927407623938 -0.38699553252820129146 -1.8037794307056018717 -1.540804057918686798 1.8726811190125973727 -1.9477328584702024994 1.0714378204334753519 -1.0825010720410019882 1.3946995861321627164 -0.36917335161301279012 -0.74421393083262454837 3.0982165527113503245 -2.2974122607507609928 -2.5073308150289537188 -0.90224413660662938774 3.8626263975121957195 -4.7634109450584780632 -2.9536626982113562967 -4.1291481567547672071 1.5848764853452976809 -2.3280810788550967416 0.50601360726282884617 -0.13875510449322281392 1.5037623977575331757 -1.7758889155946775418 0.3169657550287372505 -1.2375001784675405681 -0.81764930863565010721 0.98610649151271911883 -0.071465030252047145876 0.081261054407793714693 -0.0350431913322451008 -0.22702946714468050238;0.23483413718252865721 0.13573714814095083625 -0.16321602736932716571 0.21213095672951404191 -0.65144483781948259171 -0.15328445103779186898 -0.051936720574305594855 -0.016855088050269247807 -0.11075263057999541749 -0.032554820698334957507 -0.089001764372598324293 0.018326526585776395373 0.1978261962653053152 0.78004756807988528955 0.44289713701693422809 0.25713917900381189074 0.61246236696424083412 4.1366895081669907697 1.5015208830698349995 -3.2275016651406991386 -3.5834285663545468736 -3.0094577118734999743 -6.0512139881152045007 0.68464883115759711529 1.1516426485525772527 2.6772102075065347115 -0.60207016174612515425 0.030831958536149679795 0.21144110730689008593 3.5054912027880038572 1.2682298767437800713 -0.21166980305260452155 0.17351967452027453054 0.39542831264991196161 0.064650845370522028177 -0.051167060360775611094 -0.065919644689308137808 0.26660037561718596955 -0.1022542702481659127 -0.24150199192791713121 -0.07089975996574078565 0.065789345657593839567 -0.096596253888247468611 -0.1626772842068613667 0.008981082346170106076 0.091752748287281013506 -0.15254841653140593927 -0.027958909536639930948 -0.3617358900507784969 -0.65921174674492277745 0.098198788964370009591 0.14731332338379332647 0.18714408255187137131 -0.14410692111706441265 -0.25823196272186155209 -0.15995505839936924319 -0.027127676064933950451 -0.17902559851286015125 0.05418558853380067708 -0.30456094251874549217 0.025722162258253186001 -0.057365073318310373651 -0.087137109850683597267 -0.020955043409225129064 0.10667518558765368142;-0.017913187159566766604 0.027748455540562967647 0.13095489744589444703 0.26727469431702827185 -0.20449600100751538778 0.076892924043206772877 -0.026917716512380493454 0.18902911281912046504 -0.057699589313363150445 -0.17072553097251152998 -0.10226063354802651661 -0.005678784583480395165 0.22105523147202132961 0.45869824058994834726 -0.080516084252692771139 -0.074927674121788481743 0.22412945921511040481 -0.66461403106648941908 -0.092473343743445665655 0.48210276588205236425 -1.2204353862049190926 0.032615414316531976535 -1.3738704185651957612 -2.1910855731943317259 -1.1723401736448273436 0.26094802035291037035 -0.20440960305922309392 -0.0087425310767455799432 0.001472854523698302609 0.5826779539243431838 -0.11797471433706821498 -0.37977470410947206103 -0.15418843695809472671 -0.18439245399810288983 0.0024887898442355269046 0.10669087695611731426 0.083736806827807319653 0.21584956401118440827 -0.09708690298349027803 0.1628069648314945661 -0.20621202144896916275 0.078297845402250723645 -0.062944995506300768784 0.13018650815960006173 -0.094963869711356091452 -0.1214154017168544708 0.18823299997985537546 0.08940972522774484621 -0.10369463281594062942 -0.13180707485651971256 -0.092977027491693536865 -0.01584701707355627015 0.072844553853718019276 0.1253016191678139879 -0.048899123532217758648 -0.056389274287614830905 0.12997707012726877895 0.17933244333544071103 0.016913490858926155669 -0.058760850038193063183 -0.068310072968658583359 0.14533051124078166794 -0.093000738528131343674 -0.018474231269389004839 0.22669298528974390905;3.5931734182346324324 7.9279020248054932196 -3.0112785040353360344 8.2747016427649899839 -7.3799681299660502276 3.2236775103947699073 -2.1854329958009626189 12.718936038768520191 1.6360574973432024937 -7.818512442844864907 6.96261149409386082 -5.4179646439795616786 -1.1733082656566635738 -7.0576697624522681807 4.6652818044543522547 -9.4485664033769296566 5.3996625332028997946 0.92885811799204465178 1.1722007584025313509 3.2850510722698991195 1.5041578662424079926 10.005149420318184994 -8.4225992887006153609 -17.044010898987689728 -0.19662514287056750972 0.3851060284113567711 -13.587850802949155593 -10.022541468785091112 -6.6936568745992843787 -17.922976242722032936 -19.973720400652855034 0.99849168865668103123 -10.327625650145396463 -18.911245712130156704 0.25395837124272213625 22.207077215782547341 10.293942648841577281 4.3578230720178723345 -1.6137717441946668462 5.6679527879356053077 6.2431315540668324005 4.8077125453547706613 -2.3654163649998385388 -6.1935375410045958589 -1.1352005878246309578 -5.3946738716045237183 6.1478013373883184656 5.3633587445958825768 -1.067911614741029469 7.7142028898349126464 -1.9728137301508392731 1.7026406467079699958 8.4529463769949479968 2.0532863628142723478 8.6677020279468290909 4.1600678101485231153 -9.4246931364644002116 -1.9585481085648439592 -4.6565626990595232471 6.1025191093357475935 1.6727502395602371621 7.9076599886760341462 12.207557637526610606 9.2879035107567258223 -2.743159477107315336;-2.4602057255591511797 -2.4411513803814708368 2.287352342107026093 1.5046267901204242179 4.109776538734607243 -8.3425070533360301539 0.71280799760724611325 -5.1978649962358787207 5.2189362181156502274 6.7720297065663457303 1.5667800188404541473 -9.6221981213605261019 -5.818797734510844144 -1.6065837298291050228 5.9099666403663713155 6.0012599257952068399 5.8994829990573052214 0.64577088057647646924 10.842122012258755603 2.3322769844174273679 -6.1231046527622625675 1.6661281629383035696 1.7369513179839524142 -12.934359077894361789 3.0397569009589040512 -8.7673191244244108589 3.6148947713540451332 7.3631004114401488181 11.896809621532396406 5.8019456251811698522 -6.4449555842985759568 -5.3750198936879591827 3.5864274240849201014 -1.5596084579006121995 -2.9368420313432337387 0.85193731528363114691 -0.8813480125078650973 -3.5020885096647562662 -0.37848137387987990099 -9.5372947715942348879 4.8067412103375737331 -7.1439220420199154304 -0.52150155422241217806 -0.88201676014090546474 -1.9911343550628048948 -2.0639037090892791149 3.8757185715031678974 -5.6543669124644244661 -6.2877186913195002305 1.7561345900214784255 1.8911925066456640732 5.1522657376916232153 -1.0370703475470046673 -6.7041570272557624577 -0.24978510035218853824 8.2577395702891625007 4.9521916207724476777 -5.750145308832686375 1.2399350797152568493 4.6338497286400723851 -7.0690402221013970419 4.9908711426521668031 5.581072391798122645 3.5357471768890160746 -4.3855576328572531963;1.299009266557619835 -0.083388611077504559699 -7.7827050092064169462 9.3871037299418915723 2.0851131145368428932 2.6574262256560494677 -5.6515197428134023028 9.2037810893274407675 -6.8961055457302649074 5.3419514753176411404 -2.9158174595654853256 2.9732997533227014664 -3.7937735593300327963 -11.588862358487244109 -5.4605258150541677864 -3.6468244851428348596 1.1753307187404355982 -11.784253862507405586 -14.068107330733505833 17.926423440784756025 -4.2289932327540702417 5.0843163595711331482 -9.0272971176924539094 6.1398732416691110814 0.11044633275151589935 12.291030855528298105 -5.9059480799185646305 -12.726315947174215992 -4.1120276722967181726 -2.1087709917916490632 -0.35248230480273706755 -1.6924309877023910875 -3.7062100186720328132 6.1939152292604218175 5.8644809079096837934 -1.5176869270943520451 1.2865075801368490716 -1.8755137730882487368 2.5436245194412054893 -0.7966425887446462184 0.79991005638477619133 -2.6043845196281143473 7.5045050552732233129 -2.1302388313146023435 4.6938222907727693567 2.641307621527691829 -5.3046653405870314302 9.068275334504720675 -6.6397752990223333214 -5.0140714428059656171 -1.9607261182243007624 1.7462295517274675216 6.6689789053830006438 -7.7297377551066723811 -3.8737694255895149809 4.5626511936681719561 1.8709898269782514468 -4.2310867581131947901 -4.9198868369328803141 3.2887345784925217096 5.8248778296032099888 -0.43118877020115958798 1.1733601428445414872 1.3819578458270980192 0.96324040199115146255;-1.0498125533049835756 8.0594522075906187553 -2.7270291631906280472 3.6533408207931388212 5.0213468025882788126 -17.282519278034715882 5.9286211356578535359 1.9582865977896015686 1.1735670980584813616 -3.3932916741541325756 -11.426128219011582487 8.7764034468603835393 4.0370526789924046085 2.4300297465164093502 2.96401576536527811 1.2769415258169269922 6.3043793843813897837 5.5502235023740320585 2.8294377150942655597 -4.3510093060313179691 -8.5412968071795756231 -4.7791858388609247399 5.7547620893203310644 -0.51847987377842530421 -16.13661684768858251 -13.872995395980508349 -5.4250789604325255766 -1.049537150971388666 14.463147875990333802 6.8558023383604966838 -1.2240826270042186596 0.2912022943654949958 -2.2910998931794566147 1.7010285505653794935 -9.2350448749116580416 -3.2707168142609983619 -3.8964239780125473622 -5.4814419528069127097 -1.7199421139974435668 -2.0274282464515387403 -1.1269546624946602531 -9.010096706955284418 3.9927184496442227335 1.8552004432717144056 4.8699098597824379553 5.654441934380145085 3.7770638282466584279 3.4216499689253958572 5.5031426247714430033 -1.2602258435195001773 -1.4920702597136730194 5.862862657323152149 5.5765433422276249331 -1.0225784708515122112 -10.503881071114905765 2.7335599225214894936 -7.1980570663260650122 -8.1364642424799402676 -2.5513943213998921955 -2.2434157766454601024 6.7615760762704608666 11.787617964545518134 4.1524538495771503577 5.3748759684170011042 2.2404879990742401219;0.1708695273262636205 -0.17529263225346802813 -0.26773003029408953823 -0.10067484965142721454 -0.35268773132183206531 0.72162144446528697639 -0.15665391887329022103 0.15866595833652555325 -0.50666843574866926581 -0.37907167675176534072 0.13502139811911811895 -0.25794114930973388589 -0.16822307514997894562 0.32055368143171519835 -0.27496562766234533548 0.27415622429833974572 -0.92825662261686803234 -1.7820828279617997314 0.29957200467672706612 1.143001998827283483 1.7468976197647174686 1.1944602138456115181 -1.3941773279888212134 0.39229998520220121794 0.45305907599432265753 -0.55059921516442389411 -1.2796985233374349455 0.57933116174773668927 -0.18111786987813277561 0.16860250675246765684 0.09077951096120893959 -1.4670940247603385664 0.40601956484896567501 -0.66901203315766410995 0.099503172500421191438 -0.30097287539410427781 0.18990920689178822367 -0.22758762559153086769 0.23120712415859664968 0.24932946641232414664 -0.055779229901673291203 0.19460367373940862246 -0.49271697263218511287 0.66596034160780170907 -0.39049141507374002247 0.27033774239387353688 -0.25580768608898341032 0.59368476094012667676 0.043801013822842543854 -0.88899997264026331401 0.084040723628955121827 0.044300414927388273578 0.0016901877120484194716 0.26421682891460901432 0.27095261006690973815 0.13915725827741423637 0.013503873151416406762 -0.14436107527498467928 -0.15902025675852474174 0.23250462124266080277 0.33995856743807201239 -0.14655998894264760102 0.09496494549724678047 -0.1287295916789425454 -0.11162719471202986465;-0.32996877890181591786 -1.5785924763246379499 0.84356327648598405933 -0.23760947425028569602 0.25522616040066770093 1.5619646587915476665 -0.74158707247895283565 1.5150732783664677683 -1.4702841346721475801 0.50512805165086505088 0.96889378487757260583 -0.11324676174588742261 -1.2349715063241450963 1.3381389854091403357 -3.3848824977007523351 -3.3081182712784218403 -9.8209464520719755853 -0.714609415384343305 4.3647100186459395488 -0.82044864413661433566 -2.8591787668544785816 -0.38676975265880542132 2.8921686675552131796 -3.4706058256263738748 -3.0789638262250567102 4.1129977360462977032 -3.947173373928314799 5.6530848170509004902 4.0358569616666342128 1.1158791347691643381 -0.68623672769571197882 -1.2803483663450183627 -0.063669370984455922469 0.46313604496639115826 0.76006749401709838843 -1.9648039402716730439 1.7105340913781845735 -0.28332142791059117259 0.071006058448114584003 -0.400214610577624752 0.3365320661388457868 -0.978978276155908822 0.17638135152368572545 0.22677760526257154106 0.1999141127287858144 -1.6098270507626686321 -0.11817647390210490876 1.4945993857292225737 -1.9216694845709516581 -1.7125989000612646951 2.9505430572971347303 1.0913563455578774164 -2.206055238771756688 0.19224926368680550492 0.88767583275588379799 -0.85146631544325546148 0.094232192373293527377 0.52323655823522174924 1.1800712339636059145 0.2977792192384217107 -1.7237337997198622919 1.2247556946191731075 0.7081081475327253294 0.66874221187765658936 0.80413708088912094762;-13.502176621551019053 -19.242035528380643683 -6.0525366048909576833 -6.1772248410133698826 0.096706651298134604922 -12.821942674703457499 6.1249765303423835405 5.7936780516631740667 0.49117535882970192462 -5.0061511157663263205 -7.4246704524386029078 -7.3442446606482736371 7.0351427183435681911 -3.6248120453128023222 -2.7240744457767385178 12.708482530856890946 5.4469596909316448929 13.273601544949977793 11.146226996996391634 -17.679626797599983234 6.7942595035371562417 -4.1711498651477558752 7.1512295889309998032 -3.2008807413422561972 -0.27060437070398357662 10.734053700298842315 -0.6843115606932342887 -7.1103544769409596782 -1.7095317822259104013 -4.9916213032189462595 -4.5437971141626878335 2.5075272446650416214 6.3162276052804999793 -2.617057731282379951 -9.645030417551973656 3.8162525359982337747 2.6932630721739401203 -3.9869735338327059182 11.798161020147126976 5.1299409311169670289 -3.3866057176583646005 16.789910195801979853 6.6020965993332172417 5.3079614710800431254 -3.8211865640837978653 6.1878547313051548429 2.2836851633033732334 1.6836162060825601294 -9.7481602021211628539 -6.6280967511367787637 -0.8046002489914532152 -6.8563499086723913578 -6.280213767899178734 -11.633648054706972275 14.647018817091852938 8.667620632701142469 5.6312196941188110699 -4.0887851816342033473 -0.37823578923011302866 -5.2472568059994868506 0.38254379571184393694 -6.5824877549593630022 12.620722752983610349 -14.950961254885642759 11.018643572652775831;3.7661651815979766411 -1.9213336552910662558 -0.035248891070994083086 -0.84942099097957890486 -0.62631449933136873476 3.5830068321487655858 -0.026261197186484477178 -0.5084471900217588658 -1.9888967658566873986 3.2844950839175774959 -0.90325970140891620463 -4.3331051379953970937 0.083854309494529641333 4.336410828601509948 -5.3318569221859943852 -6.4907680883019160945 11.44244943843281348 14.20552849285516217 -4.5753976961147060365 10.56150991162916597 -1.1568547931710926324 -0.4783785525045793352 5.0420594585824822786 -1.0763244855991116466 4.8528724797072113617 -2.047111974285774405 1.5214762987150571849 4.4498054837652274429 -0.44781641633284857695 -1.647625483660057899 1.5709313369026818297 -3.2715342639115418955 -1.831125945392320542 -0.078598245267996122432 1.9702857222297203155 -2.1007445490870759741 -2.3328527015112823229 0.73261843221296041317 -0.51258343820091289977 2.8571412417046104792 -3.967919591115716127 0.78882471602460557669 -2.4458157495047778696 2.8026941724233802589 0.40589854396888286336 -1.8068745153542893345 1.6310577045040697275 1.2221025298308563212 3.5943857830637035988 -0.0040594033082888142383 -8.7147660120628724911 -3.7641653646218555807 -2.0887331671611084616 1.9491539608965586794 0.78314328740273408958 1.9714949999986768336 -0.12979214223644411352 0.11875995870437913715 -0.54942846888152740981 3.108297520358811461 0.65609323800387053804 -2.3191456825670844211 -1.0143185452817637948 -0.27246013612866298859 2.8781892699560374105;0.56269743422615736694 -0.33458941183358037463 -0.057932961979820174481 0.014957991540331241898 0.18861079496757610086 0.052829255939929417596 -0.24317335230570433224 -0.14075710019000070572 -1.0808752362866573815 0.54002923423157067617 0.76452800748838090072 -0.73093418377035213052 0.79561366684531942273 2.5277373730010710418 -1.0211988228284070157 -2.2010215700238413561 -0.086675562540725253902 3.7591186664241398319 3.7184094562359937264 -1.8650577479350110011 -0.14150536229331256433 3.0112899490748139542 5.1889466577838057049 0.34881011534289846354 -10.084115348573298832 -2.2881758193346128927 4.3219077473844045301 -4.6803186570617878459 -3.466594408282256623 -11.369015289318857853 0.60944798740318550934 2.64958298347070631 -0.62441651378654960958 -0.44990362098846664596 0.97185881816506547448 -1.0361153041867243729 0.059167224646118718456 -0.17993314690524536692 -0.71016054815712126302 0.35106795057098977297 -0.25578861539733621644 0.50105383411041026775 -0.19519819490826564867 0.51413320522727645745 -0.89489312694369327339 0.33104134164387705175 0.44560152551369980323 0.33292417049334072088 1.0589243906034842002 0.18919838298724758752 -0.10375290747534263169 0.82934316224117143879 -1.1756885574852573573 0.57465095867729476531 0.86832689115297834181 -0.25176451560248036543 0.36495165022712827696 -0.17977492691585633677 0.13358789834690454335 0.5275000589331554357 0.36120827124954069109 0.65135443642132229147 0.02583674660237617049 0.75436665198228047835 -0.20506099320239346007;-0.12909656502217198293 0.34180465897715650581 -0.21418034544846820122 0.34334588468023385932 -0.11732698472337368956 0.32053761836335681323 -0.060930697072171566275 0.07375819797974897396 0.14769946896067703834 -0.0015035447597034606176 -0.12898977563549451908 -0.11514708211663912674 0.10146527696160739795 0.063965565872707408346 -0.10327070213320244108 0.20680625866341503793 -2.4413121262463217676 -10.502587917993011501 -1.9325273373448708103 2.0036159632409948905 0.55030529089701119005 -0.98152750085512441292 1.0525192640794076571 0.23985687171503994319 0.67354088717452875734 -1.2273035228636133276 1.3849045272346844904 0.012021126725135472535 -0.30661851498937520155 0.0051792824506141955931 -0.27617873652811408824 -0.12915726339324107297 0.010105300208979194412 -0.36357690770442985251 -0.15566572604014367043 0.23908434246620857699 -0.26158541501601167978 0.009309299927363831606 0.52611710642792663961 -0.092229754474220035365 0.057509841961688575041 0.23948154334362645179 -0.10789368777244183473 0.10062005260437401066 -0.086283620686509590603 0.18944891997843588127 0.081371070818929691626 -0.39595739928272283281 1.4784079639587683896 -0.098742383235756361892 -1.1568057777565565747 0.15953986126453223449 0.43219739550789459948 0.057411190217006885517 0.023804832442285976668 0.0064032532567194766493 -0.060467450842246674159 0.33198069729242757342 -0.17068749360903631707 0.21533538667065391103 0.20041702628471019798 -0.056881420997978347776 0.093940367472843511187 -0.49097773501851887934 0.08087693908052480396;-0.1150871321348371501 0.2773616301616224078 -0.070482481499087881738 -0.3311836531685527496 -0.52958969264995980897 -0.15896399234872027328 -0.59949034121886768389 -0.26503748066228882685 0.17868860317964121998 -0.20869479206598143262 0.10392382456497271936 0.35045677127071012125 -0.53445481364697056126 0.23352207919379203149 0.005653409172042059283 0.57927019447878991265 -0.58816713838876177878 2.9791929044095302181 3.0967010137645774037 2.0537938406003246605 2.0359650915293281415 1.5886555820175134457 -0.50829708746266177855 0.031465007150236784517 -0.28659142112501651001 -0.31243156265385185755 -0.10282099229669761087 0.16260214524906832501 0.56305416414060083241 -0.23938498527872220656 0.53857253650935077438 0.041157460304198742462 0.36899627433260234755 -0.55316871757159713496 -0.32930373488088854339 0.58437872078406849496 -0.18544847853718349207 -0.41345845265051744954 0.13716892805788744036 0.12554252373690788502 -0.28061161239171916737 0.1799285106990857197 -0.67153425702980751311 -0.026451230863316049779 -1.1587829053574743021 -0.08014756997014879647 0.10342875803458770334 -0.012181969666204960079 -2.2775808027792137089 -0.37412816604410126242 0.14418495168503059345 -0.30288324734369476143 -0.39545237993129223053 -0.12911563552967120216 -0.33171234667632099047 -0.05108541889388816537 -0.22069850883647529338 -0.086744284641994004459 0.13032823007096763779 -0.21059017167950994098 0.098771273530873032742 0.26135226078196893695 0.064864960170177232701 0.087983888531662876598 0.15256671135684291007;2.5099086902692664403 5.9837863947705356438 15.830693617915699178 8.0889441629149825275 1.2234745466034142591 1.5704549658540409851 2.1450678676929384459 -14.509501512113571309 4.28011948547890686 -4.6769818844885469034 5.9948901075761105162 -3.5492097940081199781 -1.707609433993396042 -9.4806807494708227324 -3.5571705704307845508 3.138800413345921303 -2.0699607309413456946 -2.9476258332907567805 -7.2914788903880394244 12.713172174991932195 12.046163221187049075 -8.2610058842201574691 -1.2670972185615243522 4.0003758728990890248 8.9719276403502359329 -2.094800735991990237 -1.8007426288938737091 -11.784751547818505202 -1.8145292211566885765 8.2881893079566655302 -6.3100734827993623099 -6.7023480586882646648 -2.9038964116060115295 0.7933599674457010309 2.108362954042483306 -4.1987285596236469942 5.6279610990577575436 -6.6105907622363231368 -1.425389307020014984 -1.6783362109265886897 2.6938510078989597041 -1.9381718392892057778 -11.350927187741572055 -0.92696962630205170797 11.848310808016492501 0.40444957954048282867 12.993505360052516551 11.023343864812725101 2.9203133168862773772 -7.3081841907464095698 -8.2696166034973241921 3.8063274368354060861 6.0620313718131608738 0.78010890194623849769 4.8501722537233060706 -4.6700692941560921767 -10.668623628161249428 -10.828895375846967042 4.4219170223177961532 9.2998684322605171815 2.7603812955596862544 13.038297692949356588 -17.438233431733198842 -7.0529146050009767777 14.274901595089030337;-1.9018544260428145165 0.71429479740300438895 -2.9668700070661544466 -8.60029240673130424 -1.2939949021049170774 -1.5306099073705121683 -7.7587891444745089586 -16.338427171046117081 -8.0715663070972532012 2.7977837183653941899 2.4551143606685172927 9.5100861435386363496 7.307938295735376677 -13.939549660835524492 -6.5780978926035817977 14.777336935892684266 -4.8875195389158871961 2.3423644523846260945 -9.2326118124348255378 -6.9655447274228396992 -13.586034042772052288 17.711560858165867671 9.0718289969380982996 -4.9592606854252174742 16.718737114201584149 -5.7825058411666283575 -6.8453760586357264017 8.782054665317373221 5.4219825053734913567 -7.0075007865408949215 20.268201662108324967 -2.9594262005860811904 9.5413053960562752565 -6.7028711499230180237 -1.8061743468455306871 -6.6758427574176870678 -12.684551103806418482 4.4149125700424551866 0.62759660812626572035 -8.412822337782092319 9.2868014390701532079 -3.0611110516127308934 2.9984268951349366539 -4.2199169717424540593 4.0087971995582778462 -3.4920128794886813317 7.5360289189416826972 -4.9182659531035257672 6.2579378513549883678 -15.450249126713158532 4.0783372427039985553 -3.6177105629386292485 15.079792555055618664 9.6034964671578624262 -2.2281006249366743788 -11.808350768529621178 -4.7677728036491524577 -3.7937106398633346771 9.7944322929445277737 3.7212477464733875188 8.8710156371105508555 -3.43461874662586375 -1.0359634101400991835 -0.83392803526362702105 7.763522184257691805;-0.28544631125965469476 0.10234009311701350309 -0.034359856959334314497 0.2062799736511035098 0.52959040122481515489 -0.14634595927294186124 0.20152524007990552102 -0.20697100970367410255 -0.22938293857096966888 0.27265629255898848893 0.026098901884967641573 -0.2315757086132290421 0.48132371349238328717 -0.40162847069967616553 -0.29276259402035503809 -0.32037474320245468151 2.4631313523683342481 -1.1673256452932285754 -0.77277759275138147022 0.53755610667309228212 -2.0149264857146671481 -0.92388014765562420649 -0.33776342825400007541 -0.36040192661794268059 -0.58036802940977760823 -0.41924010380167997525 0.37441136893361171012 -0.86677667393870549972 -0.83569336796588022942 -0.39598001134462557093 -1.3739888420020429649 -1.4106865670085686482 -0.35029426257313284188 -0.28401338640812123781 0.52823395146337970285 -0.22648811464172335928 0.32056823838012660222 0.061979606393103597872 -0.046613118638118969383 0.32909711163421595526 -0.28885747755318097463 0.05262384718666025113 0.10969850078550798245 -0.081873784710106367601 0.39526572511104879348 -0.70480975032735648789 1.0689996610637544361 -0.78036136404768785546 0.50826809454927590615 0.34139085154399589905 0.89088271126002116507 -0.18648733557210936396 -0.19147095717712950269 0.12089148097610014077 0.037529580041246735078 -0.092851546967006148847 0.16641391429603769048 -0.0024193374774816173156 0.16413536520157964715 0.074775734503430876798 -0.25562659774474677521 0.31110204794949408713 -0.23572245621996604226 0.19689254627446362012 0.39617976106833352468;-0.1122997946986157014 -0.063488064526846577085 0.059007748681717639427 -0.11875148721798871321 -0.084884658815066182935 0.0088327439568214663468 0.19938244590178583193 0.12110260415236769049 0.14639599786516147018 0.010639807568332604326 -0.022455169192113894755 0.099499009406075075712 -0.10877374004675685604 -0.14347154737412262659 0.10520064264710941859 -0.18298081371664887129 0.55649182361904259153 2.3903553588417274511 1.0476376713200163948 -0.34177202453201388499 -0.85024048920096728654 1.8276833632433731047 0.14014025813808170251 0.09724426481669669331 0.35653162377951469475 0.095029596294319534922 -1.2678683589946189159 -0.24112935407764513052 1.7344376727978405572 0.064636178596893273385 0.77419215737427626856 0.65620145540953800367 0.19927785073824758055 0.22493331097183888456 -0.23800232475632293605 0.24004815850016486545 -0.11077755812705435134 -0.01803398038243821111 -0.080031780355633283519 -0.065568976255493405247 0.039104357546102475052 0.03100673502193256395 0.20646266357489609367 -0.025205883353793458179 0.035262268403888331891 0.12364693295744733081 0.11496340173025526576 0.14026072336457456879 0.18021197015715886836 -0.020301821857680098227 -0.2506344919187082354 -0.32617828394463688202 -0.27286863456216703394 -0.16980978754832010136 0.046139964730125160308 0.14444262486487882691 0.062502291558278647021 -0.1977464021379103376 -0.025169179172124325067 0.10279417554173608806 -0.15634346655945569049 -0.25971975183064321957 -0.0093326838654857399713 -0.058331703537172291396 -0.2692111089018353054;3.7736721577439089614 -10.40050480152329726 -7.1313639346010813114 2.8097848075547382507 -7.6202418198901531454 -0.25616371802601273222 5.3825769344234295488 4.4179174777469549795 4.3305437912092568098 7.142677373549555675 -6.1040523498524974499 8.3651894598795735192 8.7312639922259922542 -8.3282708428733460693 0.8242425790422891474 6.1078517313807392242 -2.8649101689446654362 6.9780689619455245065 -15.604544722302723159 -8.0945294859518757136 2.6226302841341286864 -5.3834282755846354362 -1.550544309126307585 -3.0074350869462187497 4.011433064762884193 -6.5868175563708080134 16.280342538543568054 0.8583057675205164605 -2.3382433562398845517 2.5164182717550076518 0.40289280084007289551 0.68088818528546179998 -0.21655143624171535599 7.2776100196728261693 -4.6582170003822263027 1.7106170745643711761 -5.1381306821497725323 -0.99473147468329037313 6.2867591307059109695 1.998838581458704633 6.7652870560841336101 -1.8165808867379447111 4.1845214949293199069 -7.5634705670973536584 -3.0130167418108926292 10.795192571056890785 5.336629984513706404 5.3825942570220028927 -3.1420177991444888654 -7.9360553878931563432 0.48400767797133270598 8.7306750409335958096 -4.7110719952612303274 -5.9082775629801140838 10.062025105322796037 5.4437081924639736386 2.5889038428206565534 -10.136116827907789784 -7.0990066761916112981 -1.6984407189104966385 0.925097762333479956 -3.252849886442274574 -0.39002349327790758471 -1.2417484041914454984 -4.1737400119972303258;-3.989172337063160434 1.7336844983792019104 4.9436399458283446506 -8.0647728718848448182 -8.7759144187933610937 0.83315898038404512249 -4.6114131735770973464 5.4694063174373921399 -0.37293250238595487822 6.5658372578468551239 2.3435606749037969365 3.956487410933714699 18.120786958256250188 9.8521789671818797984 4.461032213539491309 -5.891562920570021511 2.0358058798122358191 7.221458873679642565 10.748471578657046166 3.4360249231016246618 -4.2335943832100628725 -6.5223066251919306069 5.6968946972985463617 -8.7897401911893897619 -4.547738076055748202 2.0277386575552518444 -24.168106279714482554 -11.128330981356816309 -10.120842977683963682 11.414248134387909417 0.56596945489417394004 -1.3830876305753563305 -0.3625790829747423949 4.9024392188774692514 1.9011852796826629319 -8.9146566007807592769 4.1100212464045808858 8.5894018726223286819 0.89834192373952459487 -4.4251628506551217157 0.78543780162191068062 -1.531894045623007683 1.3074021047613582081 4.0483720733621142429 3.125761177332418761 -1.832644770667598122 -5.2074673164749647469 4.5926121336201877199 0.035671904868057421889 1.1329998565480838835 4.4496783601742411207 -8.3359591402869366306 2.9402243377258598933 6.6900054645597375469 1.0534612493646000608 6.3719220850336437678 6.9101150396503792095 10.951690525199001769 -8.9478900786342361329 3.0720115584884779558 -8.2262922165698881827 0.9406924516189917318 -2.5949342764510983095 -9.366154765602390242 0.72921756603069054492;-6.9812437351575695743 -14.272307577109858201 2.9080780559133505569 1.6177717391428951821 -0.62019444774573251333 -7.8217275045029248659 -6.5184527008635493317 -1.3055349127923148167 7.7814101878066939122 0.47657447112604772732 5.1695025746900320485 6.3419832175899095716 -1.2140243424536805161 6.4394080338535832908 4.3875100506315796167 4.8129175336767726634 10.145513199841182939 13.429651044514590907 1.433504514243906014 -6.2210692613137599238 -1.612952617173952774 4.788076888842549117 -5.7658845008319481451 1.3599773393349667838 1.6095187508710659952 -7.3054242453841533589 -8.5069784715522303031 -8.7290952559586489912 -13.315554030215865922 -3.7750069536709887075 -0.73618987709822358845 -2.9110081372593441529 -5.0865321275733839101 1.7883003900902025851 0.19897662992933465298 -5.1094070413073069403 2.09948839999878345 -0.029387466837127448199 -0.2983651783731582352 -7.6009722487523321277 4.7883538299052004206 6.4768429110703102936 1.2747785828893585247 -0.42314978086375176769 1.4360750583533472557 8.563911066252501314 2.6561234057023264121 -2.6569814207505073611 5.6055730733401620824 -4.5337357517283809472 4.0764500358489481613 -4.7807126373944317521 4.5690083782140442636 -2.1579875614541044193 10.336999404550846648 -6.1915281412981935105 -4.4465887759420645864 4.5724524705543343472 4.7937887728091563844 9.9415810447808183881 -3.1526793599944373803 -2.3138447339936418778 -6.366443574753361645 -3.8544140283821892723 -2.6594185779336987352;12.097085094333198896 2.0635790990575682002 0.26586963127101498339 1.1801172111553372979 2.6510534824071863014 -6.4021083199950581388 -11.697184675237014773 2.4310147799213952524 10.523300116973715035 -2.7926434591411957165 6.4610160779715180013 8.5042521075974821798 12.985640123882474128 -11.939273374882068524 6.2183800243959437282 -11.935145198933902577 17.373774996779179247 2.9577684530786956252 12.570138858635312218 13.955775093054416658 -4.8853729600751032436 -10.413387929205626392 -14.395894327405901691 13.137284003866225746 -0.1883765654357989483 -5.1039478326891627447 4.9739296992353763116 -2.1281991501202615069 -10.601013679190225858 -8.870423133404131022 1.3445433793190879612 -8.2716450409803066179 17.436211704412951207 -8.9263342131900458298 7.9916886429559594873 3.581684286505320447 3.1444079825618858059 -3.3968201383103422408 -15.52732636831244406 5.4823470945147905198 -11.715341109820185395 -2.5522263229481874092 -0.22158644501476926214 2.304335798507287425 -4.4481127660923709399 -1.7903557111043173489 2.4260269577783999395 6.4500389933931181474 -0.54313887797387772061 5.4961730481453958674 -2.0087392321486339242 -2.4679586973767078106 3.8870581740529264181 -9.1120120403174773571 0.40851503431618885198 4.7669668285734401181 7.6548318262083139274 2.1857063635370339583 -11.780060311111453686 8.2598954731447964406 -13.567695976780951739 -4.9195194343102599532 -4.5907956556416777971 -1.3271492483984341781 6.0253628718986993462;4.0374979824940417927 -0.23363510082805827306 1.3207733106334105244 -0.71377736762931087711 -2.2087990526381675593 1.0867490856300534574 1.9169116099674232689 -0.12184072622188439616 -2.7057189852587875123 -0.42726322777554531784 2.3741479668503551181 2.2736123652013184859 5.2412507613409582419 -0.88456251040136368857 4.8754006065865969077 -0.62383007459393358118 -13.176192656749940113 1.8794561883440235039 -8.2863722186402597458 2.2020236389192584525 -6.7927927748420113829 9.8602192125750356411 -1.9918646195757767625 5.5180338592668585207 1.8698301406950028625 -6.2127030768648285886 -5.5422181218348214315 17.08590554052412358 7.3294874043239470751 -7.8142344286739886527 2.7907966942351229989 -2.6675041023973427023 0.6864725788838055287 -4.0611383348310665653 0.22216257164896230369 -1.291680627396325276 -1.5282401396897455914 1.4345052254555616944 -1.159971793435396803 1.4066110967711809021 -0.70668867938242685423 -0.81521394441890515647 -0.11083952423666437737 3.4729581307677213076 0.87756724364338911659 -1.8088803132776711813 2.0543060187185395726 -0.93942900177202304235 -2.734971791043515843 1.4039983148010060088 2.0596158617839108729 -0.49761830387764421912 -0.26605851349471343337 1.07000380774824011 1.0922527513088113871 -1.4387088121290345644 -4.0547536356936086932 -0.79684878126151192923 -0.24479220425770978342 -2.7195776186086595416 0.31769455858010076099 -2.0481550929438538944 0.10935717789529619814 1.4601502600214508742 1.1551722749077995012;5.4402739592138953384 -2.7013923699886563945 -0.41559093021029991366 -4.5176583606697890971 -6.5012662013932605021 0.61550204269021413506 3.6456585958580620677 -7.5651619511726027056 2.4534935256719392349 -5.8770291473173212893 3.0676414448445594729 -0.71528839341283956266 2.1101541062139546057 -9.408725090186207396 -3.8751275427287819042 4.0408589767593277031 10.157400190380535321 4.386936263310420081 -1.837577583853548191 2.9141059684233763249 -2.2060342815906648362 -3.7292218374942347481 -4.3901806005783523545 14.894988579549879759 -10.101815962542765703 -5.2800603515870481175 3.272172991090342542 0.86447151272278877077 -2.3207814090540335172 -3.754448859422882645 -0.55380708011788593037 -2.9163462634217935943 3.0620386360101075063 -1.0941994568499757712 -1.5283947282422416514 1.3150217512094659611 3.6581371339794928055 1.6691839853217418366 0.37266881754966107998 5.3413111195466944636 -3.9570684040758066224 -2.2480064458367188251 -1.6437991731573893261 1.6327756824988539641 -3.0504040632811202371 -3.4223847132953673089 -3.5621756225737843948 10.65756614719570905 5.6447357802404525273 -4.036030800378437533 -1.538019490406881129 -1.3471102126258642784 -3.8277493408498957095 2.9460557933870616942 -0.42855989507685920969 1.1840584882923967935 -6.2714946245174454376 4.3560332714995260162 6.1035661657386564016 6.2384907734058430151 -1.8005146746832705329 -3.5589891599466882965 0.02656536273900575798 0.61358478161857887834 0.47332467932341154571;-0.085413836007323301613 0.15509152849408897046 -0.14920878666240688926 -0.083215542673762826764 0.24909505395284259333 -0.10431664276662580559 0.22172783531545747771 -0.026772636011958617086 0.21549409232714952789 0.44420789191322695988 0.17880422831635475744 0.1941774560095412272 0.094628907546822113583 -1.0104717048134592705 0.28755407818717237944 0.3394918019996292502 -0.57990458194688432325 -0.90018018046865067028 -0.33947743104629801714 0.38594150851388686618 -0.27801640613296296767 0.91124147444068415158 0.19568964491937634875 0.78387788381544731831 -0.031790048608283466569 0.067194836489441522875 0.13046962758960012341 -0.0085194445099436577618 0.76810873913964561321 0.056581118908376096255 -0.066590466789688607108 0.040805292100993768856 -0.080700017516055322364 -0.027839492232974577535 -0.090996519888540433607 0.20965059330470967036 -0.20352797179460835331 -0.011054202851685630826 0.069507556646656420973 -0.12172710172794537486 0.098653986246420688477 -0.052178456053807081849 0.22154838506395713171 -0.096295040300362177987 0.1756519564556833779 0.17875253600462759351 -0.020181356797751431875 0.056518834302306433792 0.39320168886078277204 0.26097873889096656619 -0.18188314563826668557 -0.25935754369372687744 -0.016574899979335946248 -0.3006099821762784341 -0.40110478391313486579 0.057098868602479632695 0.068527391783233568279 -0.032916142350774592329 0.020915396743219068915 0.35745288160724669746 -0.16504984073692724467 -0.19672488149830286153 -0.068550319078679866625 0.0080784403742447524754 -0.20058865274553153157;-9.914543682080781295 -10.069751761716103644 6.4873012392118951652 6.3528459231528469076 -9.8020641097819840581 -0.20264988976241618546 5.6728262238088627001 -1.4309785467219846566 5.3343292484231863426 2.9517626627052027111 7.3277476898114768389 -2.6373584008097257225 0.65743959636127091706 1.5126918861211879896 -10.396520526607071488 5.0224986379787708302 -3.5717670201479094771 -6.9377132719229717139 20.795340672539879279 -6.4551661843368224325 -5.9811102061104133298 2.6962606889515021713 -5.0309730074894698504 0.069658339858519102705 -4.4676962100952772872 5.1958676814926478826 22.357788685586466926 12.37264552116606886 -6.5081831070368103553 5.097966252673866272 5.6700439658881229832 6.9186023571115891073 -5.3727700240011326827 -9.0265431744866901909 10.260500249554908692 -1.2000564595534799484 -3.5252616291389196057 -2.9119905024626464574 0.20965237664360433789 5.1268900490415392213 -5.3194566629135922042 3.5379210894110477703 10.684622806655337257 -2.9552616232051645007 -1.3292091967610091263 0.069408117846364414394 3.3339752562709281669 -7.5453687439929968406 -1.6550617285987119232 3.1727640278102540172 0.91728310164116799719 -3.0806023078299245022 -3.0375343754263068874 -8.0427112212892719612 4.5243353994248360905 2.8685006463625613016 -0.23413977541787686643 9.2102730765011688874 1.5692791174726206105 0.27182070781278666605 -5.0376876267218593242 -11.574454515227683871 -10.135301793558650019 -0.10740837604512373793 -3.8721724366495982039;7.9731285877303532672 -14.711169571086253782 10.770713373323062001 3.6944242679106458205 6.2334354354071210835 1.8017601394238704771 7.3224233980787296616 5.5509445370493102345 -2.4390179668031430893 -11.536222946020549429 15.877399683187153556 -0.67675174909191793127 -16.410209062780431566 -0.80563741367330976573 3.9974776376695966285 1.6887546082192084196 3.7762420794095676868 5.7315460797171029483 -4.869957136258983077 1.7119002492097632473 5.3442884559695649216 8.9408666586791838427 6.8191840317987146847 -4.5670314562459290997 5.1841286617337312137 20.757174202734617552 -2.0893478992998781862 4.545616221791527245 -37.263909753080930898 -7.8195455960462387779 -9.0071844947916694935 -4.3154311000223666284 4.1197848849717066955 6.2541080218843019267 -9.3379942510974078829 1.4877107112066252359 -13.945641618365975489 5.1505803927983278001 -2.0082343245608922366 -9.7559091060375990878 0.39503599402175587629 -16.91554874325090907 1.9977649997463540199 9.343466401595087234 2.4429338808072644795 -3.4924203787663921084 -7.2230142387772779955 1.6375865895690542295 7.1970165580693183927 -1.7102513707913593599 -0.34558037728497109642 -3.9638272615204828142 -1.6911679009710955945 -14.619752461550913125 -5.9376042560472646059 -0.34839351625869674489 3.3868115517594423736 -1.3488356641415732984 -5.7233653572686407074 5.4383293688690699241 11.351907408746708228 5.3914743911405755838 -6.4520836803283314609 6.1610059979024152099 7.1576513427447068239;-0.066118944457262282532 0.16538413964662240785 -0.044270420725498235703 -0.15467932686143764931 0.00079720573921016751884 -0.19027629142490995462 0.12395219714199415262 0.039795201498908271132 0.067345894030355818449 0.2665605773998026562 -0.038357916766173325018 -0.0032429156700157085735 0.017858713308258056252 0.32702959975967638151 0.005588513894068433685 -0.6985791564407919374 -1.4087768225037748948 -0.73245457890148646385 0.61204408352154793249 -0.86062821382835730244 -0.11750214438242342907 -0.3306535974634803865 2.1449918935579392887 2.1195404024025559231 1.3901127487299245189 -0.67138493311381508555 1.0698217482416951807 0.25440649263951231607 -0.032912348618282183388 -1.1365216456182292148 -0.0015710837339257543999 0.57632401936054122871 0.072906776807146245201 0.25566481530319506987 -0.09817516622562086348 0.061440309250121130646 -0.27099365850878770479 0.048832338879148111388 0.046658749488107179038 -0.38454447508628653019 0.13007265214009683385 0.060531786378104704416 0.21207983965646443059 -0.26265070714311966604 0.069077880992824886031 -0.034523505839719567656 0.080614278752161275254 -0.48097455127005417364 0.90803613124815141244 0.17366402763433647083 -0.67091121582054824568 0.13967454086544900393 -0.11377476364531037556 -0.074173581580565903226 0.23066970903258798842 -0.066323928122820535735 -0.20188330368613061072 0.1776950526325631885 0.047603711494367956236 -0.052871762932371134391 -0.11456248609945125783 -0.17925746885371141026 0.10006227183762983479 -0.16282346912523137927 -0.071687448423240929252];

% Layer 2
b2 = -0.018217926896386925362;
LW2_1 = [0.099033191631380496078 -0.00041338392424907128859 0.004258179564523317806 -0.00028253762805833198104 0.00518318588939082215 -0.17831664508246616863 0.00019958805196724257579 -0.23185394988343038802 -0.1126302748633049855 0.1961643338045680196 0.0018803442637982635544 0.001011003284413726196 0.0035323865803002433943 0.00080855942982084550927 0.087104774305069992968 -0.017188181142796063461 -0.0032440067378050139318 -0.0036163990111439266693 -0.02017792338665212043 -0.09563973066013986557 -0.31450336766099151742 0.0052676835644592879052 -0.00038099048370414352127 -0.11815876542053789511 -0.14224277942412694165 0.00018689378847618743186 -0.0021622450627398828726 0.00039346811984382849955 0.0015080091740575706991 -0.0080478818269338319585 -0.0031352510214872402958 0.12478099838722614412 0.0007651021661386268706 0.0031036010603596288562 0.1238112601698702353];

% Output 1
y1_step1.ymin = -1;
y1_step1.gain = 0.12160249034541;
y1_step1.xoffset = 17.272947263551;

% ===== SIMULATION ========

% Format Input Arguments
isCellX = iscell(X);
if ~isCellX
    X = {X};
end

% Dimensions
TS = size(X,2); % timesteps
if ~isempty(X)
    Q = size(X{1},2); % samples/series
else
    Q = 0;
end

% Allocate Outputs
Y = cell(1,TS);

% Time loop
for ts=1:TS
    
    % Input 1
    Xp1 = mapminmax_apply(X{1,ts},x1_step1);
    
    % Layer 1
    a1 = tansig_apply(repmat(b1,1,Q) + IW1_1*Xp1);
    
    % Layer 2
    a2 = repmat(b2,1,Q) + LW2_1*a1;
    
    % Output 1
    Y{1,ts} = mapminmax_reverse(a2,y1_step1);
end

% Final Delay States
Xf = cell(1,0);
Af = cell(2,0);

% Format Output Arguments
if ~isCellX
    Y = cell2mat(Y);
end
end

% ===== MODULE FUNCTIONS ========

% Map Minimum and Maximum Input Processing Function
function y = mapminmax_apply(x,settings)
y = bsxfun(@minus,x,settings.xoffset);
y = bsxfun(@times,y,settings.gain);
y = bsxfun(@plus,y,settings.ymin);
end

% Sigmoid Symmetric Transfer Function
function a = tansig_apply(n,~)
a = 2 ./ (1 + exp(-2*n)) - 1;
end

% Map Minimum and Maximum Output Reverse-Processing Function
function x = mapminmax_reverse(y,settings)
x = bsxfun(@minus,y,settings.ymin);
x = bsxfun(@rdivide,x,settings.gain);
x = bsxfun(@plus,x,settings.xoffset);
end
