function [Y,Xf,Af] = NN2_stage1_10MHz_70HN(X,~,~)
%MYNEURALNETWORKFUNCTION neural network simulation function.
% 70 Hidden neurons
% Auto-generated by MATLAB, 02-Mar-2019 16:16:37.
%
% [Y] = myNeuralNetworkFunction(X,~,~) takes these arguments:
%
%   X = 1xTS cell, 1 inputs over TS timesteps
%   Each X{1,ts} = 65xQ matrix, input #1 at timestep ts.
%
% and returns:
%   Y = 1xTS cell of 1 outputs over TS timesteps.
%   Each Y{1,ts} = 65xQ matrix, output #1 at timestep ts.
%
% where Q is number of samples (or series) and TS is the number of timesteps.

%#ok<*RPMT0>

% ===== NEURAL NETWORK CONSTANTS =====

% Input 1
x1_step1.xoffset = [0.000509433732394031;0.00260013234473388;0.00278175111223998;0.00395161049046376;0.00474100265772206;0.00720363974512518;0.0141777643423921;0.0115252846144844;0.00801635457360236;0.0105045704187461;0.0113057862418695;0.00071695610097194;0.00206935253523076;0.00267822732403354;0.00396047885311086;0.000494569644603305;0.000206438379470626;0.00195572176286487;0.0035395803087227;0.00884449562886936;0.0113450153260185;0.0327547587811985;0.00905236565579563;0.0998790750011642;0.0982495767675297;0.19653136051453;0.309846783493348;0.424387479628529;0.423757692012001;0.405497617719866;0.37954053579639;0.347392436524727;0.311708213650781;0.274732798295329;0.237609907782277;0.201584013157116;0.17413868648167;0.171158936309819;0.203482102548554;0.258678617690526;0.226090439823729;0.1236906958312;0.0186982208962464;0.018820107603093;0.0218827167242467;0.00470239098495511;0.00281035848123252;0.00251321645274149;0.00177081887854859;0.0012975593334922;0.00442552694566734;0.00792301832200107;0.00179700674551607;0.00699050341479136;0.00982723690229751;0.0101176524846703;0.00704906936278192;0.00545550874490138;0.00858543136954484;0.00954368830673902;0.00436759317737866;0.0049231467793286;0.0014296237307155;0.000364102512257636;0.000624160211030464];
x1_step1.gain = [3.59743177253719;3.20295614803459;2.8934431426542;2.67364548637995;2.52137787538613;2.3894617973941;2.25040505158604;2.13241150959101;2.05472162013786;2.02968612101011;2.04075444220536;2.01122001060012;2.02410721521979;2.02683320583678;2.04868562937025;2.060361780004;2.03270023833894;2.01611022092728;2.01636926730083;2.03824916905911;2.05609523925719;2.11692247529864;2.08001996152704;2.30567263386633;2.31182491488189;2.57766518473827;2.97526813320222;3.54949936815187;3.52282913083577;3.38887108397501;3.23284642203632;3.06463005930824;2.90574439455138;2.75760565354494;2.6311827747954;2.5214828466097;2.43698789541342;2.41601898494622;2.52288412396299;2.73667654540798;2.6204645239526;2.3093907686933;2.05999329720276;2.06374035455503;2.07878470683818;2.05732820343116;2.03696072348134;2.03137349599676;2.02622278776957;2.01173197920578;2.03089170355278;2.06645462927698;2.03563713061174;2.06214532002396;2.0756628404772;2.10929046775787;2.11313244735011;2.1638540189908;2.28296031390727;2.45587393322866;2.66673273569071;2.79711394473344;2.77033965028156;2.79740543962456;2.89336832714052];
x1_step1.ymin = -1;

% Layer 1
b1 = [-1.673137960251827705;-0.26465470103889571218;1.8904364026464990367;-1.262809287734542929;-2.0164287775339766462;3.5055759179710301865;1.5751557880600317585;-0.42518294747090878971;-0.28798972841032649539;-1.239141313318287807;2.0217967133650969203;-1.3024669670202917438;-1.1523293270365979613;1.1819909407261817158;-2.5788656036380364078;1.5523851879611372251;2.7107845325557478056;-1.1999828153955818255;-2.1711731298222645137;-1.4294900796283309674;-1.6642423211604457922;1.0734003228043984546;-0.63491669689636898166;-1.3575233590619557589;0.11064454439552977305;-0.55348419922007086047;-0.017082023018319646146;1.3172984419668030132;1.2864765392509396325;0.48142596100992024466;0.31460289512055539252;1.3548032137459187219;-0.87134694895843833873;-0.12112231450745473971;1.2169483793991362486;-3.0366995946873327483;0.032686303995265481026;-0.07469421913218660114;1.2743644351802503323;2.1044166452158274971;-1.6428260549220587983;-0.57236363292389280666;0.43845792593303301032;0.40900760864883412005;2.2108151050885469502;-0.56722209934657352726;-1.7752125650767940357;1.4476768927144485488;0.23924233669238195721;0.62463335098892192043;-0.90820613193096377813;0.7529455226211777541;0.96072175469420928451;-1.7481679353607764149;-0.36072602097526473841;-1.2392014217841320622;1.2840201862178191039;-1.3769844692660562213;2.1048329386891801995;-0.41354941025600511217;1.4172139679765738407;-1.5015289115046279722;1.2468880054924853518;1.5631259744290990632;2.8110316574386335908;1.2884685072557684471;1.2181384804532440214;-1.6879406804358225713;-1.8725354428648623983;-1.7040330201365829765];
IW1_1 = [-0.077663989938766483934 -0.017514095160517773042 0.33197626272914171341 0.1103844785139171808 -0.032663910937716977845 0.08090364099436080092 0.32406570686105695689 0.087964941066905541489 0.21753633465428609539 0.049885947130842510366 -0.22208320432566866498 -0.15161189973171079748 -0.41330862959271008616 -0.21685718316129312666 0.27604147584633359491 0.41758344089289178847 -0.17352415057657896713 0.12461240406362547595 0.073213655263786994731 -0.22971297403429610795 -0.5757835818399579253 -0.46500466992772820918 -0.16947685357562614072 -0.52448588808327711863 -0.1156467693702750571 0.13931115372212932169 0.20935001889960214161 0.2064151764520174015 0.01394335460276160954 0.20984177441538146014 0.13726106684758998533 0.0083055704607249147831 -0.45940376959270812218 -0.60011131038729359499 -0.33690520996455564084 0.033892155172047390421 0.15696919085268459804 -0.19828574103141222151 0.34440275817258503288 -0.15798243236377940146 -0.021041520421044623834 -0.011807485353071439649 0.057793573243066130585 0.41175236453409425064 0.21056531022990201962 0.21255088146157713469 -0.54301685831330415155 -0.51081003856239415306 -0.25194704156723368715 0.34154133468730979439 0.21472138530147058533 -0.16068815110590939366 0.044722784122934150508 -0.21141780525904901866 -0.43236724629202039072 0.090271971594703168118 -0.0053584978303290904667 0.2190474607053825018 0.32333896567701703173 0.033805240191724504617 -0.28134225026212972276 0.22283563077914958495 -0.1001683817331477655 -0.22416639086435893868 0.18094534258290317918;-0.65214466639154256011 0.21190809395170526197 0.32097806986028193377 0.17467510366728103421 0.20677446798206594591 -0.092911087007195164444 -0.23737783425237243828 -0.018635015506363091647 -0.032604088333406812394 -0.20338964371698703415 -0.084823850709640769008 -0.3487210858476054165 0.27628919440512156314 0.23828681230635773147 0.56797015180020238301 0.44180318675536695006 0.22993083013087262101 0.43903321055708471876 0.18629320872332108538 0.28410390122144818514 0.054883087270162334015 0.04533419591010675459 0.12431315698756489896 -0.07670337663551970997 0.10345069844995311015 -0.16356771269737774288 0.31692271404160288206 -0.03963203572111281825 0.49138092581931980263 0.12431592806057099876 -0.14998054801759252985 -0.027924714526820767352 -0.094542904152587425859 0.071740849854938573693 -0.40654865126143402421 -0.22612593971908634405 -0.27484298717309874061 0.046369046584627371388 -0.0084287478805253127079 0.061459263756652268706 0.010232270122079509603 0.052629890738757900692 0.091904199650579471159 0.08927593188518123668 0.056854718388507662075 0.043056473556142060843 -0.21231029014685964817 -0.40347663931723076747 -0.31238378018965312632 0.0048642059659929279269 -0.21497389925931420507 -0.11174620494912632096 -0.42383104044181774128 -0.023018680181056915685 0.25743892980736171605 -0.076276597765826015252 0.047742380113796271945 0.32180265868086288528 -0.36186488591811455384 0.043953104386114973112 -0.16427429696739795362 -0.057168757904116213053 -0.021416345483364039592 -0.00215712510409965183 -0.4828771912079845019;-0.37850100832761951475 0.14061488211366768297 -0.14709311690888809965 -0.14552238440535952835 -0.28841490289300547589 -0.16062663510665725619 -0.44236713868818083872 0.098165503348685678731 0.26389223630578184654 0.33324258527358457949 -0.036110474211862343685 -0.23447019426758661242 -0.05594053491063666339 -0.085450896896421046911 -0.10059871677954845826 0.5674160798380092352 0.10738516317545937495 0.21958290622055087749 0.23193848106881123639 -0.080317405988068274469 0.36919828378159702531 0.19831047419702116374 0.26341855415277776187 0.41038607791330750096 0.42319273242891330966 -0.17527867704577584917 -0.13759504141266787336 -0.14575886055154838039 -0.14788802553287105912 -0.057385131040159541305 0.098235465845071950897 -0.11989761260679197841 0.24886683738748663353 0.33383783213788442712 0.09534434547238529456 -0.042850456787547661075 -0.06717147001077664048 -0.15596583100877906003 0.078048456851393041567 -0.064333283813755068326 0.12192724814712076198 -0.34448482560885640424 0.16648073181004260923 -0.39144283936082768793 -0.0026154992691150300357 0.6253391881639260852 -0.056966224879458793318 0.23761494829205181967 0.12234970499626690588 0.039326024814004476027 -0.16330279140811349015 -0.067011508489660337462 -0.16998791889147346623 0.14397240055741578058 0.1477104677625272755 0.011519165637287026582 -0.0038503481601982678106 -0.18041397480332851955 -0.065126884260200051946 -0.18044394332948254789 -0.040041179554202034618 0.16691041709079432187 0.16019919835275131526 -0.19947713867957983513 -0.26220124399436661733;0.14709431469024042416 -0.47631192401435967776 0.20921965592806415768 -0.21906775023573626937 0.23143597069689345047 0.14287349152541789499 -0.0741748323901181561 -0.25373479074470178807 -0.28809003292445639621 -0.036745861281631361783 0.11883747561035420959 0.22572152781216620054 -0.10938054983227554762 -0.32479267458837057791 -0.070081777541162071365 0.14256442846664285629 0.50557094914250955142 -0.041107800870761726508 -0.15015406357429575412 -0.021122695660285635555 -0.30770339808243502011 -0.13143558268272470535 -0.16612932558088416846 0.18590135697054430142 0.14911553108268446599 0.01610289877414067955 0.071126159574925046369 0.010775690625805989589 -0.033626726288015933164 -0.0768287030876877719 0.13593625046848625826 -0.11757587523426843434 0.14340581423149736939 -0.52906384594345601258 -0.17307281536452381876 -0.078739132004622680583 0.26798797358611875508 0.17543424237414126376 0.27716517445739835557 -0.27713973852737477932 -0.09313210818018886894 -0.089700446211450748923 0.064863619179245129986 0.14661281847642826381 0.51623983154039820853 -0.56625212134058489077 -0.31749525673612538634 -0.019850338079022741833 0.19289619605483043774 0.47406420694141060412 -0.10765123341561011472 -0.0038073659755117061909 -0.061782264940467963854 -0.14291650551303930472 0.048415488743235542135 0.2050176119890885218 0.15956800791729405797 0.34873460858836741183 0.020241963240488058257 -0.11003602877544416128 -0.23137964378476269522 -0.12021773045435853178 -0.069430379319913776426 0.073769124765160454249 0.21929793814378395478;0.0073610111301432717967 -0.1338799462048335942 -0.60644791962661415141 -0.038980054016745931122 0.22033786692213142011 0.27665554382468537931 0.030815873255149558302 0.4350698976501966575 0.59301232758318844773 0.10424089563743686726 0.0088915538696904827809 0.20050661863458602019 0.19945261787302598355 0.088824692590166037798 0.018855973657617087352 0.079906789805884073652 -0.18313228544694812316 -0.02949875187971282009 -0.26667095260403078649 -0.63665373654759827016 -0.41221479470943767076 0.5093374778027069949 0.32804698322389613807 -0.035145571031047109778 -0.066417082381842185157 0.19009715069922888953 0.17478181042485746444 -0.16972488712851055426 -0.2005791050985466506 0.16851127834898396718 0.057405679365826467464 -0.17932330729286852233 0.19128529499037627559 -0.057453432344008195654 -0.3333561349986077782 -0.39007488319104666186 -0.35053149588912208001 0.017455437301752536883 0.047362681554322813571 0.22705812115494944381 -0.10468547563349134277 0.21423700266899711742 0.3847000851220232498 0.2429584081178285393 -0.019717444567104731867 -0.5504738358655889563 -0.48761398275276568448 -0.0097275683382514032543 -0.016057877761335180578 -0.078257128638378331553 0.16092365252118651098 0.22762680063769152872 -0.3868288324252558974 0.287540716779760952 0.070444841497452920231 0.17321881360102636682 0.34565483318232015364 -0.34385809059426408751 -0.32320059553787061635 -0.50954164673793567175 0.41656920843430628176 0.12246185699165157423 -0.10628315165300145084 0.05993338651310373133 -0.17808010614252639536;0.66975591185315019871 -0.32971518492936285893 0.42904491949176221111 0.50516653803453603899 -0.75375083867375036739 -0.70036337278950944185 -0.54316514189779740995 -0.15828009916234078713 -0.12893539051166930109 -0.3517905278037320449 0.010475917160411518658 0.62026626187573863369 0.50894795469169085145 0.67531303646887752556 0.86976041522232283576 0.6673185192258318521 0.02280362392243175107 -1.1730106709658136843 0.030311800675636185742 -0.24546480675877535571 1.2253982557918681184 0.56531224185693396134 0.042386015049038862357 0.033544261487158888446 0.23308561320485518542 -0.064445007197450859815 -0.19763230628442099435 -0.59942813446256093535 0.38873387347720822493 0.55241151311209957253 0.54504034027140302321 0.048850791686529206059 -0.81697572304614707317 -0.51832364311149459191 -0.74961886974841274167 0.0085192216382107693873 0.33448673042558080271 0.71312497922917172932 0.65493261473243014059 -0.69590182570975656073 -0.87874295043119721171 -0.040720939071996711811 0.49408600009222669591 1.0580515213085159854 0.0733359725651419464 -0.83668274008130905095 -0.40307024790266321457 0.37004523238643505234 0.17006590946040778256 1.7056956972681396323 0.014120317200098611576 -0.94085634696647946207 0.018887131121185618543 -0.053227122877152879821 -0.045256701643767396903 0.097066863413831555585 -0.12493070063775151002 -0.68517921833368644613 0.56738654305434765845 1.4929255607272224893 0.29172826802018592129 -1.1070983399800931046 0.062615004212303537745 -0.69657408570459722341 1.1163205617098574951;0.19349000163526125506 0.018982038634045378389 -0.09063181420122351506 -0.096728723757701973174 0.34115459456241287173 0.006817324921621945033 0.0042679208302272772513 0.026504115136594705998 -0.1253710617285967166 -0.16850368115548136627 -0.21666698388712404832 0.038221759786923478752 0.055071032174117670599 0.17997915217038887303 0.18379209777610178156 -0.04141157695034854147 -0.35096425779073436857 -0.13254958466964375519 0.16582929514254182712 0.15985089349899825328 0.032069107645384467564 -0.1660929220891938507 0.052263641878120742357 0.072588486558062798037 0.10223853442708266681 -0.20602032689457239201 -0.10360238783236178084 0.075070667792625001002 -0.29525810916528555383 -0.21762775725850683206 0.23571980624079097444 0.065796621142092531764 0.2728379571054450059 0.0052015933928544755283 0.3801453175082980529 -0.085284302678382217788 -0.11934407862056553573 0.18882145927223961679 0.15755775926934029174 -0.23798054275709418226 -0.055475284694766854865 -0.26010013279651428286 -0.029657198693036453813 -0.020065401143337876361 0.15909518836858618784 0.12156054963413273629 0.098664552457799731267 -0.032056055370943206673 -0.12843258998247505942 0.47342672330321516894 0.19769557970306200767 -0.07383590438663961697 0.16288801242893277688 -0.15918490268118942743 -0.15398644380922546504 -0.047889622072032442257 0.074039384263646840223 -0.0066037678096745218437 0.20261095528583461522 0.13607834841000407411 -0.29216511796789162991 0.06683447404657032187 -0.049144930610303824703 -0.0058933266157484634484 0.13885985824872409955;-0.69873439223267186371 0.087676176856935100767 0.4250820720880279513 0.0058934840789718057064 0.34730576463966050804 -0.27747709400601539009 -0.095300713088146582486 0.1172542429909990136 0.17537278099013126065 0.093721582285142435165 -0.22226457474132899073 -0.44493358148792222506 -0.22309447493418335662 0.17250463168127491698 0.88296277539350098706 0.66302134881563157265 0.41089836539137575278 0.44900124800594870544 0.061183796101258097755 0.47430298445485130632 0.085656491585259064703 0.034420951623583176393 0.34336918440371450023 -0.2364183356752637688 -0.42844448211162428075 0.21080167392037191254 0.070186773840395635937 0.41969188543391466872 0.39997300269813862439 0.2269935062624068578 -0.011515108942517456037 -0.28546909223462618721 -0.44612718619015867549 -0.082384227147315691742 -0.10181000911637050343 -0.15112280690457324805 0.23193671841135315992 -0.3720246736701999235 -0.41742847549295591936 0.038350404438461729861 0.29784836780923790167 0.29758575317065144583 0.2902306475033267219 -0.14433581967541977975 -0.013767086603973487102 0.008551292435670735867 -0.26506547597070673206 -0.30058454383909316565 -0.42003716896052967211 -0.31885823138944413557 0.26481106756189304319 -0.7550108682287242079 0.076153437422164821369 -0.11127115382301072666 0.17601233727794457495 -0.2206605767991159095 0.35863211953364876328 0.15790811181484426529 0.13797133793076032937 -0.55973312564665111957 -0.13952405045400598227 -0.14345177374714451757 -0.022340694724917932457 0.072313707524205100841 -0.60538612706408478914;-0.76376696833022195143 0.24290554490488480699 0.14251478204887693679 0.55610517170474094151 0.26872504855693085668 -0.30709513185371645205 -0.300908994399948726 -0.12599779672480834747 0.23569762865074553315 0.14271684310670176843 -0.26847133400752626331 -0.25028006293274013272 -0.24237338782854672692 0.033744777602353684398 0.99200720025477984176 0.68954105216142147494 0.5060434054690229333 0.34299631598384661135 -0.097222014668857908992 0.48289617337235524186 0.50717727527891576234 0.012686362605850154406 -0.20521574792727803604 0.052778057349701396062 -0.28984321324669104492 -0.30004112976615776587 0.1027733521452810217 0.62987619117504256572 0.53236291533908197682 0.37065626825412040235 0.028268542858403973572 -0.22904762794833238848 -0.67789574615695369353 -0.63825151212700614867 -0.29546912631953869965 -0.083828183606383249726 0.15052578902940735861 0.381342080186724941 -0.28106669426817459945 -0.39388332789934277223 0.36012305924584009365 0.26541544956464124816 0.50081097650979589098 0.087514310972395814581 -0.42179390571620656303 -0.078362613406527420468 -0.21703554824312432103 -0.2444042594115959921 -0.63021699425135624395 -0.46450679768255054292 0.67345539193868442229 -0.77785222609422211004 -0.2108731820931050438 0.42227648094837993975 -0.077246819065794170012 -0.36878142908959149482 0.34591954712248629278 0.15994994597738515507 0.21925993659478723585 -0.47598166677244879708 -0.20532146893544506172 0.20572613424436009266 -0.77360136475937213429 0.47903753922983816071 -0.58707800891899286633;0.0045974395376215670961 0.53222059198514404255 0.3879024613707361957 0.29605876160941130282 -0.076209171450325213781 -0.45145704913762130239 0.065572729796639750433 -0.11191907662878350371 -0.31196655834332942536 -0.29256220210764960488 -0.16797877250979170727 0.14635773330767992695 0.06134729554957509684 -0.15346079350495081539 -0.18449750325482111579 -0.20460510706244833257 0.097627214574542209302 0.34813325978443182551 0.30827871711948579003 0.28901585481289698842 -0.039660645750785122887 -0.20222527316663396757 -0.25371823950833066741 -0.068639059489757681121 -0.35152961423294837306 0.11452915654726120165 -0.1904007310976520706 0.38951221519728768117 0.26096300530899646519 0.0080510701471681600516 -0.074584581097167784725 -0.65813186428688208451 -0.61608434210197715597 -0.33798781484669970787 -0.178868619645262239 0.15992535056735798782 0.29506794004655018115 0.46635344649282184371 0.59068233104999101624 0.21298008911211144256 0.044764360461163298088 -0.049066909783445779303 0.34957366827334185322 -0.27045599150384963538 -0.33001948757709281823 -0.20970408180767335926 -0.00205235193925063647 -0.18350631827455832212 0.24799091300949366312 -0.33204342579642842637 -0.54349343443951714239 -0.21634427572119524497 -0.38421701329439517103 -0.18081535893748335031 -0.1806339203867952381 0.43420784282278507282 0.33602278094148235743 0.45900769135321195513 -0.36415047320933108255 -0.56300822245068760097 -0.14067406177068639272 0.11325902038387697379 0.26734118653630356555 0.5328290272066239508 0.69307063097866461465;-0.50219231638246797367 0.76539564726236775094 0.11439522485623029868 -0.17592707378117411476 -0.27811538850133116219 -0.76724389255527558618 -0.81806713010049691981 -0.71873511874820039669 -0.062168379817025741507 0.16157269780792016256 0.58995055971604004608 0.2963292063595975856 -0.24278197564691661459 0.23400389140596491999 0.21984228667684624359 -0.3573772959044514419 -0.67615003087595559883 -0.86058565257752350774 -0.1557781001267148635 1.635951211274937922 0.83702805117888934294 -0.19676926028457963902 0.056283447081707654869 -0.813423553336303784 -0.79126499418148332765 -0.13245426033922397258 -0.0040237959677490026111 0.33822149148134011964 0.57585613935501245297 -0.31616926985331156308 -0.44520819103075315315 0.085975292195221666991 0.19457581877350790811 0.49680925730643449301 0.017399236365441120289 -0.25203578092591127913 -0.24180126548549096821 -0.27725637271960695829 0.60820385548475042192 0.35690742144687348514 0.01554628464343654759 -0.3026372180163347525 -0.65979840440163439741 -0.44533130232129325421 0.63135194002546524139 0.072141444616414113211 0.24094471573008219289 0.88199587794801792562 0.47478080055604454657 -0.27040321577290349353 -0.014916037091844948359 -0.60807964415485915577 -0.052552359656226274587 0.5910417554211303548 0.58162057262671440494 0.50094549354164741306 -0.28636834706359282077 -0.44415277964834432023 0.023354458066966649055 0.25759356028841795538 -0.059676704921734879949 -0.066455036704115511004 0.67242011684953550965 -0.80923464646778686671 0.7516817051546613726;0.084222218080892974346 0.2144983668973660107 -0.30276802863380242181 0.34012856535888930098 -0.13165606654117728569 0.056358060617933046499 0.26303439896935809639 -0.071578068171509884321 0.20165469910245376051 -0.069294052474600908997 -0.17857050487157605234 -0.15978752875181717608 0.12148749713843748355 -0.17972450889981791966 0.32776280379046546232 -0.0088031236486450850642 -0.04128998921627390073 0.19079253145769536903 0.17620885901723432054 -0.21918447955621803147 -0.21519857589505198003 -0.017174557987081760096 -0.13738457612568341637 -0.24352747260805188145 0.22931551480030903933 -0.0057970717709711211407 0.0049358904254114301102 0.29509366695047078988 0.35702187398961843234 -0.14777954588991995544 -0.05636480895904442262 -0.27853198453484884212 -0.067939709468733261444 0.13167637991779004847 -0.16573078441437036346 -0.26129270486763939152 -0.098023958113020046024 -0.052379555940337177433 -0.12699520987343368428 0.15026532994752170302 -0.056981303280458278637 0.30817940095391155308 0.00025715353480943586861 0.038100334164363855449 -0.11370487050856509237 -0.40760065921577942616 0.058423385197548610703 0.024231778935124001495 -0.17324924321471552036 0.15027102244287346422 0.12766169045171332774 -0.13213864555508100795 -0.40547838047309825438 0.092795416305925304545 -0.13736414040048555707 0.12654311094162770668 0.27542102277853575121 0.24132135001730312118 -0.11651671941330202231 0.017772601465617952898 -0.1980809906703827894 0.1580170538501900479 -0.23122886326511152277 0.16351430984905879207 0.046129816292616407369;0.45832904650990502482 0.26928698529222172553 -0.0065351441272887876924 -0.38489246104056445974 0.034285001852243285336 0.22632215388411927592 0.14560703831157811861 0.37622052826178453699 0.15138978618222637129 -0.033344875607666926709 0.25031983482931297047 -0.068841650508422308485 -0.23626895805505601644 -0.058377803166425976111 0.1786462300843551787 -0.32487857949415788195 -0.18408011745300137396 0.071012539546180239447 -0.03091974577234132826 0.36597282008090153971 0.076108088785824562494 -0.27809913282621384623 0.39033260338551134527 -0.039683261761933562306 0.09734583063135668346 -0.0026865127012439642129 -0.042734278623341968861 0.089674527739158488293 -0.11623581611749789211 -0.073253032851425620153 -0.17171917294501243267 -0.13218887242289922845 -0.53796835648768237537 0.10948742491635488072 0.084908742853361446334 0.070304509838446951897 -0.16913034183841471614 0.1950708070854669518 0.17171068939809763787 0.27127059116332524757 -0.063798662526065572087 -0.39181822845156999424 -0.25780483572140266979 -0.13899385357785742912 0.37748381730411234569 0.24438267061387597412 0.21204618837226335559 -0.78050987329192111908 -0.38655963841548779403 -0.11931040854423737019 -0.18660936597627700295 -0.017458215807054804081 0.098935229218695450171 -0.0605529445496764962 -0.013890112041084236305 -0.024731737167672376149 0.095501820547127469485 0.09612915538587056552 0.30070532155021040266 0.11106699258314046974 -0.40143551202979294024 -0.15447137345381037332 0.1695873977627095075 -0.14543620911733534662 0.090094618426969669267;0.11941250162132191481 0.07927723477945777808 0.061571550024499356601 0.032770184853567939365 -0.16530739893247528571 0.16079201821875294121 0.21600680087537849072 -0.23015202341229740179 0.062861291847500902485 0.050906721002578717017 0.24801460150124662873 -0.39720468751767618043 -0.22081872944454014607 -0.050611836360876585883 0.15368808699406799612 -0.35699335455182118482 0.064948791711729098042 0.24921359573619850103 0.28590203530939273247 -0.11937539825717990993 0.024855365341585389238 0.2432692204467908903 0.42124382549697053646 -0.19625677325812701524 -0.12002557633460105013 0.033499572871997396195 0.23123778886742984984 -0.1780147575954596495 -0.41115336724748169361 0.047644973020344837111 0.32134779626254089679 -0.30483607919283994825 0.22390895454507939166 0.20093058899740157131 0.00069535601516947445622 0.17508667266557642606 0.38402019812040422142 -0.057613939622313314892 -0.017610815856418795405 -0.26715732012937859485 -0.0016860706726268097355 -0.022682584728801157004 -0.15814514008233121478 0.11683258989691691632 -0.13984717457045220401 0.24778645350778474854 0.0071737516550287394948 0.15743191610545068104 0.078978039745591824272 -0.21908324287088923321 -0.12636518076269931399 -0.13506084698001596944 0.094362599218225234887 0.20980443701323714389 -0.19963200743527934056 -0.10677294142100546281 -0.07972294567760700168 0.048015899255595427542 -0.22490109632263086126 0.11065441487867705428 -0.13698550477867016406 0.32799163907669320883 0.0063753574893435031173 0.019577170629933002971 -0.21293254875936809545;-0.085644516743956053406 0.22176177505723537742 0.036355357575011112981 0.11988502558351132876 -0.1110053812374842408 -0.12682027567959691661 -0.044169050115308472471 -0.058064094857492018487 -0.22794894623416295243 -0.098077602894523593924 -0.2617160088332569079 -0.28103228330013602099 -0.058376488913623993116 -0.052485863277608249544 0.14220274104891578171 0.070444144632156646679 0.062826310695863668565 -0.20782300057363162216 0.26652096564339411433 0.3975633759513813037 -0.038062376621227772544 0.081681724664519908541 -0.1480096117535566469 -0.37915479866304702128 -0.19680582401403134973 0.13676757860334898265 0.28126323613335380003 -0.064019768593150977454 -0.018516232441897467059 0.19751234584976590236 -0.10694493046715794482 0.010744023581477135654 -0.034075374112313719377 -0.19828083943569335679 -0.37223474619411867081 -0.12776743821182903749 -0.33734736348130639483 0.2333898732497474704 0.10779375513929127794 0.34245017434433999703 0.45381306033580098847 0.33374748877945553671 -0.050815100286981343403 -0.31639016057871449661 -0.075781489189432324483 -0.18245623699016402797 -0.21206634172807609096 0.044948689070240979704 -0.15268412983722673415 -0.21554088718322811369 -0.023847973540662106839 -0.56750618124953045029 -0.17046085119721879342 0.011666353787189213953 -0.3765357117847326629 -0.36851031802321360109 0.14493856055296408525 0.1994791623929586255 0.14045503849772530969 0.152354848683361771 0.2628170633893156527 0.19013794887124085831 0.1237014779376885143 -0.32100168062526918122 -0.070271432231457264805;-0.39417206804104132356 0.0045404543664560315097 0.061557834314080267513 0.43076868278808427837 0.0024622502018704674198 -0.042131119529943722446 0.095970682893124797941 -0.3070615043401958566 0.12935313398213466041 -0.31539132388439305998 0.03698410798090394358 0.043305081185773738883 0.042973518366933818879 -0.094389652005753540975 0.019565785312242612443 0.071537206296365521419 -0.0095515848102835920752 0.23427498560963480601 0.15383353760053600223 0.34105467236749326121 -0.26311632202383949952 -0.46087447784593621458 -0.29533366035761399182 0.074666718266904408274 0.11115947683656038358 0.14369804559477167283 -0.40761426562153979525 0.13630133010863459964 -0.090820475927939015026 0.0069136869815178171594 -0.06101775356046443971 0.21356969515426441064 0.40143907997726335779 0.41273789299121033114 0.16520784763087092983 -0.079762986366906374336 -0.14590956067712537725 -0.018540476475482514651 -0.29946354697190519234 -0.22324575945067531846 0.070060502267550853195 0.022486537607773866843 0.029173313632605449991 0.26608433740852360794 0.33569604364269861607 0.20686386981050347567 0.0072969494554793699892 -0.069533179900689634501 -0.019266957497367179913 0.21944201271391533536 0.08166786073749568442 0.043789449340310850067 0.1386304764340770268 0.30890414851266712049 -0.18723570415729381966 -0.077331294775665193608 0.21504588922513961924 0.14328351579988943265 -0.21012829537282931569 -0.31883602835128121988 0.09297637475193823442 -0.42508441504679350675 0.15644174838308011477 0.00012136346786878297876 -0.16850206113745530567;-0.056262018208472777681 -0.14608653821840655862 -0.58441094186389963561 -0.031249227015647015882 0.50672514622491526826 -0.079431025358120965763 -0.24354997567866101815 0.12313025981001085585 0.32027131007664083606 -0.16160776184385472476 0.15397616760611326781 0.98747352657388576258 0.44168485762694836838 0.02330125277429210065 0.07596513239039859311 -0.52331201401503468773 -0.15886021117567045158 0.073110918146504805248 0.089813371631893706981 -0.49872485553968509686 -0.32697442838615731198 -0.066047680293725291589 0.58216297663367766457 -0.0035760905699569328631 0.24341671346047469293 -0.084635746340887635375 -0.54912900207403558817 0.088246273285519025165 0.09790782982646485666 0.4896791604045897528 -0.11148822451590395533 0.13923344508213678083 0.033335499704116818009 -0.16861082769671614789 -0.047220330544547044205 -0.065119716563484725258 0.21704127730570049737 0.44678366808566638557 -0.19317486993346291713 -0.57685938542644132898 -0.85988228276434131025 -0.24756491308995903777 0.25449213745221310745 0.52282680012084270516 0.38433682328849838594 0.094813008281530913868 -0.047073035634911643277 -0.19537108124836721768 -0.15912478931214854572 0.41720687793738664428 0.12093769689222085006 1.0550358865424029897 -0.032189363906810909699 0.36324424777292907418 -0.091217467064308638269 -0.098469237201590370523 0.017304212283731155997 -0.0097636053648057479631 0.29668769024866464834 0.14620183810173423278 -0.38441997895337415292 -0.49794096785753483303 -0.21466572552859725098 0.019459446638722385781 0.26973186992052133881;0.12563632342264446917 0.57621666728131781809 0.0088448811832485749185 -0.68481108031661797053 0.13635406127700272494 0.41444211486139398426 0.10103727996220018825 0.12004687720665774275 -0.12310555140337556268 -0.094029653238112603786 0.1963524580284094212 0.12673889039716104699 0.039010316455832159954 0.26543082076325935637 -0.056058708558742301187 -0.12433443489438608665 -0.34556426025655390122 0.045773687643095813116 0.074494777144046953055 0.17522375314014404513 0.031652118304963942907 -0.017417914894694717237 0.23104544773131746593 -0.035177964578429407605 -0.069939429713275283462 0.19523223253635871299 -0.19607428191356995884 0.33983571604707113467 -0.11714825834082606693 -0.18324148907418993937 -0.3680690184727208325 -0.15486161729912562013 0.19408122118946852241 0.34019319717702184436 0.34499867996657607172 -0.097670609774410610537 -0.20885481969006172709 0.03895182380484604745 -0.31796269524858566946 -0.033230788740100880574 -0.25746604259669625403 0.0071827926231527033929 -0.089529344212097961009 0.22198287393742499596 0.15678195356847030029 0.1317149087183558942 0.28318779896849022304 -0.47536920970328749858 -0.60447084389854366382 0.40989306900314331772 -0.28734978952408146702 -0.096618260619598661521 -0.18764705305872572683 -0.10597327754829724555 0.20956621882421380687 0.29802438843433576299 -0.11844185565154480289 0.060781323427074068766 -0.025140883564653937476 0.085956237238249078025 -0.087830942596570107939 -0.19217658012625718489 0.11793651300566110329 -0.25767486929518024219 0.03084668166665757022;-0.098702544589746810111 -0.10498566641426426704 -0.5431392016707391468 0.54762439948876040496 0.0024042946104255377704 -0.3733756678197903689 0.33711956425295874773 0.64245725496420702516 0.7849884347146568464 0.12121027650051957592 0.32440496535481927465 -0.68305665247375402238 -0.53487453666651751938 -0.84384495363917022548 -0.7291938307703584865 -0.10873905064559871714 0.13129882619778021624 0.33398676829646167796 0.012414082991772074083 -1.2158602188642169128 0.35043453514378075653 0.13955291421863974533 0.32361722495675260269 0.18442817698338967447 -0.44288026273339842209 -0.13624740679034755275 -0.19613931181371088708 0.4742036272862136248 0.0085328781894112998296 -0.23439442423450324027 -0.20050376761977545259 -0.21421283825983467031 -0.15880725138494186655 0.22242536402237605975 -0.20430262489709555274 0.004085402508416149589 0.71786798002396279283 0.03426171789163251491 0.023984185632876582617 -0.12506929099393893079 -0.10209850574331570672 0.24478552839814185504 0.51289704024849658293 0.47472034692387071741 -0.66976259859966724708 -0.74688198855619414296 0.64957496884383525426 0.67619682924167912041 -0.57868822629462757234 -0.76608709719266310234 0.035434519825124737025 -0.35079401053307407432 1.1334693813741787416 -0.17991712874880994022 -0.069987629907007700703 0.40530216303987370852 -0.1555230348546678687 -0.080359447531599889625 -0.34005438775963686693 -0.29166820573132429262 0.042898262801841877123 0.11624375963087883734 -0.33843345821754555747 1.0520481550394777948 -0.78751624189620117455;-0.28310193767217839422 -0.13264930698547217069 0.21072304105914044237 0.32771276229231827148 0.24578906930178778811 0.1640678337648534546 -0.51733553155336375884 -0.25858871220370732713 0.13651710231496716474 -0.071834525694768086579 0.068848664342072651845 0.080659721525868061098 -0.20703910904482752953 -0.12654919129393243926 0.043715953575294265454 0.32367112118733148973 0.24379232722428048619 0.34253785027494670912 0.076929927586647156579 -0.50656774436480356272 -0.4003193499494425156 -0.22268109046191819633 0.095837690242003489849 0.019324328865290299473 -0.086720306813381359268 0.064863448081969060643 0.039703401535905395725 0.16831757468648272935 0.40421303875427605501 0.071055546400070224156 0.2088418391247086614 -0.33547555995397593254 -0.078123513478852865677 -0.2897413110639099898 -0.091091537126237367983 -0.1941286697861634436 -0.25247485222616106171 -0.11164590764251366983 0.157299303257837364 0.4155290699011753297 0.41848810405054959194 -0.24576539959713014638 0.21544417711801475135 0.029895787940482497491 0.44300951456477555279 -0.53453067667266684904 -0.71368649158799257748 -0.17166547190658620892 -0.14472246471172234283 0.13975455918872747851 -0.021716494537374463752 0.042813892587558528835 0.16271949322446171982 0.06004288129537651425 0.24370101509996636158 0.32103270706244080301 0.27837023896452928184 -0.36344891936445156144 -0.18033266584827198353 -0.095737231166372893654 0.044512230418170373181 -0.18432008683656658787 0.16541369495899674313 0.027886864763395906308 0.19987851001832551701;0.093473847930304582166 -0.096402167034995489558 -0.12721598515269724738 0.15207995219001232967 -0.22178347969440864729 0.088300865087998739456 -0.085773368532043120505 0.16972554534607844912 0.18703635823505054825 -0.054209646385825149828 -0.1155490861319217466 0.13022709667242707288 0.1126958136576425018 -0.54166426977597492698 -0.31924275562508885873 0.11428965471471372317 0.10264777088392271209 -0.19557991168268498705 0.054660840188836684606 -0.45873707038519095924 -0.021620208803799716157 0.44190679907263974435 -0.064234673656249255402 -0.13505053553173854142 0.11996140773450772454 0.13187358523629849616 -0.40889838053815197316 0.3240456286485601245 0.14672814491939240034 -0.2138848530562616479 -0.081363604658597765695 0.017670072807405026727 -0.25518779324399198938 -0.12855801480110504165 0.29160447782823750718 -0.20107571853991346167 -0.030177910939795632439 0.054853502051229442726 0.24880135264970407172 0.0022334918408269148135 -0.028080954390346152955 0.007257546361475674182 0.10950972553152812927 0.013558225486405547922 0.1111056409898207864 -0.2815407452718214909 -0.045536746451864708318 0.29726444662334294833 0.070730728701112022261 -0.18033190194371745418 -0.21303391517087436058 0.068228211155210979899 -0.039647517359024032901 0.11766947769930219403 0.12473768160209249001 0.037456852587102067165 -0.020323720491700739132 0.019983402252416876399 -0.0938650259278025062 -0.015701809561542028754 0.1125505415047654556 -0.23067907559117395433 0.10084776323934177555 0.03635508574413730265 -0.037010780159643021092;-0.13531077209392622374 -0.44850465154103374976 0.10736235272033739507 0.019421431008263444901 0.17989642341042247353 -0.17162889304556566694 -0.23956144812497381924 0.031569433730886692357 0.17805771090542363289 -0.26222831983799682609 -0.041584582690679015859 0.12726138694517513672 0.029052419540600064179 -0.35147765811541187286 -0.076973685123414764542 0.24969682301451151529 0.10891762149333382437 0.0065849110670208096247 0.18334691060323352052 0.066867185867876141603 -0.21771672194832730751 -0.16220440252568119055 -0.41117723362171221257 -0.17253605754663361993 0.29659783677849321792 0.13356183352678444032 0.25279157548039610237 -0.06170645247369382913 -0.067822977827680791529 -0.00024711940714084541446 0.10707082491958599957 -0.32311738785049365363 0.32289387526884816282 0.21968515992786086244 -0.25951054829945957581 0.2141052625927784836 0.084337518974752487266 -0.23351403749488108819 -0.33791805658825557757 -0.097485187367917877643 0.060163839363647747538 0.43519976081737982154 0.09990626716502423732 -0.0085229014875680530333 0.0011454187990468135683 -0.13445425725662979444 -0.35232623887340819291 0.42909959959284194042 0.40232901283660887914 0.023608497990185061538 0.17393615315634600171 -0.035158998660377589751 -0.096407218797960672618 -0.21548287936076099269 0.14457771241530686934 -0.037344813738585225238 -0.087251194178557769932 0.15910639401386444947 -0.10147828779158270252 -0.05720776458467878578 0.17028900865394414055 0.086549530944109151487 -0.14238517932285829626 0.102053673200390424 -0.062390167841443883168;0.10804566458813405494 -0.12906890708293766723 -0.10880920413057873497 0.1360435562881906757 0.039022937763996519422 -0.14613483137103328025 -0.13424634996905548956 0.18647639984942518399 0.38650898674545230982 -0.085426333144956276278 -0.5816532935237594959 -0.37713180956724418058 0.087547592883487040938 0.46068275240011535843 0.5334274321908264449 0.15370183293334582775 -0.2239094392552877788 -0.20630659496079054027 -0.29580472780962785428 0.12463674303376701125 -0.17392091937597797813 -0.38323650284490012874 0.16544133460454624185 0.35278605418007979999 0.10280557662634670635 -0.31471130672013364338 -0.24045108960109887186 0.21853556950619307253 0.027941103025827702944 0.13825170646654189044 -0.070664630857330351654 -0.11132029694956829813 -0.11919710534285829495 0.092076235050766813695 -0.05063731519512704865 0.061144312738241619887 -0.22453481021375604199 -0.011370272843164740129 0.033372281022704765319 0.30674744366202988388 -0.13929001760712966806 -0.084049965945582894022 -0.016326729524568293211 0.12601549230898675957 -0.22815089740097815874 0.034872329471627619424 -0.056985340930751880728 0.16474389534643057997 -0.33631802780848546464 0.16961283137458463277 0.13503835210139270018 0.2303524123619478392 0.095832829725062351756 -0.19493478826519772262 0.027585732415250981131 0.22952058916518117138 -0.32707063525413027083 0.12420241931163290838 -0.088126845021598759766 0.023792484676857378334 -0.071955613906504234389 0.34070316867514865988 -0.19452502431863610832 -0.10230115211120635599 0.22271933405531027517;0.42010437853897819593 0.48172169159387623338 0.21907099022669687671 0.71555311326538562078 -0.23272370868852315651 -0.57947998329283079144 -0.078249584655057116689 -0.060068971945710397664 -0.26325729380958690085 -0.3319176766531540812 -0.45780063682927829571 0.093853876401853539302 -0.22494598476947200161 -0.11275977589312477511 -0.071702932614304840109 0.40022396971598084292 0.69814267856751677233 0.48395204481436859822 0.0039799157499597337395 -0.73478923268785201195 -0.73758331962986645181 -0.159321723669143267 0.72205348988949447087 0.36223674628924051877 -0.36944275398335107985 -0.34582110205398658431 0.09241453145075655129 0.34944463006922749093 0.37339405551314402976 -0.37743248043778915291 -0.51571667433419787763 -0.62291404932989236087 -0.21121146588801731347 0.16641437537743758446 0.65413980242477309801 -0.13966836612594854539 0.02023283607846736859 -0.28539363235471004732 -0.62337534820516082856 -0.12585478122225948749 -0.050844735727964052163 0.72647730364464246922 1.1679922846901931166 1.0375893348824265505 0.24625665134050439553 -0.45442748655434139771 -0.554602325051509637 -0.15723628126392660831 -0.7223146410849156096 -0.4000806568842688038 -1.0022591331792829461 -0.10002854320205412098 -0.59854124617119874863 0.063345179520028938036 0.21730213983591006865 0.2624657493149298304 0.67826868907307824585 0.035043765651377414838 -0.36148427858761311704 -0.79473580853494063536 -0.91615126538467528405 -0.04306501909414603424 0.85168361931417435606 0.92871112449448034454 1.0729211083959706574;0.57056478074069094664 -0.018229627017305408826 -0.54763091697056054397 -0.097101000155027580862 0.14424113317712106141 -0.084395150565012830302 -0.018677917925944347716 0.02619485514037674101 0.13594441078377703103 0.19699081899198500611 0.16765106071244484376 0.53989815467128166038 -0.49661694456704685852 -0.5082320620497725594 -0.33510908844433107134 -0.47332268729818277597 -0.036252299893944246734 -0.4115888298183700833 -0.59986491646697470692 -0.16160970780834049698 0.11169290997569117363 -0.29231047521888331442 -0.12535725516404339075 0.2225611985402787818 0.29871449052296272786 -0.14609403608496362992 -0.38118396788083402926 -0.13838868010837401812 -0.30646800769059318048 -0.033732525003960928123 -0.0067114808692570158966 0.034001490145732671255 0.31959298526074564339 0.074747524136730761346 0.22625324904829094419 0.27092928050078513014 -0.11580417173841614509 0.028606276553364895499 0.022643831050855330045 0.15183146156870899746 0.21439711871976641078 -0.018987909291165255832 -0.36559439676218397075 -0.67997114229710742261 0.1097649423810591468 0.32475845971372646614 0.10363893071590106476 0.41798019455205137618 0.29969445548222117814 0.070751097232624515776 0.4257575940850134022 -0.072685287310304796948 0.00088091890581197367094 0.22949463857701762892 0.24193700946714094546 -0.33616508550159113211 -0.39703086712765872646 0.067171686229860291806 0.0074789559479514558515 0.47165195429858808307 0.0031730862914145993581 0.2534570696062636852 -0.58581608590461253794 0.48496265729926002486 0.29981211926705997328;0.12874494131792516005 -0.10844831514631533831 -0.10792697464701089816 0.20677969283164338021 -0.074213916518921410614 -0.1846416620421908461 0.077023641708897222502 0.29799134424883066963 -0.15830321110154099706 0.055011079759137604395 -0.18861708013974692877 -0.45349013106174540511 0.044140639470680254064 0.47178205060476530175 0.39585086597962604316 0.047905585195512113972 -0.12524862190268001849 -0.1872607561306977586 -0.21270567361390838035 0.00080735462587112893917 -0.024625464641436216329 -0.10018251655779249198 0.23172129792372198054 -0.087902733909646285637 -0.0996377849943322208 0.19433310568890108105 -0.030461245083068771988 -0.34075627561355448236 0.16066068718235507196 0.19167763621934705287 0.080316086218561094645 -0.14980093699351346159 0.091090245912006123641 0.027427790543832930581 -0.12924694655575125202 -0.048517665333981371822 -0.0016196043777595009461 -0.27808145219144270177 0.043631794687571688607 0.10328538427043189307 0.26217188475451952412 -0.14730885083454614559 -0.1387001935650692408 0.062956123140246955661 -0.11493294638008896835 -0.051181212510446029429 0.24245421568782071775 -0.044409430744339312147 -0.081571366529228292452 -0.18696195934933071414 0.11823884056955187571 0.15237322003243738977 0.31094921554178495127 -0.22823084729011816618 -0.00070931628767970447691 -0.012481026237695438952 0.059428824525957518743 -0.0021208587982416531037 -0.10185150899129645496 0.019821491114444825254 -0.090918576804800227409 0.24109550449617739298 -0.024431077098262254932 -0.20216660648744380624 0.21011249167109471991;0.018562710279711725631 0.061439742792060283993 0.09958203143183107231 -0.18498703710689434754 0.080085098093195195013 0.0081072986890841011731 0.11670466693924461121 -0.26496915857348823931 0.29763343444538281624 -0.023031682225904619166 -0.36131010330988178048 0.09557451609597024389 0.04682033390187459454 0.07973616533307170684 0.0062758346092836037045 -0.060023555990571020313 -0.10176139864444094796 0.11268966482962711195 0.21637515453688435652 -0.094932352442748418886 -0.1645585325014754241 0.10727426601241765725 -0.29063864929252641867 0.22525860204374037465 0.41704491206376537171 -0.14887777826252762692 -0.47507747009245548941 0.15714987723407439213 0.32166264017468482184 -0.27587609999354706369 -0.24419291658751729468 0.26495901964292506436 -0.021378571447287442187 0.08787057401704011228 0.055596529769114833019 -0.12971155624629843173 0.019587085843909172317 0.0047475247143581355072 0.31819339401971397097 -0.083534871755753026257 -0.10162231569156449096 -0.074430465724516864379 -0.066654049682542529376 -0.020827512201992387508 0.00039040463029235347725 -0.021965329006567682613 0.16614882745004008746 -0.031717777710975156302 -0.14415476109234812152 0.29036984497045670306 -0.10438027406642443051 0.12590232533166287321 -0.25793958571758135445 0.015424352900686465195 -0.097790803185782065876 0.18082512217743285099 0.070614576658610331283 -0.31245351006329125099 0.24189844814060634803 -0.0068013246731606080697 -0.12092846899805625993 0.25195152320791724954 -0.18576906116390920487 0.037581123775181336788 0.025206549262902729069;-0.10630575200862080187 -0.43741310319223647429 0.2140842402533497113 -0.01430339078720596277 0.063850122858954513894 -0.15340989593012221981 -0.17947203468463585052 -0.14518125818131658034 0.0018556400792420699175 -0.22928824143937659441 0.086531053228881577022 -0.40433000032841071025 0.2707911157288702686 0.19919873675720031758 -0.051644053408786326498 -0.13360237429356847105 -0.23967929727433584519 -0.0088551505111196110454 0.026420147863766497293 0.32886998835637903937 -0.013103038819792328651 -0.09335423644865600834 -0.064917056909904763407 -0.090469601935843177443 -0.10688486019357162915 0.39216030345641589294 -0.4165936400162005282 -0.2503465000302189658 -0.06965077568390756757 0.35335734475469116056 0.53523287880457859345 0.17430249328113811558 -0.52443389698329478943 -0.22570858419723677235 -0.22531570646562415483 0.083721285978235679415 0.029386049328564679828 0.38803352318746109351 0.081942345502400926183 -0.16513798861311648758 0.40805462846614531935 0.41439860921613141942 -0.18124941676544395475 -0.41550309760747639043 -0.34925352255010078117 0.25835043247293382196 -0.14441403689628193319 0.31980915510314661399 0.39142689890444282153 -0.074761172486956795069 0.11575524285529428803 -0.037494140160072381152 0.4611430781557587788 -0.2010015497989055544 0.21659578559125652886 -0.36329790565005326552 -0.15081107804636176284 -0.1544915438626294768 0.29414666438806208459 0.3134672065343245273 -0.31428994218317979348 0.0071250447258026771563 0.10048230598044116668 0.12175700169202342826 0.12855455153279612968;0.54019837895808620054 0.43276960412681669821 -0.55696578869107715715 0.78074688654658275233 0.81131150508589611192 -0.016536139325680279666 -0.30276625437635318328 -1.2495529231950348592 -0.35065500561280216196 -0.27909668589884195633 0.99094928405038640307 1.742115426558612068 -0.51164412528814195991 -2.0249745795299052276 -1.8638562689770441505 -1.7243031138919073797 -1.5078196311384997053 -1.5857632922750735105 -1.050276556992510768 0.82019507754705556213 -0.16641196808663372142 0.2791244988872930155 0.33936732654690932032 0.70203831902286173428 0.53552368333140021317 0.17091250505743268984 -0.51444852369887916765 0.068025589159510624349 -0.23453843003482693907 -0.372930075275446693 -0.39162509073076934296 -0.11257204302028325782 0.075270008078035369192 -0.38537644033018686462 -0.57757044496979825787 -0.79709023139705215133 -0.061304934214544956617 1.3037484999413080367 2.1812652286453677597 1.6371353231872718403 0.79997218353841548222 0.46915150131505356512 -1.019275356460463966 -2.6814036615632268479 -2.4168809686754109123 0.29307450029969034366 1.9641601277313363028 1.9492350970540939237 1.7612523306493406139 -0.76805744679499654559 0.6571165774329177367 0.37444926411994433613 0.088572372242094993267 0.76459340606237879978 -0.25621437058394447295 -0.63855763182346536588 -0.32931421565242391392 0.66060706784864131613 0.72144940755890396566 -0.029346870030785066064 -0.41771136477923531682 0.11666658601553761554 1.2409350850283664691 2.5189094646473115802 -2.1075545516487861342;-0.12768250113760770681 0.23504062888524673847 -0.26922518946100854054 0.365488522495789947 -0.30359633098810945295 0.10911962793222759749 -0.027886077868860090212 0.048826372717757582365 0.012664320034751017779 0.16948020451024850552 0.0044656616019411246588 0.012198010337231869615 -0.20960507425033503281 0.16647715362076959122 -0.0018153441431892174129 -0.064810608712658382413 0.0048466088574416954157 0.057585775887696491471 -0.019828339033824755877 -0.13087635732719393733 0.21325400355785253947 -0.0054534599668726903288 0.21781409153320291372 -0.0773639632724089088 -0.22437047962190473371 0.1659982678671328149 -0.016925353536845422903 -0.068422878815405041575 -0.14592263270242125661 0.2762464205956513541 -0.1699359216700837838 0.21922805794963531878 -0.34831231660605194156 0.17478917149337042103 0.32427020242745552281 -0.027966689367114400816 -0.16825790241981203321 0.030748680165853310708 -0.064976310614181381764 -0.26657094910703410529 0.28686519693647316576 -0.0092638172252788066052 0.045816630237397161507 0.015702404466385339737 -0.19038778594504746078 0.24243561536514715571 -0.060952865950084408886 0.055417766796380878158 -0.14583221597521503488 -0.18856351646937685729 0.12611858149044283262 -0.19625555872805780511 0.29257814359005429594 -0.10309932860946449673 0.043355370938841050754 0.11645357061137562305 -0.27675573479832676904 0.15315136071488344438 0.0049203283790672323189 -0.21725182548346611 0.070241880284074464935 0.07846502928564397239 -0.079385011155367085633 0.1317708087116593596 -0.16483089408308929102;-0.016295371288480377941 -0.042728935729654665687 -0.062264428256494586122 0.20942572188372302056 -0.019743041153382885622 -0.14760731656131537148 0.20710868526566944547 -0.15118202427149923794 0.15665701768230635982 -0.29075129965633583762 0.029875780972451165818 0.20262873660262836761 -0.42837539579285666136 0.25350541203019072434 0.10517667183980539125 -0.018709424094337470668 0.041761820410007012561 0.047430152867962933894 0.042954127954764317887 -0.098108296872130532074 -0.22063344321843500473 -0.28004374509253987524 0.4946975050758092296 0.072951379463435689354 0.057879156945058629624 -0.048929483186711003606 -0.4124581172634284032 0.23256570648960570025 0.085869896676709397965 -0.069684358967666532036 0.065771623892175820614 -0.29083787327480514762 -0.049875539438319391183 0.31091348405576146874 0.14140452577788789612 -0.0301262250941268378 0.079103794662439441687 -0.25249459394196965834 0.094665217927223668792 0.049670907775509608173 -0.016814707817974155341 -0.045188812731159239133 -0.011077021052929710357 0.1283904526132995938 -0.09916974716507791221 -0.079545710266816865852 0.014684567870366642406 -0.0012717310003714356412 0.040788994486771819326 -0.015306127333831385379 0.061486672801066732941 0.091677442269482253834 -0.2623829272798910428 0.15825036674391146363 0.11557680562116083578 -0.087813603802386674957 0.18951934108039272808 -0.32592869527512330352 -0.06705947608222243006 0.43254727147451726976 -0.38350123578747791209 0.14770320634606312615 -0.017661708756293643952 0.044271011920601538447 -0.011361918033124928512;-0.24510905661651297138 0.33357223353496573415 -0.17686340962808108634 -0.057444078429958467247 0.23019832396353601123 -0.088056204208259269972 -0.72529312128719614083 -0.53693389909931377169 -0.32426077015680193627 0.31456724232606964042 0.22143121440477520068 0.082099398874334927889 -0.25206214254154424292 0.108874284212797795 0.063301672624566970859 -0.10392997677498899689 -0.36530892083284577376 -0.18439016466618657342 0.50098761339192166009 0.39676817032876837699 0.049315724587633891218 -0.046237156840057094809 -0.53523629047858678476 -0.48588755566137425967 0.042046578496294520488 -0.041526027538849742682 0.40223125987799107639 0.11051454887710054908 0.092932691979780310265 -0.0092144052388748905191 -0.2815194378329466951 0.042716181384438826896 0.10360365976624541506 -0.28686661244833000506 -0.10171205725016665977 -0.2110256497995658953 -0.35263202172020502445 0.37975510502726150808 0.67518902347932652219 0.13812305159817928057 -0.20826483920638205749 -0.3609150717806136055 0.066694194292938796531 0.32592857392988405785 -0.0016764767270469058472 -0.27994749283113717908 0.2546053892803268881 0.054119660315978354581 0.28782136443429778838 0.30022395032073823096 -0.17881113891736699628 -0.35742386824750760344 -0.080999492499212510932 -0.11597850137049629804 0.51861899534285949009 0.71986180649516107177 0.029261975068836869329 -0.35304522862307724518 -0.056581266440767011283 0.048206677400846373316 -0.22175413881093436475 -0.33978916370627887389 0.39996072809897087463 -0.17727072372060015404 0.31505816709053624525;-0.06045037026722707707 0.29041738902849656423 -0.1740918549150152761 0.078334072404840984771 0.08994786468219920228 0.082826958893122859529 -0.053693800192326140985 7.1987455611481621087e-05 -0.19666853479294529872 0.24449076417882170675 -0.083636417270098378784 -0.17311207948865808826 0.11895947117869104526 0.37421101075873841602 0.15602953604263597454 -0.17279034798131789885 -0.27946296560991512603 0.11562836353603629658 -0.21392484680027845645 -0.018647403491807740261 0.2158382644433218811 0.0099969898883899496744 0.30277830715378489801 0.13579528176393079741 -0.054768168886229373626 -0.31897864253763602571 -0.026958566301282634037 -0.078664677569183119599 0.20105953973536375146 -0.024466648470403022653 -0.11928555487430601845 0.10249733374048118628 0.066068278430432281212 0.14398405752826720638 -0.17627062203058777023 -0.12288432327631641783 0.28699550049670902174 -0.24121609137309019122 0.27504430458927464631 -0.193880965756218826 -0.012659645925894361801 0.060796724408173019594 -0.042816249016274808559 0.29980654906782372437 -0.34720424804147387299 0.10550408503160656204 0.10544540197433678597 -0.15592389169935769178 -0.26991254579127760271 0.091872386840691960819 -0.091337576260332883904 0.019937786661283818379 0.24393016553334956331 -0.27916388224001453811 0.085265923707761301364 0.38474012508531518773 -0.12233325209428305702 -0.13387759301920607036 -0.13326615178937972761 0.12555117734114001893 0.065288276011628135209 -0.11992821417424043284 -0.21605724414708929459 0.25822956809830344138 -0.051766487715436237949;-0.25341527092321269876 0.097218036891356440776 0.075251965250897293047 -0.12687199063325879655 0.32761072178183237025 0.12917427922816129837 0.017335715248030205554 0.061274806795032631113 -0.43998062827039940981 0.15697777697716078227 0.23610256879578289668 -0.27711550426031200667 0.28732922794997556304 0.14248182854834043343 0.20735647731485895573 -0.0095730565136004711069 0.078377803789666161682 0.29056537184656477946 -0.08028293549567411258 -0.0063731057628660311987 0.066625576902597016815 0.24150714584951560315 0.017261095794819297788 0.13354254304322868419 -0.069126180557676802918 -0.22566577513484778472 0.11828006283394407183 0.11123742964691626933 -0.11563357846672087104 0.24606971510875502718 -0.061351194467031702762 0.15607975008146696139 0.13051690027379422854 -0.13887733304797028611 -0.10100288246912167422 -0.21907038376210707931 -0.077908700439083544698 -0.11150634937138791114 0.0063029352487021239604 -0.1210910610636486695 0.080015429582871985814 0.065771309659891627475 0.29286804238240049525 -0.069822961230181376791 0.2278686665137930889 -0.098827195833344844145 -0.16558689456825770314 -0.12622381736194349111 -0.36198619301971068918 -0.23975540219090935024 -0.086685947742035890373 0.2346853629023002985 -0.10148646314641242283 0.16665945347992522363 -0.11707889685794949097 -0.048644612014441833414 -0.030030133886155711831 0.16086788657110012712 0.10607832797173652462 -0.31144552684019821687 -0.067201639481266256526 0.083055048272001552601 0.0075886625402078328184 0.030307608889636301897 -0.23133358091179020977;-0.29340292489515096275 -0.10609472159058043472 -0.10302457856717457674 0.20926143202618713302 -0.056967848121698069774 -0.073691108816363440348 -0.25104029488171519802 -0.068997692438794749892 0.010685797036001382782 -0.18269161831558722309 0.12675694348244700982 -0.11466047331384165986 0.22338967089500993968 0.019267996732827995243 -0.00032401594691366247813 0.08779481759039982347 -0.1893317476803390853 -0.076708993162118696563 0.27583777260515118801 -0.0012179277214393186002 -0.16443724247552010675 -0.13657440788777608365 0.068592968334212051085 0.02273987579885552307 -0.20649459945396292371 0.16149265431783071945 0.10346724104668533761 -0.33528752748370671544 0.18886058188281515391 0.30162157929982891247 -0.071946011901852957582 -0.10012295206660357105 0.12888460157379869053 0.029710384698713038221 0.14687396134012153937 0.01058581218310171608 0.12277621647192188403 0.039311739034800910475 -0.18231751380831523468 -0.20890306676210576575 0.31065083245461122541 0.005206690802207883384 0.040598652126360934567 -0.15201128366803362546 0.13413178991698040954 -0.033666415138646522964 -0.1247501439449565791 0.30685552077323241527 0.46199820307534666952 0.11586730545826344485 0.081266351087456639712 -0.12712253743447957111 -0.10890430152478594583 0.037715985505604392169 -0.12370587096258602033 0.27393120400785453405 -0.061968956546012324282 -0.045989333583165301067 0.023641806167496875329 -0.11368073298335443222 0.0048186237274378982895 0.13125742191144518234 -0.15564383244033566656 0.13063670029001941963 -0.063092195006194326523;-0.4588441781882101056 0.63408823335274377975 1.4084024549386651159 0.26446326204824582851 -0.43227756844105907907 0.35016991941315928072 0.07252575148678236383 -0.20370675530373361095 -1.2683510408990545937 -0.65561328448334987851 0.042135251353309921551 -0.2631089909962870399 0.15252048581671295846 -0.19303138493788518648 -0.67523413836091816798 0.41713372654395941552 0.76237958575906805692 -0.51785874030124268153 -0.30855100765197240875 -0.30293427040868259326 0.40171771037177905761 0.56755275523603876398 0.32117638072825255291 0.0084447271370857029948 0.39504781164164759488 0.58510735067650376795 0.004922601348778990471 -0.10256990982205545226 -1.1406071380282365446 -0.59261032437048011268 -0.39385225006235674572 0.11013882048543054137 0.13492788999128141336 0.12657617359483169794 -0.18526429418401724192 -0.044228559335943024022 0.49936754724468379596 0.070316506966388775401 0.15530407495088199843 0.80248152855511767356 1.2695550418789363079 0.38626339204719356557 -0.25336512044338432847 -0.42056617707138915785 -0.60873135355821328396 -0.21644424970352266202 -0.42073631807518729886 0.1628629203952054183 -0.22318385089357861695 -0.93959904957402340386 0.51820287157414934853 -1.5403000910689268466 0.37107283572974014696 -0.1249473158961750402 0.23822518140347320736 -0.080966516909629249188 -0.14310838759110933172 -0.14127193392961817642 -0.78492520705335044884 -0.2910679358255575111 0.18893639562607478233 0.29152957469840440341 0.94059406726051286718 0.045231763900792767985 0.044795183938089871978;0.69924201328899315833 -0.23074989227562422989 -0.30406007833713583066 -0.2328277392786908262 0.030775012788826064392 0.12964922270447160058 -0.073343443008252323656 0.36553786576117097695 -0.20282139822399800066 0.14333232383572849789 0.34535914099446074488 0.043732947174935143941 -0.40127744788543556753 -0.28535942220723098384 0.0098262317889359629408 -0.61753894120349905883 -0.046062777535790543071 -0.4257886812996619641 -0.70969916665987009541 -0.19751723548654526175 0.26922381312577203794 -0.38959220708018538204 -0.086099222056722796159 0.024977417079992271509 0.096568755138888920375 0.26432154850672651136 -0.23103921921732856193 -0.32199084121451976293 -0.37040941626507689621 0.06698238574001111334 -0.026566947456564651148 0.084731421881649254813 -0.17970804915947791169 0.45674677983811190485 0.53015676712876258492 0.34060201411110591074 -0.2854162051514515519 -0.38479707507300631164 0.002895998732131494207 0.07433322598912528445 0.51402053292354721314 -0.043780755955242944832 -0.35096824753054639556 -0.70102794888930497486 0.011483927544340452598 0.4416072606147812829 -0.0094496186829485656622 0.35402139747998373487 0.21337616346097015851 0.1584892302354387883 0.61327768848678487768 -0.18936139995245387935 0.11174450491664963958 0.24872985231006625173 -0.13219664868181307815 -0.27307506827162308927 0.042463832388940872531 -0.24327359154852989942 0.25449419489679953044 0.13561933595316877366 0.16915042044155384482 0.16069440131024934071 -0.42212501716275796504 0.18130887408334309119 0.48763216914499629695;0.62291692532301257135 -0.57128736231602861295 0.19945116601020337899 -0.48702511399751124976 0.13197099502735720744 -0.0013214537861397179872 0.25740455493564717848 -0.0053662029104696064297 -0.25849626805880010494 0.1336361061074811396 0.084300510412826351603 0.084857837145944081669 -0.15310681066369363768 -0.38077733806940150529 0.097568170432812115211 -0.20965188243902402321 0.25312788310435524464 -0.47969461984546946098 -0.72176896586479444284 -0.07968599384781997752 -0.17400982356578095778 -0.54022638028056502169 0.36453883966900524349 0.13117303252604944896 0.17187641392728381096 0.1700007864917987277 0.080220446073834605905 -0.47873014163915211805 -0.06761242996115818249 -0.0824646966371497675 -0.39419789124418846971 0.12122184341010495967 0.20070743610378719013 0.3182488619424115317 0.4110093728837960203 0.14582331568665912735 -0.47584925115180259914 -0.55427686443285539841 0.37188705107365055413 0.30873012850912484595 0.55080716234946680565 0.065532835519610255215 -0.67548694337822967615 -1.2168386469413596807 0.46138206749359178538 0.35143478341850581392 -0.17669831167541910633 0.30229806747940030087 0.53481529569385344303 0.07081297576734209287 0.40606807197980143709 -0.19548039795694788223 -0.074589015435306799118 0.13856930596632330288 0.028204252150395663773 -0.060274209674681215876 -0.26254329096407125199 -0.2495633987383534258 -0.26057519998656686333 0.70955459672002374472 0.2163941624644965811 -0.13733050331700891178 0.23292790783995406811 -0.38165358791612846723 0.47165157352614595077;0.051264304881862246543 -0.079932090141579717479 0.30888615358396098731 -0.06325740370296283055 -0.22912235542394440713 0.06146363018754969626 0.083427910600466698154 -0.092430117156526936384 -0.24054033161696708465 -0.019775552924143766781 -0.17985935160189936433 0.18252299714920666718 0.078296543449273434123 0.27355187569390593261 0.14380430864600179941 0.20527437425447747632 -0.12148915832681761451 0.15933424891629208164 0.083652289078988389948 -0.084024672061260852196 0.32463992881033976179 0.054596460524368124745 -0.21229865799149166827 -0.36115437440519848611 -0.14833111885633931681 0.045847637107087391151 0.12324688553834892146 -0.08369996334286740336 0.080169795507080698904 0.14081257247466261173 -0.042755076829383682757 0.12731477422381140552 -0.056476237424213093785 0.057625133815797244252 0.3110146746985176236 -0.17163816091564385036 0.2078628868117880224 0.051110360345232405677 -0.32426938991915049693 -0.29109559737069734542 -0.15117502343429792266 0.089231362232657485123 0.093576557995336082096 -0.10182115521769205535 0.23265802476264013654 0.30334400676967732124 -0.37964043694460242184 -0.23281207219673280551 0.10565501971122798208 0.099165857950650387886 0.19960978525600633904 0.076443082622944275029 0.012532623330596244504 0.014027096227363693159 -0.079630875327035194333 0.020138065028013640151 -0.052435636543554653421 -0.047563940646903772602 -0.065822832428058780652 -0.029826330549009565096 0.15941476535501869494 0.062419723804008966916 0.029910772157196605092 -0.31075480099115782018 0.24296431021070952205;0.77666066609493944473 0.14404649503307842551 -0.62084127511143205602 -0.2300174889984543114 0.37522214859588565172 -0.17512531347426774087 -0.6911404129518181616 -0.38894141038452462178 0.20861731709140904356 0.6623911743021927423 0.46498391671562949723 -0.071781356320899852852 -1.236019776685566951 -1.5431874208444498198 -0.89910580497443493009 -0.61820591217726816868 -1.3187129483852093603 -1.3820320791483535761 0.24677665998130776659 2.2849478286170352703 0.52816001993830896666 -0.72269940622082595727 1.1887880718500336563 -0.059062838824649674385 -0.66583711445107596205 -0.82396896984386724938 -0.38498266680537429618 -0.11287589333289044236 -0.3710748241289931193 -1.11812381481424028 -1.1749767983814205508 -0.001348283992417959043 1.7891839231559192314 1.9737654175190635364 0.64151915651898927528 -0.30179130585999414116 -0.94216339438569007836 -0.19080447386667007126 0.33833125363171323574 0.82603100492002812238 0.69813399488338045984 0.31016463072074440532 -0.041898122897519901597 -0.87900449037463301849 -1.167087925792785974 -0.49877776853070288077 2.3298974413355462154 2.5172557956816192792 -0.70852353220074271167 -0.040593574343699645457 1.0471122467697009384 -0.76476089475304276366 -0.68270095907551753278 0.55964463799849761827 0.96807184054936412654 0.46542382346039834484 0.39791259161516040477 0.54414228920822749203 -0.20499991793412736252 -0.69799187068795187638 -1.0676150341490244777 -0.31638636801026454037 2.063347227493858238 -0.31111350421029276836 0.46396844364041911479;0.1406999382811639776 0.15396135518538989206 -0.038627564466119701514 0.23448949400941049293 -0.15730787467422216452 0.3168326700601513668 -0.11102748910887789979 0.045862131958844094826 0.064467792508274043839 -0.015642448426218522051 -0.049391772877705186762 -0.014486798428233206223 -0.4741286354811733994 -0.23140568932079558229 0.11555614509690567693 0.36477079734650186271 0.29726853559558819029 0.12835148608986160501 -0.035977614487130674115 -0.24926498932666868447 0.13209812720250357909 0.12854358489435394053 -0.30309431892700150479 -0.10562143724526561195 -0.0023378617346954217934 -0.014217431274489267246 0.088451111817897429268 0.086843517379116497157 0.15601722117205304996 0.0031920304916910613446 -0.076001684162575466885 -0.39124306655786045273 -0.0015210012603041021817 0.42726783295738990365 -0.13710953148237672861 0.070308053490631183813 0.06675615829919115396 -0.43231068307860182065 -0.12207359900907405192 -0.23911675044490807163 -0.18956999516035971665 0.064715233408285097183 0.1421281847834563461 0.51815550705177138013 0.23690230838485787368 -0.27195345742547866186 -0.20956803182921465711 -0.46794951410158697191 -0.092235244513449249348 -0.3299840325670407859 -0.20243823344780320639 -0.028113720383102312056 0.12960662964895869331 0.3263288038012395198 0.54333993581399520068 0.092825718388656414115 0.3243248600839220841 -0.21298780310886089584 0.049151490011543667868 -0.42979776458337848322 -0.30564746035349027453 -0.047896596942893693294 -0.065534864938362941134 0.2751483821879078806 -0.22219696070978101066;-0.076228134929328020264 0.063278011822269705777 -0.098060210678107023741 0.26269187656545300857 -0.11162151083289707787 0.068401002046760139841 0.046177653868733153919 -0.18835956480064447449 0.19462872114020868253 -0.04316028591072254561 0.075488277001375003739 0.15190115571607509803 -0.15570604784996372461 -0.060871714349430318391 -0.10970419592276096921 0.12941019553618246518 -0.051809215508470271572 0.1067093460084809764 -0.0024062406473042800836 -0.026483824823659397191 0.045620929739436516526 0.091049843368421742862 -0.021241121933328926258 0.02042042176986035712 0.0074426049084446617432 -0.3290757590705445379 0.093554429783272968768 0.045516828880238474619 0.23359165628586234242 -0.22564882064588093202 0.090232111192327338345 0.1090954201375919641 0.050326252650704825231 -0.27986149646694186144 0.009913903617656292383 0.14285934838272915104 -0.061074282984512402728 0.090231786064678881631 -0.064740902517011797435 -0.014885636136792964809 0.0069110118600783972814 -0.038703956100425172815 0.13137958278792177813 0.096434105486984722511 -0.11151945476899141618 0.099113545423841473148 -0.20912766299893492672 0.019752736533342495073 -0.068354528360018512734 -0.10441202461304943672 0.084909917908876447745 -0.040085290722358730975 0.044786417723007954095 0.018656282419496621194 0.15175721975782788253 -0.14396450713094727236 0.015053420858668238591 0.043683913701244442285 -0.0059542072923649850755 -0.12207467117989624639 0.035850607199240866474 -0.062031026293106472647 -0.0018093608196356227025 0.13097385118034712836 -0.11998794925784270204;-0.019198906641549867008 0.13910681610114741802 -0.080857531030721740972 -0.062406964748382684482 0.044881783953209943017 0.16908541375437399767 -0.15708953474218373403 -0.18688025385711157234 0.23349254114717990505 -0.23118201845397889915 -0.18796849351182753907 0.27763467779658962398 -0.27283512437181095533 0.2109628599849568964 -0.088180830997955358952 -0.13848116342336738716 -0.072156932777804744239 0.032288011124493573578 0.35237479532790016989 -0.039137669450068947319 -0.016491676158402909097 -0.16018112542146673016 -0.2271376532683064553 0.38795357045083306291 -0.20977098329237037211 -0.088467128133134759205 0.022903256624650994433 0.0053214349219988330703 0.086431137332335206125 -0.083518199450444835508 -0.089155445268687238958 -0.021479097946227414945 -0.19161602862144833104 0.54672988404546851715 0.0020180169400866388232 -0.13505864218005766975 -0.19069927315751622476 0.42465657254856220559 -0.16271614557777519527 0.10093505020909976366 -0.074170525910229004318 -0.2303773773695250715 0.10242504408774072422 0.0055804441188722769818 -0.20931374066169516901 0.20257131750303009055 0.10332302112312936881 -0.0050221262223548307491 0.091776010933955584625 0.23740124968210227219 0.062939066246396196957 -0.15996082267816172373 -0.33502525108858238756 0.27602242815862682024 -0.13665627007571309881 -0.16136851275229577296 0.13707857732616984814 0.08038970500312789258 0.03179123135046284937 0.1160692749120699474 -0.16689800293859768932 0.19426076506894249252 -0.24973777833273036464 0.077071165703673588654 0.032030605073933265947;0.94308621833958039549 0.072595396242227674954 -1.068749446378863599 -0.51389496426155323316 0.4497373568089608753 0.25532126611515137959 0.20380548989506769297 0.04615847638832903943 0.20580803912507400488 -0.017277423779179592461 0.086373732659671395573 1.033286760058303555 -0.49805289542918151913 -0.73549602536850300361 -0.24374735466795446892 -0.8614724298813465353 -0.42980685989429945337 -0.78326057767433354684 -0.48696969984652882513 0.26699531516051566715 0.1325450316143117202 -0.15685681812317187056 -0.50283478747038812262 0.35648352134796029711 -0.097844958050801095206 -0.26171432907941083457 -0.2584669589099010123 -0.27556432251255474908 -0.44574652739038905791 0.031040579683766306163 0.27334601527409990718 0.37479058932231862356 0.24277445917226150862 -0.22576246067693722663 0.1628403032361330216 -0.14013118156261666902 0.24244540577056961084 0.16064456458091608271 0.28804586886551325486 -0.10883372156259625563 -0.13380136053939420404 -0.054415911985463708 0.045325639055733689398 -0.35941040216949998731 0.05906913803022421916 0.12092601597027823057 0.24034236754573129469 0.44913471742337818249 -0.0078793166884544157957 -0.033792204752109554489 0.76571817297173661032 0.20262956321903385914 0.20907513026320490024 0.53167353587213428412 -0.26977269119096936034 -0.60759074527331480287 -0.14374363432080361491 -0.17705389525413672835 0.47523247967990661644 0.5919787629669567286 0.089170294847541214933 0.14961197747917009959 -1.0097733848873564622 0.67152374928178093505 0.51725272387957477171;0.52837441475709001626 -0.56779458605205546107 0.19635302079522864993 -0.092621160979781097522 -0.44412684622543929791 -0.021222201989302247327 0.013765322757289213951 0.48431868481894718714 0.097135648029983132079 -0.35085485392716769804 -0.28060748443941307961 0.084859022282326682096 0.40941407553505093642 0.49121144276784312055 0.038835109910965462388 0.17611943008701139157 -0.33434370537149482594 -0.29525688149042739195 -0.050363218767942280474 -0.28634485218604749379 0.5511738489309264688 0.41028151642136440058 0.19810135289239982903 -0.078030189196391555595 0.05888483461484714937 -0.10054142021344847358 -0.025971272884092962141 -0.32510301926805684758 -0.015489300247194182775 0.062364838479385606429 0.32763882966168844657 -0.24291902946698731847 0.020547983963677671215 -0.37904823872907428273 0.20688540635605801032 0.41330734006595554186 0.11957681194884225984 0.17459017077944627427 0.027313353712187488087 -0.69678868406146587944 -0.27090821910718371202 0.096448102263316876082 0.19080478330422789845 0.12666513272983892513 0.016903053627326084657 -0.15265192168475874568 -0.22706449338344372735 0.38040246093743562694 -0.11145881794926164321 0.76824730470487512246 0.2354830283838857119 -0.33146012684586922958 0.49017752985926499321 -0.21329860488879923142 0.063175461925502246485 -0.043533510203467976063 0.038129072680857502287 -0.28745294594469977811 -0.12291778058420668729 0.62071424673092212565 0.33268394629498371229 -0.37477470101227028376 -0.17197466341422540381 -0.25320769545983529136 0.52319850794429068053;0.049302167001034666316 -0.076733942872051069672 -0.095035310137712464273 -0.024772294263682811954 0.25096259462736097978 -0.22661302727962776005 -0.093410174671651469147 -0.051123101891871504387 0.10764398043836825858 -0.0068817482688893092876 -0.47482272258881830229 -0.44145045455067843942 0.27826848963668537884 0.58875377580842513936 0.52940781814053650134 0.089245417157049491963 -0.18998574119568126251 -0.24533484207729050475 -0.23026640635766892906 0.037799942048067414202 -0.014540499000314822953 -0.23585296792142798616 0.081377958478259987407 0.011618172300798357971 -0.048413815711037540279 -0.1104346522673979869 0.072328697866320720844 0.0033207499172460547276 -0.03891575137651036298 0.25838468599311126273 -0.20031454820237806769 0.37084572924541397976 -0.21545420357271247158 -0.10041743051123680486 -0.16451131923024314707 -0.042661477887076297566 -0.097557136980224140599 -0.16308268330160671788 -0.18535264388286215587 0.28551839539305479132 0.2157752367780323699 -0.15459106890512239185 -0.1752167014366439457 0.26355706337704543074 -0.16481393591113963071 -0.08059180308207609944 0.18291051281444381527 0.056740030883827542729 -0.095486884499271104665 -0.22854141070995506735 0.022577743462665070262 0.15067509909319484751 0.25309063467137776771 0.14115279356472282268 -0.25109219526345394335 0.18651712663396385894 0.18739467556862346442 0.15538137739148868977 -0.082985339358158133338 -0.32819456722967488282 -0.06470835048962249314 0.30428698241430163218 -0.24778002702973961346 -0.063991384096134293347 0.29804424283973263154;-0.10815390492242800413 -0.12738748992174470098 0.058477700007432249774 0.012283163590909272622 -0.10216508930198923977 -0.0041278655864851014623 -0.040779018379537596006 0.12981797431374886287 0.1893512358002655549 -0.001085611539876601972 0.16829485351092057788 -0.35533888893842302537 -0.048650303265744460068 0.066792361826421647875 -0.1662769632047734758 -0.18734699835292356607 -0.087492613116009448904 -0.0044023690037981065212 0.10329594432855584984 0.13827071954603750714 0.34749760787107625282 -0.04348402276023674573 -0.13960385173941800008 -0.067803379985516568085 0.081558500128691355235 0.24801165465354116368 0.23146200415242826343 0.023378706463473054172 -0.30222898815212873025 0.1045030605258822215 0.1972573247300607735 -0.066280902624913817789 -0.33749411395229556021 -0.090372332258122564652 -0.12606639981114298177 0.12008613877231845424 -0.012408488940456346983 -0.43078313413820146227 -0.16430558141313830745 0.45970671212906999425 0.14617322830202317263 0.29050848447414928666 -0.040078976785573164343 -0.062499786928575370992 0.0063645623935851599468 -0.1930216169760428091 0.03087786597105422054 0.075220350735807767206 -0.1602203842848464177 0.099163064845586304519 0.052278310022538597435 -0.54929908366032720313 -0.067389508147012139316 -0.062167739642286584667 0.053222616242379922058 0.026787950674867378603 0.29413396337332231578 -0.025513939330786161719 0.2265947370589802834 -0.29646784549922877705 0.15823387852395032205 -0.055974537469540681933 -0.027906474880325344429 -0.078154424596030974692 -0.12147080124937237322;0.033502745159980383549 0.063354668593042728908 0.77162078858808913484 -0.41725000141848633817 -0.19327382561056780097 -0.26262625935686678691 0.16418987903094778291 0.15468148776626317042 0.066448565913581822406 -0.48651216467020530487 -0.2136313529209078188 -0.14858316731705600855 0.34484510101355481115 0.29099388009544291389 0.10457014840146799939 0.15257711190645281696 -0.1525867378627299431 0.34816208059898995364 0.89729089747445855973 0.67119334833776000959 -0.3094053976482014634 0.031000356354977283424 -0.48499855434075728189 -0.46356638479285250387 -0.16626813960302569417 0.13899157202542697376 0.29334804972877054352 -0.22737237913815983026 0.049660500599837544 0.053290589634667845376 0.19992946258386404268 0.17228410393833892833 -0.3257627246182756009 -0.094107770755836456233 0.42612854430847763032 0.23986177648790105166 0.28246858782447697989 0.3315480087003351839 -0.1653981150442666026 -0.26900743127625154072 0.0147415240945929088 -0.31839399811252666606 -0.65991905830540809053 -0.41141921137590942159 0.77306188063953740208 0.47184755198584427127 -0.32445533119917868703 -0.43838773895854671325 0.020052189633926503082 0.84785037078902125707 0.093142956360478340594 -0.30615334916071851312 0.087282175447407628344 -0.48417482053803384545 -0.18449910280483253211 0.26456294970885091411 -0.052376112959541268332 0.19121682810497506178 -0.10145859952072540378 -0.22794340761513762206 0.32886649422351821315 -0.092680459196216147255 0.46251965921607507415 -0.64139984788655302061 0.32552223898777232769;0.1309208811562348751 -0.22249287894256117304 0.26053777892904111946 -0.37463338543918217605 0.22865178379085149274 -0.29472242371785578596 -0.1067920492813238531 0.54806135958670021413 -0.27435489882803776318 0.26718327629893889874 -0.063912438448191971618 -0.25308480552974410571 0.3983110925886094722 -0.36285877125368576346 -0.12509349127384750133 0.16595717629287082273 0.066070272396885315613 -0.094716823464168140023 -0.13672032258933675131 0.1361937837361359982 -0.058465693311987171343 0.36386277241914644076 -0.32281107830094263322 -0.25699085391600767769 -0.041358348683705838111 0.28092818439365063732 0.40867716057017328124 -0.21272492870311596191 -0.41767946088072449573 0.33383555082980781448 0.049872603708081872376 0.002001278230924774526 0.16246449793198247669 -0.37668767663571567361 -0.23374573195977482731 0.067636848968805979299 0.16958398275809311029 -0.031394904246090579725 -0.047224159031057956482 -0.20170843364599080894 0.56051227224805000304 -0.22182923735597132042 -0.1617640774857450614 -0.080206448309438016508 0.17994276966609445978 -0.0488042773623969528 0.04219592769829613732 0.014076592850599487297 0.021557922474816519631 -0.0069258212338340965908 -0.13033537297460523474 -0.025007341914493601276 0.31047165601578868843 -0.22359941029899549347 -0.078869508565016233081 0.035344917525966995653 0.18612121178459456461 -0.10543597309343265278 0.082548684672750130553 -0.40070520833957046225 0.49622887818528571557 -0.17855010049605382627 0.10024563545988532387 -0.15586822263025065793 0.070256208768195466119;-0.0063600871040352625549 0.092266006113922216514 -0.20408495644527849255 0.22830763607543830274 -0.059425640497528034456 -0.14602985646624924709 0.13218206866461371107 -0.21477011674727269908 0.13994177283122205546 0.087387914052076839933 -0.16295562423060142021 0.058294447242431199352 -0.0084011900768408143136 0.088194350952507535868 0.15614636184735600222 0.00044112361109570168149 -0.060842349950633006772 -0.05596747276700046736 -0.24984752045420208222 0.11448970220992477076 0.092179887965703061203 -0.12375344820504102783 0.12508426667979044566 0.17396755882803224824 -0.0507979445841430996 -0.1647709096151771524 -0.13229048183096625557 0.043963910036450323804 0.22761723597986652234 -0.20961098492258256609 0.083305787522319429961 -0.043635554493353802263 0.10370652724727862093 0.12868337915410846262 -0.19145196211145551479 -0.10760305420852389613 -0.07230518927174850452 -0.03111340607855752477 0.26257578429291444921 -0.11354490754890773918 -0.0004420366047548137528 0.0032872819304438308935 0.052994196282421156263 0.0032828016254687515663 -0.21286507590408143553 0.19019866344912933487 0.036485741894053971834 -0.084092681122983986564 0.067193378839072476216 -0.068914587439297680937 0.08146748315517814143 0.017424313610060734869 0.022771476854648933785 -0.010514890559322219443 -0.0036957390173315476239 -0.089111253466617579289 0.1157033792894182761 -0.10572484166995671506 0.075315132006136750742 -0.024477689398331701348 0.014944635291934391108 0.058240737712563717121 -0.15487610842764304442 0.091848816302221678032 0.028835801976323606477;-0.031682128513175263074 -0.16010250486304611339 0.11145925248074811664 -0.14644084183693101275 0.094698192537563188886 0.071724720706623029676 -0.072298367744228680953 -0.156789776098853334 -0.035419542061215815443 0.11251413307717475498 0.061274289002531782955 0.31701920169689973283 0.06230196260901342542 0.094695812019713707097 0.094939862063645324985 -0.01976638834094994468 -0.12678034924094055969 -0.13630350200662216809 -0.32500651825328952249 0.07511717216433985711 -0.071619985329545943209 0.14341941321164655698 0.10969305699899663253 -0.025952362010139888582 0.12289192304171156489 -0.10513093147586372034 0.29590879532897368387 -0.059224239700160261068 -0.16891515983582849891 0.06055607801613783342 -0.14179516925605464839 0.18432953370874541332 -0.184928681610061596 -0.221973962858587337 -0.15622795637047043327 0.28222296773273047865 -0.12853964479195273407 0.089735129115790540633 -0.12806888488778050972 -0.2557396812288386112 0.2914363757158297541 0.18989043734100916061 0.14122916732178414367 -0.10376334963216635177 0.14181199018584586535 -0.25560622470677379914 -0.10177728075250506989 0.04522152685187937754 -0.015632371569284701784 -0.40421322576919122005 -0.19411009626310335441 0.17368056991026020741 0.18770068712295590041 0.13371890499802044361 0.23269856001246858046 0.16854602504007920594 -0.17111881987056948295 -0.11175403700103739291 -0.24705310466886609699 0.23519983761289817159 -0.13763229645445898552 -0.16945541637689673364 0.28794066127769119001 -0.035418889873751774333 -0.024156999629893045889;0.16837798006808135654 0.47789967385942294653 0.097831764199470316878 -0.31363846608501777524 -0.19287309236227473397 -0.41477228586591885495 -0.36440312633970789458 -0.3786260475354745747 0.35158814685406047928 0.11610867926769084801 0.34972100329020366916 0.053383915005888460392 -0.13020222861371394396 0.32927167376772253915 -0.85743404083978824737 -1.4663905793341960315 -0.59812030352691725188 -0.77802435985187468059 -0.062047717147318021125 0.85234284600010534749 0.99417597688057479655 0.19030806532993524427 -0.80908047512776470889 -0.40103505930571270444 0.34585744511366650622 0.062540109511614483395 -0.047074280250876641973 -0.96746970159706568992 -0.45788722987700009037 -0.092008433823325172507 0.53276678973031443842 0.46743381686696261479 -0.035573687888048696748 -0.50601423656941213469 -0.030897674550892810508 0.85049454408587799037 0.74435772652532128379 0.21178481590394937495 -0.41772764181707122688 0.14288746414199221535 0.23119765357505928094 0.17738973815754946473 -0.52379797992652421534 -1.0637960843175038317 -0.30672194710435046749 0.77147623962004974185 0.88946922698879005154 0.78926879427471208217 0.46852508113183727323 -0.31322755353725351135 -0.70643333030625177216 -0.35742256917835929508 1.0039828425401151613 0.30782071931488241834 0.043298048574665251587 0.22840363864739776645 -0.055192627914704181502 0.54409585831619189378 -0.022108369819049941696 -0.43425919508174787298 0.29899927392924630087 -0.24082339239285427412 -0.27909925329615958844 1.0253497182125095311 -0.048201727670283772698;-0.13910124825008862715 0.0075367648833511175638 -0.12845156789697959043 0.53858548981902731878 -0.5829594626025852433 -0.095647645283024829155 -0.16235713464677425932 0.46700105481575188149 0.53328056614953733838 0.45179567685730093185 0.038937595405843204721 -0.64101674936381669578 -0.52372960711677074563 -0.28750057135735285208 0.28399484958983189919 -0.36177572506253385942 0.46657281221101448709 0.35873673639865688578 -0.071769153225023848974 -0.33064617254093636722 0.1711289977606646473 -0.023792834071743745178 0.47291889672277298562 0.17026891295725515851 0.18427516578911690148 -0.054453916503071637945 -0.25931743277608643172 0.13028245624851439444 -0.11081898053933561532 -0.070161297677820463892 -0.39423508112869481979 -0.040143382868820784437 0.10523147103199047281 0.29213112907038540911 0.40378659021862095546 0.36557568279403224176 -0.18739403813613131344 -0.25110294696736540354 0.037928107495115458148 -0.054259030250661380301 -0.081455295132254454393 0.096928236218706456673 0.15576083449467778563 -0.095929669134403011688 -0.37120678906153437016 0.50992463941392152105 -0.27069622276367033553 0.080424243564431632803 -0.09466158010682509949 -0.036260371570470864566 0.17799202362868207783 -0.1000920203446164225 -0.17566425368378565941 -0.031536722602347570799 0.25897888447963623992 -0.048060557577568732701 -0.1282885981476543924 -0.34826327504087750686 0.11886716807142472252 -0.20460486851323564372 0.038652777001598248585 0.30275653543825048475 -0.050289449469944638715 0.2576012275708470245 -0.44941416967861419485;-0.10220719222205620902 -0.12397329822818409228 -0.1582002380002882902 0.045107405902033131939 0.13372064468561026263 0.078521382250482177345 0.23931283582747117644 0.32423645259360667215 0.32687065869881215541 0.45522447174694991023 -0.13485031115260370793 -0.44923897799147810561 -0.3004469934899379191 -0.60664934657510949378 -0.60764935101340544765 -0.065818788118692059252 0.24480493418483392776 0.1636237897473840075 -0.19139431381166566171 -0.041667218240345950397 -0.035183834211821939097 0.075501345127178945416 0.26476882963201986421 -0.26801892044495800871 -0.06902055695037404015 0.083023500211519690728 0.091788218449814579225 -0.13180987697796972546 0.02138072570949634682 0.18900617636705663305 -0.030241225844416019797 -0.1932213421863189784 -0.31778366385795009386 -0.16559664934935433567 0.18886049665007351162 -0.10981382108277731868 0.21390090857985183392 -0.13327992994385165493 0.38276283078268058535 0.33518649140684014798 0.09576437623665173815 0.23323143145315666791 -0.045347670673445417133 -0.17030405373580320694 -0.58840377136088617416 -0.01193209051136957799 0.55119850403614811807 0.33211782887388296981 -0.3557348666954389671 -0.54765903151259276438 -0.19052074984482444964 -0.057492312714390508832 0.39633093143468889341 -0.12798442806895118928 0.17555357084980618976 -0.03406823263217822334 -0.0016208811807015260226 -0.028190894103890001832 -0.15202959622291059572 -0.078512910820207559848 -0.041658461375036454077 -0.13550346708630017778 0.17764022580778213167 0.50369738091373217337 -0.5864626135289963127;-0.54817046011956793716 0.15707504125373206172 0.18565399136320739903 0.065503887209926503488 0.097777063810266101607 0.34227898190779143528 -0.091003050127255277757 -0.19001878447734565913 -0.035456407438772513663 0.026475868843107593781 -0.36348933565277041779 -0.21499281215659071798 0.14510572816547614994 0.32460022123437370922 0.6191882682304622465 0.45566810334807389404 0.23748966670761645359 0.20917378329203437093 0.42098798252388525132 0.16961601024297817686 0.1331365990141574196 -0.020045470560138139993 0.12997665858910154024 -0.082906469135124061243 0.17357225855948874016 -0.1560742844036986654 0.17304228615231978528 0.092074696263599917212 0.41355468516916699118 0.021241935616491926936 0.23036319679556954698 -0.11421243594346286443 -0.20795593194465269993 -0.23497429962419666416 -0.25242024689014291861 -0.069281684055153766599 -0.0323518921595017106 -0.39219849916893151365 -0.10214506577061527315 0.075027805118484530711 0.07696647949744195305 0.21507201853565188765 0.27751553032132902921 -0.037422872995911016236 0.027689236723068413187 -0.048261298282126538495 -0.18791130120689325533 -0.3844474661518574865 -0.45787385977998257269 -0.066489643307842793973 0.014491100359009370657 -0.14899974069225860318 -0.26512101257175785252 -0.097140625429366869725 0.023119196842950846121 0.16874837238334577938 0.030855480988066927989 0.21086434554686828147 -0.24738568241785657831 -0.11680432725453313014 0.03305004924299985436 -0.21061177278204443186 -0.077053260956328292752 -0.020309067561436258686 -0.44067664652269761261;0.073111307116437762588 0.021347950637116586137 -0.058986633310860750457 0.079080936178448968388 -0.17166233416204168538 0.15540036162707882017 0.21667090284085330221 0.34821010908472899148 -0.097462063359739017909 0.2610455071477968958 -0.21493279283141947245 -0.028039643264854911819 0.10514353653560212787 -0.10231320965851320448 0.061038586456778377853 0.071671005386816311056 0.1542358474429701698 0.1373572095508722446 -0.066741250263007492749 -0.51548691496197152073 -0.011279216591490406896 0.17013328030700264337 0.080681838217483189957 0.48364175258459046747 -0.21746282935372346357 -0.12234154962327563332 0.23921553953994786901 0.014001667518927571679 -0.2331482966676770574 -0.25850208253979745088 0.042344256806367636115 0.28751589877735539424 -0.17739323407113710696 0.13857251513223464712 0.066564194773811091732 0.19910163446434198109 -0.040714878357668585207 -0.13711193610660696307 -0.024821471872560174621 -0.29799896555384242092 -0.0002803573958071277003 0.033899598833239216744 0.22206881737836137169 -0.061534286197274731811 -0.075417001234501276907 0.14316311070349735379 -0.17849864938225323829 -0.059560439816135929414 -0.15733497329356499472 -0.23507443511449949147 -0.083763075650812118811 0.14222948822375375277 0.0019473765609434173784 0.0077599537761641711187 0.048272689316487121802 0.061374045956008677072 -0.2565578298904772625 -0.094038891613178313134 0.097583790906575901269 0.083010867262257606591 -0.18567741280823929495 0.24243244295694563184 -0.060115264062951499768 0.056584374084985157582 -0.22186037575090022944;0.15501057424562020293 -0.30318603612286260107 0.098443761145115757372 -0.072302779770068686949 -0.20001531470194175433 -0.066737225765297836233 0.17606574221513218714 0.023657256482170062328 0.098885039537076224736 0.1811840537089361991 -0.21751273067319917831 -0.11251664194834910815 0.13832958645865356395 0.027220563941777638217 -0.063340250662501332291 0.0068233067643424689941 0.098204821136469083731 -0.214398630641954413 -0.056329797299753188444 -0.17644893293424859793 0.13446813706413626721 0.19664172777716346086 -0.38789201256504296511 0.31181247771249165357 0.23782213286968420518 -0.026578909072146515713 -0.13616630253769498871 0.20019605624218045348 -0.33934496284735293781 -0.0038329195345468041259 -0.04723854092172777297 0.08486724759342760549 0.011395919405529829349 -0.30645873235703213755 -0.025237438157470017119 0.26362860079112671041 -0.070955311375947058283 0.018740113149853930563 -0.21818463141594901522 0.075540298488549137423 0.25486820639582147274 0.001968974058192428378 -0.14103970856628969544 0.074497419622467822564 -0.17212110117049789215 -0.053397303924488978555 0.089906656928098613313 0.21009237270687855514 0.0898738450023533475 -0.19159599100352711631 -0.13247431148752283891 -0.032409321872382684804 0.10127480813503404733 0.27290242511154128024 -0.22719047193997840561 -0.21164145712694867885 0.2499517130135193721 0.11116751351712772511 -0.1907529297939186963 -0.053469408100401363826 0.049674350531671518372 0.25689172474096311216 -0.28528863715588143046 0.17731182753279495223 -0.059461562620424769643;-0.13889209001609134631 0.080802990043540107168 -0.10810586138634721565 0.25991304160355233055 0.18778807227869856455 -0.055062265876354585248 0.099895498892868445084 -0.13171090779374319824 0.22110176144327481351 -0.23328917591605019544 -0.48779754652947032723 0.16983957231646273911 -0.03782058990516273117 0.018146634061342675759 0.11477781671523881735 0.031674177895995803134 -0.18257399774544458282 -0.074194959963374523815 0.20850309106997541586 0.60743024004790313608 0.070464388038532749237 -0.36852378455733225682 -0.1370940013589536377 0.033651138692881187031 -0.29598702022875555961 0.012753397422040117781 -0.18058489800966945338 0.54235646558617067736 0.146008208819151164 0.01650465997684617131 -0.28281385848135531802 -0.095976054052510612058 -0.09161920744981152942 -0.0068703796219682887469 0.21161942795664909212 0.11693746400323512535 0.050493365519683128251 -0.22279391463264996975 0.0019344458867530649887 0.12297087781890332636 -0.15917499971225781974 -0.14445690294284535549 0.3053143285829202358 0.014439951161132318774 -0.058941962804622438643 0.21751016680577042739 -0.26871355336251462331 -0.22155377783512869572 -0.035759217052059810715 0.2082138477257550746 0.1932737272213058688 -0.14715080734303004339 -0.31838435888526445128 -0.069970705995875237537 0.29175378245806216082 -0.23295647662847623893 0.065747223317434114187 0.2735113747622118785 0.13940409224402242061 0.05040921733163287316 -0.36926681527033239361 -0.064775526467532693053 0.1693794531590928909 -0.1432172084161052461 0.044835945058234662197;-0.59411095872185937239 -0.49384641521056205082 0.01707887904041786864 0.34063711305994293088 -0.074887609114240416552 -0.36394614593065388597 -0.13965777674893892213 0.040415985774539732456 0.028756800366089487614 -0.18470104162328501718 0.066321366140123960697 -0.060317901848897570449 0.021817151850817333159 0.14344535800588015251 0.28088478133288075078 -0.10136427756898205854 -0.22771189829427385121 0.57011099019128441689 0.2798772049843268328 -0.11871617574136429651 -0.20153228290141433909 -0.012711618861473174963 -0.017062844350168540619 0.34223878418093711673 0.17999796995991756976 0.17810721006064728078 -0.3076816578890371745 -0.39358041152607003976 -0.26869306955795113634 0.11962206027243621476 0.01352998026528247355 -0.16086333905632005381 -0.17356500354191087276 -0.35751977067114282249 -0.19290223046342949709 0.44117100713678308876 0.20339294282690772997 0.25003810882009980254 0.69580146799576414463 0.28404231108157468322 0.056849297516793247109 -0.18630734169002208245 -0.75283127065412247525 -0.93997583479919200045 -0.43389311772223088104 0.9756873745669722986 1.018763881279900918 0.29397339010001460879 0.61474725247895800617 0.10548221206944015382 -0.13857329053974598576 -0.59751647943733832147 -0.44838330413058768986 -0.72623448179729044316 -0.75144998799534057365 -0.077329122463135779864 -0.33237293438284642999 -0.10649005487735183073 0.019675668499543524925 0.62801035042751385262 0.28121853860508344569 0.33232249672641034355 0.30837000894409727358 -0.30410810781377350942 -0.79273061148216839022;-0.73609868410835022079 0.19143811765419060933 0.20139619627127725021 0.47718274790050546619 0.076848416056172166866 -0.34038579478299918479 -0.040411476556216199829 -0.21490260726694887516 0.54747011386067256922 -0.17786383093582758264 -0.17045176051114299676 -0.02444306408898639163 -0.27946575025365399947 -0.14027925877733160576 0.9936201011011733808 0.68008487224345981481 0.42571609788390607498 0.38076042627247164152 0.067694573179863076762 0.43650002152281985879 0.278593701415683348 -0.056546394780540215619 0.28918633741007349069 -0.22944342309914780853 -0.46652086432046296904 -0.056348013101365175548 0.27565395955977367581 0.43426227569274605811 0.32980519595399149235 0.54405927541884302467 -0.00094752769982619534928 -0.19382938071893315857 -0.44806282026381705208 -0.66149844519926526143 -0.15657171601947911244 0.085023867322411766922 -0.26524996173551729228 0.12313876376964486004 -0.21091962475639697283 0.095519805199934554318 -0.096255544285808056215 0.4557678311179138575 0.36157975191731273057 -0.22442349668964897691 -0.020424703342991554211 0.098720540822542446335 -0.36380765416860605388 -0.36153404534632227474 -0.41574203895682798615 -0.45815504662197548136 0.60567189736431525926 -0.66074078358766885621 -0.43243064197008934668 0.46877728225023562736 -0.03890850138887669285 -0.3710406021353892525 0.12983550626007003825 0.35894577979017810998 0.19308827803901373876 -0.46522714037652257435 -0.29796180058563670467 0.045345502446543242692 -0.2813683008119871598 0.19873702776524146407 -0.62469217751390804239;-0.0014191682665144218084 -0.085833429611413283866 0.12118833837060156988 -0.043657526409360672415 0.38814554792275979267 0.044531999991297699371 0.092139059074838228214 0.18793157077918071218 0.21859564067317580061 -0.24056567097929787424 -0.020217161075880125953 -0.096389537989699458631 0.23269697957014776057 -0.25279519287410789907 0.12252713633050363318 0.15239833969934762914 0.065079922570825413097 -0.25661354477875975011 -0.255989045543856375 0.046603821735389301673 -0.18717572671068413714 -0.067520014958349333645 0.4897862120901995131 0.35278479001838791707 0.29266382857884165603 0.0016352190890464536263 -0.38613461509610635947 -0.054199547163044384246 -0.15959076773831104568 -0.24715785738605713928 -0.28232557225805610113 0.26063656640530397102 -0.098978562740658457275 0.26592841001965339398 -0.078993556382781965342 0.38889122862445191231 0.28504744056616920789 0.22171519073000403588 0.30390590306621789729 -0.051657945143754727124 -0.10872140051914458425 0.012424930040568276865 -0.29756024407124276321 -0.22455038462735493754 -0.28537513639663814047 0.1267622225205598252 0.09096656617418989732 0.078829079664215137568 -0.28968490889817932743 -0.10945086004017545722 0.30287970988419871121 0.3014866277369890879 0.29368860302109717209 -0.052449852537700923649 -0.30905909255983227135 -0.44354857140199555054 -0.13760408443009528034 -0.26005233298665819675 -0.039819846865162850102 0.024334527875991756457 0.066518933874971486464 0.35222787037592800941 0.2282971293677397151 0.024568563243307355026 -0.36188173258403449895;0.2496051910503717941 -0.15858825260496420273 -0.036489433762649417514 -0.099634022162167143466 0.095785903176778805501 0.050887147840117497033 0.27107452145485938511 0.19746850416909941806 0.37585448400657578416 0.069744987109286338267 0.13184536705456678662 0.026972391002082922451 -0.32014265196404095848 0.0062529147348281688412 -0.12983100208144984777 0.30564070419309663507 0.097249746971186365463 -0.13934049667533343619 -0.1317633606475858421 -0.029353310839273998034 -0.049779070592855176325 -0.092544750787375978929 0.094156935430249874552 0.19404743392082321463 0.24837055321629361582 -0.072346159607548088388 0.024185019375976991168 -0.075671329294530062515 0.19003943532723674426 -0.3471463622453082043 -0.26394619957014781031 -0.0028082231126480890898 0.16497051307760796091 0.33272974066044247454 0.22484532056031697467 0.36704700713621918329 -0.32264583912301980639 -0.52680464109790992033 -0.15706857887862618606 -0.44954574912565270495 -0.088294631313991026045 0.54474492820886333266 0.14956868507280260405 0.055145943986694354044 0.10490157001920558111 -0.00035708642985485261612 -0.39609583705385292829 -0.09435386075623911073 -0.21353437157061849749 -0.42461798866138900088 0.18547847841845266359 0.28840633990937281084 