function [y1] = NN2_stage2_5MHz_4_5PRN_autoenc(x1)
%NEURAL_FUNCTION neural network simulation function.
% 160 Encoder Neurons
% Auto-generated by MATLAB, 16-Mar-2019 12:15:17.
% 
% [y1] = neural_function(x1) takes these arguments:
%   x = 35xQ matrix, input #1
% and returns:
%   y = 35xQ matrix, output #1
% where Q is the number of samples.

%#ok<*RPMT0>

% ===== NEURAL NETWORK CONSTANTS =====

% Input 1
x1_step1.xoffset = [0.000100646016722838;0.000318713695021143;8.80340398223012e-05;0.00027904361664689;0.000297079886654067;0.00054126372108066;0.000638536263495262;8.60915120643601e-05;0.0011994559908685;0.000527960428577097;0.000482258268145103;0.000513684587699884;0.000665254174888296;0.00119597782655951;0.0004560645622429;0.0014744021745535;0.00312903727575637;0.00122161888799076;0.00164850422892505;0.000600969749891781;0.00101077693306907;0.000817056231244484;0.000413828777531831;0.000657102055834322;0.000877937449275729;0.000187404761767131;0.0008075036828831;0.000498735478051486;0.000892096748559341;0.00018609114750857;0.00113643268387713;0.000810570137419779;0.000482127055184953;0.000414721242352308;0.000175191178355252];
x1_step1.gain = [1.00010065614736;1.00031881530583;1.92374583477041;1.00027912150372;1.92451978247387;6.93481419712067;1.92578529215817;1.00008609892445;1.00120089641327;1.00112562606231;1.00085460122457;1.00087887681746;1.00066569703262;1.00155568752354;1.00045627265203;1.00147657924621;1.00350532997065;1.00122311306601;1.00203627200496;1.00060133113171;1.92716679247822;6.9481029290539;6.92869105193315;1.92585414862708;1.00087870890073;1.92411365605729;1.92641213697983;1.00049898433924;1.92672611840371;6.91777533043097;8.02853366308293;8.53712992373845;14.023436355529;10.8482398860137;15.0136686529276];
x1_step1.ymin = 0;

% Layer 1
b1 = [-2.943948493666657118;-2.4687186857925897954;-2.5423705085659595859;-2.9433181988921051087;-2.9436791749569422016;-2.9436133981108261182;-2.4919405733480921583;-2.9447891687939340422;-2.9448697917568442683;-2.943883211904685826;-2.9451284866815257146;-2.9448778412313165731;-2.9445624382515118711;-2.9451501440982883473;-2.944919713502320846;-2.9441041355427337578;-2.9437210746401607508;-2.9452841584451352475;-2.9436574081073625386;-2.4929613225438975732;-2.4699065325667581838;-2.944377514784661809;-2.9444315118610453474;-2.9450834530167253611;-2.9436079165017541293;-3.5911996938349628472;-2.9444439379123461542;-2.5410730032827828495;-2.4684785424958284317;-2.9452076636853794511;-2.9447696887148349099;-2.9448010728066522645;-2.9447596133012927666;-2.9434819599032047144;-2.9444494057979309076;-2.9451209723495272996;-2.9451161108151238111;-2.9450296595350846651;-2.9449237421043741314;-2.9448716496953708521;-2.9450962854754667575;-2.9446169539395476988;-2.9451363427047190235;-2.4684358993013084671;-2.9447875658916808916;-2.9492782533523089761;-2.9437432692340528284;-2.9449597680172243663;-2.9449846103726349256;-2.9444827755098148536;-2.9445238374668427639;-2.9450167500051378511;-2.6986792251200197867;-2.9450810864701502112;-2.9435523307466744392;-2.9443184662662424955;-2.9451655461966632643;-2.9434415217544001031;-2.4653599039995168773;-2.9449704404212755371;-2.9460988621303294543;-2.9435801275037696279;-2.9432692364177888145;-2.943037085621757587;-2.9439227150113271847;-2.9436926688438425082;-2.9444931900207125253;-2.9450406899306620367;-2.4687107384807962518;-2.9448489641526336413;-2.9432943044887394102;-2.9434223646766799476;-2.7038201179643972516;-2.9438255318671902039;-2.9435890420832988568;-2.9447771154990380893;-2.9442032332459309174;-2.9461302331060936766;-2.7131189326524909333;-2.9451151301994924481;-2.9448720651758302225;-2.9442026135552050725;-2.9446541111070279051;-2.9435753854837973797;-2.46875026394995567;-2.946829039752752788;-2.4686663177485534959;-2.9444006936280646691;-2.9438714274449799824;-2.9439804233029644998;-2.4689625391766072404;-2.9433620660783814671;-2.9437020682832835128;-2.9446267398339629473;-2.4682006213207028367;-2.9442100344179173987;-2.4678990717366904306;-2.94618069432024976;-2.9439331346093609021;-2.4688403638456710709;-2.9436534221580084036;-2.9446614860627144949;-2.9452431856018193024;-2.9442502914444848017;-2.9432739263793208373;-2.9437335328658469358;-2.4718857925245414364;-2.9449052429044555446;-2.9441693517174774009;-2.9448237190670005781;-2.944625549376571616;-2.9443503051298449691;-2.3066528240740939992;-2.9442097946994056912;-2.9449824834296647325;-2.9428878174911057286;-2.9450660528172032393;-2.9449015526416668642;-2.9396706766940172706;-2.8404605276066239306;-2.9438899093162249621;-2.9440005225843188796;-2.9447323042710160657;-2.9437190224712064257;-2.9437365399593713455;-2.9439107733623970375;-2.9445282827673229242;-2.9440854730447454379;-2.9452926595275235044;-3.5976486008796730864;-2.9436183990791957577;-2.4678558171031452773;-2.9450940646154717406;-2.945155090782528351;-3.5985468851963493542;-2.9435948436718524235;-2.9442078050041451398;-2.9441419018510091021;-2.945117670102244567;-2.9446979524529326433;-2.4680004259825980562;-2.9452855915558928679;-2.7060243838984496811;-2.9436035847854786773;-2.9438009584715763012;-2.9447995454916502389;-2.9437954891414501724;-2.9449116208257191118;-2.5125718895808923925;-2.9414947028974705034;-3.5999319951188333278;-2.9450913210782840856;-2.9447020993344850126;-2.9436608532599382038;-2.945227308460461213;-2.9443863370914762356;-2.9450954332738219499;-2.3054469509197694777;-2.945086969942256605;-3.6009343111706457741];
IW1_1 = [-3.0127161460500668155e-05 2.4498482194968820765e-05 -5.9492054287886556225e-05 1.5375670499972635911e-05 -3.4625739627742726991e-05 -0.00015178968996989569066 3.61293306058715628e-05 -7.544134399123131763e-05 4.2012335126841564314e-05 -7.7559275938475920028e-05 -0.00010625778793176689316 -0.00013121812498074830137 1.2357089252311220448e-05 0.00024185298531275223398 -0.00033264835705303861515 -0.00015957664939755968449 -0.0012540112851394580231 8.6564771182817020737e-05 0.00094359682846526426927 -0.00024218439046376770722 0.00042306504596849981532 -0.00035842123647478868736 -6.6956417320772069666e-05 0.00010651913959089965862 -7.317646713967631189e-05 0.0001327349958018627285 -9.8898667566508867812e-05 3.134948627571176237e-05 1.2706249244013760803e-05 -0.00022244539060220183029 0.00021632646640919235711 -0.00026813251015300331066 0.00017665017178883522992 -5.9219639529313224514e-05 8.1789314991239769198e-05;0.010810260997051263088 0.0087480512792313634696 0.029745213502697750996 0.016334991199791207978 0.025857172552690852602 0.11681549044432745776 0.043748647705115550899 0.028668030182491630042 0.042003609700978758457 0.086702800066401672363 0.18775120627183619626 0.3119891230159036466 0.37970077731411699951 0.25849382784879137986 0.10769870613156938555 0.021578299511685376799 -0.36735336271290763843 -0.65592951593670634214 -0.2683716729651902666 -0.076809676483620525911 -0.08291451436927572971 -0.28480979919242621623 -0.09372307373739732772 -0.052908337688178264102 -0.0089191964135213984421 -0.019685328036397279489 -0.028027568808426141234 -0.0028617213023364386666 -0.019530835386383307156 -0.013270809105254008364 -0.035041789972390588459 0.048169423422552017089 0.075528177507522178957 -0.02621829872455432725 0.070712703931679748992;0.0084827341172461837027 0.0087356176596389695233 0.069440152400050553227 0.0085107460742617716681 0.060568273981045916976 0.079791697789301688215 0.089282288751504984559 0.031702290718315435936 0.014525804466136042759 0.021431591546350482053 -0.02976788985431113449 1.1807466454833479563 1.3250395900268208127 0.090283756852466215403 -0.13452929126807697258 -0.24295698894845663141 -0.60131354761228728023 -0.99810157835959090189 -0.41473577393316263251 -0.11364164739327446696 -0.17070544871362164363 -0.31427322272316066121 -0.25446951992371313889 -0.079684151368336370025 -0.01403850397301594638 -0.043668400265856867348 -0.046627565728234905695 -0.012276855717666627227 -0.013892967664647721399 -0.17058830979783265458 -0.063747120275361959796 0.37395952321623004977 -0.042387459101278099349 -0.079677498620692274733 -0.0074754544782319404597;-1.0079005030672592665e-05 -1.6962330237906008985e-05 -2.0499159833556540936e-05 1.2506594990338948354e-05 -3.0509309795984515198e-05 0.00011933895151860338568 -5.9791805014641306052e-06 -7.9325296505623863093e-06 2.0375008650074597757e-05 3.2291015888951083866e-05 0.00012211603667947095115 -7.2021994131068353098e-05 0.00023579457155136117016 0.00037040267901984765507 0.00035021061858881200567 0.00049879266311003223403 -0.00051597510392572426031 -0.00093438191394731959661 -0.00031276707434114536365 -0.00017060698190740061558 -2.9027171534972564886e-05 -0.0005625868435944461534 9.165105689434679014e-07 -9.7989148924808750505e-05 -3.4786770876776517661e-05 -1.6837103562650752669e-05 -7.6037005529465005651e-05 -1.0933608157124015433e-06 -5.4349219829740217334e-05 -3.294446878814780822e-05 -0.00013420451017944612501 -0.00010363110861012523136 0.00013009611690706815554 -0.00013028153458679472116 0.00023273843775734870116;-1.6580967003494099297e-06 5.4295778461045544948e-05 2.2861776061549259038e-05 3.9915349098765587864e-05 5.5660839096082431006e-05 6.3959503414327925934e-05 0.00013029186387065010686 7.309915450797135108e-06 0.00013732982613493441401 0.00023359137671843339186 0.00028169041265279455219 0.00052215805170010610742 9.2577467561009648984e-05 0.00019079573837718372814 -0.00017435004025463806559 -0.00029812605603729628841 -0.0015507615599441959379 -0.00041559788019874930763 0.00084216269861681189359 -0.00028887274226784416227 0.00040079774313784676931 -0.00048855963298724406404 -0.00012736014550780608116 0.00010557746266062157455 -6.9550422109106480885e-05 0.0001372435835961918261 -0.00010040227390694026594 4.4092224294597771156e-05 2.4099918546279799973e-05 -0.00020228225679276906819 0.00037013176648161661775 -0.00017291494591654060298 0.00011323416806333009199 8.0499728187575752126e-05 0.00014741025658918934871;-2.0256499711526312663e-05 4.632756855014895554e-05 -2.6621164558940314717e-05 3.7119285534035334744e-05 7.7952666724120145593e-06 -1.6346304083750627233e-05 0.00010446155515302556151 -4.2493054337895119483e-05 0.00011610159164486826174 7.5477647535279407203e-05 0.00015097192249226588641 0.00029135024617438253555 0.0001743022310800995667 0.00036531398219065913061 -0.00025248659690548067198 -0.00023923717792795237387 -0.0017457141378551081778 -0.00030679916629744734442 0.00099823658074455596211 -0.0003329539438036770117 0.00047958104024328675891 -0.00056042206321274892766 -0.00013207719503624854745 0.00011412320937628100698 -8.9114377482188181462e-05 0.00015854447890397392346 -0.00012646418516166181502 4.3208825474427572336e-05 1.4012403530075100245e-05 -0.00026093093574752914245 0.0003484953795830505823 -0.00025927477583000336147 0.0002160093179011274853 1.0425705765750182809e-05 0.00016895835368322848782;0.011690642952096754956 0.039594123940047923349 0.032662711958843362869 0.038188555318668992999 0.071600673746054166457 0.2522358565717055523 0.16017536610582919221 0.037278163962728400049 0.18047485714296473969 0.18930158937581897938 1.1652324137509506574 1.2537444141350553295 0.039933019494283544804 -0.19699297233554874387 -0.2713465605618974319 -0.23687511293420615566 -0.60798448206129629412 -0.9593346391803339035 -0.41362974244257078027 -0.13599755670475657809 -0.13832869742013373382 -0.49740185268030312482 -0.2521808554949745429 -0.077444279901793297571 -0.02609821495878314121 -0.047502982569117550848 -0.045421791448982062889 -0.0019805790136373886343 -0.058525482886436615282 -0.0066419047776083220413 0.26102886098670929904 -0.0055336655396787740036 -0.082799341459286524003 -0.083339188035754047101 0.059059541812992798204;9.1811829932941210796e-06 -4.7515824584675675024e-05 1.4904851799715877064e-05 -4.3141427949983351519e-05 -1.5934933368870775723e-05 -5.0468725329186705543e-05 -0.00011242032610409049263 2.745495999036490651e-05 -0.00012018299177727161846 -6.2847775393135824171e-05 -0.0001980720958931116583 -0.00033903070035532173552 -0.00015218650605547341453 -0.00029176940687133658082 0.00015816525854559629664 -1.5394194334335264024e-06 0.0011796453111631674971 0.00024553459251549684212 -0.00077029862989785576142 0.00025270076759448809652 -0.00041032905749329898855 0.00038171846790187004749 7.5921128111173843945e-05 -0.00011083656965640736641 6.5869213271094756586e-05 -0.00014973581642998759619 9.1135437277727510174e-05 -4.0981667139771926181e-05 -2.2268158291387898836e-05 0.00019664873706049930901 -0.00035188129222135362904 0.00016473206511757296265 -0.00021781828775259629428 -3.1886506579612797652e-05 -0.00019756428422124190018;1.5540072141368989719e-05 -5.3135578495329437772e-05 2.5288044983698504219e-05 -4.628798511768490129e-05 -1.418558664063989358e-05 -2.2839605658376359418e-05 -0.00012524086974577481788 4.1373616970955883561e-05 -0.00012952955782836924345 -4.5004382459308667056e-05 -0.00018748361063541300973 -0.00034110669331520302892 -0.00016999350148755890079 -0.00039390079841935421055 0.00013064664340925637035 9.6017522091245967276e-06 0.0014218011457606991813 0.00026879526316021866384 -0.00091095967742988782391 0.0002998882067191533502 -0.00047903549315244395388 0.00043356783378649952406 0.00011008065139322862583 -0.00013105378660059580987 8.0814364014767712629e-05 -0.00017259617028487936287 0.00010722823313971902113 -4.5516129617759758556e-05 -2.4015759096730982186e-05 0.00024343523657745119487 -0.00039952614448095355101 0.00021036342266600636616 -0.0002417691931922604431 -5.5963597355990586039e-05 -0.00022275171965995986187;7.5458916565108893719e-05 -8.7652441777596540535e-05 0.00015505209982434578942 -7.1580728832043141242e-05 4.8402179959482579579e-05 7.4495532303106348554e-05 -0.00018719159182582987004 0.00016973831115677361233 -0.00022792436133395582026 0.00012732291732684482711 -0.00018306699331945906046 -0.00046215067840779579939 9.5363137343010094668e-05 -0.00019729276270777723287 0.00059688669885524291234 0.00017999027770602513024 0.0025598550357263083997 -0.00089958538498081973885 -0.0024933032425598477405 0.00053030191506701592537 -0.0012107781668089035235 0.00032600892591649568335 0.00010153660412066673868 -0.00037724795962002508672 0.00018247586554450795056 -0.00040184428150892939104 0.00019351316598721914303 -9.5602219897328275812e-05 -7.6388434174984879083e-05 0.00058322148653532264202 -0.0009932761976910319153 0.0004930733636498549257 -0.00033210458538264161533 -0.00017494351159542267742 -0.00036123782228976089722;5.0048300198044547971e-06 -1.8137873760798607349e-05 8.1813225619146362543e-06 -2.1517073448421777118e-05 -4.1514660039290930788e-06 -3.0733039515357198676e-05 -5.4205060371230347194e-05 8.9589099635362401825e-06 -6.1859833693835516197e-05 -7.043181682245801007e-05 -0.00017228861000057082205 -0.00018231092828291877534 -0.00011681221570694533989 -0.00015105401997927926563 6.0649441358452472518e-05 -6.8358481345835475943e-05 0.00064404652652425074637 0.00045984458956570365426 -0.00016889090671058702795 0.00016275754493554653009 -0.00012509699684711846459 0.00035099826332398250837 0.00012015788755582266904 -1.1283745950939014043e-05 4.1721809328012420068e-05 -4.8973886907310932768e-05 6.1894152228647914319e-05 -1.2036899543010390172e-05 7.3662513952382924632e-06 0.00010918407528439090753 -0.00010253945105035832015 9.2723028790838595871e-05 -6.9970283408442976903e-05 4.9268818370092154978e-05 -7.3120708221213409433e-05;6.8386740760013127295e-06 -1.4757549951166701365e-05 1.3512301822349048977e-05 -1.7512260689754946958e-05 7.6181381053428061027e-07 -1.9876533929986853444e-05 -4.3809520543376849282e-05 1.2341440613054548874e-05 -5.1548046289025389595e-05 -5.1824175865568415981e-05 -0.00012894877607208223491 -0.00012160745512156200898 -6.2449586713299049673e-05 -8.7752938556157877837e-05 7.4719362988239862661e-05 -8.3886221437074666462e-05 0.00049248316091775443028 0.00028086263178728995997 -0.00020265025929854394641 0.00013174781858499100794 -0.00013089071061854077932 0.00024629007467092642629 8.4862097398931518838e-05 -2.1896214186938762483e-05 3.6473002372574252076e-05 -4.9389276557831510552e-05 4.9987673751774431381e-05 -1.0966018614076632437e-05 1.4836273242225842561e-06 9.4676283935903298838e-05 -0.00010344823325213336356 8.0275714273048747534e-05 -5.8462428119351327635e-05 3.9156882091135529304e-05 -6.6013068001864589588e-05;-5.457112701914474595e-06 1.031608111524874012e-05 -7.9605726558315458778e-06 8.4586682888745523686e-06 2.5307838126183185057e-07 1.354457937197031744e-05 1.8663008211388838211e-05 -1.3302158371042976931e-05 2.3196147047703237053e-05 -1.4777485078902643039e-05 -9.2287137390345481595e-06 3.6693087420600282024e-05 2.3953465287335660782e-05 0.00012760236140984548034 9.82231633801678114e-06 -4.7794096346017810159e-05 -0.00038469682014072553288 0.00010418625864183784092 0.00033208922272032182464 -5.7159941996219329008e-05 0.00015878104721624714392 -5.5014528366236470065e-05 5.0813947522679068038e-05 4.3971251762505472434e-05 -1.4648512389340545746e-05 4.9050275667198377878e-05 -2.11165645587016363e-05 1.6084251629161369174e-05 8.7891345240732909362e-06 -4.4108770071154018331e-05 0.00011247554727175465724 -6.1956698599813713824e-05 9.3230757273313704281e-05 5.2024226367686662008e-05 9.0383014960028013269e-05;9.7637162695143656744e-06 -4.6786523714138464781e-05 1.4366365457062367622e-05 -4.6000237788662173843e-05 -1.6139849867377385983e-05 -6.5056919992485671067e-05 -0.00011806654874442963383 2.5474812012268660614e-05 -0.00012850809348821805897 -8.7949695888433812563e-05 -0.00026120170083909001772 -0.00036824663624745687142 -0.00019249981789527979771 -0.00035175965240435866322 0.00011627017283435409762 -4.7576296280840485106e-05 0.0013285308907480684795 0.00050050250573982241632 -0.00068064395680330334361 0.00029437995817100352661 -0.00038777698671019943588 0.00052784557809497237649 0.00011174772513289493183 -8.6646891828636842599e-05 7.4022885438681891774e-05 -0.00014181204052589823326 0.00010816764740280784569 -4.0046585834967927909e-05 -9.5943128683328562841e-06 0.00020721448349026868013 -0.00032549484450988770473 0.0001884096291319294189 -0.00022275461971293808601 -3.427952879543463011e-06 -0.0002159983416976824248;7.2839056719040676724e-05 -7.17599073075294566e-05 0.00014436425297015799342 -5.5322591235149356484e-05 5.1571775198065818505e-05 0.00021599028821900960961 -0.00015216227164639839335 0.00016700923361033295496 -0.00016948425073321800706 0.00011445186941585034051 -8.1518855111604356383e-05 -8.8992919217377241614e-05 0.00016875157221962408527 -0.0004492333311325428266 0.00040161729212064619515 4.9207489675364331905e-06 0.0025754651582274318972 -0.00023097884781342112163 -0.0020958836916533129559 0.00056420098795460359598 -0.0010309661751365644528 0.0006187013360524209549 0.00020902484265417984178 -0.00029091950021352728064 0.00018218074080811482406 -0.00034089935473577344686 0.00020985409074730795669 -7.8438664804581824191e-05 -4.1678284831196405879e-05 0.00054685290353159395939 -0.00074100743155389506549 0.00057725284383544650003 -0.00030659640838790857675 -5.9777817628409503652e-05 -0.00030541525510321683272;-1.9100403250847596909e-05 -1.3114419851564603652e-05 -4.4936636247650293518e-05 -1.7909656798882873463e-05 -5.3318334371644576168e-05 -0.00022522322514875736665 -5.6903436150239311119e-05 -5.7973283533818367351e-05 -6.7445506602963262773e-05 -0.00015561638744884521935 -0.00035625624933141347879 -0.00055038391955961388485 -0.0001109931258250472665 6.1662879493041037552e-05 -0.00017438682561609511012 5.4186323051368437929e-05 -0.00019821937815319928627 0.00011846119685540830652 0.0002658785222807068466 -4.3840282506411758017e-05 7.8764515992363006878e-05 -0.00011314996418574418198 1.4123043703571066181e-05 9.5931647377160708472e-06 -1.5658030355462618e-05 1.5558009283448717247e-05 -3.0505860589770734432e-05 -1.1594336687260813189e-06 -4.7012010784819717818e-06 -5.2358460550599890393e-05 -0.00012124146992267959943 -0.00013922557662740186958 3.1727820475467002686e-05 -0.00014994215164121940621 -3.3869596333712814892e-05;-1.3610900093531543467e-05 4.1281249451839054239e-05 -1.5413573356229450661e-05 4.1623694561146774048e-05 1.0253223931759843641e-05 7.9548372968430341784e-05 9.9633096924939956859e-05 -2.5845571805536948198e-05 0.00012176307759031464563 0.00010087520852559827688 0.00019961960379178737509 0.00031507653121344412648 0.00015521439805616732768 0.00036413382984221425061 -4.581579002963240613e-05 -1.4900312952829417054e-05 -0.0015506913194823855173 -0.00043717211724017936494 0.00081750919891328624207 -0.00031172484789280781661 0.00043994551915714036295 -0.00057487250838176640663 -5.1032613872192196286e-05 8.8487489014141580278e-05 -7.7301992125684935043e-05 0.00014643501532882904318 -0.00011931800682798315068 4.4992083415073987052e-05 6.496361135178422739e-06 -0.00021338291253995118023 0.0003293393606518083298 -0.00022828529898929466745 0.00022326763029244985352 2.6555856636443901132e-05 0.0002629943406399183007;1.0651145487027493752e-05 -4.4577530092495821741e-05 1.4941705862071388684e-05 -4.4057137469647504005e-05 -1.6069660119367596551e-05 -5.5409046850426700028e-05 -0.00011548137167269828887 2.5022089949519812647e-05 -0.00012491860190432720079 -9.4761171301049174466e-05 -0.00027094395910677159401 -0.00036351462019988309803 -0.00020175888982137648231 -0.00036591230432526304465 9.9783541209266817971e-05 -3.2546889671806612907e-05 0.0013517414025527188601 0.00057001249981250546022 -0.00062384974611363820836 0.00030017471445151184357 -0.00036101135436163785553 0.00055578089699143086097 0.00014038941523514459524 -7.5259096412365239005e-05 7.5998967212937630264e-05 -0.00013188138174697412643 0.00011024626799724482644 -3.664591679011256159e-05 -4.5834031308301119279e-06 0.00020984991720387550216 -0.00030145988372272294453 0.00019240340742891686517 -0.00020534270930445210112 1.3830720689752202072e-06 -0.00019764500801449681744;6.2621921590364510303e-05 -5.6956976178504886796e-05 0.00017258364156224852821 -6.3808981732874271329e-05 0.0001074809983587878329 2.390083589089979325e-05 -6.855231446786769732e-05 0.0001458537089290859142 -0.00017260948692077204055 2.199724800686265894e-05 -9.6615314017607322708e-05 0.00052631602078854035701 0.000518093988261633079 -5.2738283725154653505e-05 0.00064409549820726159745 -0.00016446262108742276914 0.0019411535669154238257 -0.0011913127186199744343 -0.0023392579363076650492 0.00043517084546295856356 -0.0011667806191109474784 0.00032420183069243062226 -0.0001386278199877288939 -0.00033102854736728753874 0.00015378728111582100693 -0.00038392261760252660314 0.00017317529214550911342 -9.211790517429466218e-05 -6.34792609919569077e-05 0.00039014482874017759493 -0.00075102416165693489276 0.00061110186848891692116 -0.00041156983087089262516 -2.757934873551855931e-05 -0.00034719887440848621555;0.011691719588682435854 0.039797819089930221159 0.032512588150563848099 0.038362270230646498825 0.071687284494836078785 0.25257861388681895898 0.16071412815289393139 0.037131573034770708197 0.1812116853498871305 0.18905418898309839237 1.1688994401850780758 1.2554793411219111743 0.037014916341631523555 -0.19728862388376811055 -0.2719408277329107837 -0.23692165881013235729 -0.60794210731964259953 -0.95995662325582520324 -0.41408476205357125366 -0.13612194499372412548 -0.13835167657512387196 -0.49801924464458791064 -0.25238017266412332562 -0.077420157151575116905 -0.026139080174087243186 -0.047498217328402446424 -0.045419319056736046081 -0.0019411073841571709932 -0.05865227624367502085 -0.0063617747424937016662 0.26222612414894502786 -0.0064555831154886264556 -0.082684866970022932731 -0.083343184869358724609 0.059206748951171617179;0.010805385824145087928 0.0087009790782028133271 0.02975783865536891018 0.016274900375992433499 0.025836501806566838924 0.11660006303497624791 0.043611487939424153915 0.028646698784677449706 0.041795965894019050657 0.086406953108516745821 0.18693747061278506716 0.31144983446500335011 0.37908068956687618334 0.25781257754849684627 0.1082412535834473416 0.022265209199207134511 -0.36559911920988918954 -0.65475803585736469525 -0.26838593907714985987 -0.076474594530600265019 -0.082955604087321124784 -0.28390515927124831963 -0.093310811422457021203 -0.052856141658882041523 -0.0088274514529087869108 -0.019709209802587477484 -0.027895628660204063731 -0.0028592841722218692753 -0.019485005487647449884 -0.013126198084928188126 -0.035136921753521795087 0.048389640681310339132 0.075229833581870048098 -0.026069730272246498942 0.07084691975439276479;-3.8330386473037431419e-06 6.4206275246518065567e-06 -1.0423957896375555146e-05 4.4252208433189289848e-06 -9.5881233354339597468e-06 -3.8032966789729352579e-05 1.6844349203513564227e-06 -2.1327135183489484831e-05 -6.3314339781493707343e-07 -7.395515901771162917e-05 -8.0229643243310701348e-05 -5.2418930166026598584e-05 6.0382491630014963155e-05 0.00015379083405920131915 -3.8125408665507445221e-05 -5.3185447966260907774e-05 -0.00029264657139827025519 2.8167768938058581317e-05 0.00020430323899386549518 -4.3777480468506002674e-05 9.7697498804566237766e-05 -8.9344780144041046829e-05 2.9874039360384670936e-05 2.0003765610191046791e-05 -9.363088406983700716e-06 2.967892516819906583e-05 -1.8262133026701161357e-05 1.0964515376959503348e-05 1.0250943576260254336e-06 -3.8668931729425441192e-05 3.3178160094669312426e-05 -6.0522108587250188336e-05 9.4113076676742468316e-05 -4.2698240533855322135e-06 3.5239059370353860792e-05;3.0296787838368303806e-05 -3.3640571164038980722e-05 4.8598036441456973354e-05 -2.1811203672708938883e-05 -1.9941709446126745533e-06 2.2231906835139702872e-05 -8.5174360056927721826e-05 4.4784300323634284929e-05 -0.00010480621600460965153 -6.0792169199985744991e-05 -0.00019850075908190841444 -0.00038328989623199766906 7.9473846395425537807e-05 1.8441701370618015214e-05 0.00024310993042679700194 0.00032391928079658920039 0.0010931511002747703633 -0.00030098431559444870347 -0.00090589181892125592542 0.00020638410415397138498 -0.00041141189031608835875 0.00010622325035520699995 0.0001815684477837581595 -0.00013953685387960203528 7.803903175861041984e-05 -0.00013381617614054212807 7.2148542173284310047e-05 -2.6394984519816015424e-05 -2.8071000377100480377e-05 0.00024911376099162537172 -0.00041531922895226544351 0.00017470629453719506625 -3.1884859297010545892e-06 -0.00012477133206386837477 -3.1342142755775427674e-05;1.4426157683267193963e-05 -3.3951216352006345449e-05 2.6399385692975176548e-05 -3.6386841586074253644e-05 -1.2292797511736143879e-06 -4.0009256133312709274e-05 -9.01921575274641969e-05 3.0543809832990904659e-05 -0.00010359948759448599556 -7.000314742034451402e-05 -0.00020665548072562573518 -0.00024419008522885753219 -0.00013268315908210887174 -0.00025583902140907091496 0.00011778270214156616675 -9.9564762931598604478e-05 0.001106124809164713528 0.00040699838112046547722 -0.00057937060690267953769 0.00026219893593382664161 -0.00033467589965437366615 0.00045441835444153872619 0.00010605817153272242685 -7.0144429308034974484e-05 7.0848260539112199578e-05 -0.00011961784699182716923 9.8246345241150427109e-05 -3.0963051202028295846e-05 -4.6510615737610799356e-06 0.00019113591889038960593 -0.00025875480051198415698 0.00017717947170672204184 -0.00017159924264223498018 2.4320201461492305502e-05 -0.00017495602233661214364;-4.7177049280118481261e-06 5.2414242052247274372e-05 1.2227011704268508696e-05 4.5448825275061494186e-05 4.1862516927676119848e-05 9.8063967704967793275e-05 0.00012687243409525500925 -1.3370318591244051277e-06 0.00014472496092698600482 0.00021195925797897160786 0.00028096997884681523426 0.00048573997898594694798 9.5040848402997457384e-05 0.00025009014052536143388 -8.484523531625001128e-05 -0.00013534761584716367418 -0.0016321846750005496608 -0.00051594195211154315634 0.00085576495148969038314 -0.00032261150714503385867 0.00044313194850052582555 -0.00058619238702727852631 -9.0648918653937741075e-05 9.970017732297611077e-05 -7.671965949586955825e-05 0.00015048876037621855919 -0.00011728842939438042343 4.9285966642126552136e-05 1.689374588984429666e-05 -0.00021761453002146352045 0.00038062003002500990152 -0.00020814826759202889822 0.00015424223597129048608 6.2514371520042870747e-05 0.00022663916613934332722;-0.029977043282753652181 0.015989382683177479766 -0.076009106183648061927 0.01747048375076605542 -0.059114746636257410606 -0.034690752689791624908 0.01130861560005100297 -0.08749908430961896022 0.032615616697134600099 -0.14081847720801876633 -0.10377321520103716113 -0.16313565365259058426 -0.22460512859134737496 -0.060922691865482089812 -0.38482240352189467369 0.039480341286069538242 -0.79175270187738144845 0.56252602587025335446 1.165349569526973772 -0.19509014326377022153 0.56820424027773430709 -0.3084394324362880746 0.40558250682703961276 0.12474075150769532716 -0.052900901115033489852 0.16229799636866026891 -0.097609931323772408662 0.057320488114347395436 0.010843385898104263357 -0.10853657489079639176 0.29343734020916623084 -0.26787417192864487747 0.24469365288150929372 -0.061920050381001214002 0.19625842411217095385;7.4936331338773640338e-05 -4.7977995221743068033e-05 0.00014488660023818700261 -2.9175481095389858925e-05 6.1544068478812890112e-05 0.00023270146619901104315 -9.3837255404746955844e-05 0.00015031562007663496297 -0.0001242293375031052762 9.7700390980883183942e-05 1.9839397218407388138e-05 -3.0691487952749909934e-05 0.00028238033710525575499 -0.00011115960902154704436 0.00052827370634021711231 0.00029933769294466871071 0.002074102828222184388 -0.00074982046446476775369 -0.0019679837140318960816 0.00042141511395079656911 -0.0008962542794071749969 0.00027847430518212069449 0.00021010174891356324422 -0.00027609389340986902148 0.00015701901737522408475 -0.00028348021038102641858 0.00015988359644327005868 -5.6661172610263103768e-05 -4.8179387261288277641e-05 0.00048999036102587904904 -0.00065719658963879815615 0.00048080953507390012877 -0.00014050674384225015062 -8.1854104105452007599e-05 -0.00012237715637598590166;0.0087807646928023657534 0.0091124279993344409201 0.069315599835231625492 0.0088906723297909624054 0.060368862703954646876 0.087170697897881024852 0.08937151780862698236 0.032215217056677541985 0.017413883650282895033 0.022037108992176944466 -0.0054659545670882421151 1.1959867790316653924 1.2930521733842283982 0.07294425067470987345 -0.13568334598650777512 -0.24241422847126001261 -0.6001394151035773783 -0.9943477723335024665 -0.41424633679825839661 -0.11349920073782709951 -0.169993623532571414 -0.31663118892919345226 -0.25369937498443434487 -0.079834670746899025207 -0.013904899541136288635 -0.044086974484366825422 -0.046463679394950302415 -0.011812386406794595645 -0.014968571047794237278 -0.1695066280149351845 -0.052537732075643703289 0.36734792657624987244 -0.048912752913870712057 -0.080322008100030303779 -0.0024930293782168813296;0.010817632552060337317 0.0087504341915810319313 0.029771744187926239833 0.016336613009713087802 0.025883108255290721011 0.11684840060211765245 0.043771409896344530555 0.028692747573079616097 0.04201753343353768072 0.086794030144660527792 0.18789986674645775544 0.31220596562477836988 0.37979429227110389489 0.25842184595099121358 0.10771958136852408106 0.021581013456550574708 -0.36739613674338850169 -0.65628496147866433041 -0.26861116725607447897 -0.076825308512892750978 -0.083018223500643847923 -0.28491724203832063944 -0.09381335761360004577 -0.052949517101770593452 -0.0089182227389385561322 -0.019718100287067559517 -0.028032165857535172593 -0.0028698990058464986068 -0.019543933851800456003 -0.013261764530341633994 -0.035081553319109254341 0.048224585133343912668 0.075448745986178622491 -0.026246680732756946797 0.070699952325412998566;1.1136645733236622897e-05 -3.3597007853868404389e-05 1.885544894964780776e-05 -3.6399716144112884857e-05 -5.4972168568916146377e-06 -4.9301772710873538962e-05 -9.0673552392927275387e-05 2.3631355245500857131e-05 -0.00010307213107763864366 -8.2683169082781719133e-05 -0.00022535046661038648065 -0.00027225210208501276045 -0.00016106692146455891829 -0.00027199317596009349712 9.6464425899776265125e-05 -9.0048917929220836259e-05 0.0011033414846571038166 0.00051106112274769204765 -0.00049341544671903164385 0.00026053805594120288749 -0.00029737070698904205122 0.00049032981736029800264 0.00012083432668327372356 -5.5090604571178251772e-05 6.772323045394352788e-05 -0.00010810327009869920311 9.7805813241572800627e-05 -2.8818638381797257781e-05 -1.5953242925211106826e-07 0.00018208769407179520219 -0.00023442304200102428297 0.00016625991866754780374 -0.00016350604075499226581 3.1635248446841229635e-05 -0.00016672940263725815192;-4.7865997961364635142e-06 3.932639554864649074e-06 -8.2021311178542775222e-06 2.7218887137293052869e-06 -4.0421477521717556427e-06 1.0631403872848034183e-05 2.3888331652684597111e-06 -1.1005755370514185671e-05 7.1398681038417127824e-06 -2.6750630886171422281e-05 -5.1011293669965627334e-05 -2.306099912110877643e-05 -3.3504241438039865538e-05 3.4871053918200598236e-05 9.4782900455880904729e-06 -1.5267876623645924855e-05 -0.00015390828284170387911 0.00023445519739477907462 0.00027946676704981512776 -1.247630468284639357e-05 0.00012544504433821537987 4.4311679910511751691e-05 9.0192264043118159939e-05 4.0323918492414070392e-05 -3.9968884240560584921e-06 3.6444265608519721585e-05 -5.168487845457842906e-06 1.2367300619277442222e-05 1.0917211190692089861e-05 -1.3781648023992709628e-05 8.3905997987956669232e-05 -3.3752257448525264808e-05 6.2516580507389007634e-05 4.8297897769411548261e-05 7.4899637831467278412e-05;1.4991875528955020904e-05 -2.1242135083884786665e-05 2.902723118403397124e-05 -2.2927310944680295097e-05 6.0415206467896856647e-06 -1.1093260484142714427e-05 -5.869268299923109211e-05 2.7862762931621028217e-05 -7.1297599538492628115e-05 -5.0143149669649799511e-05 -0.00013872115638586580717 -0.00013126847021804839482 -2.4095059112309738601e-05 -9.9941538671432367507e-05 0.00012776529982551994204 -8.5244803120467440454e-05 0.00072988615021937004908 0.00017742800173208632636 -0.00046430153555331309416 0.00018225199290537342643 -0.0002550689907674209638 0.00027463448305195363452 8.0166165678010757514e-05 -5.9534730922285935834e-05 5.4131356550113009392e-05 -8.9081370750625143095e-05 6.9036375335678167855e-05 -2.0354369818728519366e-05 -6.1385919413020674788e-06 0.00014423650963311560828 -0.00019564814210503103805 0.00013525419372105066491 -9.3773553050424546533e-05 2.4608341464012212517e-05 -0.00010895773758721006631;3.1529513782638183067e-06 -4.4894494980578789674e-05 1.0491171374108406826e-06 -3.7802607604751744727e-05 -2.7233539539794906305e-05 -5.155471831973364535e-05 -0.00010699831994527252686 1.2477655610740456403e-05 -0.00011044179117793879194 -8.3561959871583538304e-05 -0.00023595967243518389182 -0.00036537731665151204023 -0.00011995307760955767774 -0.00022690416673031151788 0.00015329524110927852704 7.5823164051527620574e-05 0.00099581599266056176033 0.0002310927898548861565 -0.00061635633978878606211 0.00020241445567313501135 -0.00032291495325130183331 0.00031195697852485788221 8.8659899680145547543e-05 -9.2894286956420575401e-05 5.0776669906754421193e-05 -0.00012069075038849379894 6.9816157913948028151e-05 -3.4261179856481503996e-05 -2.0153737131367279378e-05 0.00015173186373200478407 -0.00031184814684706362942 0.00012411198430092856967 -0.00016749105757516018797 -4.6028964360967024891e-05 -0.00014461961781854029718;9.8960572844328072097e-06 -3.72692620433676144e-05 3.2375661864782579282e-05 -2.779171271298933255e-05 -4.2953563169897240385e-06 2.1533818562866827021e-05 -6.5063208594305142296e-05 4.1091170084444280665e-05 -6.8497590994992668136e-05 1.0977415968092609112e-05 -0.00010333566901286214365 4.8519880572181063962e-05 0.00040675147303905834564 0.00020442800285485737059 0.00019834142377199201587 -0.00026201000654269690623 0.00018230328070840704576 -0.00063065532832570086758 -0.00084416991819846298305 8.5639647969636400202e-05 -0.00042723121043813867869 -0.00015228740311391684081 -0.00014819566617802187175 -0.00015771221408479596266 3.1489654051461071901e-05 -0.00014838262297660670592 1.6250259498831563917e-05 -4.4139733862691669789e-05 -4.7270779533381204621e-05 7.6271470354152316479e-05 -0.00036011089737941412436 0.00013532668897812854853 -0.00010403533460232127601 -7.2467641552670250885e-05 -0.00017590028317799124864;-6.2558206443378240797e-06 1.2683028565140245486e-05 -9.4504889289750340761e-06 1.0312247398101025952e-05 -3.671738322510330392e-08 5.5403525637473374966e-06 2.352446065696726021e-05 -1.6551776491229243566e-05 2.7639150440408686839e-05 -1.771197790442989833e-05 1.1246236266429472862e-07 5.3520281887021092706e-05 4.4063287455510053098e-05 0.00016036586408098746663 -4.8577091348453045583e-06 -6.7743367282836907295e-05 -0.00048252858446966870667 4.8439923434682115896e-05 0.00035224934298695709505 -7.6999081194989899045e-05 0.00017095520896279970606 -0.00010311463531674036707 2.860681180003535673e-05 4.4153756616112233555e-05 -1.9765809896662475513e-05 5.3474404774471133016e-05 -2.8668641596351876922e-05 1.7210260594241328356e-05 7.0362631084818146618e-06 -6.0766458670792956908e-05 0.00011995624452682771563 -7.7707061345624658792e-05 0.0001023311113916663647 4.5464278964653213758e-05 8.7766925858285912043e-05;3.7455732032740603784e-05 -6.2890283036833624208e-05 6.5042973711549451326e-05 -5.1761935592757924471e-05 2.6506349723492815488e-06 6.5900808944728967971e-05 -0.00014749173856587818876 8.5534845653494642704e-05 -0.00015201064199256300938 -1.1385847541808660538e-05 -0.00017775451333282762663 -0.00028375401246004779881 -9.3466013506785536411e-05 -0.00051165938070445095721 0.00014848077632982490314 4.7563866427271527296e-06 0.0020295175270974917352 0.00026356841719841887263 -0.0013306936939287777009 0.00043164077199310258966 -0.00068124773184439872675 0.00059062107358530727651 0.00019009134519642079814 -0.00018382948786656625557 0.00012569589894843754803 -0.00023498208506161764224 0.00015727968034608407226 -5.7388214799132853425e-05 -2.5796423892202238325e-05 0.00037203759553769844958 -0.00052490519884069444193 0.0003611599155400377196 -0.00026556162853183870468 -7.3010813731533511103e-05 -0.00027438618383766893603;1.6867499413284994569e-05 -4.4210302764492057862e-05 3.0407610692071848163e-05 -4.5909166558649458295e-05 -4.1033828412995780602e-06 -5.1314129011969818845e-05 -0.00011400429151440366875 3.841071789807850136e-05 -0.0001281806317424264471 -7.2634420808090422914e-05 -0.00023314285943838426816 -0.00030570112617352168281 -0.00017367524741535833566 -0.0003498521028023604258 0.00012704419409134394764 -0.00010751706245070895903 0.0013798747822094518424 0.0004434380536116614346 -0.00076893262858480611668 0.00031797149448518143445 -0.0004355185861525508401 0.0005328095989820526247 0.00010540556841476433805 -9.7162284735144888344e-05 8.4705596218869247784e-05 -0.00015520413651509584502 0.00011803351556088884805 -4.1421868077887623522e-05 -9.9848363938436641692e-06 0.00023288763731972112131 -0.00033858266498139083945 0.00021672144358221949998 -0.00023397957590990891793 6.7610180760806613294e-06 -0.0002334273376250525626;9.8570982021678625254e-06 -2.3641157254245733643e-05 1.8313805273944916776e-05 -2.6507754785827238964e-05 -7.6923146418322463838e-07 -3.1080962715868850591e-05 -6.5878195187760521393e-05 1.9651134435207918917e-05 -7.6386680536251941168e-05 -6.453185385090332135e-05 -0.00017339151820727465177 -0.00018709055169057733567 -0.00010416919390267601834 -0.00017220397816596115731 9.1986440518688784027e-05 -8.8481350863971837059e-05 0.00079413528707309084288 0.00037826045211747757113 -0.00035714070048471915171 0.00019607479701470357744 -0.00021770653606938706053 0.00036281957218229656231 0.00010287242780727300561 -3.9854700693979165486e-05 5.2762741366767787954e-05 -7.9547715842802110939e-05 7.4052937929766380416e-05 -1.971384820331781998e-05 5.1578845763406107382e-07 0.00014035212787304760049 -0.00016954845732648548889 0.00012601250669884217145 -0.00010920539332023061492 3.7016291516941953268e-05 -0.00011447474517673188622;7.8955897923752420297e-06 -5.034821089617590238e-05 1.035320417422744903e-05 -4.7440043090751419065e-05 -2.2361020753562606988e-05 -7.2373583799494267893e-05 -0.00012460841046521559236 2.3423132392316144053e-05 -0.00013042989676262221627 -7.9684197241314188047e-05 -0.00024536327376260347669 -0.00038170316201446673069 -0.00021726576960577585079 -0.00038593245983860373577 9.3279879039607135611e-05 -3.4280047864052352142e-05 0.0012901660410698837476 0.00039940422165608743246 -0.00072829998675017664552 0.0002773318107945147706 -0.00040611529640090568817 0.0004527477933946860841 8.9722180210281951476e-05 -0.0001025670261417089646 6.9484998744914435766e-05 -0.00014988661594701917289 9.8585217549136181891e-05 -4.2202791058303267186e-05 -1.7562038592870627866e-05 0.00019851024629379253892 -0.00035073897901151380009 0.00016875390615215965723 -0.00024622435328959632779 -4.1215694658306833292e-05 -0.00023084662732837356596;2.2173925286862113554e-05 -3.3097288735531501527e-05 4.2959804807649329612e-05 -3.3920601525738630134e-05 8.9415601236083648443e-06 -8.5989579516127197039e-06 -8.5191781810821652935e-05 4.526285499794471199e-05 -0.00010135753453856408623 -4.5634779653917981602e-05 -0.0001665549585178114733 -0.00018002705278280788526 -4.9865701276916790457e-05 -0.00019915334142803309899 0.00017307075590633188081 -9.0369265908902835643e-05 0.0011144269277741575882 0.00019328465261729633269 -0.00074533654731114961506 0.00026433352246656757322 -0.00040058613122443103693 0.00038456719704412851068 9.1150533372010288406e-05 -9.7298909164235259229e-05 7.7601513747162830848e-05 -0.00013830112280446035626 9.941270459471387576e-05 -3.334065985959754801e-05 -1.1933772025141697225e-05 0.00021251395559966683663 -0.00030127959477074193464 0.00020547066410672531036 -0.00016647951045247122914 1.4273041498824488263e-05 -0.00017210332277921614494;4.3437002633575409695e-05 -5.8393425656059229345e-05 8.5041946902274120857e-05 -5.4836713313727768139e-05 2.5513656076529402046e-05 4.492835013638570615e-05 -0.00013670664157820026376 9.8256268681863625472e-05 -0.00016012900235604267266 -8.7512748822400047868e-08 -0.00017103178467343978643 -0.0002433473644776256925 -5.7196800727903293637e-05 -0.00040605297327239719962 0.00029936651824027081265 -7.3412169286554508955e-05 0.002041224726777091103 0.00018580608226944481305 -0.0014457502016813005528 0.00046074379820549839172 -0.00074869951536070790746 0.00064187221776426715922 0.00014319129403113465019 -0.00018982128236201136037 0.00013673683196649649534 -0.00025398082628895203268 0.00017474807474681666123 -6.2152452173624048149e-05 -2.4758717488090142649e-05 0.00039752473492391465033 -0.00054551934289107258374 0.00039539923580594567906 -0.00030123849543790988652 1.3036844767006172891e-06 -0.00029111647850277847958;8.6114321573673135437e-05 -7.1829718645218738654e-05 0.00017573936988529703911 -5.0065127157147586623e-05 7.1248865983953592849e-05 0.00030652815923328788133 -0.00014049685589734975714 0.00019978881365717511597 -0.00015787693597460114581 0.00018300296210909677169 -1.265557637328069164e-06 8.3413064964465294393e-05 0.00036590669738359937139 -0.00035762257062671659949 0.00049491652770492151111 1.573287252873174842e-05 0.0025840016329766431549 -0.00060026915972663909618 -0.0023788068308163322004 0.00056719800897071174627 -0.0011446906094926560717 0.00051192290005791247359 0.0001849271770011801921 -0.00033722017064557492779 0.00019289440383893116768 -0.00037304539249637634624 0.00021078646145265719737 -8.3882949420484783656e-05 -5.2000320670316103183e-05 0.00058137442247894533572 -0.00080468106652852901262 0.00064912697523973855295 -0.00029176777408105740485 -7.2757113432134638072e-05 -0.00028786194333594217112;1.7001271887232653215e-05 -4.6026852091227752446e-05 3.060807856483537166e-05 -4.7899506610999322974e-05 -4.1364545726020871921e-06 -5.7649120194019752182e-05 -0.00011803722211458683624 3.926026382766608741e-05 -0.00013380274133591789592 -7.6257706830608947696e-05 -0.00023957996147711953737 -0.00032078442389360067822 -0.0001778421934803878213 -0.00035630172469048926103 0.00013654380381468428493 -0.00011550966678971161543 0.0014321822458799459039 0.00045951250649174511147 -0.00080579106803481447344 0.00032960108120786449316 -0.00045574533321295459176 0.00055758017511457888191 0.00010117231534258202966 -0.00010132452373014109092 8.7222929881548456345e-05 -0.00016231332901865208823 0.00012313604011884377509 -4.3752108065461626032e-05 -1.0665049158060380932e-05 0.00024023398963129825737 -0.00035402960001241470713 0.00022443816883537098523 -0.00024567969108682297151 1.0280767322967760278e-05 -0.00024763716971714700744;0.010812899022018174558 0.0087498221420807559962 0.02976027322166605385 0.016335743508280823472 0.025873098718929017636 0.11682425875270062432 0.043769663151395125922 0.028678778831314390846 0.04201476548849757825 0.086744988474829656799 0.18785998562865094397 0.31222404709341999851 0.37983620875221141278 0.25845259684842381009 0.10768822724646638644 0.021541100564879511747 -0.36746344737039060568 -0.65627116084995185119 -0.26857149451832357245 -0.076837860525638790321 -0.083001358318594203878 -0.28493854315283079215 -0.093822309987763766181 -0.052945954290835019196 -0.0089234692924331469877 -0.019713319078987098093 -0.028039248197444268523 -0.0028691896965026995533 -0.019544839532870471321 -0.013289928536592693353 -0.035073157862749997082 0.048213802391482318832 0.075459025053623465795 -0.026256496405970459335 0.07068515437307015814;5.1464975271813004237e-06 -4.592531517852027086e-05 6.5956050104823159871e-06 -4.2135053733185424594e-05 -2.1035044379578812692e-05 -6.8118115516816653298e-05 -0.00011041697840693912057 1.78658843039780891e-05 -0.00011770585486059893365 -7.7907620654114797393e-05 -0.00022371832579644467432 -0.00035709977052847884874 -0.00015767166286213509701 -0.00026903143037993506584 0.00014369570002667415897 -4.1430891997886982943e-06 0.0010805011833772964081 0.00028031005709439391462 -0.00067210163768753974391 0.00023136212528119675129 -0.000365283070746532431 0.00036763107740977150895 6.8691993240727332619e-05 -9.7317733006755719914e-05 5.787071345698583904e-05 -0.00013540789977691642613 8.2495711741799139581e-05 -3.8366035613839539521e-05 -1.9741087065878625326e-05 0.00016985998537825936329 -0.00032617657253521787318 0.00013968417788844675678 -0.00020705612158568556156 -2.9584105098568418265e-05 -0.00018940609047532502201;2.2203543642366188246e-05 -8.439524639262679527e-05 5.7779186929268684962e-05 -0.00010977082714259459831 5.1921963629785876674e-05 -0.00012957362436874392286 -0.00018483115537267440871 8.1142306744172614029e-05 -0.00029104708930627294161 -0.00014829286074389465299 -0.00071273339177168996712 -0.00091610274200171930899 -0.00047219700344175571591 -0.00062753651704653236939 0.00045972923463200677857 -0.00010902122439465335635 0.0039097879396433835725 0.0026664440870952745878 -0.00080190201111441468049 0.00089420500622195526422 -0.00062090301764387812681 0.0023069591774732222354 0.00071001991791364309128 2.4253874402226209561e-05 0.00021467371616362796263 -0.00022616374138666303552 0.00037123586954312975299 -6.8757249099234328212e-05 8.288430019187747425e-05 0.0006899793009746719042 -0.00046716232443944977681 0.00064733117384252871016 -0.00025585438945818918905 0.00048945165735939924131 -0.00035889670172612272601;-1.6979445386158412639e-05 4.4774225516817305981e-05 -2.212885828719358768e-05 3.9283381792471948823e-05 9.6363365304040860882e-06 2.3486914216974467647e-05 0.00010269568437320849967 -3.6805764824496877492e-05 0.00011680036485425376305 6.7739907077052287539e-05 0.00016494774258793052334 0.00030428393755595293125 0.00018091521466665055613 0.00038999085227794390946 -0.00015287431591509285976 -0.00015287643869968202794 -0.0016209303525507963092 -0.00031753189327422668862 0.00091452925690947988076 -0.00031237202664173829153 0.00046101882825944816508 -0.00053072911794567619558 -9.0202207973188409051e-05 0.00010623740236039481857 -8.1419740442301006579e-05 0.00015366053245687523779 -0.00011738097466553379226 4.4235802250282182631e-05 1.2207221851388320934e-05 -0.00023549039077031712949 0.00034376423599437447081 -0.00023816900787797479168 0.00023302830164975238294 3.2727199856032392381e-05 0.00020643676353780410909;2.3924194686870130678e-05 -5.5737996203446610517e-05 4.1679199330240720566e-05 -4.7150328044143214993e-05 -3.8253654233237972717e-06 1.779997777364650339e-05 -0.00012776963352672453212 6.0036947857104592174e-05 -0.00013375060042452831862 -2.0843459225914440041e-05 -0.00015455249554577012898 -0.00030779401517993403882 -0.00013239790872225797752 -0.00041551405965440605522 0.00016160263714505034472 1.8562454540672722455e-05 0.0016292199703428226955 0.00024162856455239080941 -0.0010771319889855250369 0.00034524978185070212848 -0.00055460676485673959801 0.00048693655576723549744 0.00013913170152327541734 -0.00015132276832371946494 9.6940355352021927203e-05 -0.00019560186525292456582 0.00012607468333079391255 -4.959238649017064628e-05 -2.5408441881432236993e-05 0.00029691516759277122991 -0.00044265724137058676691 0.00026735894560888799664 -0.00024312068505922778652 -5.0843912485209903889e-05 -0.00023025684093133761158;1.5859389296199858554e-05 -5.092965491998431251e-05 2.8243384941136746673e-05 -4.9773518683781484986e-05 -7.7258484907957410067e-06 -5.4370549177343008285e-05 -0.00012429389515567285042 4.0540176358289200154e-05 -0.00013730436102101612698 -6.2651842211621454858e-05 -0.00021762400841600257036 -0.00033953670814233170286 -0.00017852477082943251068 -0.0003720071760109402428 0.00015075740443242009628 -7.8950364926453375802e-05 0.0014473006727923271638 0.00036581456423344127808 -0.000893420290645543895 0.00032211672493628922464 -0.0004891357501389549927 0.00051384035342397129525 8.721229060254031358e-05 -0.00012009254093560207185 8.5066988289628561867e-05 -0.00017527582225876779296 0.00011922108875130833414 -4.7494640243790150092e-05 -1.8629308868945431988e-05 0.00024422842296741855642 -0.00039078674131161388267 0.00022117271755446024292 -0.00026336909718338574748 -1.328982306011342916e-05 -0.00025500078686413604149;1.7649600042067862068e-05 -1.5749012846611640498e-05 2.7249134771735807092e-05 -1.1398807609439842183e-05 -1.0561977573912715814e-06 3.3250206083856631402e-06 -4.7237727122282498172e-05 1.9474478586832385727e-05 -6.0718735349756540649e-05 -7.7153295340705055848e-05 -0.00013640210256512535114 -0.00016934726467842449883 9.1056827512272589813e-05 5.082087168696577755e-05 0.00012123175717369228071 8.9177198840529250533e-05 0.00056276203141782641954 -0.00010860454218366774604 -0.00047641145227926193738 0.0001215382925990592946 -0.00022007822452812557325 7.522374438791752519e-05 0.00010441852375049864811 -7.2676322860127989464e-05 4.5765922276730924151e-05 -7.2164638301777477274e-05 4.3262787107617209337e-05 -1.235634658557846217e-05 -1.4429376742925053138e-05 0.00012932369010508544429 -0.00021652092223187199903 0.00010094692163427596867 1.4977723834686949261e-05 -4.9674045033471024135e-05 -3.297915779419207077e-05;1.1736818052596748114e-05 -1.0949497262247110391e-05 2.0401312662804131789e-05 -1.0479711925091387832e-05 2.2075469717435380827e-06 -5.3371029847453541905e-06 -3.4867163762180401212e-05 1.4181882473632666654e-05 -4.4850225733911949246e-05 -5.9074078585304879839e-05 -0.00010284106737001531471 -8.5042792618910735027e-05 5.4177587389664746574e-05 2.8542464395583205491e-05 9.060369347745028223e-05 -2.9439738793232551168e-05 0.00037016989412958601702 -4.6391001386256774572e-06 -0.00030915348078213914342 9.6214197428760132326e-05 -0.0001548597219072898358 8.9391073979677444349e-05 6.3682061775221620713e-05 -4.6060400504208068187e-05 3.3666295414177365688e-05 -5.3087888511029875604e-05 3.5384696610441970343e-05 -9.1142232489777245914e-06 -8.4061784858740929701e-06 8.7033316150021978997e-05 -0.0001379139537601524316 7.3698975881163962228e-05 -9.2700376437013928756e-06 -5.2099544923103526323e-06 -4.4667990100983111332e-05;1.003737143478160236e-05 -4.9119202684056470585e-05 1.580392246155964362e-05 -4.8564559130634971248e-05 -1.6009833122802918719e-05 -7.5036655965815551731e-05 -0.00012267273398668847913 2.7566130775612693397e-05 -0.00013308167343477713589 -8.0719226039378862299e-05 -0.00024691888088320936229 -0.00036738734706432297095 -0.00020790113672611827494 -0.00037244755099445896879 0.00011188559330595767118 -7.4779264741055599067e-05 0.0013366503787179231152 0.00044127812100104433406 -0.00074781796560076060389 0.00029651754909412872049 -0.00042275551581597123514 0.00050283687864164977512 8.6813443722547959627e-05 -9.9974020063852545351e-05 7.4827936738608075476e-05 -0.00015437384158673790103 0.00010820371274362186088 -4.3507901223729265395e-05 -1.4707366383739795741e-05 0.00021073866395738307918 -0.00035083028476327020187 0.00018652019932184803132 -0.0002512220944735097999 -1.5981101187475853307e-05 -0.00024294689484315729728;0.014044618597745719274 0.0021252745364948042242 0.020653174843464409266 0.024202471915709160982 0.0066652272211227426429 0.07619289991931786632 0.026472610906720994012 0.013090548049042742551 0.0018408051306401276674 -0.072141293054082192282 -0.21888631053506429902 -0.084386838639819439223 1.2414512657774390281 1.3842655295746091326 0.17907159779684289624 -0.12668256007429917753 -0.61657942403225307615 -0.9980919862911898921 -0.43083409272875772267 -0.10438744995088977685 -0.13796536144112292455 -0.41866285858736207448 -0.07284118710519173201 -0.087244396694147768878 -0.012716451993254928102 -0.024170738703518223484 -0.040324271547986061115 -0.012153115221815590993 -0.023817454039171844643 -0.0030308993174456965586 -0.29609204133183270047 0.049520088759994487781 0.58184317005653607424 -0.036699856948568698733 -0.00381791852526727803;4.4742382079682270957e-05 -6.1979781270589859288e-05 8.6666484132928435198e-05 -5.5924235788335405184e-05 2.3104044172211035647e-05 5.9817727612358215846e-05 -0.00014372958208595630484 0.0001029100861000405517 -0.00016262856491498398851 1.2775665468254595255e-05 -0.00016548352659327868132 -0.00025196992859948929427 -6.1922301408533895095e-05 -0.00045153493429204012667 0.00027997969057230644857 -5.6522241929046659458e-05 0.0021100019467032442473 0.00017343581889854136615 -0.0014962762147116175689 0.00047054517971328174708 -0.00077087975500261265126 0.00063743408458598056331 0.00015630921006361522189 -0.00020064517066615202858 0.00013984272681123998414 -0.00026244502859184458887 0.00017625635491785651221 -6.4220335962866188285e-05 -2.7406408076820932423e-05 0.00041113266450433906627 -0.00056837645597038730962 0.00040621607411309515207 -0.00030873486974223327342 -2.035533699626381149e-05 -0.00029744438999397283243;-1.777361923868822028e-05 4.8554081681635213516e-05 -1.8851123491938490064e-05 3.8411832269398203373e-05 1.5717364313162166255e-05 -1.8360945312006526263e-06 0.0001117105959100786331 -3.4795345497126982685e-05 0.00012309298674923808449 0.00010656502494653823695 0.00018211232541638435758 0.00034251143601949160392 0.00017905745982645197021 0.00035293313757316492705 -0.00024777710410823876319 -0.00025796423364414679388 -0.0017730460708268985098 -0.0003593498253057710078 0.00098457691683424353526 -0.00033695659703421982321 0.00047209518013865216278 -0.00057587955730103339898 -0.00014235557744505099201 0.0001125086357190343677 -8.8667799875381028132e-05 0.00015699922544345254038 -0.00012691909914650545432 4.3571953929217803307e-05 1.4718692798929802174e-05 -0.00025879006940922436074 0.00035560395659558081396 -0.0002506824341580496363 0.00020417320228278666998 1.7161812737579236379e-05 0.00016882268131897896764;-9.4164864286948794347e-06 1.832214904040162099e-05 -1.5218998713583300122e-05 1.5479861854389405314e-05 -1.3601324468973569442e-06 -3.2010076242736891085e-07 3.6036202815964989458e-05 -2.4443701298604044293e-05 4.1754239912380022078e-05 -1.8111899040704621384e-05 1.938968578323653716e-05 8.3854420549562446374e-05 6.8221318200352253211e-05 0.00021310791918453388474 -3.6836684257249268238e-05 -7.9768596165005056916e-05 -0.00069391123798053953517 -7.7584284619296109561e-06 0.0004621556261568587399 -0.00012172824872169835868 0.00022906527414732460925 -0.00018387468316343667752 6.2353816853895267338e-06 5.606851636293733865e-05 -3.1987040025284861774e-05 7.3234749825099523129e-05 -4.5728960107135287921e-05 2.2509457215400059302e-05 7.3468403635240919961e-06 -9.7280648163912790947e-05 0.00016009637914116248256 -0.00011410645794921420268 0.00013228674543911200854 3.9402024380476837818e-05 0.0001071585967632691103;8.8270125766198816082e-07 -1.4255532960371595318e-05 -1.1258682805923659439e-06 -1.6290431009523263138e-05 -1.006602333004589943e-05 -2.2753903197993545515e-05 -4.5740044582066803928e-05 -5.1012515972405423668e-07 -4.7983525954009773593e-05 -7.3040885804709346414e-05 -0.00017042649190414715997 -0.00017901444338451374646 -0.00013154042167190762767 -0.00015025681731579894904 2.6400201157322899918e-05 -1.8987499383998969363e-05 0.00050445559748423678993 0.00049455380721831129764 -9.9901083471656213766e-06 0.00012611643866684176646 -4.1256223583748154052e-05 0.00030951263940191207349 0.0001419098592858375116 9.6469301610475934592e-06 3.0827110338701962488e-05 -2.1544745757432918137e-05 4.66478464245290202e-05 -4.5100677759136172747e-06 1.1399386321310614928e-05 7.8802999946495812917e-05 -4.7393589338920375615e-05 5.9603190153558919607e-05 -3.5831606709627480099e-05 4.1885941724120074605e-05 -2.7051930801847174778e-05;8.3226801585360146631e-05 -7.1957768000163304452e-05 0.00016888661441106072041 -5.1669763543172389779e-05 6.225023704412415218e-05 0.00022050796464147248959 -0.00013796778584294203183 0.00018666143364832619902 -0.0001585937296331896187 0.00020055512704910191798 0.00012817035280609170183 0.00011473716842571954767 0.00030082553865327476932 -0.00038317151274032298621 0.00041065690241997920363 -2.3748148813258923188e-06 0.0022524513714675281108 -0.0011918424078812320764 -0.0025783585111530094545 0.00046991468835220887891 -0.0012183433689039097937 0.00011135184863416296749 1.8778882048449408571e-05 -0.00039731268770820579164 0.0001712106665068783163 -0.0003997171802177956648 0.00016401128786934922018 -9.0756810069341612465e-05 -8.8020426853468086486e-05 0.00052616035928353349724 -0.00087666401276702309638 0.0005483441437831478027 -0.00039124346127078675223 -0.00020924887569028619342 -0.00036980776368965686055;0.010932389747370640024 0.0089589355623258121186 0.030346492911768899181 0.016507036476110629325 0.026567047500494496426 0.11819121380139950561 0.044891753943667900284 0.029109285066730151287 0.042747635372204585702 0.08796341337972440888 0.19215637559722370531 0.32386916566796053463 0.38837051817983109236 0.25788804811515575466 0.10448091278481096145 0.017526318994821508956 -0.37292927608203846335 -0.66417223113160095416 -0.27217466754050401168 -0.077785865103132803555 -0.084619839967767965239 -0.28782174925998282866 -0.096401757178293370765 -0.053614130165134131489 -0.0090823981568080823512 -0.020185407653680421253 -0.028378089037961396618 -0.0029819300083134534819 -0.019768262532719540342 -0.014167996237561181205 -0.034571449054288244662 0.05072218924713758903 0.074952737181936041067 -0.026940663588247339838 0.070075368761868858658;1.6196814273092751887e-05 -2.9638985038319171799e-05 3.071949459962743708e-05 -3.1762955312973155636e-05 3.6648509613230403033e-06 -2.5619567251745016507e-05 -7.908279843518840706e-05 3.2632474562461087002e-05 -9.3341261064370275842e-05 -5.9840191172623639708e-05 -0.00017957497774498339159 -0.00019576828578901221993 -8.2849286900095605538e-05 -0.00019334537366867720395 0.00013440953313616086284 -9.8149377130806101624e-05 0.00099295468058649785127 0.0003029377287983684732 -0.00057229299309081104428 0.00023941223194322075116 -0.00032206503879919152122 0.00039168493554042935851 9.5676931873007344908e-05 -7.0779062302047128421e-05 6.7364155284898438931e-05 -0.00011345891344681426505 9.0341058732776544104e-05 -2.806758987028625679e-05 -5.9633628298612877664e-06 0.00018132208570472818209 -0.0002454544239440047777 0.00017080231305198622532 -0.00014603029175665023444 2.6622374739434063947e-05 -0.00015435461198322485859;-5.8630118072897019694e-05 1.9141814518769616454e-05 -0.0001122084554348158305 -9.5647730572812245559e-06 -4.6865087699949982999e-05 -0.00027121389278922559832 8.3272082614844603651e-06 -0.00012284130781995344439 4.6659780100426518647e-06 -0.00024740643942040450518 -0.00036244040009380162817 -0.00031909053723357577769 -0.00043631963173140862061 2.332214872035093294e-05 -0.00022547723667010828499 -0.00039840925659344789177 -0.0007314893895190706331 0.0016575451152247850772 0.0015961440915289960493 -6.6211051807370656266e-05 0.00063740561876791143429 0.0005131454390879055822 7.8595047774838164897e-05 0.00026802375746486155035 -5.9228561587854754069e-05 0.00019052812996881557904 -1.4257676210714937927e-05 3.7778055764421180436e-05 7.2935212675060863137e-05 -0.00022285904378465114543 0.00046379271555016575793 -0.00025697569071652553215 8.0087181134903985677e-05 0.00028367781465728425993 3.5678360846152782824e-05;-1.1802268328819848217e-05 5.1270688030909720393e-05 -5.3123287434000076267e-06 4.2645126462917370394e-05 2.7951044213660124861e-05 4.565180807018654331e-05 0.00012145705167507605572 -2.0587619821454338994e-05 0.00013451255881007535007 0.00014525783934677305616 0.00023187146692147186738 0.0004186444153857914359 0.00017311678554159540895 0.0003434649072134670863 -0.00017195707861411864002 -0.00021228143623663550156 -0.0017312923850997218034 -0.00043404436852848368332 0.00092786831431804109131 -0.00033196980749260440431 0.00046043594456781722444 -0.00058097814306812657972 -0.00012159729373643455728 0.00010779842708698655841 -8.3624232058888351826e-05 0.0001552600997808135225 -0.00012261363247141859444 4.6219569822165349751e-05 1.5523187862136193684e-05 -0.00024106746880492451487 0.00037009907651485042654 -0.0002294972062678784033 0.00019866421012382218508 4.2298434323167492159e-05 0.0001995324169273070367;-1.0425660750903807984e-05 -1.5905789687938708804e-05 -2.2625228710492674156e-05 1.6038560864049279924e-05 -3.234931868888082495e-05 0.00013858622050157365585 -1.4107161331209824276e-06 -8.0791913411330166898e-06 3.0458992911775113391e-05 4.724158146650569946e-05 0.00016217908845595497007 -5.7556560608411183567e-05 0.00022106867499682898454 0.00035015966106226201161 0.00032500345179358532295 0.00053794925822208533844 -0.00056444836508888420086 -0.000971975716516126193 -0.00028596369541959725967 -0.00018843274224544611013 -6.3958995003622475339e-06 -0.00061053414550768514424 1.2983649210096760891e-05 -9.795871089009689696e-05 -3.8693403125389376582e-05 -9.5243938037280700222e-06 -8.3950333407069674006e-05 1.9566853895460907001e-06 -5.6058786114012112999e-05 -3.6573475996468569644e-05 -0.00011850603886216705841 -0.00011832840814633855395 0.00014490475058087827357 -0.00014873356297382094981 0.0002560064302453794456;-2.5258251625299766891e-05 3.2803817404819406221e-05 -1.7449611316247014866e-05 2.4464145836763160531e-06 1.6809174918643481403e-05 -0.00021095644069532446191 7.024936255100362075e-05 -2.9257888184733606954e-05 6.7650897884614279382e-05 0.00021171429932807821943 7.9416869596690527135e-05 0.00015433359875342749575 -9.664775204151666453e-05 -6.9683632779611522383e-05 -0.00060380466628811267638 -0.00067382402991820122221 -0.0016856541783447621073 -0.00022317963205259212095 0.00095907939230169031615 -0.00029553910981316744737 0.00032139959499976873767 -0.00049474579369764666234 -0.00033584795224776166616 9.5180674715530171298e-05 -8.9235476277977840171e-05 9.5707213572705673757e-05 -0.00011737088232998852755 1.4623759172302220705e-05 1.6049149372992248437e-05 -0.00026641491710278816232 0.00021625400077168827561 -0.00026131037192960132436 -9.6452735215787086063e-05 -7.9890099215233518083e-05 -0.00013114754875130350841;-2.0089813729713009945e-05 3.6682014624822015995e-05 -3.3776636446977805265e-05 3.0836547096316479491e-05 -4.9308589250897512482e-06 -2.6008004379714295853e-05 7.7597638809986905378e-05 -4.8742943212695829212e-05 8.7971771814903670515e-05 4.5285273571383839622e-07 7.1662388535255962967e-05 0.00016913335577600039782 0.00014084746891444204029 0.00035128017530640609457 -0.00018800527103517543641 -0.00015205405636867740365 -0.0014039754099315160472 -0.00013983170250486752061 0.00087698485089691903711 -0.00026796303903602573674 0.00043050383325314285719 -0.0004275498388482602179 -6.736121387646655306e-05 0.00010340237123920236709 -7.3175827648330705674e-05 0.00014107349975684617231 -0.00010220389523672005253 3.8997433700387655012e-05 1.2338599624847654908e-05 -0.0002174702305259469269 0.00029547991006660228588 -0.00022967195322686257308 0.00022227861329874657446 1.6413761456790342116e-05 0.0001621663560527605635;-1.7249899595767829562e-05 4.6117120660717249845e-05 -2.1453282757297481456e-05 3.9586448169470315756e-05 1.1474490458320858524e-05 1.910406750772221645e-05 0.00010635724485881005181 -3.6623344536294091822e-05 0.00011991570315906902261 7.7896301409025777156e-05 0.0001733991537431198225 0.00031961299548239751212 0.00018052443357417734238 0.00038603517588900563033 -0.00017175435536638514514 -0.00017610608318606804385 -0.001671956247998986414 -0.00033354473547606857363 0.00093787189897489567011 -0.00032144012052843232629 0.00046808398402053372775 -0.00054674660627600474121 -0.00010363397390959122656 0.00010860299809351782929 -8.3928044622945407755e-05 0.00015591710529584966753 -0.00012067333554722894701 4.4530119124410594408e-05 1.2919716328742424471e-05 -0.00024311405039273716023 0.00035139955367011503282 -0.00024354631585747063332 0.00022807622710586887668 3.1079396960484230201e-05 0.00020123936609076997859;-7.8233867151750712405e-06 1.3872100770957440901e-05 -1.1829892130681169554e-05 1.3300775713536029638e-05 -1.0096978860367197283e-06 2.6910286433404276014e-05 2.8806239742734729897e-05 -1.6871719298402892159e-05 3.7517847057678902075e-05 -7.4576850602212240338e-07 1.749325883535871818e-05 6.4185171251105807978e-05 3.0016472376952405801e-05 0.000148014307116165584 9.5260304718753789415e-07 -1.8871975511260070989e-05 -0.00053886076265482628269 5.7671565573696678426e-05 0.00042348362472175820866 -9.338167042762364695e-05 0.00021096309841757708613 -0.00012048272219451853235 5.0104748556340956435e-05 5.3460684621580360331e-05 -2.4210597851251547456e-05 6.6235287648350361792e-05 -3.5668855617212590244e-05 2.0930336326180814442e-05 9.0699049982923711022e-06 -6.8165926962437969438e-05 0.00014987104973165891087 -8.8123124460291339709e-05 0.00011556786796992691614 4.6707786484881383469e-05 0.00012677754704715931723;7.6691593452759120871e-06 -4.8208601979637155156e-05 9.7317416958690817282e-06 -4.5444612258854090025e-05 -2.1798462921556119721e-05 -6.5954201974026884924e-05 -0.00012063128886401731856 2.16114549745251774e-05 -0.00012766928021811020416 -8.8555671682597665866e-05 -0.00026223870763886366307 -0.0003819138563393817843 -0.00019539123199866238723 -0.00035534861968286444349 0.00010822874261040409951 -1.3505742963234656313e-05 0.0012809505652763453643 0.0004426648449169183876 -0.00067910940713245449181 0.00027596093325994323691 -0.00038016591363680901985 0.00047561933847631570216 0.00010709035419536690377 -9.179435211340669198e-05 6.892967036427257322e-05 -0.00014020236874440531426 9.9073430190241900339e-05 -3.9681290623067009041e-05 -1.3320857949652303932e-05 0.00019488826385065079541 -0.00033200663756628435953 0.00017206953318039307438 -0.0002222465519266076067 -2.6867131114231517625e-05 -0.00020882265867315914732;0.01081423934036430945 0.0087484487538319836292 0.029754640733192491697 0.016336118410321259775 0.025864955779494599314 0.11683735987391226374 0.04375010380136083038 0.028680813048056058578 0.042006963401332593488 0.086750927533959576454 0.18778787297277294011 0.3119650266983650666 0.3796995927783084479 0.25851062089350401729 0.10771418465484833282 0.021582368287983322297 -0.36734876724513104707 -0.65597103368561171521 -0.2684064384469789788 -0.076806976363654258511 -0.082929942580318424805 -0.28481656284747253194 -0.093725675767729624277 -0.052914023487627491471 -0.0089170864753718957763 -0.019689730485637407797 -0.028025125589029736134 -0.0028628663004067337119 -0.019531526359851759944 -0.01324963654848530098 -0.03505745944933295194 0.048172268238022522557 0.075536258008096643368 -0.026212901066397762545 0.070715365910910529812;3.7598719278537665544e-05 -4.3249008176040721577e-05 7.4234314845584778442e-05 -4.1026064866408519256e-05 2.4066103172205452005e-05 4.0012646267516670403e-05 -0.00010387415364832277231 7.9379980165596920774e-05 -0.00012607207797691734438 -1.0926926475372575857e-05 -0.0001472532746847335578 -0.00016183760919069923082 1.0756341551190741967e-05 -0.00024663944514265547826 0.0002762301027527950723 -6.3724858662421603574e-05 0.0015443028480993405398 4.2309985445118888947e-05 -0.0011716463365967072496 0.00035524227029860231926 -0.00060038380110232348989 0.00045687413614464971595 0.00011011293877931455846 -0.00015614106245478076226 0.00010975650630919512858 -0.00020182831535265152332 0.00013456891279853806591 -4.752399002689176497e-05 -2.1582606787502240557e-05 0.00031135989051004622167 -0.0004380744277876009638 0.00031415783682651397509 -0.00021952740953841550983 3.509134678913843312e-06 -0.00021574812954386834388;7.9992278853245157681e-05 -7.1863951661108477773e-05 0.00017339925979289509358 -4.7549035862352626394e-05 6.7276563675433814077e-05 0.00029170084773678310423 -0.00012498285310091173479 0.00019838332631944095223 -0.00013569778859886719559 0.00023885319144408928517 0.00010970687426938590021 0.00029771853930804162295 0.0006279566520351122531 -0.00015287783993295808553 0.00045525078816050889696 -0.00020756369082811684367 0.0018549191644028982084 -0.0012941351327064097403 -0.0025249354460688188881 0.00042830306457143418669 -0.0012057813546603492194 5.9840077341888857484e-05 -6.1459679352287148479e-05 -0.00039685636476247327428 0.00015744392173250195939 -0.00039573383462701301055 0.00014825598710408076169 -9.4361502543951629495e-05 -8.5649682432905737284e-05 0.00047111684126354812924 -0.0008586839929412077221 0.00058133397672570743305 -0.00032453362582990206596 -0.00015807846884407050054 -0.00035861788897872248901;-3.5109096227155230454e-05 3.8687317472098696708e-05 -5.5761450782697374146e-05 2.2249160443767609333e-05 -1.7711525913733244277e-05 -0.00015982072476022888045 7.7875714442287186654e-05 -7.146756037982709411e-05 8.5867327749969575828e-05 4.1598571442162818876e-05 1.6045409350922218102e-05 4.8409573089766536774e-05 4.642028319953125546e-05 0.00025294535256277018206 -0.00046999166953722438904 -0.00035173759646054623398 -0.0018573610910259314485 -0.00012266107657291978167 0.0011952280872008645869 -0.00035241532604821009791 0.00051431597750469610839 -0.00055699490949365952977 -0.00019478955184631680658 0.00013147655069359234347 -0.00010396215076218731242 0.00016305162871306104521 -0.00014069078199052209664 3.5985982684594912894e-05 1.6295469613544288841e-05 -0.0003063386950317423035 0.00031069420393552415203 -0.00033058376952239514881 0.00015172260249520479062 -6.474672303600542331e-05 7.4165228837808977935e-05;-0.00028296540479032716506 0.0030825756107262132499 0.019994850198562747617 -0.0011387932013374978124 0.035021890803872586517 -0.054671582801383004913 0.010712568588247328022 -0.0063227197645085416247 -0.023590287297015007789 -0.093897060049765002088 -0.3196498346288730863 -0.28322808463948456748 -0.048384083880681938439 1.4912894320298526463 1.6735339931037349626 0.25720767685877926612 -0.58778846293118525157 -1.232424589588814845 -0.48429072064924627572 -0.11059708075675796224 -0.14125062360307757969 -0.33387810834173353713 -0.15854818627659886254 -0.051049732463725940035 -0.011012803598112290426 -0.031199229560694076435 -0.01889052283484071032 -0.0073803948526898694241 -0.028625947947557822681 -0.046687635196935285686 -0.10023623132427426918 -0.21745103136842577896 0.082145337832984638426 0.42418127409537526029 0.14998856386726577838;6.2694197200040767924e-06 5.5309136814940854879e-05 4.2429630975614777901e-05 3.918482843125583524e-05 7.3977332715554312771e-05 9.211750378498700638e-05 0.0001346394987357398096 2.7659879474321230413e-05 0.00013808065405121290798 0.00028293244288209591338 0.00031781673895903296946 0.00058863773610884524701 5.4177641180665148059e-05 0.00010639100617907131137 -0.00014208685799514596758 -0.00031631143010094428135 -0.0013623801487601706894 -0.00039096300281604321955 0.00074767378810008402155 -0.00024862185629481568403 0.00035427714948256554999 -0.00040563552999727095277 -0.00010963862941426117184 0.00010067253370170250266 -5.6627234052621859377e-05 0.00012333038196478431883 -8.0285580292239303881e-05 4.3283721611313440343e-05 2.9263547064786867247e-05 -0.00016414961300875754156 0.00036534209590942617971 -0.00012364224822712213182 7.4090856252395325527e-05 0.00011392044014964582295 0.00012749297433903078111;-5.1240275428356985303e-06 5.2296141120388007866e-05 1.6640092419114553438e-05 3.557697276031943171e-05 5.019560081078185918e-05 2.7217899067690702017e-05 0.00012431793388587594838 1.0272160029531900103e-06 0.00012904850137426706995 0.0002224560185280369598 0.00025587428486961765134 0.00048526033732201228135 9.7938327611013739648e-05 0.00018150735105474698075 -0.00024217849422630228291 -0.00036498638022407990092 -0.0015952447800338220418 -0.00039066338367429515781 0.00086499998551891688417 -0.00029227342000609382675 0.0003927081555818058697 -0.00049266928225821554795 -0.00015977570281085128555 0.00010531919912258429217 -7.2943263155014444795e-05 0.00013286497690273885879 -0.00010369346752490390734 4.0210484765200559117e-05 2.3046810900160773081e-05 -0.00021444618100024864294 0.00035240694884344629136 -0.00018320584615997192925 9.8331515921962531798e-05 5.9032164963692899658e-05 0.00010991180161236428151;5.7539871378568441707e-05 -4.8883514200744740473e-05 0.00011576740040355366099 -4.1748633835264073943e-05 4.9012221456936824878e-05 0.00013121322539029844456 -0.00010659831610492801152 0.00012331613553132381752 -0.00013513737103560725808 5.4356997089166819487e-05 -7.441415959194459535e-05 -6.8540575628906605572e-05 0.0001401234045214695982 -0.00023655693448740078072 0.0004107662653403624381 4.0159761443323715272e-06 0.0019138589954072885487 -0.000234620844315683232 -0.0016207218606122573371 0.00043027591245130937048 -0.00079564411547487778886 0.00047534197293779988005 0.00014025211433678011355 -0.00021795496308756203254 0.00014191737852266701715 -0.00026035416891465046341 0.00016482873121505741765 -5.832608023421894419e-05 -3.1764084509189173078e-05 0.00041739800250498464065 -0.00056154812544675415144 0.00043570015736548676349 -0.00023455524872776278497 -3.0801036112123029076e-06 -0.00021769180137668628296;-1.4375888416164806551e-05 2.1596952100563893926e-05 -2.8150669183743560477e-05 1.7664267822043214738e-05 -1.1827646508990977508e-05 -4.4194658474304098872e-05 3.7880791556383213998e-05 -4.1527487507772930879e-05 4.2128392259973757223e-05 -5.4172639878162848399e-05 -2.3016475949045608158e-05 3.1159602558650400139e-05 8.7252981927055979364e-05 0.00025599302621638506073 -0.00012782511436523012597 -9.9760157575589926112e-05 -0.00086086096886857311952 -1.2562215434752048004e-07 0.00059067797276182070279 -0.00015909071252710152607 0.00028698169027342149313 -0.00024697764086731321433 -1.2269929081419827616e-05 6.9457104806290595141e-05 -4.3589115538733263079e-05 9.2299034934071008435e-05 -6.1609005137780486127e-05 2.6365392431513933201e-05 8.2523113077284138172e-06 -0.00013619620538190136804 0.00017514657732750944113 -0.0001570681961132581008 0.00016777015470903917363 6.6660984966750141668e-06 0.00010036977099785052495;7.0659825917689592095e-06 -3.788471592711623395e-05 3.3974677734304065417e-05 -8.0919614339908360525e-05 4.1402036527517963418e-05 -0.00031170922733511033809 -0.00016930082429202021523 7.9829528195701787317e-05 -0.00015945844460606511625 0.00038985910563672310572 -0.00036220752478838686957 -0.0014832010477330451279 -0.0013402034275907452436 -0.00059084784292089197015 0.00028119066972838679909 -0.00067604897673716342864 0.001026449830731990167 0.0018010826979064770408 0.00022211573549303534163 0.0003843714877003417507 -0.00017423120792435544649 0.0011627430859765153399 -3.9587031031764288204e-05 8.072667774409112687e-05 6.7649791693418141292e-05 -8.8963064858832099522e-05 0.00018263396235945224396 -4.051447420493532747e-05 6.5676949334587516531e-05 0.00029681054258935902134 -0.00024994448952752457279 -5.2736217148664105982e-05 -0.00053745729677477172351 0.00038414478730105068799 -0.00046406821758173869398;-0.0021724661225639135126 0.0026970572327862244247 0.017148838156641754704 -0.0006306028386416710459 0.026696343930020047935 -0.039614064181494212935 0.0058809923824282139132 -0.012132266913522919694 -0.023053386575019922666 -0.10345443465768858204 -0.32610922991799662363 -0.30015681142534333947 -0.16009552775671775926 1.3069516389667497069 1.8306558306373261757 0.46735748597231935308 -0.5903373001836770273 -1.2477053984788455399 -0.49446748690496511447 -0.11230917566710711675 -0.12968637117672723869 -0.34796081171580356406 -0.13335124505903536707 -0.053707089320458013815 -0.0083264385419428293966 -0.029281098617054822364 -0.022531041633862557844 -0.0037671987730697135272 -0.030711848190672439568 -0.053749839444692158741 -0.084989780374693804643 -0.20504163039243220035 -0.029969511616019461897 0.41805287522111206355 0.25512396358588018686;3.8652267890154316115e-05 -6.2832571661577989912e-05 7.1106027633658050219e-05 -5.450557580760941181e-05 1.0583214457057384773e-05 5.3208629091095334092e-05 -0.0001460628093114632489 9.0415740391781732142e-05 -0.00015710003457226494241 -8.2941748881097556687e-07 -0.00016892397786173271742 -0.00028513837683591066775 -9.9332431879857604421e-05 -0.00049228681762007991257 0.00020063729967300430383 -3.0669989420088456086e-05 0.0020511001343801126516 0.00025292548668484138904 -0.001380448827416929725 0.00044649335605605677216 -0.00071222037992409246553 0.00061867234754321915376 0.00017054689085245272259 -0.00018775571006071105546 0.00012979125775968483039 -0.00024520440102806622925 0.00016507708581061571206 -6.0587882434673104228e-05 -2.6339209705703499093e-05 0.00038606650560096339919 -0.00053928542231960802013 0.00037231851660837202937 -0.00028964594888121264005 -4.5515909201905360173e-05 -0.00028952348624053267324;4.2102344786851973377e-05 -4.75273341603542072e-05 8.3726882496339477741e-05 -4.4407933393404454812e-05 2.8608618428302604557e-05 5.4651408277413886737e-05 -0.00011169506669641482346 9.0894531738302289077e-05 -0.00013524937362067372508 2.9207877807844954305e-06 -0.00014253141108419152983 -0.00016252917967717259704 1.7525395395506824999e-05 -0.00027896031996423872401 0.00030468399275534855958 -6.0420854605326271877e-05 0.0017029760220871846543 2.0682202659896876137e-05 -0.0013055074564799901138 0.00038950762663348000546 -0.00066593555580094496767 0.00049539235998365311903 0.00011842758411031135773 -0.00017407774411901618164 0.00012074177197659598498 -0.00022320094473393152436 0.00014761317712826707528 -5.2741708636573502074e-05 -2.4242015440462350652e-05 0.00034578232553246658751 -0.00048249037402854226585 0.00035092515625888027076 -0.000242989333408348497 1.5283019736866782851e-06 -0.00023416443642456416085;-1.113380086434995821e-05 2.5862382914696648587e-05 -1.6795613412250733315e-05 2.4645374710280536809e-05 1.7892705165591655703e-06 3.0860282780628421118e-05 5.7383504773169913781e-05 -2.5951279792425067814e-05 6.8238625943333426692e-05 1.3648874493275770634e-05 7.3574566987755110441e-05 0.00015198934533965427745 0.00011146421495682104898 0.00028402012077748540596 -3.0624122982501458053e-05 -5.099180557212564858e-05 -0.00096258937259326843566 -0.00010893213368021553125 0.00059571638677641052754 -0.00017991089568125383257 0.00030726561536637106604 -0.00028891454238654142028 1.362282080142702891e-07 7.133982208112011269e-05 -4.6293717090892612029e-05 0.00010056317663199029007 -6.7698162742978342356e-05 3.0407289702085277093e-05 8.6413642389925278463e-06 -0.00013194953250082584349 0.00022160639220196652025 -0.00014784915214231827518 0.00017938050524754869421 4.5375908511603511408e-05 0.00016865521898707140028;5.43305397310763909e-05 -4.1481822134245215051e-05 0.00010797960798112822849 -3.269767903115664286e-05 4.5749736693396449627e-05 0.0001382276028308231184 -8.8700764023982061864e-05 0.00011229087521819041274 -0.00011526210586408461073 4.6528143208821414584e-05 -4.9096891657216193828e-05 -3.9393837322562421559e-05 0.00017887888944265002895 -0.00015317176898606903678 0.00039281229369274593731 6.2781956162964811657e-05 0.0016760176283840578105 -0.0003304331999546948769 -0.0014878316740722916968 0.00037065081605183356709 -0.000713260725938244587 0.00036238663725488137399 0.00013943934845960867931 -0.0002029651321499252451 0.00012731656426382412716 -0.00023111654953637421122 0.00014176272179826319704 -4.9661641339330402122e-05 -3.1660279872471591277e-05 0.00037725305498880824014 -0.00050899990471476252128 0.00039089511738871944926 -0.00017354158946286565553 -1.7011170381105166649e-05 -0.0001617179980115864826;-1.8811373835358407658e-05 4.7767352974915265823e-05 -2.1992156453271466025e-05 3.8038227129541314121e-05 1.2531022866558424794e-05 -7.0699916408998304441e-06 0.00010894471273260644662 -3.794904110332251296e-05 0.0001206523945200560651 9.3707198963440791026e-05 0.00016996283720052034541 0.00032235510001378785963 0.00017745477426573579363 0.00035995518510130057122 -0.0002477761217885318494 -0.00024885436139442958627 -0.0017652735311633200709 -0.00033996201973934565138 0.00099113121241869257469 -0.00033608310138164210938 0.00047598401803725565087 -0.00057118565375736116748 -0.00013776061129954693418 0.00011337814786817417792 -8.9022752222235945817e-05 0.00015795211415345621368 -0.00012696024732910710943 4.344448456581321465e-05 1.4423260525056118785e-05 -0.00026013082410069249045 0.00035345707444574866584 -0.00025478754319330958536 0.00020979522950992994762 1.4696524007566533088e-05 0.00017037852279305681154;0.010814057025291841721 0.0087483140214657389988 0.029754362653438708869 0.016336160020122027919 0.025864129769044143931 0.11683828637366439063 0.043748597368591518597 0.028680225399751804738 0.042004933768445100462 0.086744272813913961273 0.18776732865492593016 0.31195247487631294625 0.37972023116159903111 0.25853594635091303733 0.10772088991090497667 0.021581135786227025747 -0.36735336963785808484 -0.65595020741330145597 -0.26838988990992501682 -0.076805657842955343817 -0.082922619488285095879 -0.28480655575486069075 -0.093716916447956905012 -0.052910993328369543276 -0.0089166837326896935395 -0.019687174355000815196 -0.028024541348567220261 -0.0028622709729401924796 -0.01953000744032167002 -0.013250100942589167208 -0.035057671528783397596 0.048174347714990940761 0.0755508054924298178 -0.026207179835447822619 0.070720754873966104603;4.9188829873111218125e-06 -6.2224263096142588499e-05 1.7410668436189019929e-05 -6.0777074996637593792e-05 1.0478984055009469227e-05 -2.3606218746815875112e-05 -0.00011523092241935525999 3.8414110316001981319e-05 -0.0001685439469805677219 -8.3013256411949371211e-05 -0.00041092556992985512744 -0.00063714824609085226464 -0.00014039052552301654496 -0.00012213680998515843773 0.00046206007556610662621 0.00023240001022052696406 0.0020969917777765587422 0.0011281390637937571773 -0.00059248516256305678272 0.00043951063342813893224 -0.00036101778764052180415 0.0010836170686529336422 0.00047435140762569385879 -3.079974761475696136e-05 0.00010825051532752124456 -0.00013642775359684408015 0.00017740457251231344705 -4.0682362665183936486e-05 2.2302684036012685213e-05 0.00040132602944806711242 -0.00035627108473439432403 0.00032354101640133010745 -4.0967359935374442952e-05 0.00022233544008435379724 -8.759913653272685544e-05;0.010819360493112689658 0.0087389890656973858579 0.029796391448665079243 0.016320078721481140471 0.025892496806697060802 0.11677166246522424631 0.043752698610339625651 0.028688809485410641381 0.041949796140762267427 0.08666715737898683658 0.18761905893723676564 0.31231194894686076236 0.37990572804184730149 0.25825450237559655076 0.10797589765562068398 0.02186496502165264158 -0.36695044406401883252 -0.656331331822299191 -0.26884682600830539512 -0.076749893664018159489 -0.083119274622600866631 -0.28475447349877219816 -0.093770669374050444334 -0.052971760090058411796 -0.0088904569408471759151 -0.019750559563975981364 -0.028003224967793886868 -0.0028750360723402237396 -0.01954136471302482872 -0.013259568640033875947 -0.035162101216365884704 0.048387538102115823513 0.075304963388915013844 -0.026233925478354201688 0.070771154630520693996;-3.3751476710170214575e-06 7.0419727192734191801e-06 -7.7175202325840816579e-06 4.7845360645031012042e-06 -5.8912691847349940493e-06 -2.6650866970631184718e-05 5.1884424273197303869e-06 -1.7815308492452111691e-05 3.5823497327611641093e-06 -5.9999961911516218555e-05 -5.9489487864401565862e-05 -1.9549242967171598357e-05 5.7927805750619122108e-05 0.00014822244284703155193 -2.250118222060473844e-05 -6.7836596785221127252e-05 -0.00029875174489773110307 3.0914740289422430318e-05 0.00020334424164206903532 -4.2196798245108692175e-05 9.6622884605276302414e-05 -7.9343549000329655985e-05 2.6518789791027729344e-05 2.1514950530025574209e-05 -9.1095149402257090502e-06 2.920466241124815461e-05 -1.6741342349504259368e-05 1.1008238013996219639e-05 1.7827210653067258405e-06 -3.7069889662120774786e-05 4.4347703282146231382e-05 -5.5123582623902154024e-05 8.646408569796177918e-05 1.0560746855907793783e-05 3.7632944857192515036e-05;-2.3575087131409350519e-05 3.6609679132939000851e-05 -4.0998739583051982697e-05 2.9234064600592885464e-05 -1.0487264092576735551e-05 -5.6517380501077871778e-05 7.5039624191130583665e-05 -5.6695434435585187775e-05 8.473198420255964613e-05 -9.4877021081899897477e-06 4.6182118651163458253e-05 0.0001270563777748862002 0.00012162100235895291055 0.00033773524546582315512 -0.00024508146242365315502 -0.00017681133099233214663 -0.0014673493305663860668 -0.00010632419797923780159 0.00094540599160823071342 -0.00028071893404352899577 0.00045259430568284623369 -0.00044128298809390816134 -8.1594155405138226052e-05 0.00011046707091340757668 -7.8432623906018059871e-05 0.00014725391175281533104 -0.00010836985641244792171 3.9135373303052319505e-05 1.3248220953831751353e-05 -0.00023437461197527473906 0.00029796862215707408663 -0.00025113173303544948428 0.00021873616373287101231 -1.4039232669576502916e-06 0.00014720435499486955516;-2.9708844233102412954e-05 1.2502745602729080002e-05 -3.4388657807713041517e-05 -1.4259774373089255606e-05 -8.6773438228756574249e-06 -0.00034099115704896407241 2.2004386074888731384e-05 -7.4149018044089467887e-05 -3.1114151541216804493e-05 -0.00013399853777438226299 -0.00043702335592349166819 -0.00021602630258532172936 -9.5463875317573242455e-05 0.00014469154527196108838 -0.0001115997589001816153 -9.1013038985801692437e-05 -0.00067071370135953151462 9.8279577735774611069e-06 0.0006285096566662466298 -0.00014078148124847261074 0.0002085733416239605217 -0.00010470737054838442849 -0.00013951729258419095104 8.3075301987006486899e-05 -4.6545140942786768017e-05 6.4112956619605726344e-05 -5.2278557266691447539e-05 7.8949963255656959479e-06 2.4102479508544203253e-05 -0.00019192225843090790906 5.1058472706921238815e-05 -0.00015115576938687122857 -4.3857083744255877732e-05 -2.085529118723436506e-05 -3.4861023521007885586e-05;0.010807806440166793302 0.0087474971865370322599 0.029739426473894974706 0.01633410539030164671 0.025850803520822449727 0.11681299524132759959 0.043742413907779206794 0.028659986541909855673 0.041993183374577573719 0.086644978458850080427 0.18763607584674013573 0.31196348360345199646 0.37980617158421592361 0.2585985708847312603 0.10769525063679659393 0.021520168249974255814 -0.36734993559215428638 -0.65572852360300437624 -0.2682463656788168227 -0.076793804766441861598 -0.082863950582884537965 -0.28471739132400120109 -0.093669663532182437238 -0.05288378096829058489 -0.0089168026555066504102 -0.019668471866156868322 -0.028021110597903138573 -0.0028577462878098631657 -0.019520255126309008636 -0.013278750721566078344 -0.035020760376438947459 0.048187063898170762188 0.075601871820013488712 -0.026178248689972014734 0.070723900562100400213;8.0582240064073961598e-05 -7.229458729800476637e-05 0.00016328106006504940792 -5.2186357192022431487e-05 5.7463319977729149658e-05 0.00020541491620091099175 -0.0001397472112411488564 0.00018109492963912099807 -0.00015865778372382667648 0.00019357363912224812442 0.00012410072587291172581 0.00010792779992688338443 0.00028829896518391980422 -0.00039131528569542260417 0.00038001877539352822699 -2.1049776795449230948e-05 0.0021907019725648222731 -0.0012023779849889705117 -0.0025492674296570907479 0.0004559372787464229795 -0.0012064981532257693878 7.918118898666174168e-05 1.874369078873559543e-06 -0.00039687721109865273369 0.00016634851463918004033 -0.00039704588757576581839 0.00015723281013153701086 -9.0611598900887016907e-05 -8.9837471337369959132e-05 0.00050938457846969238153 -0.00087301542659794250691 0.00052944911130022324821 -0.00039837837485898078358 -0.00022328528338855178881 -0.000381136751303927455;-1.3424835314867809581e-05 4.1420361314935090426e-05 -1.494026923357476142e-05 4.2163345832167064772e-05 1.0373139519090696626e-05 8.2940838918580981156e-05 0.00010017665459444223368 -2.5335064007518287067e-05 0.00012287595806571667751 0.00010384111062778409818 0.00020203314501038887783 0.00031947138990110049211 0.0001589088390934538758 0.00036420442026374673416 -4.5083963853113603101e-05 -8.7806884737317624168e-06 -0.0015607749287255710726 -0.00045203533318959694329 0.00081733021510839172063 -0.00031477684972162163404 0.00044154940594608323677 -0.00058470841676409987444 -5.0519117494754026858e-05 8.7699126534002556552e-05 -7.7780239573796121767e-05 0.0001471224101948679188 -0.00012071338798487505695 4.5268952585671185537e-05 6.2418622334591621778e-06 -0.00021463880710875584703 0.00032979426405948744508 -0.00022866914478279092883 0.00022431257470286058054 2.3926861588156201753e-05 0.00026652500568600455107;1.3974745002312408395e-05 -4.8621168721529702179e-05 1.7258516739792214526e-05 -3.0596815096094721561e-05 -2.3418143427876019652e-05 5.6424776132296425931e-05 -0.00010584716824884292255 3.6793847922578367619e-05 -9.4767092071719642526e-05 -2.3401408334902744053e-05 -0.00010607473668781798137 -0.00028764614265244835625 -7.310876950563830563e-05 -0.00029921459640150995006 0.00012412465376788418196 0.00021419484139985128443 0.0011662423545893627064 1.5516697542867486888e-05 -0.00083630108829785721348 0.0002130665641240910642 -0.00039102772955857323031 0.00021842717658146333323 0.00015445390659220658669 -0.00013451055617832820342 6.2593816647520645973e-05 -0.0001412319889944731394 7.0540196831557806117e-05 -3.4004635110156369231e-05 -3.1597479378749751869e-05 0.00021185224017165342936 -0.00035987343133502783677 0.00016594241294012196126 -0.00012844856765895302023 -0.0001166639439651185326 -9.9630376599226270692e-05;0.010817037066620429492 0.0087546193617985476609 0.029781193740431533001 0.016340523660255221183 0.025895785205474721596 0.11685431018125079505 0.043804821572870661361 0.028693523738818553503 0.042033154178671983114 0.086784231200650874261 0.18796306955624045298 0.31258163774964903281 0.38021645146398813653 0.25853808064438410508 0.10761896963569340946 0.02139655705989681328 -0.36770304301985107243 -0.65667865918568635308 -0.26877285452008992106 -0.076881310002238606449 -0.083089494907333291684 -0.28509460816800830107 -0.093940341756967346565 -0.052985050644440527534 -0.0089310182918453748929 -0.01973917457566411876 -0.028056157379518269213 -0.0028770851244321170997 -0.019557529456705427529 -0.013325204026498357543 -0.035108664310167798928 0.04829914184216936579 0.075458986859453777707 -0.026290632780427872911 0.070643693163804227586;-1.3519834594173121305e-05 -5.6725123492766825855e-06 -3.5377893343901095473e-05 -7.9877784776088309274e-06 -4.1781383536812822014e-05 -0.00015580566460096040922 -3.7657167832810443074e-05 -4.7801676495892492409e-05 -4.3451553337762363995e-05 -0.00013738575671135732541 -0.00026190245010427801436 -0.00040087741998129529635 -4.3500524426873482357e-05 0.00010298971935798397349 -0.00014809766205187740637 4.3199946944829628517e-05 -0.0002321339548338359753 9.6298899305849669787e-05 0.00026155899148790773137 -4.7933308395430974469e-05 0.00010047595729727677087 -0.00011839039495150620199 3.7537872171076228881e-05 1.4493901482652808636e-05 -1.388416149656330578e-05 2.5870870536733354966e-05 -2.8393060414703520867e-05 5.2885840701363321628e-06 -2.9043823826466312282e-06 -4.6466765780178464248e-05 -6.6659283127268239297e-05 -0.00011863534144899473457 7.8450733146916259899e-05 -0.00011245420253785056342 5.9816334169740897142e-07;0.010824500123958207334 0.0087574515825506356326 0.02981793953237179759 0.016343031447952831997 0.02593254563261838605 0.11688107266714964361 0.043844118959216166198 0.028720293084804508071 0.042042108695602750656 0.086849517301367806787 0.18803176752562117402 0.31296259520524394304 0.38071381773740048393 0.25873239322473395863 0.10767169212783239685 0.02127120864752669524 -0.36793793354911857874 -0.65727547043464940035 -0.26911465818896923574 -0.076922462631817650758 -0.083238912014201540956 -0.28527460214367328373 -0.094090070254907551273 -0.0530450486703783336 -0.0089346375813435883334 -0.019783220854845781633 -0.028070714578264082534 -0.0028907627527286604979 -0.019574389051914380111 -0.013349695260438337527 -0.035202165974269158943 0.048420671257239873697 0.075456447206976529074 -0.026303585632488163393 0.070599919239493172385;-8.6230951302728979925e-05 6.777979710795742173e-06 -0.00017567182304052564464 -3.436633104788390557e-05 -0.00010213592481433055492 -0.0005227770877191032341 -5.357423919416694761e-05 -0.0001893679926302357572 -5.0831574019403402362e-05 -0.00039159943978135707205 -0.00061844387703271011536 -0.00067963399463096593051 -0.00089130583784849024519 -0.00033260369570986390462 -0.00053938482632426970869 -0.00060243760863978466826 -0.00072977942453095504764 0.0022697606784072036842 0.0020052070215943601506 -6.707161097189595514e-05 0.0007588906882024495839 0.00062829929349379005834 2.3428245439087311074e-05 0.00031773445752504618717 -8.1033335742124133478e-05 0.0002132657092357408276 -2.4777690893069192275e-05 3.5733870484877564521e-05 7.9497604088961932689e-05 -0.00032549957201787136502 0.00049318989834038688518 -0.00041053984182584191218 -9.6569857242970527644e-05 0.00021977246991951049923 -0.00015794151946244773164;-1.654565849117033507e-05 3.7574541324217848788e-05 -2.5100589597562657018e-05 3.3869796739828006719e-05 2.7187617653532879373e-06 1.5633350483403419086e-05 8.4020041920321989252e-05 -3.8414012318575550581e-05 9.682930919410563924e-05 2.8440036927918322881e-05 0.00011666133663207303337 0.00022765149733204747174 0.00015476363628309945989 0.0003648382345742442307 -0.00011636041930220365271 -0.00011344961430753934398 -0.0013860710071247274618 -0.00021206645530982804696 0.00081912892915128251992 -0.00026569025233034310185 0.00041590510991737429831 -0.00043833364184598316111 -5.5379266786279028503e-05 9.6546775630833683076e-05 -6.998991678179362528e-05 0.00013752506371701736184 -0.00010008553098885373145 3.9681081415422318228e-05 1.0976865830905239169e-05 -0.00020353693937340993411 0.00030173496988430124378 -0.00021369702140221818391 0.00022344076535453112338 3.5639669327351358274e-05 0.00019170232837796243779;0.010811982570286555322 0.0087473451609396679629 0.029748320998336744841 0.01633519236354424517 0.025858159004439572326 0.11683057396511414838 0.043743386687473621854 0.028673582813437133165 0.041998567305068158773 0.086709790124037122716 0.1877065650467220348 0.31192003441615823167 0.37974994474215528761 0.25858416149902141434 0.10771876240875966069 0.021556930727800436426 -0.3673468804080333161 -0.65584194423142661012 -0.26832228897428650471 -0.076798179250926287831 -0.082895003689956003878 -0.28476318725988658542 -0.093689376342277017051 -0.052898349323125655463 -0.00891609614540961673 -0.01967817896775974143 -0.028021956161539018915 -0.0028603932255839249407 -0.019525247902214597218 -0.013255103123584639768 -0.035047501562268143505 0.048174237064064935609 0.075584872233598707214 -0.026190138669601476656 0.070723136854437457233;-1.6031682966115430692e-05 4.760463373673909837e-05 -1.8048751199206023398e-05 4.0888933468845439496e-05 1.4884261669625600455e-05 2.7017498129902491982e-05 0.00011052479142369976955 -3.3173605101217290298e-05 0.00012435286275393601951 9.3298830571147056212e-05 0.00018778579698701562749 0.00034432093541329435908 0.00018829057299613437423 0.0003843738234069514286 -0.00017393717389305949619 -0.00018245523023016413031 -0.0017025118652616980965 -0.00036667537260927964829 0.00094002911468444856451 -0.00032752328858541302761 0.00046975081944514515556 -0.0005639458907316221908 -0.00010808270728153004177 0.00010841124599439578159 -8.4637976053505092032e-05 0.00015718119419900060158 -0.00012283812244633638723 4.5341178288270687696e-05 1.3192741561768109179e-05 -0.00024496406593457666773 0.00035675449587878468264 -0.00024174983345431175674 0.00022662941861266314375 3.128275527506203861e-05 0.00020398332293274391565;7.4056162589650073808e-05 -5.5265735633629241384e-05 0.00015153022593698362106 -4.3331490525796965171e-05 6.9753883002843797821e-05 0.00021013598086407905222 -0.00011071682851032593959 0.00016255987760934367662 -0.00014304530293898879171 0.00012241852061677268009 1.6872134576267937123e-07 1.773966418673167644e-05 0.00024146914752306349603 -0.00025152867976398760649 0.00051430765111476592528 5.1990630210535926229e-05 0.0022280923339335098436 -0.00049509547882334770021 -0.0020237713882631197353 0.00049283651353099655786 -0.0009728133634021225197 0.00047590876045018571609 0.00015601233664857256755 -0.0002762410704726085838 0.0001685480079001286575 -0.00031469718881336718923 0.0001889889761288403964 -6.9135671576511762587e-05 -4.2654993238086539784e-05 0.00050775516822747918111 -0.00067460339414284939928 0.00053859302790015958426 -0.00026164002744230038062 -1.7619607779932192147e-05 -0.00023025141875464535447;1.0521225686963557954e-05 -3.2359034942445895529e-05 1.7651176741939999783e-05 -3.5619899217043307215e-05 -5.3887406508530490381e-06 -4.915497553693576186e-05 -8.8103112817483389386e-05 2.2106750095021416127e-05 -0.0001009063923203151362 -8.4942504345553277128e-05 -0.00022713347071235046775 -0.00027181553582227382417 -0.00015776863099678970176 -0.00026081106970796493925 9.6121416569086554462e-05 -8.8914569024308963961e-05 0.0010851010361081991039 0.000533066683996558403 -0.00046236991199283532673 0.00025736481246193545439 -0.00028239648927035022538 0.00049731609789462505756 0.00012507777253170900889 -4.9277607094279527128e-05 6.6463306025403643806e-05 -0.00010291778916536203665 9.7250441580734535408e-05 -2.750364424647520938e-05 1.6072780483705922039e-06 0.00017859586094388398133 -0.0002227644358025158164 0.00016346085952953008061 -0.0001539254180450790098 3.8430318540684765393e-05 -0.00015969080420862312745;-1.0948975312056212418e-05 2.2875050576165214649e-05 -1.7538605414102375409e-05 2.0419424207365427737e-05 -4.2048397324030137084e-07 9.8455786386024988013e-06 4.7755788777914572464e-05 -2.7245478988551747815e-05 5.5832739364190365572e-05 -5.9476558064873732507e-06 4.4699719918523016173e-05 0.00011792119251374279243 9.0086814530680796266e-05 0.00025396782166543964291 -4.3677116239590227744e-05 -7.4645664966459514766e-05 -0.00085281590848687734673 -5.2826286433743001661e-05 0.00054802629190091334006 -0.00015532335644668926618 0.00027627112826177183417 -0.00024096963455020787323 -1.2931838166356502789e-06 6.6344076824514225648e-05 -4.0676255234725805282e-05 8.9570695578674463687e-05 -5.8343438578287863574e-05 2.6960035355500617475e-05 8.3863279333992168658e-06 -0.00012025923511879325163 0.00019624162088729786763 -0.00013655174302598394867 0.00015864766875336655462 4.2326766518790410576e-05 0.00013591643642835889703;8.2512372219501950638e-05 -7.5243540463747524789e-05 0.00017819183423397157769 