function [y1] = NN2_stage2_5MHz_autoenc(x1)
%NEURAL_FUNCTION neural network simulation function.
%
% Auto-generated by MATLAB, 22-Feb-2019 14:50:09.
% 
% [y1] = neural_function(x1) takes these arguments:
%   x = 35xQ matrix, input #1
% and returns:
%   y = 35xQ matrix, output #1
% where Q is the number of samples.

%#ok<*RPMT0>

% ===== NEURAL NETWORK CONSTANTS =====

% Input 1
x1_step1.xoffset = [0.00136850381334986;0.000621704428773318;0.00221034346055603;0.00275769923727995;0.00357494959457746;0.00215455622931973;0.00127552966194756;0.00141069129973539;0.000621993986299392;0.000730208449458573;0.00191877051824312;0.00155647830060316;0.00403430944749917;0.00353954537370983;0.00353954537370983;0.0041542678737568;0.00353954537370983;0.00353954537370983;0.00353954537370983;0.0020386688833489;0.00334504623449386;0.000728699877063684;0.00353954537370983;0.000432742588414413;0.00115592540828383;0.000801311520830626;0.00103498212284404;0.00292999612125931;0.00353954537370983;0.00223258939719767;0.00326412046660675;0.000869580333651599;0.000970868758474297;0.000255698023119198;0.000687436468668667];
x1_step1.gain = [1.00137037918249;1.00062209118562;1.00221523990159;1.0027653251724;1.0035877757119;1.00215920836515;1.00127715871577;1.00141268416099;1.0006223811036;1.00073074204347;1.00192245927643;1.00155890470194;1.00405065102721;1.00355211825745;1.00355211825745;1.00417159780852;1.00355211825745;1.00355211825745;1.00355211825745;1.00204283354453;1.00335627312327;1.0007292312678;1.00355211825745;1.00043292993564;1.00115726311813;1.00080195413592;1.00103605442065;1.0029386062261;1.00355211825745;1.00223758500576;1.00327480984043;1.00087033716173;1.00097181226064;1.00025576342132;1.00068790936265];
x1_step1.ymin = 0;

% Layer 1
b1 = [-3.425758970176989493;-4.1334623513604888956;-3.8039136724864657246;-3.4682950224176249954;-3.4382844318015970408;-4.1314725808333596646;-5.0856348760633327544;-3.5816884076206640941;-3.5637205694061808714;-3.3598908512401433057;-3.3642637936837922474;-3.6071094150953522117;-3.9684076231275451363;-4.1337790496900250758;-3.8121047022053540232;-3.4676020130211679948;-3.4224189800158097974;-4.8046628963407798096;-3.5191195961263823655;-3.3901521610124798478;-3.3971671389499809024;-4.8262873365591332231;-3.9897156127353623489];
IW1_1 = [0.635923153440228206 0.76208090536914641078 0.81363415700879648806 0.79416833688970733807 0.71190610473528004309 0.57692783893647592297 0.40237654768305891606 0.20700616913853073231 0.01922069721381237592 -0.13623645588258853634 -0.25636931267203655338 -0.32596296001668134679 -0.34419147507388525575 -0.32810060372580907018 -0.31141797775621843369 -0.31525735164684687284 -0.33739780599730911925 -0.36569501535367665568 -0.39201557073318787916 -0.39878773384919230516 -0.37273612035791869879 -0.3095284848110153586 -0.22557908302581136661 -0.13711108687427439601 -0.065692597345273925913 -0.043351215535612053209 -0.089491355807291908531 -0.17027376956267972763 -0.23866846852386794375 -0.26095292177202361605 -0.21839203733292733567 -0.10000794554871345055 0.080705530927012908426 0.28710785953298589845 0.47819277349582445247;-0.02176355271176151629 -0.12082071033986889474 -0.24099631432781384865 -0.28926471588287533399 -0.20867736723669227938 -0.018728154305618725101 0.22384428239453002529 0.47045925143652095324 0.68326571258762613947 0.81459862304855779058 0.83468500540283485645 0.76661352940419036361 0.63049415632984695534 0.43694748473566114022 0.2051569628180383853 -0.04549283740424940603 -0.2871131288775531365 -0.49158020824833059681 -0.61803252699806221493 -0.61512594033485057388 -0.48549016782595783015 -0.29296083641397646646 -0.12257401617753201084 -0.019257254906653815951 0.0095868404107289379584 -0.037782246824539060526 -0.14016465851655801611 -0.22149971429137768619 -0.24382600438994639358 -0.21239102840047510701 -0.1557488486921272397 -0.093015476826594084558 -0.045623018847097830675 -0.037831098178812645749 -0.083162091770406912361;-0.2183488122139483345 -0.087676906650832317491 0.10446865594960955126 0.30388109602071083915 0.48161062312971514299 0.63099895162694275008 0.74238458858375766525 0.80429691671999281599 0.80348963447588095388 0.72320686605908623967 0.55187003049426308632 0.3145854383957213396 0.043245793603684808126 -0.21809255984696740427 -0.4210284003344053616 -0.52861459187774884061 -0.53287747945514352121 -0.45164295239628626799 -0.3332107784821934926 -0.24807937999777490701 -0.2151502205677022217 -0.208087417268467606 -0.21023476677203536966 -0.20764917776547761608 -0.19554444581689672811 -0.17830405436313556677 -0.16592662318859477399 -0.14342909815841289878 -0.10801586773810292752 -0.073728336702308258643 -0.061048943913802992955 -0.0914480950093413264 -0.15269093935878635948 -0.21551385543974599379 -0.24331836512687479712;-0.19366223073494656659 -0.23546779000165485307 -0.22728490698789358126 -0.18217370898437437732 -0.12656792118680568193 -0.093361748377380815445 -0.097535666402539911157 -0.12730991630721955055 -0.16217806511308208162 -0.20521762147717578784 -0.26441459871097572343 -0.30635832509964988635 -0.32707910587875382857 -0.33388827929421277529 -0.33201642820064708461 -0.33235517269372771842 -0.35230679457061964133 -0.39003376269151779354 -0.42844902887894958932 -0.43266856659523772466 -0.3759129899001282249 -0.24220022288217663009 -0.036639580841070960859 0.21457515604491098071 0.46418726154782252724 0.65883492786857600354 0.76715766155700870765 0.80705256045282058874 0.79147959645397225614 0.72658108168658686044 0.62091912751163591544 0.47434885026440343214 0.29616071463551957299 0.10321817395700454145 -0.075145914848892936266;0.16048679552625524924 -0.029654958496661894263 -0.17412445310487473238 -0.2516884062655750931 -0.25621082835349168194 -0.20575871057741118575 -0.13268267428591429269 -0.076118727581013775896 -0.064881895471768161188 -0.10216060063191623186 -0.1849086881180174724 -0.27759146874483581202 -0.35434237655019179547 -0.40156629646230301844 -0.41132003679829293175 -0.38877496752837914507 -0.34829528739389997716 -0.3066182857994678157 -0.28755721338884399074 -0.30331665798433049552 -0.33072188501693972063 -0.33604712313846551996 -0.29638678691113862218 -0.19178966985779019594 -0.02831417537908020518 0.16894704671182050881 0.35789607536082956862 0.52268830063324822621 0.65399261522521923151 0.74208175411352084172 0.78308666499992807264 0.76659853630122420931 0.694495189882533559 0.5636480041173477229 0.37506767776582344842;-0.023315918602018342876 -0.122326597750369373 -0.24134746725746947238 -0.28793263707785521355 -0.2059916310665775574 -0.015526383735406622255 0.22679539664827375045 0.47271013236663506074 0.68458969703003247353 0.81499173538791658267 0.83424451462200455154 0.76539468291367318553 0.62857587193013264582 0.43447507049786399103 0.20232602663281523681 -0.048395125231807861743 -0.28960926099888134599 -0.4930260091324997207 -0.61779909131144228329 -0.61337552485010882197 -0.48314292421416893397 -0.29110634704140869733 -0.12183112460765631313 -0.019622023031333268167 0.0084991522881652827037 -0.038990441534289425884 -0.14089208173699405147 -0.22152828985315875521 -0.24328435736424752767 -0.21162431953700336362 -0.15504169105367351933 -0.09257867707209554986 -0.045596539110842777831 -0.038259957511241615702 -0.083903968328516875808;0.089622759166276794174 0.24009711299778543903 0.21715669426410183496 0.041293499430275160123 -0.26299226683174603547 -0.59263790922764603142 -0.77552597736374018211 -0.56656299794549147553 -0.005078615421596801606 0.47850439696928026567 0.73204384361971475137 0.88081793681097375615 0.9555657979686414949 0.94766576116828860066 0.85922395526578798641 0.69629271101626111218 0.47222824041978100906 0.20350662037009081828 -0.10937809488335134556 -0.44415874255906295787 -0.75041739527629103268 -0.9301920125266440742 -0.88584229023456462215 -0.50654423947063176303 0.054205270731107327298 0.34737343636974671313 0.27709968975202037278 0.07861809833199127906 -0.14028946920378360108 -0.31949912110629946627 -0.40088012498699315822 -0.33147933448232569376 -0.13125624415657910493 0.017082884701825132301 0.02908885917184221917;0.22616555512217553781 0.46208210908750851909 0.64298900553389515267 0.75902106222714527117 0.81387738218552374558 0.80960521055117184996 0.74945716282861696289 0.6357878168719071077 0.46931156626833220313 0.25303210139354698205 0.0040063557576330253995 -0.22145066833605417389 -0.38082097373475126689 -0.45890970428857386088 -0.46678333168255825569 -0.41695367806830541113 -0.34178728981670308817 -0.28490137060247838763 -0.28124850505249765487 -0.30858282645861467852 -0.33136270633097936189 -0.32901477685701441267 -0.29967545153067859376 -0.23620750226234735192 -0.1521690213457260743 -0.081316292314414215237 -0.056997282194949983047 -0.066902985070604534257 -0.10643002438917738284 -0.16651639325251493817 -0.21996936488712418023 -0.23608104252764675057 -0.19758381145883435748 -0.10330734826434104234 0.044496450554157469803;-0.086910777404565223159 -0.042008283812244209821 -0.064237952164535663813 -0.12688944345196445651 -0.19942842422571444017 -0.25662353049933561699 -0.27401973846403676616 -0.24467981964707244402 -0.17292442122677634253 -0.11371788597002037424 -0.11927261425426743946 -0.1789819642395960031 -0.28956592045822554526 -0.42653492752214294814 -0.54364567822208020864 -0.61070012065385514965 -0.60349497925441375479 -0.51333671522989532399 -0.3287746982869800827 -0.065345076803293322687 0.23096457348829696476 0.5183882171613548584 0.76197888306341932108 0.92698477142041568744 1.0055600010653056309 0.9719282820208746676 0.80991596970350754336 0.57095900080587724812 0.30710735204672612308 0.062993318198153486209 -0.11255394534724336153 -0.20290200043454531542 -0.22103590190201347077 -0.19326069075800295094 -0.14435032313941736914;0.79853976084217148657 0.75396060189480884617 0.63979654899752891328 0.46864778068424500779 0.26194505473498302939 0.05644180442423853139 -0.10647555460905828995 -0.20224287431703630302 -0.23198011814312499701 -0.21719741087139859959 -0.19511327407298542647 -0.18276994641407232067 -0.20198233518518718399 -0.25709358109182955943 -0.32926653653933835031 -0.39433364676521964753 -0.43533878300564515795 -0.4436181029726892211 -0.41662145576484754805 -0.35323648580804017927 -0.27437444554720857859 -0.19419683837384410507 -0.1337326960002302445 -0.11048854091274520894 -0.12949241534287095345 -0.17401442632812885725 -0.22103785819263457868 -0.22828818250755192332 -0.16451818133449783166 -0.025310846254676212103 0.17054902801619359343 0.38314011600420705417 0.57293363735742608434 0.71280693129185612733 0.78686730293455897645;0.75921382871581877261 0.66142460459538976458 0.50107528265075984564 0.29692585245434477415 0.083275560135681978013 -0.094048022371195083569 -0.20339245698283928143 -0.24016070901463659748 -0.21970218658620599417 -0.17144484501513088115 -0.14151285190073353837 -0.15151898861693674503 -0.20714456303481307287 -0.28809713894510041721 -0.36780870301618240337 -0.42687467694451231015 -0.45044541836308821248 -0.43443907357747196807 -0.38562896332852875103 -0.31246229916908963009 -0.23875878052462468082 -0.17654808981634137477 -0.14659342271919642564 -0.15259808144703562727 -0.17955512791687122665 -0.20394947105317437486 -0.20986996960360421172 -0.16350170556638540798 -0.042878267456871239915 0.13944795177836069588 0.34737827321351633092 0.53927602999982127141 0.69018555164836037363 0.78169241111514509157 0.8025051441052669654;0.15703667647664373841 0.39898048444890321651 0.5941650228741964801 0.72718973514944484915 0.80093378620342436935 0.8167877835492952654 0.77662944877782513764 0.68131231034857742124 0.52970964149389831999 0.32106780241334664794 0.067051749395395737752 -0.17687019181551152935 -0.36110317198109026515 -0.46200477254083938128 -0.48605563168760207438 -0.44212250057009894189 -0.35959841602212316847 -0.28589051233471074465 -0.26845720969846381676 -0.29164401491905961317 -0.31696998355330524566 -0.32043488995508900841 -0.29972808198145489689 -0.24523854331785183147 -0.16651280630815112893 -0.095276336577323733623 -0.0659733271708170671 -0.065633117967285270478 -0.091416239914399927136 -0.1432244293738121621 -0.20041711579865750803 -0.23136984839089114185 -0.21341225706010286123 -0.1416049088267146705 -0.013009345777375594735;-0.15260241783580322239 -0.19913024950127922175 -0.19471398218354629694 -0.10805569201258286016 0.052737565193914419381 0.25371452599194382893 0.45818401344722037294 0.63878979370204158617 0.77075130073401765252 0.82131837944310437383 0.76803219558602009442 0.63294541510679680485 0.43895670421484250801 0.20312932305126274457 -0.048607154295365266605 -0.2835330306728985339 -0.46044071452755802598 -0.55343549285026782947 -0.54608194402971188541 -0.45337671001236123924 -0.32191834557719511967 -0.19829020884843395756 -0.11733420348898986052 -0.084070126489898214239 -0.087276950079837392615 -0.12276323723212129169 -0.1790466420993941099 -0.20831300975057098768 -0.1954170072164589933 -0.15496906135935645255 -0.10614398437779411222 -0.068393918155406643877 -0.058940329226309901012 -0.091022019943927237606 -0.15686039918856192754;-0.022447418965432914401 -0.12134979633736875382 -0.24082001420432924688 -0.28827653620752846653 -0.20724371402295860278 -0.017334420880527914161 0.22497526554318567071 0.47130246896096578135 0.68381899234033705071 0.8148521180976692202 0.83462104674223458467 0.76622326116310679467 0.62979613280471513637 0.43601606909527040878 0.20408111169784554084 -0.046634366289790910032 -0.28810652896335497974 -0.49203279988839565551 -0.61762164109529649192 -0.61406112128386391991 -0.48434822378410274935 -0.29225498049163722847 -0.12240736697609699846 -0.019481612897774280846 0.0091861187477762749898 -0.038107013671960086876 -0.14021496967918598009 -0.22126532825023567663 -0.24341004193549894974 -0.21196253481944382635 -0.15538477944875181413 -0.092770198386415564373 -0.045527498157628645825 -0.037902412141590034744 -0.083398049157209164228;-0.22129944221500766344 -0.098023632907238131273 0.089110368477436058265 0.28743117093466541423 0.4665930670520906931 0.61904425176028710087 0.73460621801214753823 0.80141245172304531597 0.80581702021277057391 0.73054353660541637705 0.56362030725552558774 0.32991783617987069377 0.06054588740773916844 -0.20211096009259577055 -0.40982450565010442034 -0.52413631207240496401 -0.53500389195376463203 -0.45864745479787549787 -0.3408082515963266057 -0.25212060648705619803 -0.21476830780419681188 -0.20465318971863918907 -0.2056346344731804221 -0.20343436100846601366 -0.19290884387084847318 -0.17813328605758385614 -0.16795750255365685111 -0.14649009160695314335 -0.11115958230100252135 -0.075850369869714800997 -0.060606131198454885056 -0.087725858734577930043 -0.1471990382708776024 -0.21117018451529928624 -0.24264060908425458263;-0.20741025326153211816 -0.23576910767806591451 -0.21763547846095634974 -0.16806576782318102814 -0.11642723911127329794 -0.092877886435274711885 -0.10529132864478402132 -0.13806716328487228518 -0.1716128288099171284 -0.21129190190790370085 -0.26526347102550257295 -0.30198228344738198281 -0.32023682586886043078 -0.32760713257850054836 -0.32861492513330292642 -0.3347367210489518019 -0.36274129064405163936 -0.40560802487680769346 -0.44143551562003674471 -0.4361507137822580038 -0.36603206576028274322 -0.21675903278081382064 0.0029553747228823782842 0.2605284355811293695 0.50756950413578616477 0.69351406465934273271 0.78979788671446049531 0.81605655388642817094 0.78646166397688344052 0.70842335420581137306 0.59157312700570718889 0.43665944418667046456 0.25408639379006353609 0.063848224359855765275 -0.10354781080317045083;0.30817867287871159032 0.10318535217186186603 -0.08202757366677283779 -0.20959093560651861909 -0.25940936506801531847 -0.24113968852141273724 -0.17871197438995520268 -0.10656214249634667068 -0.065189937377568757393 -0.078183501696765120292 -0.15030246535410224373 -0.24541810893986729103 -0.33484295447763740006 -0.40053807203196323261 -0.42879563170017875873 -0.41623959859036546716 -0.37414244070878616144 -0.32127787218321768314 -0.28020647631364342667 -0.26836753425030340781 -0.28450651829780138069 -0.30373043739448429834 -0.29811439579593485005 -0.2393168424051677623 -0.12634576107769529552 0.030585921079605716405 0.20517836477751966173 0.38323545868847941342 0.54593293862905545311 0.67441579542896756827 0.75974187000279469473 0.78828816936142631633 0.75914253574459755747 0.66645605847745670314 0.50874446739354106661;-0.059901182546139589147 -0.18599454971828538463 -0.36236926189972890056 -0.39476311873083375081 -0.30029692164842552993 -0.14784970399480940051 0.030021420807901932903 0.20417838160107676382 0.28693989442372747067 0.043517171710963996334 -0.56838312172672678102 -0.9178743342998678667 -0.92487596934210858368 -0.74953355545009536787 -0.4752435037838371179 -0.16135340782668844417 0.15089313641026580459 0.44157664498319382229 0.68892978884334732381 0.87146286614158197104 0.97934221226671347438 1.0003389426569297971 0.94280882492795925476 0.79690522977418110084 0.55649192008455738989 0.10266613453600992312 -0.53749875022245008349 -0.7387258111777381675 -0.53700757813023081155 -0.23526736194002917379 0.024242758217547649702 0.18205998322381888865 0.21414588688546409845 0.092615298260346035075 -0.17913618947885881494;-0.14856722162143626287 -0.086593270730467727936 -0.067095241335326044618 -0.094456999686470630162 -0.15315524951918838004 -0.21219981528933792858 -0.24625259488072179237 -0.24584723745153994057 -0.20480161750977027291 -0.16340136009825420582 -0.16347364469000047471 -0.19693331395863472588 -0.26595499035221104034 -0.35945384519258288814 -0.45661671607972320608 -0.5365824264230163454 -0.56879564751246591836 -0.53417086325772145106 -0.41551367340845202225 -0.21145799226504094492 0.054159750507593487634 0.34644062236452438652 0.61650831447775478189 0.82039479305272833276 0.94528314632211030144 0.96499355785196172519 0.86405130169427879494 0.68458569737310770442 0.46600617491017726213 0.24005627412369076601 0.043048907540659056559 -0.10111032664502585254 -0.18164120841358774583 -0.20749078736634352094 -0.19458234532757232027;0.58739097417872720985 0.4127779657560259885 0.20124309404593643258 -0.0066523438983740971336 -0.16176030311345954149 -0.24120009567494180014 -0.24864002214283054126 -0.20262008459131039539 -0.13437885663158743998 -0.08669652583294264192 -0.103478284183507796 -0.17387658121164933922 -0.26780581362527466904 -0.35713294681982188372 -0.42333053067449938345 -0.45007136617703824566 -0.43141204629591151098 -0.38026266906491906772 -0.31811168473241063781 -0.25761928745919210337 -0.21990626883623418109 -0.21186527626257456447 -0.22875991705423726064 -0.23665438958201523434 -0.21809023081021944312 -0.16381591490876709627 -0.073371528807358546431 0.068107446231609955478 0.25211992832582197366 0.44229368929226364759 0.60943042727906904243 0.72981882361468575215 0.7950917860209945065 0.79383820929292325808 0.72043117878849916025;0.71831580612905832073 0.80022665729779107746 0.80680895814861397497 0.74365069694190921723 0.62100763981345341591 0.45282674915123150017 0.2582983149707379078 0.065979480615325727944 -0.091046827326671880831 -0.19923104726895007888 -0.27133792593776778768 -0.30178853280385203872 -0.29750871949624912993 -0.28325637209947518436 -0.29011448564752223556 -0.32271497535648036026 -0.36295734016357605878 -0.39632176635185739633 -0.41588787429140394725 -0.40480682476646551171 -0.3580701413166995084 -0.27985345913525117023 -0.19175367873255835804 -0.11101479901483091162 -0.059425020237039077875 -0.064257340061079193383 -0.13047564842578016076 -0.21027207679937207074 -0.25618193346745182781 -0.24195603718330424559 -0.15494192420894936646 0.0063471999218990505717 0.21384611877223921872 0.42177179340986525879 0.59286964478425863145;0.12500239225953299615 0.20542002544534243569 0.11082967194759339724 -0.11684933318793286339 -0.38334592557404040258 -0.57922255885477558213 -0.58558989108084391617 -0.29415347044186784808 0.18577964991178536058 0.57759762299269501451 0.78681340302324154212 0.89593428968853461303 0.92882319331866414203 0.88043396239184201768 0.75725342444450316481 0.56881540769165017668 0.33000173432164181531 0.053375610059446618183 -0.2658409263416703916 -0.57826511324558060867 -0.79103140762926171803 -0.82927905441901128558 -0.66349153257076243229 -0.29089981411294979496 0.11207226609659588779 0.27855184288217843536 0.17285780641029643845 -0.025713380825662768281 -0.21081998294313536446 -0.32667386946856680208 -0.3462542583581848521 -0.25281075052684442994 -0.093074888299547867132 0.012167406301308501121 0.013226767540001073756;0.010614865654955741789 -0.067166435430422305464 -0.20303479062969784219 -0.31458539839259208604 -0.3492906370789629622 -0.31156967105249105954 -0.21058812742655308448 -0.075142448686308940808 0.054421005543950295991 0.085561367897224474555 -0.10251322560236285353 -0.39522328636697917625 -0.62783452040626730462 -0.75259075389010920976 -0.75881576312827503372 -0.64413107492147503308 -0.40863433172512775293 -0.090941255724002162397 0.24796473051539902333 0.55050224967599381554 0.79609111167975765699 0.96791657198246361382 1.0616607211419570866 1.0557416483943724561 0.95150747136807845017 0.70830514506227215676 0.29067369883576010814 -0.12162055916115066534 -0.3536775321442648945 -0.40585356209622153179 -0.34009404859857628178 -0.20549830686907857857 -0.051445183735470127739 0.053959874599346119295 0.035845505556903516087];

% Layer 2
b2 = [-2.1471545347357228195;-2.0784432945588191544;-1.845339148036570176;-1.5760707226277099746;-1.3798503024105139847;-1.2974740502587283064;-1.360738666573174882;-1.5387155967684342794;-1.6896347295659452925;-1.5873772377731332206;-1.1012008567806557124;-0.47636366002597213543;0.1315092881735016872;0.71572335548929111315;1.2462504583918687651;1.6560441094823670216;1.8729429913258246465;1.8694460342760987892;1.662109361034817212;1.2834438142665767213;0.77647880520523326897;0.20889170730438902379;-0.40731907498602271112;-1.027013423111921453;-1.58545504985835084;-1.8657199161793112108;-1.7305371420569133356;-1.4846969278784998281;-1.3533396208675065875;-1.3720574141687458258;-1.5407801394607720802;-1.7815765162026748758;-2.044663329066778612;-2.1947052484310343168;-2.1519936385018092473];
LW2_1 = [1.0623636575133983406 0.096460560388753821548 -0.02192964609410478008 0.0016375736653047293003 0.46611427653994241815 0.094935324418925770562 0.16913640600658050306 0.60101569640836682851 0.068078016920954040336 1.1995834750611560349 1.1535292129805660988 0.51487162383370665975 -0.025182729534289800821 0.095769218235352379653 -0.029509367219294486973 -0.019854221707309605005 0.6435990360110526165 -0.11466685585434698014 0.002490632351635593475 0.96687009115704347639 1.1406322461602635965 0.23182685901749072732 0.1457983639927693531;1.1690599208075509452 -0.051354721589035985663 0.1290334502257170779 -0.077683078734447449931 0.20675389612457492627 -0.052691252410071678924 0.29096326129191901755 0.85695737949589823046 0.13380470730551821679 1.1312783656399671983 1.0277658397987063932 0.78161999901742362784 -0.099008268345905453556 -0.051777792494293962966 0.11226036076781230333 -0.080733560202711135423 0.37070144647508590507 -0.28597363327306729586 0.084467396075207867856 0.74179002834951068834 1.1975991789778983598 0.27345507901708326903 0.032213131412522175157;1.1631120386876616646 -0.16746058001701649709 0.3513449502605783259 -0.11309428650090755375 -0.033825083074136508277 -0.16732992933226462084 0.22331052649985891345 1.0054169791991536265 0.094454305171514915673 0.95982001682786777241 0.79720618111463981137 0.9529595106852031261 -0.070519392735100980274 -0.16701966484872604601 0.3300615900209386 -0.10126739899056061422 0.084423993776775133058 -0.45524904891086176439 0.092017308038946921123 0.43519419978409840111 1.149351718442356507 0.12867739603760844358 -0.15998590985471064507;1.0858121624814547346 -0.16236248743376960335 0.59230378508439029961 -0.10090412231789933073 -0.19239051379036503642 -0.16022146066606876569 -0.023034008290237134586 1.0697203218375770373 -0.023262300949536879324 0.7108246576162765562 0.50143075674227122196 1.0411028350688305011 0.08466218545210200952 -0.16103214693844300487 0.57212983214360779716 -0.082632936015025290621 -0.13624576230949203559 -0.52290297554965325943 0.021485689992847719493 0.12460147515788791428 1.0291462829058963813 -0.15096620824676756922 -0.3395168291620868084;0.96227064701933373581 0.0061429893269377890824 0.78966009508661005878 -0.061105016485119817427 -0.23557170608558905545 0.0096889540445061640012 -0.33420123227838022251 1.0896857355988505134 -0.16566564646406828354 0.42091558751774516001 0.19857781295012752465 1.0814008963449479594 0.31982776579512967041 0.00791254492727519812 0.77352688033523353539 -0.047871580587889907277 -0.2407869011100065848 -0.45536575939545548275 -0.096006306750216929835 -0.11234344177798849529 0.85631848034621016463 -0.39608905219321605129 -0.43078986256241047492;0.79528424645610518162 0.29230964968706224516 0.93856600916061394546 -0.03362872974926389702 -0.18539575716021422513 0.29602741567237644826 -0.54870219958638644098 1.0769621232430091062 -0.27803155748038937967 0.14498638587677079026 -0.046017585910436684116 1.0885732125946452342 0.57598413824269878436 0.2939330072701477059 0.92705365141311546484 -0.032654739978778914156 -0.23424276170472768666 -0.29253608726127106054 -0.20723464462786680973 -0.23671646381189845321 0.6416764334396151126 -0.45966464563254738618 -0.4183607001072293663;0.59557289092532506025 0.63935584249414101343 1.0647522252116041752 -0.038452727040563697281 -0.08482586278804767066 0.64219172180230466029 -0.50108758426083799264 1.0297660254581000316 -0.32181734557165997401 -0.055740012362580464156 -0.18205036248418904332 1.0635995879004476183 0.83580430926931859048 0.64036859389539435572 1.0580227229252043841 -0.049085093796240548969 -0.14542116294727808201 -0.079329386171873919609 -0.27195110729100152591 -0.24040532151882831879 0.41146947369156255947 -0.24870143919414477995 -0.30314696852334294119;0.38386893162222546216 0.97543985806374844394 1.1686938805047446532 -0.06738565880540119124 0.0097646400392430617032 0.97700915104628105468 -0.067234618344464688877 0.93713171136542783302 -0.29042057467051440867 -0.15326952460886816842 -0.20461358600928339357 0.99513861725993080221 1.0732155045864404386 0.97579720514228163175 1.1669449742035191697 -0.083923421974794923384 -0.02866369724795180679 0.090121187248062284425 -0.27659962991359177131 -0.15351385807401166095 0.20070655731088432594 0.24339527060633028843 -0.13395875146125757471;0.17320049863799649725 1.2197717872558837549 1.2079528470802838314 -0.11242228309311178003 0.042762369205397783578 1.2202087205920828517 0.62290758010445224091 0.76778577664030311922 -0.20414279586041506054 -0.17007933972429434277 -0.15463973223918084376 0.84790957574960346133 1.2342011077358598925 1.2196742577282160269 1.2112954292834896552 -0.12839972451154049726 0.044441888538153631605 0.063676667876934434087 -0.22818955653447173249 -0.042376066539157881963 0.025568340157051824835 0.84297929594624487759 0.0034133440244715476317;-0.047647748321008681627 1.3009069278838891748 1.1115897404589996089 -0.20338590364337527649 -0.025935576904719905011 1.3005518599400505142 1.2346151625524146578 0.48037685134259661135 -0.15088139058616623078 -0.1645335966715269771 -0.10325237069583022287 0.57288119363098788384 1.2530491641119139157 1.3005679057675818555 1.1203864830682481735 -0.21460181795931257409 0.012426164541467551311 -0.28241611184414416869 -0.20036691299301556679 0.006689079603924816958 -0.13570276155555316411 1.2966144830825010459 -0.0029307200471531368036;-0.27698450880932867779 1.195768502260712518 0.82919949590770369863 -0.35375747301195858974 -0.20528909545456106023 1.1948140873447472554 1.507110965623358334 0.081219751804847195586 -0.18058650239819745709 -0.18759600856807945313 -0.11557651846847254162 0.16775834819156990041 1.0943157738759790032 1.1952500248534390082 0.84384098468419566075 -0.35703279899649126294 -0.14541107287207238885 -0.878356950391854574 -0.23674803904710076119 -0.067896092311422948096 -0.29652870629124272739 1.4437497041204458981 -0.20989409133542588637;-0.43822611508250625123 0.98566016181293991671 0.42307867946351940258 -0.48625828825246336651 -0.41593932076373218987 0.98401218675019774818 1.5458498345102826832 -0.30485766707012895704 -0.26044611740176309977 -0.23017700715988054228 -0.18970025785201966029 -0.24402047895829817592 0.81971965365623933319 0.98487616420340173828 0.44303312304934233667 -0.48051442582978115547 -0.35621428342872601958 -1.3579190340654170299 -0.29986320113271230925 -0.2306570076487271248 -0.39923679150139934624 1.4124649942098956856 -0.53596994069703141061;-0.51298490090906678773 0.69989537454743289135 -0.038419615078673856334 -0.56997797498478175449 -0.59941849354456167021 0.69742167765488627396 1.4598431930616584395 -0.59010361459788285288 -0.41008240740313661732 -0.31496603502447689804 -0.32903337692251966029 -0.56598291618513474344 0.46262197457041726034 0.69876265939375148406 -0.016090442895768542614 -0.55804821696207440596 -0.56071254329538278149 -1.5280599123838072284 -0.403585397238261534 -0.43705678562444544299 -0.443590046999883858 1.2881103077982660743 -0.8798386346278025405;-0.54274540654145642105 0.33219699455202877925 -0.48783758996834619692 -0.62015450641381375529 -0.73777201282525295412 0.32891050004194932743 1.2604655316842525714 -0.75820007965342073319 -0.63265237143080466087 -0.45747841420515111821 -0.51643379071220618659 -0.76940689368674719528 0.038042382655237343136 0.33069809970008978706 -0.46798904435501198495 -0.60616509236159565877 -0.73139411211735971818 -1.4493630580261036567 -0.56013107456780630855 -0.64764197205055529238 -0.47941900657474817438 1.064179817068500622 -1.182039965463508091;-0.5835332172783074256 -0.10094820563086120968 -0.84995027057085670297 -0.65830768914124893065 -0.8186683994900207928 -0.10470897303361008379 0.95602597385354493031 -0.82669389758527922485 -0.89996403178647044196 -0.64023357092819277447 -0.71625449751329228754 -0.86221002260652435112 -0.41191146566900044279 -0.10262818247067077848 -0.83727849194280545841 -0.64791016572620263592 -0.84564531579719781629 -1.1604598122053690901 -0.77353055815070304035 -0.82673266521931776385 -0.55638500359472164991 0.73787532263514998832 -1.3761527599510128272;-0.6610159357427113358 -0.55244047697160103549 -1.0645067456812271622 -0.70409011675759580751 -0.83502363021143799493 -0.55603271771881135344 0.57456605764440316086 -0.81742357510996810355 -1.1350950886012547425 -0.81589109161880712939 -0.87989467230364981631 -0.8596949948295660171 -0.81969814421599096477 -0.55393541899087817004 -1.0615154900314081043 -0.70400736825338161573 -0.88331682605012251663 -0.70218683158365291508 -0.99837173290239811241 -0.93296588533238100638 -0.67754508789010392533 0.33236844049432623383 -1.3732840959824728078;-0.7603828352957074932 -0.94807622581568085085 -1.1125191557415203825 -0.77330468856528955524 -0.79675950699368847108 -0.95077515717400495898 0.13974780065097702764 -0.77317961027641946004 -1.251141715058969428 -0.93479573324635767406 -0.96375619929302569489 -0.80287451916232965843 -1.1071333948467056985 -0.94905453025160912972 -1.1184774982126908238 -0.78763264131765609033 -0.84528105730562697051 -0.17055618693467500258 -1.1548496769101239678 -0.94097856949700686702 -0.80447356796119917632 -0.11845699602614793988 -1.1180667655458222942;-0.84748439121277063801 -1.2145390107578240002 -1.01265322820544168 -0.85372557592330433618 -0.7298166454772009315 -1.2156829659450005821 -0.33409943389228752286 -0.73858979273843627933 -1.1987049191206755605 -0.96782557513798428417 -0.95121955971058425039 -0.74361114627195057381 -1.2207719269505419302 -1.2147446188126695965 -1.0242441586392359021 -0.87878007769333721377 -0.7574679082245345807 0.33429881318968884818 -1.1818716162255578084 -0.8619286139396038493 -0.89576160930840642571 -0.58356335876574527699 -0.66733862477072025676;-0.89086853786730457738 -1.280354360171246153 -0.80847075647096389162 -0.91010685116218870139 -0.67307116697119107052 -1.279371918614366832 -0.81463790446821304769 -0.73297781565000585946 -0.95431244741568987955 -0.90589085778727673759 -0.84950160808301833359 -0.71510228869963110565 -1.1258491463608841787 -1.2795727963898251289 -0.81948909480829257301 -0.93471277852489531579 -0.6614543304507701782 0.76096293304193496354 -1.0370826296200248429 -0.72947485272779744037 -0.92251735586543903711 -1.0214902771574581042 -0.14051383403089362512;-0.86270860983392561039 -1.1286186090855858666 -0.61453650248680291579 -0.88863323816741890404 -0.6442823614200584581 -1.1259261593843592486 -1.2255457661516033774 -0.73472299292879339472 -0.55095056655212037988 -0.75647576896695145621 -0.68052155164785732566 -0.70723804756880570555 -0.8831000191492450746 -1.1271591699545009391 -0.61943862310781239167 -0.90121935695455279713 -0.58903594074637799505 1.1086992238298107871 -0.72161977683829614527 -0.5778354880398978155 -0.86290027048129913645 -1.3366428778154217927 0.35446678217819943546;-0.75444959953155199539 -0.82158234047920786214 -0.50126516034095203178 -0.75569060487560135719 -0.62390937535723733909 -0.81858789674221055233 -1.4816399946690030909 -0.70777112051295010264 -0.072593036564996035742 -0.56434000233647141354 -0.49682664953358024462 -0.68443397043142151226 -0.60795470106718674241 -0.82023564487542210966 -0.49934930906832425412 -0.74880815101505948661 -0.54930052121194961057 1.379741610865894863 -0.28813901753529991279 -0.45519321846692734068 -0.72237392294640923041 -1.4308865427220551769 0.76469628874315309641;-0.58322458834702839425 -0.4893268915160809418 -0.44019515541887377363 -0.50521732339895220054 -0.5761437857705791199 -0.48727366658787629738 -1.5058455418058207531 -0.63535669145561468607 0.39629267058002848323 -0.3712979330447488957 -0.3371783615433732173 -0.62364187977671570184 -0.38535229744883769953 -0.48857636203708182387 -0.43404905895379253256 -0.47586960545156958835 -0.51901820957962829794 1.5523900399528496319 0.18686281749189848078 -0.3819525555925835647 -0.52868926892999179579 -1.2842500631588902316 1.0703184459558370278;-0.38052119504893650026 -0.2340745087353213183 -0.39220493102006676045 -0.14723103472608756181 -0.45768833113511869781 -0.23339620914633973925 -1.2378028206062345884 -0.51419094015882649273 0.80037501050262072066 -0.21919141084277013465 -0.23406269329206069729 -0.51742275584118502252 -0.24257905623408992923 -0.23396542988842225497 -0.38492371754224002922 -0.098757672431230972276 -0.45151103865550479277 1.6097012001048254248 0.63033351539517801232 -0.34604453157024922527 -0.32177900181564894622 -0.9241373611599479343 1.2824917779669551265;-0.16927819403311317181 -0.077476160773671240434 -0.32412789052932394762 0.27703818906944771561 -0.23422588528476362413 -0.078004102342221465216 -0.67574076885425693462 -0.3379056784828986526 1.1145350410146306341 -0.11525375438272804363 -0.17113963297471687652 -0.35466290169440783941 -0.15908775769103236652 -0.077894219938372102896 -0.31841575452522474787 0.33418242670880476952 -0.29526363594303861593 1.5138018257583580883 0.99356542260842584113 -0.28691700226614769154 -0.12547262637797787499 -0.41589578571705387855 1.4161995432466907285;-0.00030963187162423702397 -0.026096965436165187047 -0.24704434545590883698 0.68866722848222328146 0.069882111470681518295 -0.027410566817853969368 -0.065782819623063468195 -0.14440420882457125074 1.3289972032099817145 -0.077785962526475987966 -0.14253768634811608829 -0.16910860050727125059 -0.13064988486408440904 -0.026812961631126092099 -0.24463953410458885718 0.74210511683146762607 -0.059838533238567574724 1.185522229079237988 1.2505145888855053737 -0.18905772267525450259 0.010888466830621714929 0.033740804238451507779 1.4546753286048783593;0.067699820838756488706 -0.075031667121893491634 -0.19711379923411384563 0.97985016807330260757 0.37382481558996871751 -0.076361238221353475164 0.24934737192792014171 -0.0078140129785062416995 1.3962178257573272244 -0.096533042561189191799 -0.13215467358448418356 -0.033270554821606505846 -0.16095306227889147332 -0.075525393954493938442 -0.19846242838125488506 1.0214200493600271713 0.1958630046492785548 0.59060310011398042818 1.3564369341294963967 -0.066531476963182220596 0.042132549931726111236 0.21888230865560528993 1.2789924167983706127;0.0022383390743012160015 -0.2041555186730208693 -0.18538418668533407363 1.0957925701144983766 0.59542785298222911106 -0.20494626267438342815 0.20197727065424592174 0.027212834843714794192 1.2577851635507752981 -0.16416389468047873357 -0.14470627434806246359 0.0093810073409432877256 -0.23761092869840708119 -0.2043322715173550852 -0.18995722840483864058 1.1230141619026294819 0.402540677023466964 -0.093694063977204505855 1.2736169122658025366 0.043480208262335423575 -0.049453806851289409952 0.10904795281334264678 0.81938687120305508937;-0.12445150046388632481 -0.3103315373091981022 -0.15829625298272850809 1.1168931264523489499 0.76620320596340052433 -0.3102579656539725117 -0.048070165256599010906 -0.00017600830007802347778 0.98636042390102196542 -0.19524196469970345191 -0.10668482488709234157 -0.0018654240543882179629 -0.27979858034884547147 -0.31013414428491103969 -0.16449586529763746134 1.1300463601159962401 0.59170024583299951626 -0.47536946209243602368 1.0753657867768429135 0.19421417930305068245 -0.17610420660232986578 -0.14167333124637898623 0.28149462897003435513;-0.22545542087679806831 -0.32819635104484251586 -0.10417144468983199901 1.0993624772146584068 0.91146583605898912062 -0.32735470323425097661 -0.3135403069721878766 -0.063194617816503914631 0.66461070354416151851 -0.1194604122418129466 0.038874791264834070159 -0.046243317411259005079 -0.25279944197905840353 -0.32766379069265882951 -0.11004822017020358949 1.0986071477010457276 0.77795193607790724677 -0.46482525207387193067 0.8244249169791811882 0.41184761805849745553 -0.24672375229290338661 -0.35985671389738288495 -0.11427367891954387513;-0.24463697055222990984 -0.26985229343511779598 -0.047706882675840979469 1.0498675487972377596 1.0237057598205006048 -0.26871005912360379497 -0.48099740066076362988 -0.1377409343460292146 0.35266704777226381973 0.072503002915389150318 0.28075027796993545781 -0.1107300278620817896 -0.18028144048396488319 -0.26923940148117336824 -0.05154806265305172247 1.0350739189047384325 0.93991211726644008362 -0.24320443924465234842 0.55615443347503956684 0.65760431018339216003 -0.21495425798288064767 -0.46068572336076435425 -0.29578232987990676905;-0.14983947728242802411 -0.17294980338147178389 -0.015310480508819305709 0.96427463179154726536 1.0986018021007910583 -0.17187329354945349302 -0.50276091006249112869 -0.1817027076952658915 0.11372229875608820537 0.35404749971999532887 0.57219582738401886246 -0.1610437577688416666 -0.092197130423059506232 -0.17245552188245602543 -0.015619646679424045721 0.93526183418860597829 1.064908715625592972 0.019751618931050554662 0.3110290874303173192 0.88833078075063454104 -0.061459925698662057347 -0.43204387006944777738 -0.27872765245706077053;0.061430629923792591518 -0.066214766029179916718 -0.025939553973009687321 0.82651845988380623353 1.1230118622259168681 -0.065463708091208064332 -0.38071862685403656812 -0.1522836907544631857 -0.022368902548133288294 0.66231836853765946316 0.84781454187765215025 -0.15343697958219126853 -0.018428238517336239383 -0.065935990660418067333 -0.022656338511267314767 0.78426685585211497465 1.1374507766583012991 0.20092314414325779248 0.12236738145577005787 1.0665939621540072579 0.19939974905787694048 -0.29425966673293429965 -0.13184808957533822316;0.35397686596013666627 0.0073209353448984056112 -0.068215457759276440508 0.63961378038691318881 1.0879945729770641449 0.0075277923924343447329 -0.18581433565487570636 -0.032761932449769042008 -0.06158672725195282055 0.93448946539793542598 1.0638680793860120222 -0.06343545887043083864 0.0077932630026746729096 0.0073002701057788658978 -0.063871921433356584896 0.58907449287289703754 1.1505926495231415529 0.21731077577545715451 0.012961382042664323921 1.1789909319364981766 0.51627513895126697641 -0.12094856694050604151 0.044700150727170352705;0.64910977752284493292 0.022408392021606778066 -0.10368710249677125235 0.4096761195253690313 0.96241080293127256873 0.022082910605574924273 -0.032320975423663127202 0.1531118697801482631 -0.054939619720089608035 1.1158154382559930529 1.1846885214969429256 0.094945865278657573527 -0.01907166259812662773 0.022164892267002786475 -0.10190879205448659384 0.35993851538327126249 1.0739951688495339432 0.087894476681825900455 -0.045410901486068036559 1.2013403531607296237 0.80311968182038173669 0.0026614534631780885875 0.15188290350511587934;0.87429970829327829929 -0.027877176770257271199 -0.10106363349122365891 0.16157711351648887388 0.72746908979828117658 -0.028502325421375148545 0.017233452885705147911 0.36350783534184705204 -0.02062157817278050323 1.1848711256741504272 1.1972965688037691123 0.2873244014438089966 -0.083718740553792470038 -0.028212502151722149146 -0.10458886281661042283 0.12284463349258137321 0.883729998112129711 -0.11073976330458888684 -0.063038476698363835049 1.1157727190738797596 0.9957418051818616167 0.029701880617716253097 0.15461322113616082774];

% Output 1
y1_step1.ymin = 0;
y1_step1.gain = [1.00137037918249;1.00062209118562;1.00221523990159;1.0027653251724;1.0035877757119;1.00215920836515;1.00127715871577;1.00141268416099;1.0006223811036;1.00073074204347;1.00192245927643;1.00155890470194;1.00405065102721;1.00355211825745;1.00355211825745;1.00417159780852;1.00355211825745;1.00355211825745;1.00355211825745;1.00204283354453;1.00335627312327;1.0007292312678;1.00355211825745;1.00043292993564;1.00115726311813;1.00080195413592;1.00103605442065;1.0029386062261;1.00355211825745;1.00223758500576;1.00327480984043;1.00087033716173;1.00097181226064;1.00025576342132;1.00068790936265];
y1_step1.xoffset = [0.00136850381334986;0.000621704428773318;0.00221034346055603;0.00275769923727995;0.00357494959457746;0.00215455622931973;0.00127552966194756;0.00141069129973539;0.000621993986299392;0.000730208449458573;0.00191877051824312;0.00155647830060316;0.00403430944749917;0.00353954537370983;0.00353954537370983;0.0041542678737568;0.00353954537370983;0.00353954537370983;0.00353954537370983;0.0020386688833489;0.00334504623449386;0.000728699877063684;0.00353954537370983;0.000432742588414413;0.00115592540828383;0.000801311520830626;0.00103498212284404;0.00292999612125931;0.00353954537370983;0.00223258939719767;0.00326412046660675;0.000869580333651599;0.000970868758474297;0.000255698023119198;0.000687436468668667];

% ===== SIMULATION ========

% Dimensions
Q = size(x1,2); % samples

% Input 1
xp1 = mapminmax_apply(x1,x1_step1);

% Layer 1
a1 = logsig_apply(repmat(b1,1,Q) + IW1_1*xp1);

% Layer 2
a2 = logsig_apply(repmat(b2,1,Q) + LW2_1*a1);

% Output 1
y1 = mapminmax_reverse(a2,y1_step1);
end

% ===== MODULE FUNCTIONS ========

% Map Minimum and Maximum Input Processing Function
function y = mapminmax_apply(x,settings)
  y = bsxfun(@minus,x,settings.xoffset);
  y = bsxfun(@times,y,settings.gain);
  y = bsxfun(@plus,y,settings.ymin);
end

% Sigmoid Positive Transfer Function
function a = logsig_apply(n,~)
  a = 1 ./ (1 + exp(-n));
end

% Map Minimum and Maximum Output Reverse-Processing Function
function x = mapminmax_reverse(y,settings)
  x = bsxfun(@minus,y,settings.ymin);
  x = bsxfun(@rdivide,x,settings.gain);
  x = bsxfun(@plus,x,settings.xoffset);
end
