function [Y,Xf,Af] = NN2_stage1_10MHz_9PRN_nnfunc(X,~,~)
%MYNEURALNETWORKFUNCTION neural network simulation function.
%
% Auto-generated by MATLAB, 16-Mar-2019 13:28:26.
%
% [Y] = myNeuralNetworkFunction(X,~,~) takes these arguments:
%
%   X = 1xTS cell, 1 inputs over TS timesteps
%   Each X{1,ts} = 65xQ matrix, input #1 at timestep ts.
%
% and returns:
%   Y = 1xTS cell of 1 outputs over TS timesteps.
%   Each Y{1,ts} = 65xQ matrix, output #1 at timestep ts.
%
% where Q is number of samples (or series) and TS is the number of timesteps.

%#ok<*RPMT0>

% ===== NEURAL NETWORK CONSTANTS =====

% Input 1
x1_step1.xoffset = [0.000247409007130042;5.03255003745313e-05;0.00036999737152143;0.000370163204614352;0.000213578401028386;0.000442049611858719;0.000420675022319491;0.000381810503935477;0.000352679315812123;0.000804628322601949;0.000309033334209262;0.000238553030433482;0.000440095279589267;0.000465562239276627;0.00103908832403218;0.000477135830754235;0.000575275957448272;0.000222728647171464;5.78366193783212e-05;0.00242299028111867;0.000581926069223291;0.0021364174451382;0.00052963654425689;0.000610122217422842;0.0010853669347626;0.000150383837267568;0.00833302949065443;0.000701333881860086;0.00342986440695786;0.00205625278926974;0.00139851438073051;0.0500755753874301;0.883015240805787;0.0356874178250691;0.00113886233878686;0.00119772772846191;0.00195247575342254;0.000699438087816038;0.00258794380175104;0.000937317668459688;0.000497018280069467;0.000440658264500918;0.00109462432441598;0.00203396214295007;0.000394398157076868;0.000750486389280605;0.000379622632952456;0.000596424787300032;0.000705179314918218;0.000557304603439514;0.000807521818942654;0.000337248597796257;0.000313196001856345;0.000164250147488776;0.000615048627108511;0.00022680384449706;0.000532732947884324;0.000585046989594468;0.000292595717685681;9.37671463667663e-05;0.000545728731587177;0.000488552238107192;0.000476271847780347;0.000724862472584351;0.00019755807876749];
x1_step1.gain = [18.3678375918045;17.4291148281042;16.4844135124855;16.9877931376875;12.8987364487729;17.380116603361;15.4836322684044;15.7795098614001;14.4858276236359;15.0060963802518;15.5971283876575;11.5994824188638;12.0872885839269;11.5945448280995;7.22326424323153;7.64776077649461;2.19572034021632;2.01036140213179;2.0212536604125;2.02036368420905;2.01113755977197;2.00970988005636;2.02138441550089;2.02078620352362;2.0046617371372;2.01979411780677;2.02147024247783;2.02005465470961;2.05491247350807;2.00825074056649;2.02611232326798;2.10555674425349;17.0962441071463;2.07440646369171;2.03231578534694;2.0043518897246;2.01648926252574;2.00311274660901;2.01775777375049;2.04965530822373;2.01810490961855;2.01204839037549;2.04994579780636;2.06012340904177;2.01024351891812;2.06635441840238;2.00123117334652;2.03840543399666;2.20373788712867;7.00514882825365;8.18874613492841;10.3158578844574;12.2871930091393;9.43067409824841;12.2060032290251;13.2137702159819;16.6553255679435;15.2336316716624;13.3041946685631;15.3151478098612;16.0156830604337;15.4563134634443;13.4391942038352;18.168781344994;15.6274074322964];
x1_step1.ymin = -1;

% Layer 1
b1 = [-6.6612128641827048625;-2.2383896868246608847;-0.75620712850488780443;-2.5959486307708239394;3.9280355979595582561;1.5476485214401072277;-5.9710523860042723499;-1.8999525019856580155;-1.4775178203053977999;2.9231922328756283491;-4.5208901108282715242;0.71977262875829661759;1.6202453753032317607;-3.0124936459854785298;0.40518283968421531238;-3.0212987151969095123;1.0449060690487290692;-3.0572192689801060972;0.11482952389956155304;9.2973397830478461401;0.20386068613605487498;-0.80658161901682423611;-0.41638450740528515359;0.57843776018253334481;3.4727968209396666843;0.55102450456047158411;-3.7701815325185212835;-1.1085125227712260276;2.2079029057143229053;2.8795652406552312286;-2.7266027455918719902;0.38453375771314285414;-2.1718580940273124469;0.45134472616312582005;4.2031663507407541758;-2.7822309887902876291;2.75059234528757246;-1.9017627851857401566;0.34054983918400477672;3.7551252507717807205];
IW1_1 = [-0.020740936494024891923 -0.04382238089959689803 0.048733441291770075721 -0.0076602428653427621225 0.10145878015703561903 0.035533896886693644435 0.019766851668661780672 0.099296715957476272552 0.032243206265414006695 0.0044244433293993516709 0.024196170784666300169 0.07147704991611340819 0.057848565793604325713 0.037094255459608066472 0.097383229759551201421 -0.22228395220133878585 0.21707342759065015314 -0.54932022639706523659 -0.80695214568025086521 -0.030100002130800388583 -1.2017740415488371575 -0.35035270442631688548 -0.55590564167167311194 -0.96082342813754684219 -0.20677171929060453315 -0.67167942067718222621 -0.45102991822160259927 -0.80813143339847659519 -0.17624840789441359457 -0.88146209798844710193 -0.79105313299407031824 -1.6132945430161633737 0.10953323816718175954 -0.14080102663897847703 0.10581127577101417936 -0.063176760608300158717 0.049729617310646227757 0.047713996443515142853 -0.020075471186141218005 0.057776133638172105789 -0.022361825242052157936 0.020837383739267797272 0.0061636429707985721654 0.012303025154051194096 0.029015068198381354508 0.014224268888266684147 -0.016278013546234891551 -0.15977032244518937776 0.17053909360410676732 0.17048461953616522724 0.070524708715550415983 0.078394589219289531612 0.018499271118380615497 0.10928450229317575315 0.0052961836284602251471 0.096261455571245491125 -0.023447252912154627896 0.010444580198661210929 0.12942295272536430417 0.099547614960203797962 0.072180445242530560934 0.053781996360929000545 0.04214165426907252876 0.01567792861389307596 -0.03785397351444300118;-0.082393329415890934064 -0.018867977166639522679 0.041312936476413215925 0.019286796998619067794 -0.11297602802038927972 -0.02479879134004222066 -0.056347721509851900201 -0.036642027383675404573 -0.065504677308563852289 -0.064970673621147875809 0.016423085845403972982 0.085030912851272455466 0.0090802362615618106151 0.23395212375865775956 0.092592525578333834124 0.16936108453041204269 0.059315565822842419852 -0.68749236233357002845 -0.66574778104367193787 0.50376730593285745652 0.040424359097713545574 0.28286195487048565456 0.1626111150103133618 0.21438739857544036882 -0.063502105820248067047 0.1281658401561891758 0.029407824344839808561 0.062760267608937575501 0.22104696325931466605 -0.025481610296223276835 0.034206455279626811483 -0.030684086522203946057 0.031563928449050274172 -0.056099381214746030233 0.042445017003944936207 -0.040388413535737480164 -0.0042314841945210561469 0.11103131900664438281 -0.13928799679286676949 -0.1502293972766810537 -0.097458420500293865829 -0.1480587406553540708 -0.039292432529652213113 -0.076048518587063768104 -0.1377697331601423214 -0.22913096729211154812 -0.26531943770091948043 -0.073126848848489536814 -0.018313777115539643658 -0.15066837298749419238 0.11918035781501198911 -0.071188716872506094258 0.007109043061640768664 -0.024240446800317061449 0.0803696896821025214 -0.058241155562734098217 0.067753534836810153097 -0.035442492387367283135 0.019634063273395549465 -0.071628852647576915502 0.0081722666205756334945 -0.036970958061370975956 -0.039431132169060523207 -0.0091489514808888033892 -0.015740587048448904939;0.0068618046103364159494 -0.026835423369221990397 -0.0081941606105470944643 0.023971575994096078199 -0.022618384952183143155 0.013442469569873551419 -0.021173901511904482525 -0.059385892494822505039 0.031467797402021928377 0.024187529464266055435 0.0072724212211553807342 0.015724297315998638641 -0.040018324039090155675 0.023836755424326568076 -0.075549745527050751748 0.031629881323357193768 -0.2376074283650142227 0.39131990570423641485 0.33604919518581793936 -0.0021745864599132056633 0.25326553879292212912 -0.078940274539361046657 0.071449656605191952385 -0.014843691788285902702 0.034710292814947751872 0.066969331903041356968 -0.023686760628804516549 0.0850667393269320532 0.040445816663097024224 -0.068821284053077663723 0.063807410774308209733 0.03126579291451114101 0.044731810608906151516 -0.0019634968062755917689 0.017945049375715223933 -0.033246902894615439072 -0.031788282823494447282 -0.041590530938322559096 -0.040615189546314926783 -0.090285409374743968991 -0.021430387388549122091 -0.11350778272126019197 -0.054223646192041174974 -0.050232384603249580213 -0.10186887520252389805 -0.10436570647895661301 -0.084728493478477329148 -0.10263341865213401749 -0.21560527399104562063 -0.047487377188749305135 0.089343746993563025183 -0.043108972482102408952 -0.0099201743592628923579 0.046555280873873491898 0.053124243484046713981 -0.020025307208350863475 -0.01989209702194391638 0.0074521866886559755272 -0.047584647149415647271 -0.019197877936497333151 0.014220278660567105614 -0.031756930027072222122 -0.018652341246551386311 0.0023078046791089701188 -0.025016723465502686136;0.013022188055854512501 -0.0088445123158530300489 0.028284241428150877495 0.0048820580848465116447 0.022915947280124179808 0.0070128814681749531215 -0.0089050054202913526274 0.020557495785254269877 0.011167143681184817788 -0.0044009530643338047595 0.018062500010538412587 0.014742880272451776291 0.016363265872594765643 -0.031685399553788795579 0.14002482543784261493 -0.1425522190528502875 0.47777093366033462907 -0.44259817348667446213 -0.24846259301290210542 -0.10966436288070192939 -0.18236714145998059178 -0.74210869330011930423 -0.08721767743652225624 -0.19712768308736780543 -0.029746513620132013916 -0.1790901137561186629 -0.097634771934047431818 -0.039631562660875675752 -0.85502896683255846799 0.55986239085648581426 0.059852205548102443977 -0.18735946399192843215 -0.051044298040133398442 -0.032532970427005696024 0.047181841607814675732 -0.027613431607982852345 0.028667365405390939775 0.0035941514618816200466 0.018177080537272450461 0.070779383319625757687 -0.01299705674326704502 0.079524295004106168583 0.0011990481637843188739 0.024711143350138149027 0.049920294170296218572 0.055260969086697017683 0.035801033640321465457 -0.010364446764059261422 0.15805387083901836776 0.073225698834845101559 -0.041525168941042030213 0.0034060455256972560316 -0.031505161370044901248 0.050403370285274057272 0.00061023999092199186431 0.033858376702523416968 -0.059819652790108625295 -0.038159533623330951779 0.013082000262185616846 0.077737745711300987317 -0.0051949075099967344238 0.0002361327146503675381 0.016702397297752760719 0.0027779070596975641988 -0.017484959328432633091;-0.02122114145107493674 0.028435649260045922637 -0.053191668062114186299 -0.067124170124713833374 0.020881753688355247228 0.0041838378041290161247 -0.01252242552292477315 -0.0011253937843520825553 -0.016521252454548242955 -0.0047249021028487308421 0.01197829286150834012 -0.034547454394866734806 -0.07455983888965872497 -0.013407246338712965061 -0.091888097058132681139 0.0013551087115514816317 -0.016969517217431423495 0.45662044592235900842 0.66406786015966701164 0.27119411500814966098 0.33657823030428596356 0.48396972255406367491 0.37018361337557503798 0.066201659364534620744 0.47240087983457146326 0.011175097078131787653 0.42940293962347941825 0.25031258359616276321 1.1919478195203931925 -0.91809272423409560293 -0.46837230570130283791 0.12275985826450576399 -0.053847265523189295766 0.11772926651556703259 -0.022169834787633020678 -0.017729618972256312726 0.097562762810836450855 -0.035097769277163688717 0.079123367946240960591 -0.073836808874671269742 -0.0077579662280559680276 0.042449867509792203746 -0.065584447896002637246 0.056030048313174818375 -0.074785524100146119619 -0.040096780204132043135 0.02649448019646403335 0.039553679172669060915 -0.10867265880646587162 -0.05423267210970020985 0.02736115894149553085 0.036737970775382315647 -0.082016951878670460441 -0.093292544550449954532 -0.005701287065100567493 -0.01561240282969237822 0.00048173927068006035983 0.034770762984417537267 0.028451421147899100261 -0.060777618979510658614 0.015544461277155465981 0.039090769390815002793 -0.019811837960734806491 0.0056316641785367320405 0.027477439026011560297;0.001161332988235053848 -0.026797814561037608394 -0.00038310369606687371714 0.024617297990120457635 -0.091617667974651720297 -0.0075078600754573520532 -0.003426099894286200806 -0.043061742645519388017 -0.016046370988549898962 0.020144250738911149978 -0.011452414767313921773 -0.021125853530301712258 0.0035545467084384160111 0.0035133280154080355484 0.031300195445962547547 0.15761465964403750806 -0.69328829514877587936 0.38243745898381215076 0.44596773830907604497 0.12342698793574614913 0.35522182263439394667 0.1470789436666289085 0.066734079372864713031 0.51482388385051247592 0.061160699509190508127 0.14222265470971345858 -0.16195445972528627054 0.019031197278172515969 0.065387930794579468552 -0.4058018292947541128 0.21510338184866112377 0.14613659983884477733 0.049470735300792663403 0.018085951540498808321 -0.026445251386189895515 0.024765266483122196084 -0.066910345647321234352 -0.021917198358198389935 -0.03361169341045595893 -0.065895331779045690501 0.015154150519803696526 -0.086912388169983048614 -0.0043592538578167069896 -0.025323435761969902147 -0.056976342894947698547 -0.059868779366647056905 -0.048465661171490606596 -0.037170753250103973075 -0.18756984731934528421 -0.066259461962058549545 0.063165815196168983991 -0.022530123554437845451 0.013972672065530497912 -0.018796096066897048649 0.03115800709903401508 -0.024238146888312307736 -0.0083290654200173144112 0.026630912043994776212 -0.02490104355133082939 -0.067429471762904466536 -0.007512373349547763271 -0.0039720587841433722953 0.018916333676301355649 -0.0050055732091567007799 0.004341772777649344911;0.056545842076164531953 0.026024867563736717169 0.082689771441077947189 -0.08580663913426642142 0.37484752718326108667 0.092979279354333976837 0.07991194012799804347 0.17409459612638891746 0.32147912697713587615 -0.11463881058025794657 0.048832738506642769938 0.25439050221594461387 -0.040912596933996722703 -0.12850625327172254808 0.33174043489517374139 -0.086667430460513950052 -0.14489892356568101484 -1.6786678985400691477 -1.3572252854251889431 -1.3930650765867942376 -1.237029216783793073 -1.4981294894255936523 -0.81522465070222405181 -1.6047805131100181253 -1.6755868346012861014 -1.196986658331757214 -0.88755875039722531561 -1.5945213070450423576 -0.077791613782521890075 0.18861993261725990001 0.17821401236145995028 -0.0039672178600682573776 -0.076045374526362272127 0.11924889530990323561 0.16763223783902725383 -0.17736126722628042796 0.20875338368232784769 -0.011031150635724126102 7.498195878983008808e-05 0.14369049191367150309 -0.18315310028209821902 0.35426515113031098458 -0.13873848969080534999 0.25226392091204913326 0.31169289611562817077 0.74884915768895643495 0.21106046837430489371 0.71351747536893861401 1.7551678670782222547 0.33275602919298036264 0.066326087398027769315 0.24140089077088058844 -0.080249057451171501576 0.2478386701290921923 0.22657382912189086288 0.023417057115843745857 0.034856765918269728977 -0.07952431821974696724 0.28674531136993336444 0.21156889701457684549 -0.093503705080526661186 0.23875851814684950769 -0.023357125819866601107 0.018665882047880708039 0.0196282655576778646;0.0097362221129176189371 -0.0053716191196784409886 0.0566300181062664304 -0.0013684576647349988229 0.17592956474049376014 -0.078435396140415752919 0.013259288210528815885 0.016962006443789048871 0.037413197107995649349 -0.047002938127603970109 0.0079394388493582573885 0.01556926729838103117 -0.016528277689559202346 0.032220231313975167264 -0.073330836375642527436 -0.17286710282018663554 0.35951440479639346082 -0.23281808216635335729 -0.38373446580691417118 0.22689021065641060138 -0.22319523791664255818 0.15444311930854137671 -0.010649050358175690678 -0.098731402109481281038 -0.20041851542935379404 0.1407431364798527873 0.35117469399138917518 -0.4549613759117205336 -0.51378737454210021696 0.39410251868433687772 0.14727219862946527851 0.028451573698326008965 -0.055257375644962698769 -0.04935285122471848307 -0.026168414491163735636 0.0035942631203392944039 -0.06597438940464137036 0.10166769772147865591 -0.02575393989164861952 0.039070680875015986744 0.0054322396607069996927 -0.08408520089056154001 0.13106765290906483012 -0.11948593705075520599 0.079231118709038553249 0.040378906419598015187 -0.12356236869960297853 -0.059624473736355924902 0.2594743243480471806 0.044185020879024268503 -0.10761732916967869933 -0.061577326753885337773 0.082950120010278780014 0.054443487966832321279 -0.046867402253512671639 -0.017153706779815199729 0.066860958853021124071 -0.068395245398470597142 0.017646919908262892474 0.040010369303853508816 0.012130529631621898151 -0.077010487952005338141 -0.057093122123030248805 -0.026146284946072989586 -0.071990376452881130187;0.016960795755891336367 0.037358321723356686939 -0.023229941575317481633 0.071975732284884727519 -9.2729331864570274657e-05 -0.059872289602355299731 0.028501016491810211156 0.056356862470563776069 -0.054327436775130577562 0.02460721994401629531 0.018849040840675970743 0.084322124264497658186 0.061559098699768430296 -0.15264886743711814088 0.096842911704976913922 0.014975223312894029443 0.34156545368759788639 -0.030260558709619165413 -0.52479442032300005483 0.23099397202015553576 -0.046275024159965587323 0.21634075916437864318 0.072255031008645928536 0.14170788525141481129 -0.02155945031067682538 0.45486084972987328445 -0.39126216025876758842 -0.43151092812541635979 0.5920141602503082856 -0.26948832480161305503 0.18791759568817922865 -0.1174869935089936368 0.068543172709150307353 -0.20213121022668745219 0.11195699214963140966 -0.087638233467699513946 0.089777069113092716757 0.12462199972733320474 -0.12877670179168287934 -0.017409703370299550035 -0.063994497592341284542 -0.15124444740603368298 -0.011672891259111181639 0.02703316398350892949 0.03901234450948813659 -0.27434279802465011411 -0.30097113857127405501 0.19955623144538298108 0.0012207859513615540448 0.016000643893237076476 -0.040688403003437387251 -0.042389965449975960943 0.065627409718028523189 0.013365856196744949069 0.16653281377893008885 -0.0086602487927742635015 -0.011416647980273541413 -0.022832952944734596218 -0.19376313805119432798 0.02174604516370954102 0.05839737141027929318 0.076837553158367183359 -0.13274909147383501251 0.0055167120914268990423 0.046400885098206189061;0.1185800500217188691 -0.0049557972145190913593 -0.068625740614861638345 -0.0094355160517998748482 -0.037026853510081808585 -0.16431931429929125255 -0.11903197880821854426 -0.15596349688478641782 -0.18108876681852267843 0.070721590699491590493 -0.029770033272564777604 -0.081252977383479446649 -0.11719674033163267335 -0.061664899141508966451 -0.30704164339233169789 -0.16644610711443755258 1.0041382704442676221 1.2894958326895522571 1.7059254495458049394 0.86462413439060503695 1.5813636182133368191 1.2639329417052813653 1.6609081621636001547 -0.25866278592751518195 -0.070598262560334773541 -0.16715206384813013907 0.150915449136496016 -0.30538750983893214741 0.11851383089552730565 0.058473422751446416101 0.01247571898796779287 -0.0038772545370805047531 -0.017404537718783686523 -0.032186232626627876707 0.026973306057643010869 0.043803237556089349991 -5.175525960594840047e-05 -0.0020951823207884072431 -0.00036487876193117951135 -0.13902434836606247792 -0.19004780469285889599 -0.2106962016387033676 -0.026964497183485529319 -0.24061489677000008625 -0.26486709586655843296 -0.5513011022330154276 -0.37390780493867759038 -0.55438652580651703872 -0.44735206682987027627 0.10896686635290302181 -0.066422283078745619767 -0.055981418857567716296 0.026856432694956997725 -0.22794944245074172384 -0.10963318607339483934 -0.19070420010550404033 -0.027015281014490070965 0.23443938004532266506 -0.0060066173491455550348 -0.16521370578012734009 0.0015339137906702146608 -0.096408028106279783365 0.043217940102208439457 -0.087664420799238071402 0.084909938375606286431;0.0060320287816563698813 -0.011255971537498802443 0.023937980774889650037 -0.022408228182716226351 0.12473801115997928957 0.011029843016521302668 -0.03103507788079435184 0.042856771522297443244 0.019362251602592594341 -0.048639772979699139044 0.039990822183113887422 -0.0070578626612192701256 -0.0050929513860229133626 0.050062010379594804044 -0.03474571758937013144 -0.16159957579352815515 0.18935764061956625315 -0.64440727965995114879 -0.54679337473584399554 -0.085196370420265774004 -0.71107230843746593862 -0.34615716942720925475 -0.45107030546871779153 -0.7572680510003843013 -0.49520297807112939603 -0.16197454700664329352 -0.35417793513371770286 -0.94620355792394483796 0.93213549213213153788 0.35975564635421869442 -0.42536689344761813292 -0.39306586341507826488 0.035844215721730535162 -0.13092552072847543632 0.026744123264760444325 -0.017945497164259673062 -0.010540861036620489954 0.034404338417780948312 0.033033864168739324185 0.060800822513239038969 -0.029995803706823850887 0.031119825906855677622 0.034703421237129251919 0.016202019259625864006 0.029198551080797927049 0.038036320743334149641 0.0056089807905127624099 -0.0079579802383548670086 0.14561962138426148838 0.042614200298218281315 -0.072791960390597154618 0.038922648083289823617 0.026459583281677540728 0.058363311721533667198 -0.0011976076297120670511 0.085300014712344079948 0.036053225721150848615 -0.034692192761692774994 0.050131084669760191119 0.057984253136726310318 0.021417909600155098093 0.044034242303343483493 -0.015964191837705109245 0.027345154496229123753 -0.064788661578807554831;-0.024615111217030562207 -0.049322201499353873766 -0.035777056934561901613 0.020320224069290078461 -0.098822557698750812527 -0.065596854813081556523 -0.15884506211174129198 -0.060580678361010574517 -0.050135600348558705119 -0.039269541577049565939 -0.055750947456793625845 -0.072462694109368785966 -0.11485751181952935651 0.066273332307120916274 -0.11547934176944697759 -0.059834726573894464474 0.97949981428203836131 1.3382957193474049884 1.1726568421103649165 1.7153624110111960199 -0.080148352126837199561 -0.220099494718086236 0.023813343977676083157 -0.10630123485849754528 0.014073627527073018922 0.022933086828984879102 0.16427770915158407261 -0.009246514804545852631 0.079358378188340822357 -0.033315159510724182135 0.11022619850135056963 0.10502222289871258887 -0.046351524163692398028 0.044148946761784220449 0.085990306082735779025 -0.0097469076019931072397 -0.10079691068445621738 0.063524278013332033388 -0.11108544379316882822 -0.11116342449399344017 -0.08941680728932716038 -0.27190413153091103071 0.019026456303246550017 -0.32937067764599642361 -0.12215812061767890306 -0.30311498525444319219 -0.18973279706475684736 -0.3915942828083630034 -0.39714345831605507575 -0.012478492366843675979 0.05442420426146919038 -0.11187261354080106635 -0.0029587021778146593842 -0.11702595294592499364 -0.025540376551245087822 -0.10451656685174724737 -0.01505226326287506522 0.075846456738794448826 -0.0056240610886068185745 -0.11449967186046884626 0.07026673898871881041 -0.073805093901335244722 -0.0081963301270606345184 -0.04920632796071965076 0.01161959510376436161;-0.008523858700171874081 -0.091808358770635561941 0.030947583416206559531 -0.0088744933685245101784 0.09376163073587424901 0.023799092855781626976 0.063584097902492503485 -0.017858607176003609557 0.12185206227075501273 0.13390241001905434093 0.062953498637536464688 -0.024505037984857806765 0.049244249842703771702 -0.047749075816263794603 0.070812599098448017476 -0.036072441441496114201 -0.36760099657140843377 0.25205587952229213666 0.77263870226497599614 -0.23322558250373384703 0.086832053473701445445 -0.4276408177549409495 0.20725613097285494613 -0.70609939961286571908 0.59108515324645938271 0.13721172497345329733 -0.072669707122698351531 0.12449185239260074365 -0.29637578938795511307 -0.12574559865018783422 0.026132986248935809875 0.051112407501497231221 -0.0022121077827734255544 0.095966950779573692576 -0.087073080835909241748 0.00089266285818393126608 -0.080065142707118244769 0.035276148772842200185 -0.022212159856461386603 0.025911636987151417943 -0.017108302137292107081 -0.01673443563535609302 -0.054191409194374290381 -0.10891093602955373432 0.1074380739046198463 0.047098873137099143971 0.07337756052652535943 0.082151874553338125051 -0.12973204141786864874 -0.031251639334346381638 0.037106035822921018541 -0.018265578425543955304 -0.079277297862412221541 0.077752984546464135041 -0.08108094388353861981 -0.076270165392596178666 -0.055725308632784388563 0.023243175736934330866 -0.0080690755735456989872 0.073325616460637385585 0.040337527859525074136 -0.087913258028261248578 -0.023248876094223408506 -0.052991609504040734779 -0.066196502995801403957;0.03332128036973865115 -0.0084398155548545926441 0.026382653179867501803 -0.0068750191629948585043 0.027575872384771795559 0.086181154877580545826 0.019605383885319082465 0.090595637711995274932 0.028965607851019779806 -0.050528947376572694306 0.019204763261731615243 0.072987429648887339195 0.098622953075983899041 0.026452199442556879189 0.068914951947292593659 -0.036728415437410254218 -0.069203376266268573636 -0.78578094535864317915 -0.94819945673836736333 -0.54164964276720228842 -0.86442993941145884751 -0.67897793739467682261 -0.4367406782452790126 -0.31450251263869127838 -1.1368712837842829266 0.11621307469499575493 -0.030899918172681013762 0.10215287281382226525 -0.17059667591742816439 -0.15921277681646742175 0.090106042639525207871 0.0081781772281644630335 -0.014415536293998471029 -0.022401870505367460495 0.094197979575600970792 -0.065382716840329216379 0.070823813265231100322 -0.0072689546775826585981 -0.061145599364999969616 0.095970241451007395894 0.03945778924589238984 0.10190318139694240496 0.056706138477001857834 0.068532463501814036566 0.13621439467827012315 0.1212833236386883784 0.14535166568951307653 0.1181871067888896204 0.2434538173283714857 0.058451999757327080531 0.012054131396854975145 0.03211083377965576191 -0.03258650764385664228 0.13134841574277814069 0.054297772381852738022 0.057694121336866598104 -0.0084423560371439960309 -0.045075452395726779697 0.060797448882180984975 0.10283786506019160223 0.041033010381249762633 0.054422346633105113389 -0.031136344086373730911 0.052927160057646104041 -0.040643875153310103643;0.0045866865865477049122 0.034255602713663471648 0.028212740811533434243 0.035995837578120491729 0.075232492740391593289 -0.014362941124477134058 0.017099975082983279867 0.15803361785194378064 0.055232558828747210788 0.017998821597488025986 0.036129049726838925738 -0.018900565322741459673 0.065736657111711824242 -0.093455184452126402461 0.32004170817513366565 0.17644530372368222304 -0.64253433517523372842 -2.1038691419373631852 -0.10164964728287415041 0.097472453630168792715 -0.1228088287682685964 -0.041635999607553243751 -0.013542054591937368463 -0.034703228257725995953 0.020771190291585084342 0.068930231824679139008 -0.16459633312441723785 -0.10070904802452181059 0.022301918484398421116 -0.060511879690175962576 -0.0095090687320833894303 -0.05269894259791877561 -0.010148258193170212743 -0.020736913314820411974 -0.010609037150011074724 0.06183837036655884245 -0.035012881063930877124 0.10762450604524465003 0.013718453589835687481 0.1800686276747204273 -0.021404001135595301236 0.14297761035112990791 0.047931183492419121572 0.038649039769310195025 0.19825325650977221326 0.16253178340265547752 0.13470781397063480433 0.29200614263557972405 0.29539630137770239715 0.050887660779421882429 -0.061388501898632055753 0.12938164207357455426 -0.0033198151166257653007 -0.088102995396571126552 -0.084844681872123905997 0.033168960451549100998 0.01831275307215758999 -0.019163292276450756557 0.039334895192678361042 0.052707399231283619256 -0.0046038721821306458071 0.045435858124143746473 -0.028866441112191675716 -0.0040912296037123492554 0.067663313148126513763;-0.016575413489071776779 0.024013254797931447848 -0.018142646772105971292 -0.031399029688495332102 0.097075471051538617107 0.0098995878679838909819 0.0053903783045214656924 0.058371064179300331809 -0.0071793276442176385405 -0.02829740122406636943 0.027180514859599956556 -0.0033071389996083642299 -0.011428562175899131814 0.017049646258631746126 -0.058828215585188449455 -0.18161263426598789339 0.48033193866093648605 -0.39243392081043315667 -0.52175743136908914188 0.0015204289741473087094 -0.42257638901210797799 -0.30753959587840673517 -0.19299310435337724279 -0.5231612069106051921 -0.10911173579524947874 -0.23044868724834779994 -0.27187874093741043469 -0.63428349393849481341 0.30060968170292567958 -0.40097987832699943933 0.10179759678430765069 -0.054411005976160199682 -0.0068151950098011664092 -0.046873827454933930658 0.016502579400061691967 -0.01984811816521475647 0.046107707378672743714 0.017682058112818359319 0.030712893549687207001 0.047842427827509165228 -0.028019666860648662077 0.068297319583607615789 0.017151618712196017857 0.02188616933128348721 0.043786371100114893085 0.047263154108662400188 0.0094933487783655286923 0.044115984411121862696 0.095310886126619531744 0.037627885431856043785 -0.034672902041290837305 0.035738863529526813945 -0.0011092574314713033422 0.037040298569063705159 -0.020767014157389306755 0.046972200891311412241 0.023933725399347120788 -0.024022601847731896163 0.059927263157619918565 0.053684713918038022562 0.042482964953732875457 0.033110662252582578891 -0.014348619622068761043 0.032535053900867742793 -0.033514380408030813863;-0.079869428202970604858 0.0076918835674642856842 -0.036158418985888805819 -0.0038347046692068622112 -0.13337070690793276229 -0.095250108984688622304 -0.040037688946584319705 -0.06321860815513186127 0.014336829552859553863 0.054716436817997468611 -0.063507630104265175297 -0.022706489729000710331 -0.053157484827726905752 -0.038944011876086384594 -0.26230500221075259137 -0.11396536074947641315 0.46756561045391309417 1.1644556915016472942 1.2956355255221485567 0.42694228086682972645 0.47119011469497840139 0.043865567307586214585 0.97948744577281587897 0.86482953867959821981 -0.39239197183540175384 -0.02987326387188889848 0.19748731865246674233 0.026748192856689168018 0.11197901537191366772 0.11985464201038513454 -0.01424566089568640552 0.016574074995517142084 0.071658404221352861585 -0.083327099850273214643 -0.023439739077293155617 0.025917439445411576127 -0.07637345328915928766 0.032429802656420189666 -0.037845093753558177452 -0.093164096518687636306 -0.20602352442689755851 -0.12675905865177661269 -0.13177364204751976229 -0.19974460716962375018 -0.18739133017425488315 -0.42644143789538713207 -0.28367018026078033577 -0.54205725590498265998 -0.47103906041384108194 0.038056040030269397412 0.056146548372931995297 -0.067820267098941622308 0.10757629029494961137 -0.079017517017194380258 0.057064210981638156805 -0.17837176180183236807 0.014925146884206519013 0.13069763414035762139 -0.019079758302966223771 -0.21056303749457799812 0.0070738301604426631966 -0.091788921144572266364 0.024803913328373020097 -0.07252584865098546385 0.042487701354768085682;0.028054628458548613867 0.076676544859873574378 0.059802789665163322286 -0.043669801218851070357 0.22968158680784195314 0.11092250279503969301 0.069098646427521920321 0.13925823204725756854 0.17229189736399178057 -0.1002687311612480564 0.040190490007845205978 0.1392238429885862272 -0.0065270775290682007605 -0.028894464542244098493 0.071695814320621373272 -0.066658060724985201961 0.30816979821951739904 -1.1285504830820847211 -0.93746615486207596213 -0.81020658672511203235 -0.69500629370817745833 -0.9993377341271196812 -0.43515053033774692137 -1.0966102833082009838 -1.0842256898139843724 -0.93846422343508795194 -0.03888299512831759619 -1.0568917982631240715 -0.26495549658286088324 0.31942249821140078492 -0.093228625662844233357 -0.2200282736992087429 0.0016200263469135483402 0.036868826752341543607 0.14925504364180811057 -0.15005250349880489003 0.23410923889877099935 -0.025039437073851113918 -0.0016956746242246037437 0.15821574605639651678 -0.083115534794452120004 0.28192646807363286321 -0.13265753335857122241 0.27882202197627170559 0.14419117751140947403 0.30759778058216868946 0.087960916955418771979 0.58353955179815519827 1.4754885868090772405 0.16133936355394745688 0.014944552189834422323 0.18843929320746496958 -0.056366885273528455347 0.16191860055534840201 0.092432307414838071891 0.046349950788679705749 -0.0053696037864275486529 -0.1043259618325476229 0.099639782099375059921 0.1753026148630575376 -0.069940839286118453022 0.19634767960869212167 0.00039264048520181002618 0.067830283383340489456 0.073314483511382394498;-0.0451606725248017149 -0.073075254794868857444 0.051651522429548825388 0.01722724554954063042 -0.091108337306887901552 -0.047992615629550379464 -0.079608042361002689935 -0.068918928293300360521 -0.045007864684575592251 0.041853997444763910152 -0.039357036734871814199 -0.021238481929113574298 -0.036291154173271229777 0.057495053057124448359 -0.039790837591364321135 -0.16235131376993222618 0.25492118314806239132 1.0327547357457700361 1.1118465718083387905 -0.093335253898226680502 0.29381723065597853406 0.20659210599615862591 0.27750302639157664597 0.19051712307655610523 0.013016344089041322063 0.020810240872026306014 0.019423727726186949122 0.18163627617534786052 0.08361078975237712374 -0.080355354028329301075 0.20473190648243222434 0.079107816698865796035 0.024164719749799813686 -0.010555944862119323244 0.0091235052572853289621 -0.046259722265368279082 -0.011982186917037299101 -0.03985235303061456652 -0.088901011065803295375 -0.13201060727873667466 -0.089154438918025893934 -0.1756823888155704394 -0.044394980451946605693 -0.11758754103781375588 -0.15000622480313255402 -0.22795959910311056063 -0.26583356419474019061 -0.32197613158394683408 -0.4788985349693708482 -0.056521179792310097256 0.12942640530848620317 -0.03990688156125458963 0.0065186476735545478833 -0.047566633465161184402 0.05406015777091573854 -0.065846496270190998934 -0.047586100682053052158 0.016962384765855393481 0.00050807608209134814264 -0.094580944087119672714 -0.016843402812447515887 -0.068555441275900325104 0.034898663819994409085 -0.042715370057219315125 -0.04613064492055356236;0.026717097902125255121 -0.072367716781591290287 -0.1040070259541857195 -0.0037380670596944285192 -0.10188244472293017662 -0.14621083285116140416 -0.095078412379920304587 -0.15255976707444907081 -0.074711259956106029767 0.09817323390574564379 -0.046808994566719608343 -0.10408096636940122881 -0.030323004296646915989 -0.10390705054804011409 -0.051010073665299013324 -0.10126311077279116779 -0.1363738950707665265 1.6414443710207091698 1.6338188429736790752 0.9350515426325531898 0.98273252875508287918 1.144444095392016969 0.61381289638554215049 1.5215588308098142445 1.1233274160262822772 1.1503671714699634787 0.75692718324161645249 1.1316505180870919389 1.5950151475641167753 1.1907856379598076302 2.2830139014406154452 -0.12438007429068817511 -0.019902249816499177626 -0.35489266536068020397 -0.049574674507043142713 -0.017210440516432678332 -0.22062776161575864409 -0.12803236212673244077 0.13943212410584168715 -0.22786450206494907045 0.13394637836658779273 -0.19780290333896879962 0.2789659981210880213 -0.15804470878115806087 -0.15666078825572837818 -0.045808978691481636036 -0.069924815869847736782 -0.53132355125998209644 -1.7418619842091667138 -0.31370651509925467915 0.01312955356534004428 -0.23134393224420057855 -0.034239747754648455769 -0.074159251109593676832 -0.19936289174076529673 -0.081025015300653965844 -0.009782911005231122864 -0.051786332037321546051 -0.11231843253922059456 -0.21058521124732237917 0.016206722286345523476 -0.20115747243489306983 -0.097229224824623025625 -0.099424306802933931637 -0.22405453762678223528;-0.30921234419036275343 0.38211232605150535768 0.20495532760058773891 0.21401944329217656438 0.014177786986811345693 -0.069099921030664687716 -0.067129082479295207331 0.25019143909562563399 -0.40546683477345119018 -0.069507961303088075522 -0.18696327695119552281 0.12247281605711878016 -0.012404270853141056291 -0.0070392784265608365074 -0.25134619095490939866 -0.33168798317736902792 -0.02295610666626670196 -0.095772174728679784761 -0.077990781257094812795 0.14268279329567612468 -0.22714017406768918783 0.24254996173725706932 -0.3103270176428910565 -0.16626941289691840598 -0.41950548593019998389 -0.18813108282170243335 0.041576200805984182829 -0.26535875100491029821 -0.26579622638682648406 -0.19098268870539383824 -0.24461761328542688809 0.0096700151630576512696 0.42651925156959424879 0.14968213324602702707 0.032434445016884132229 -0.15971561021594332663 -0.1344533602204124878 0.12767760494240174007 0.11883781142125465768 0.0082809277508145446439 -0.35682666436140170196 0.087792144541507174949 0.09928799704834266604 0.097193479379633906934 -0.32618794484133917244 -0.50116116486757833481 -0.20423453929087836967 -0.17498863331221498063 -0.29103230372811972337 0.075414190733205543893 -0.33109224161690187227 -0.024358969971807545307 -0.22857044037820539728 0.25168910248841452892 -0.15206692502759183716 -0.28744204012083929278 -0.22716817392218116578 -0.12284023336901540857 0.074713321333961385529 -0.045118719650797743659 0.15556447564930189764 -0.067149274050831625482 -0.011385866927563159656 0.17295775663721113524 -0.19967141633761567587;0.045516756467964637756 -0.029745174549952606985 -0.062328463764968589089 0.029549686074344671399 -0.045105243115777238216 0.014361729127995173649 -0.059630541687188405586 -0.11153504925366192202 -0.004603004489601641297 0.031594318701337470445 -0.013537546408380202179 0.0020475536913270924941 -0.12063108529323886275 0.0076574153620879402415 -0.20636211474394450249 -0.082399057349870200029 0.9252730408223446279 1.5523626812301327682 -0.10087029831298971461 0.057089626518544489553 0.197124945617314834 -0.12466132166334184528 0.0048677144708331367834 0.0079688533973811918887 0.046672996558320384297 -0.087523683779003297323 0.057284577153276762529 0.038131177393904230888 0.041652646983314618734 -0.016107056881156458367 0.017164863893779434834 0.06332179151628332392 0.035801932689372199803 0.0064154113049238537317 0.057871986853027281017 -0.021638882049507705135 -0.084471814784117665864 -0.08664472456624976171 -0.067058947321014597542 -0.092387851487476024825 -0.10624404143202728634 -0.21635777141415468705 -0.10939364148531935395 -0.16522814934078344784 -0.16079154954045107861 -0.20545851992622463089 -0.075105585808441482909 -0.25067538605535810703 -0.3801026917011273154 0.051135355463882641025 0.069564770279176846302 -0.085821708404400343095 0.027208153959605761718 0.032773536275517919925 0.012885892503830972955 -0.022057495830801417125 -0.017813223298330484873 0.064529859988529503223 -0.068750931287240205081 -0.02198544515466105409 0.076450142826547370922 -0.053314763697182125657 -0.01328662318035433651 -0.027531063598833949158 0.0036023455562356285903;-0.21205974985759706852 0.19812196456662647948 0.078714412505211009408 -0.27325753277314351886 0.13096778554920179838 -0.021392063324167667759 -0.2392249418796970617 0.016744999291136784814 -0.22712367920346793193 0.11279422244307114875 -0.0059643845009195260026 -0.12196979677392889851 0.21328391804496030226 -0.01690422014440127671 0.34141314997204319504 0.061358683773094058189 -0.20627749415152202284 -0.050605562909560565521 -0.060672384231417034184 0.28159090445199674857 0.71581183455704167073 0.028021133336054649537 -0.0076014879770220887545 -0.20190068554411899626 0.26290093216350185479 0.18022363868471488746 0.22233541339510595747 0.12645844914448398089 0.24416498822201548879 0.18792000100340244817 -0.019176082107416295153 -0.49183866875800735796 -0.10695203087206951731 -0.1119024375431692947 -0.11988691887979892325 -0.025007751064414614206 -0.11167484039914002403 0.27973875300520495424 0.20755754894351638451 0.085775750177504966887 0.0046883405297113390706 0.33251294842911272021 0.15486802233896171388 -0.10573941136675750474 -0.028356114748508999546 0.03511309251793261893 0.090884708352076473692 0.24271899798558221883 0.29133715103086516018 0.017108308481232958886 0.20408564435435097573 0.37444424344029686447 -0.31994150140242894054 0.20263029118759984248 0.20067079179882912898 -0.23794321147848596087 0.11785313335561978243 0.17524783351920628083 -0.02488660509802747417 0.054405446393155976192 0.041111206105969591573 0.0016676806959511555895 0.06858708843789759757 -0.071626901106026069632 -0.066719084780894055697;0.014684197331041454193 -0.0014055249850356082118 0.010822619928225422209 -0.004492110374449367026 0.055600941838889278435 -0.025748877118751501564 0.043183406767637717849 0.04977538235952699841 0.10707510852780724453 0.0016745290993937234081 0.013924865482357743837 0.0049527245778541728605 -0.020951161523686482463 0.028900063507124471029 -0.057069754000325628729 0.070656737312243506066 -0.82657338509795497128 0.01021305451401823168 -0.047529492259903938223 -0.088400672663181217859 0.053431645232102212284 -0.038191975073322753653 0.01168033703588931306 -0.029883089746266026238 0.0065218690394139196276 -0.017515173082877522753 0.0032103776198617109405 -0.041778167380502544137 0.037591693416148978801 -0.060727785866748762444 0.039207165749108034702 -0.071911900057436084488 0.078730310720491039622 -0.091154764389147477366 -0.0018068806883769859134 0.0099006043342741850699 -0.044842071550665517365 0.0074931597431630945355 -0.030926171771036372465 0.0197949910579059557 -0.018560271972048372063 0.021337296166493515542 0.01889778691501336344 -0.048169275957452697967 0.048146453556774729265 0.057371247162441234291 -0.022993947909636602844 0.093347087890281899014 -0.099267871403348445503 -0.03639689464201300434 0.054225794642875316254 0.0078756071943711543348 0.070736156065837080265 -0.030221374785680536756 -0.079727900420296315964 -0.047027346373609432706 0.066822223387716650489 0.020861944198044282683 0.066219947909037013556 -2.9344199790065292333e-05 0.019228054492662041003 -0.039915608076776534774 -0.04453680520442404589 -0.020136305177324304722 -0.022659643562140202588;-0.027242185271992871293 -0.018890407726538660516 -0.015548507892876596917 -0.021684807805385425405 -0.032866659733852388037 -0.072898510628527521393 -0.051309270045063429255 -0.075983012564348029194 -0.030606872945847553302 0.0205518704922276578 -0.020210365521160240931 -0.096242067161009331455 -0.098149096581442135667 0.01702908824024725043 -0.059868381715446152003 0.023747226601436702276 -0.15947411338822839455 0.98818627746369502862 0.98139184741900198361 0.65945538615422383266 0.99380618929329433975 0.80287502897511831002 0.55329523305943617562 0.75167653048164884133 1.1257408380749975851 -0.33317724680146137972 -0.021676743902221962124 -0.16871365200006099849 0.10512815371899475458 -0.1285238465375549699 0.0719105163536117864 0.021073434144426004405 0.023015477433895984577 -0.0028605434173231683234 -0.048124950287095152879 0.024192527024117758266 -0.062124497594306896109 -0.03005580779699727062 0.053657180100346396623 -0.11021128502881108457 0.0061623914868822043944 -0.093458113313429388991 0.0011540006044894295101 -0.052417478759598970517 -0.10509975917015780544 -0.07980915391191774344 -0.13664496049557806057 -0.0062915056368136462739 -0.36058980416723523943 -0.16559513551160076616 0.010453555036293967623 -0.056089617566409170901 0.035380920872422193246 -0.078955089430110980686 -0.055726567216114401837 -0.025941122757600406507 0.0051569885790686007324 0.019617632941608568325 -0.039534107270342649931 -0.1103364350648942116 -0.018433626497455831567 -0.051144566848839688455 -0.0022694880519775620722 -0.02010579543166705549 -0.014791504411476232017;-0.19186238272353670076 -0.13603247716495484032 0.097070996613490279081 -0.069402304852700782978 -0.27208870167640608617 -0.028317346947093358783 -0.20020572339857639621 -0.07713516907204741313 -0.054191888081967926061 0.01309293590491607609 -0.074169693638777234312 -0.037847430992874443734 -0.060120022536410813729 0.19449472430135056333 0.0040965550714716948699 -0.2764402552601318841 0.56555657600835163024 1.3734461822741987902 1.8247962612689441197 0.98569570645554516197 1.6165901500453592199 -0.24708638228160784145 -0.16670382640466047119 0.08707109255698128325 0.10232531156673241313 0.070997469379192088001 -0.18288391984041935112 0.22475012346971548483 0.11353650666197398489 -0.17751889733030234986 0.081921506093100629475 0.22471775980155936359 -0.00027884911000003453907 0.062778024697082046579 -0.0077379418306069624664 0.0069108594400848540745 -0.15507729575157114255 -0.020636534658110231022 -0.026909628381423439381 -0.095865879895611363914 -0.024923253685837577082 -0.25232294376235253619 0.081720779227587164728 -0.33970363542468601237 -0.034708669912426465265 -0.4253330073138280043 -0.096315653728774736075 -0.50710945287721298502 -0.99599070368749176296 -0.31591471663154224725 0.031387750736099166715 -0.042843999231866394806 0.041046698837712176922 -0.027843945215634598872 -0.050720740941585261419 0.013219199757852517774 -0.069229096042571880432 -0.0037038364940081697219 0.098235336533552194971 -0.072488527800396398981 -0.018139123644965452625 -0.24546454365735873027 0.039794862024062876982 -0.015224828512367259009 -0.19055514087884792285;-0.00033580794671722157679 0.036177454766242962692 0.090734713464228081148 -0.036058120873715501786 0.11678291182164646234 0.19841581459710291857 0.028274437067617081559 0.17247267147746417337 0.14927346308259584196 -0.12583136286817037108 0.058988942545933578665 0.15129865836396275136 0.0080190322114819159033 0.10158841765246547084 0.1344102595633704933 0.037560027762094237713 -0.24647320651811793768 -1.3026085849262341032 -1.0728455918578134742 -1.2730720702292817048 -0.73441927654070915388 -1.0534598980499556564 -0.98562873539235285048 -0.79983716735117249552 -1.6861479410253030764 -1.454344852719555492 0.11355666860995648759 0.35558623122723742593 -0.024337103268050167687 0.030202885546681774998 -0.0090486204858005441637 -0.18776303208274805479 0.030657322725386522422 -0.01210620727042850675 0.17756060996624059567 -0.19363319939922923885 0.22964514805027641531 -0.080482800290094275164 -0.026930541762328778777 0.0866857660084252718 -0.022682507672973743762 0.26093154130303775062 -0.092128590729728968012 0.32959793987225521894 0.066487947219493262474 0.43824912691566836331 0.074104551544464172808 0.67941775410887195186 1.4238034174219700301 0.11274167434812566724 0.092144556383181752679 0.14536578748849487974 -0.074586632782381465101 0.1105551700845496671 0.029633492944541615921 0.13468140056699962059 0.047387910366732947931 -0.16762216252465320099 0.1610114370651001825 0.21253665123098505751 -0.10449882387976097697 0.16971527741671721401 0.055257376036417851783 0.091531244823050653125 0.015591357347315166343;-0.016692582982150559745 0.032435381259174396462 0.0077945527073989655242 0.010344736193381496789 0.0047377744063166861779 0.0023516245174879284521 -0.0064964722692866681483 0.050247223361029991207 -0.061762473598666690899 -0.019736394174730616247 -0.022781973504849770129 0.002714400803262879882 0.030448918645959430207 -0.028760829012439863284 0.050408054439359986643 -0.057101663848324255013 0.48109976542206261962 -0.54284986580924421418 -0.60427259641413411106 0.024499723940485794438 -0.1498923174228296018 0.098709160845310423005 -0.14445393130494507683 0.015664045420186872848 0.029408899113433275424 -0.019606403625470572583 -0.083338161491735299191 -0.05793157491116392166 0.14500756091606939457 -0.034473147542716499336 0.07750880843165287859 0.075859965788951586041 -0.052431086809195968923 0.020907017083100363358 0.00094622912705686658408 0.023974523398076787867 0.040217092416742525329 0.028986228276864717951 0.0066491214381960393742 0.058219923210181115381 -0.0012682073843769208453 0.030452326152322829744 0.017803528901276247098 0.023205329734167636641 0.0446656587343475589 0.025348675113627691657 0.025987600660340823278 0.017973352892743259257 0.16159418223262331238 0.076065593733167749524 -0.063370897650028595871 0.030446495362952963326 -0.00039811150006707849563 -0.03334585417864543988 -0.012809715966873273449 0.034103558351343002397 0.012261890415842868068 -0.026226263227904070274 -0.012216672949973122336 0.036549952874913867185 0.0078912719782214622161 0.022703714273545606145 0.010099108226090508164 0.0034543487551266446878 0.03754183795244984273;0.05089357055580327055 -0.078852743229057192798 0.054491218426422807775 0.011409649275058483808 0.057333336169747235733 -0.032535603810407202896 -0.025929230324302762756 -0.064279827051221191669 0.027715765707608423091 0.090513245101504088974 0.0072747157175035766924 -0.062946030190833029971 0.023585902018325877877 -0.049255441800257621088 0.046424506637438224532 -0.12870150011654241107 -0.018671554823258142142 0.0040064341561342857456 0.75050740704896223843 0.15530676263082549005 0.39399338370155173594 0.19205609305695767186 0.6894620539741831422 -0.75258842385871438374 0.31836648041925391661 -0.10268948547548172046 -0.19291415368281739084 0.093136131589773935024 -0.24160554341495599218 -0.16510121413636136278 -0.015986162104192017802 0.02614227350724844523 -0.0014704816788466881089 0.026529624949630011693 -0.040213523528838716892 0.021953751913508595672 -0.099846598910424078088 0.045367157637475355458 -0.010493064460268161989 0.057079224153305650746 -0.048490732502170313944 -0.019606595737660374723 -0.028198741296398804196 -0.061553213004358411919 0.098094229645547800778 0.049823518206812730802 0.045154651590443524445 0.11796331615423703842 -0.12445092644444814833 -0.035948055840223501478 -0.030926224445134983115 0.023849087084296678729 0.0095185578593018696503 0.01045822437059473406 -0.071109665202406219242 0.0073954584051898388658 -0.071928651509363311645 0.047833449418120364827 0.049415551213103384165 0.080744635500137190709 0.012433850660042764999 -0.041333737011457039046 0.012998029673484196717 -0.048375091396178515613 -0.0854456786649868405;-0.014847109569935117157 -0.011152362407919527015 -0.030482784499888712637 -0.018623293272888974403 -0.022209931349002315359 -0.053861092085221703996 -0.016148666478946530761 -0.063379661352174029854 -0.029668274370880678287 0.0070121361836421192831 -0.0084326226822062696348 -0.051734829646774463385 -0.092095410757670859159 0.020862913187826806483 -0.085278968361078733018 0.069602141554125251943 -0.20195181659715544242 0.74585161812959177574 0.61422441584410991666 0.50017074989978449473 0.66796690548847170721 0.58988155174902245914 0.29015865022295739273 0.52032581115424259011 0.6258621615642893099 0.091474919657323738864 0.34095561945119157166 -0.2637303134260988724 0.24955259787272282557 0.18897233034772359384 -0.11672962412457833781 -0.099252941244039105673 0.029301674299489495479 -0.023701240276021925957 -0.03599497188695414962 0.0073132942699914160745 -0.026004310542130419648 -0.029536776653465945247 0.044844607457627111424 -0.11097805761305372385 0.0070632791658615818459 -0.072317602993400273426 -0.015319636205405820148 -0.03517962721675797072 -0.11382466631336002338 -0.078739353270324427547 -0.11641646296868042587 0.0028725079166664752028 -0.26068799107784562663 -0.12420480061770627911 0.017266453109049725162 -0.058144967378819391313 0.034320960655772066172 -0.053902579031487256322 -0.028516116164233992064 -0.033601073804267564404 0.015517066910882542502 0.013893468134639767181 -0.035497294513665719751 -0.11803518410617137857 -0.024091408944109955065 -0.028918700857327082898 -0.017414153757568696934 -0.00086888524919008156 0.0056988814200121182263;0.027441051100270601876 -0.042498701149630405127 0.041592108718474782303 -0.017884052250472938506 -0.10664950428943487104 -0.054348620299322358829 0.10066405437408104673 -0.070209184505894500772 -0.2351872620931980129 0.0081197578497040848872 0.096973676860467775129 0.069490927438523919513 -0.090277723065354434362 0.24442464006125794174 0.41904827102626335256 0.11091471012132469998 0.62911854553375867738 -0.85680593930830795113 -0.50320531407996416107 -0.20489429711602180628 -0.33326211889579698822 -0.78230124687125635052 1.0175845830025267436 0.12882854551523859055 0.1862962926115201423 -0.033037102026618733741 0.028183281656104359342 -0.065351122294476357566 -0.061749389059663255253 0.17221926877362062069 -0.11643740413400256728 -0.0022345445104857385166 -0.089744125840045221865 0.073319354679372103489 -0.099472018814498394668 0.063933262315277808452 0.024525466644322167775 -0.069830403903476861993 0.10354223228515072042 -0.1109557964629968585 -0.040387870296609715282 0.0099961820597794376342 -0.032264562725772924501 -0.062122842827972236945 -0.15131011739043020992 -0.002152667805255378472 -0.16764090394639710735 -0.092650635105177625572 0.22381738508274523491 0.040659638238264211862 -0.027610844593809774628 -0.030725854532932982827 -0.08654698799706721235 -0.062469283763479960259 -0.14614009926795459848 0.057324155695118478304 0.045528418318279702259 -0.12556651540850904958 0.078822045584924838035 0.016717508826269149302 -0.15391552078159032035 -0.13945034308794923561 0.13302492976584606721 -0.063920411264335411095 0.009261306391537214508;-0.054621049458107452657 -0.044942038687985533252 0.032168547833320709772 -0.0097732401136171095229 -0.050192445546495524644 -0.051400744705664774825 -0.037884999013532712209 -0.043867854675929233987 8.001016453332461531e-05 0.061476545167485456556 -0.047827695783716796252 -0.0095916381822744832542 -0.059594609242077684064 0.023128912934352905545 -0.082254202790602776174 -0.1919434963645140213 0.014046569871077350944 1.2470124464600511605 0.57907352961376834521 0.16037050559039003894 0.73493073590328583666 -0.091730617560880106653 0.49131640841428009248 0.090252214634210098376 0.10616937909217391556 0.0174673187438888107 0.048462291073609289893 0.11275758802489893595 -0.0042006971753391422753 -0.044960261387967354052 0.20831118951254323779 0.047461999191436884948 0.038253769379036482723 -0.018678947738663978506 -0.0127720760943094893 -0.043919134945905380363 0.0034662283481500378961 -0.074482422470560888383 -0.039281694699511149338 -0.14690326347345075697 -0.045920177353829076672 -0.14216944214890908649 -0.04001701849789654486 -0.10015620431938357382 -0.15792228707930169862 -0.16289439754098444801 -0.24638118311489276557 -0.29607890652595453274 -0.45970834474661748104 -0.047426317448409846533 0.11394445560974814091 -0.062340829727433835772 0.035835620680204467725 -0.02522255645391268189 0.050126100643825291514 -0.086124322714193207728 -0.028235688733698686981 0.023520907229624854473 -0.0079078058163440587136 -0.10810910767446013647 -0.019278329119170642403 -0.094246843876818087171 0.020881461762226063983 -0.035452326347181942201 -0.036033691647345544862;-0.026826419598421698265 -0.05670263744318834731 0.031458216515701430127 -0.037201006058394082976 0.0044005168468218211486 0.0079169314706307516993 0.007109289454025612652 0.058673177756313796283 0.10032881604973527268 -0.042659950129763667126 0.046083963750518819324 0.11769190084900840731 -0.10411052081321509055 0.16699877437135654534 -0.063548022394576728078 -0.24752914646803444998 0.70607058326567595508 -0.54605728489203753107 -0.39387411990699783271 -0.016940994566660840664 -0.57798167061216987328 -0.21684889268403920171 -0.36007561226409090516 -0.37445721300785239638 0.047617404487340739272 0.2317603127705523125 0.070867828975809801784 0.11701372944414081823 0.42922769580855735239 1.1922189691313200832 -0.886336192158039049 -0.74789606191981095051 0.077666400654136491521 -0.1770639913045162217 0.11969567940448458399 -0.058889431080237766847 0.12199246575178920859 0.10077799615982113712 -0.024916525371702386016 0.090482313857785365285 -0.042096391120208472014 -0.015176790602001569153 -0.057748758524871136866 0.20409741664109068426 -0.21690699544121014308 -0.12519402127923801027 0.11039520303528740919 -0.21095130169007145216 0.61227824631470006977 0.10223597068980370961 -0.24623552850921678892 -0.0084871876620359106708 0.1305434150715328312 -0.086776776379474562795 -0.075150559762794610918 0.10846819073066654715 0.035325850927835578119 -0.04321768279552049008 0.040842617400801251026 -0.056304080072512030508 -0.084786666303278690471 0.14544104934405460705 -0.11175455953253193853 0.017484240544778938825 0.0974482106207663068;-0.11508896698559342719 -0.065608620166757586345 0.018642594413072748061 0.016728024790686434053 -0.045780646085188184125 0.0029743220211411718762 -0.12333324448316790312 -0.015380870553118460367 0.076269881850304810378 0.012435828524152743244 0.017514795467212445484 -0.054125437553259381218 -0.056355166891280103481 0.043713731697918520314 0.066827388381961935759 0.16675796045333524109 -0.15258291405998508639 0.92508385435457907153 1.5508968832077107969 0.57863194475205503853 0.29995903137579066344 -0.42289237038579619021 0.09199238550881602694 -0.4684495871994640015 0.44416726170664999618 0.37965930516697160568 -0.21316850936496653524 0.17191775779910631328 0.056847906713460849559 -0.20796380879674772335 0.12111633553252104667 0.14415262083965540985 0.028603299681563880419 0.098532564240974576664 -0.026731551004817496325 0.0056592273467056227257 -0.11232043558993104471 0.067002195567663153097 -0.040166833294125542375 -0.12878864471198434027 -0.008168560533306844923 -0.1911482746311095049 -0.039538953136005222655 -0.17328435106676184918 -0.088710286901137025417 -0.18565983297755267456 -0.070203975752895136919 -0.2205227002485324328 -0.26971199098592729682 -0.18381425297833509092 0.13479114572597103439 -0.035413167703728321012 -0.085211032346581949692 -0.052545430087640822292 0.0074440146081534708244 -0.044182270817603147561 -0.041311122177208288442 -0.032995640753685155644 -0.075769628747601708296 -0.038376686169727482201 0.021351996918421843608 -0.080428217077522234923 -0.022503544741886882113 -0.024640914051220940556 -0.0037724926295880979212;-0.041343112884408214636 -0.0019122431731915211228 -0.044641715578747791227 -0.033899801244137675593 -0.037040352859466545155 -0.060490658633741652139 -0.015400294203831188175 -0.083930639071937929163 -0.022788200600575396482 0.033107856486242981386 0.0013278565946403149411 -0.082695025330814742048 -0.13205376654534067837 0.029491916920875105301 -0.10288533894901796817 -0.016298446680128662878 0.082679219656434127517 0.96566647036271291427 0.81621170948879995244 0.67913574906137108567 1.0974121109932986062 0.6297860248539831618 0.52838291466790088258 0.69576708250408936252 1.1918342871859830545 -0.34725363132389086562 -0.15503692313534525593 -0.15803227065305155974 0.57059227452113725487 0.43904151050520168198 -0.35938695387389452129 -0.27748611328554956268 0.053124837054673045011 -0.045401726415090840061 -0.039954305577060131305 -0.0061193730495857998758 0.0043742557160039077097 -0.038847406778418878959 0.067294206274197798656 -0.1109644234879660768 -0.017675148811897384293 -0.036750736785691406894 -0.052861652932219199696 0.0057467838530480827922 -0.11625635782497036053 -0.053695726595023057781 -0.10595787281192649287 0.090521039574389880467 -0.31410887206838217223 -0.14348515760405652908 -0.0002478770308318965776 -0.061700001270883424176 0.04767652852857180712 -0.085821745682459926741 -0.072631748957647027098 -0.023707828096113374439 0.0069409734936040686643 0.01874648395833661968 -0.025277269973034262318 -0.11447389092358219165 -0.033854701149605766208 -0.023113370037284971387 -0.012490223670715797089 -0.0041504342466555958421 0.018691522564753863811;0.11258092674740124983 -0.076799250545444897043 -0.01535374786569573477 -0.10366748593171981607 0.081180905302319333883 0.043197917325886153739 -0.063690353558136875156 0.049443929067088145113 0.0027429972968206380035 -0.23362977907858203941 -0.02790028782064708085 0.16589221956082300657 -0.13494328571789449001 -0.018782140090756092865 0.04341826167785711732 0.13584533354754796397 0.35579172205738118784 -0.30749950846206958177 -0.40702288677445896958 -0.20353508806621706251 0.55215051961638050848 -0.49855655268013177039 -0.28107088531006091392 -0.28548299948065813947 0.43943365460572908487 0.0065265509899018504802 0.57707852312820495655 -0.36322873161907159867 -0.17657038509857242436 -0.036762712119704388236 -0.60476776922641739542 -0.030691534858071037317 -0.11960450246495792082 0.09023080890068925497 0.11560857712721807344 0.042220823588019491812 -0.051737690653830055443 0.14619998876437989566 0.05113175557692294787 -0.12838463881385636656 0.039122002327290211765 0.004819075182966635687 -0.025193910897249604391 -0.16290039938801570418 -0.096758459314213812741 -0.18749480822667446978 0.05227506281030364077 -0.12873781733214767486 0.1207736152374302846 -0.0094116065858803089894 0.01937951509741376796 -0.067861270688356678527 0.0092355542004296381497 0.066767974159097590037 0.074704009544447808056 -0.10466241477026536066 -0.0024946370418338741082 0.17309555057353351315 0.084362643578455909221 -0.18871066893430282763 0.037545377542006985738 -0.0048751278699304453207 -0.029559519756972511828 0.11772755804830010995 -0.020299353820102890994;0.12343562748030778575 0.0087208755771111586691 -0.028171454517242913718 0.034365956044977413741 0.116091046761478911 0.011653307266065379699 -0.10732968478660935563 -0.026053701755409712504 -0.022536576588286259121 -0.0012687759000497137764 0.0015065437255921548809 -0.13454119324077154496 -0.02421989750269341185 -0.2208726687666817956 -0.095603408234455233838 -0.13923894063918332287 0.22002937444977305192 0.39029267237344289487 1.1734099031415743397 0.15613658334636115743 0.42524739976070863312 -0.3578522245451860595 -0.46655568698163396579 -0.11757231795082982717 -0.099442368842733067091 -0.084476313289912507987 -0.031101182753959288885 0.021335727850444796694 -0.056288014704352865025 -0.027221430399328623573 0.045577748581478581824 -0.0462457375772883858 -0.041347019375546321951 0.031350603649483069213 0.084689267601862308621 -0.031433045760276445701 0.032414150025341079142 -0.016935563643949679002 0.018524027042699980905 0.082453828438667331469 -0.017664503489269865744 0.06668581417003058287 0.0021250451265333349105 0.10031800595415305 0.04221599921245028364 0.039566583202350347204 0.14741848081116398772 -0.00095045030931397225804 -0.013525789182893571683 0.087014267067519732168 0.017339140567746678945 0.085498763470898089811 -0.091663745290090706264 -0.038219669094158338629 0.041017868452501424215 0.030987827875640791553 -0.13670679079989039861 0.080030051962259499132 -0.0039969851456680902113 0.04544255763882218413 0.0032278337393875609906 0.17512293114946997363 0.055142230714942501446 0.046729733299219755605 0.026865452505356334639;-0.0020790209414936478005 -0.097912741445646475635 -0.042214353196355691722 0.071738920909758363553 -0.16157806077705649805 0.044696809261124959001 0.033876724228120484728 -0.033517141328813435108 -0.040817171664676597798 -0.00078775126274797241388 -0.064911113023014763157 0.059574508333049516762 -0.10247095284179602581 -0.16749500578284109986 0.080393105964164768285 0.090521669697104484298 0.25995690363002171841 0.31474444506310850223 -0.55574674115158362309 -0.025701044197804799596 -0.37119701323411563587 0.22147353650650516976 -0.31043352316582534245 -0.0081080355633052492159 -0.043921237211190275462 0.39085316917412837867 -0.011865011783837082007 0.42240794599158171252 0.48452043536438732518 0.20040868367732772581 -0.22840389877650341122 0.024095788549703608949 0.01442294661722139798 -0.010078443861411393034 -0.22477845374369040399 0.082781224862706753731 0.04514433698360562075 0.17236344821007582029 -0.010373905515229899649 -0.086411723523890704435 0.12769587538035415131 -0.028502820864780117199 -0.12732962232583994178 0.1932890181058912471 -0.20290549598942858589 -0.0060938442664511902752 -0.032115779310158770743 -0.03670219259502004866 0.12040784611925042791 0.12773492889826137953 -0.099376351149600250512 0.12848826118108686023 -0.022292756842287576868 -0.36433489790225342952 0.089854398454728728884 0.15079699724621592472 -0.037129006837162865928 -0.10333195907985141815 0.032726274070224145585 0.02729431636783131998 -0.19819931968419265966 0.053728359642736943369 0.008261820631128610759 0.03460184402689972516 0.12511971715319364362;0.039058738387886211829 0.094803838511283072821 -0.01310041556902942321 -0.0070894631467599625307 0.070904407830099366872 0.014534491388772245377 0.086104070815370192804 0.085215895282640008457 0.011146979830904058667 -0.002529440842544894083 0.0066694404528636541327 0.0004398369441670612473 0.067621754212041015886 -0.10008645434916305095 -0.026886062791585119136 0.057302448255766615104 -0.11993513268396427396 -0.48545227048074385268 -0.71401474949778076518 -0.15463863173261163664 -0.3785975506683685321 0.091479357957957668779 -0.14283310708857183124 0.042884713847549098265 -0.11107432707454716059 0.011655951888953542187 -0.18779937307375499378 -0.25229795136786969945 0.21656325260321654391 -0.048776052049410392741 -0.078135415879521399884 -0.1709448580534257689 0.026395400690139916855 -0.10086462947492304265 0.05297604664484639736 -0.029729934209219165825 0.12285516532970842951 -0.018594215124727222349 0.055945197750150943428 0.12245444487159155844 0.038325439482996374874 0.19348560408021303614 0.0032788920910276336124 0.18151494057371814206 0.11456615968408127848 0.1412379183057020926 0.078750876845230008416 0.31322952136384929478 0.38475273194688186518 0.042962672129935888798 -0.084979527837403909252 0.081490585997629608195 0.026198699664706521367 0.034207987603318730507 -0.014999247883322243749 0.039284471476768556553 0.023118116165331447504 -0.017300288723273139768 -0.026077050001642773647 0.056729978810332114258 -0.0093384769183657220792 0.087872951328247711489 -0.033607849181004012529 0.028814377154151176591 0.048220834789203484427;0.045219192635887354992 -0.0074534159383585103786 0.014314309652127871555 0.034310835531489669581 -0.081045303420838626929 -0.028460607766507075439 -0.03365228010245549517 -0.12178199893361119077 -0.012675181655373591108 0.0081579890238025337679 -0.010616447081993111295 -0.032204027415018807168 0.039795512094471734155 -0.00091882020255735011305 0.036169613579259594915 0.2186253651212997362 -0.57900044088253577179 0.31827747675205619871 0.27311287064958417181 0.23365397036458582236 -0.17236337244228511212 0.31915808665370304364 0.0054137480227758223716 0.72143331888088668702 -0.1729742247659068477 0.32034238074402204832 0.14168945058633045098 -0.042680001356516478195 0.80757062002513579912 1.5839990069553406826 0.23414634423382918449 -0.27050474284364300903 0.10006914013952566966 -0.18427595489683595842 -0.052482916473413687708 0.014890381716950474092 -0.14430934081150728621 -0.02267365707540711442 -0.028205946013721051174 -0.048083978818270992073 -0.0052045334774211103601 -0.10481677239488003395 0.050579803934928266318 -0.032009051940548018111 -0.015182108788365383106 0.017119599996010974319 -0.085903130860739196351 0.093478917152709520288 -0.24394748715132796857 -0.078570865381587154386 0.021587028043180508941 -0.072770272870586183434 0.058657926736898291509 -0.031591156021097931139 -0.021587895837856474479 0.0038364891515153369539 0.045033335347549025007 -0.046866985319948373245 -0.10162740003870643357 -0.062639205324587693413 -0.068349993176098508552 -0.018672725062481226183 0.028395250219010542692 -0.026858511948858750096 -0.032019054129960040911];

% Layer 2
b2 = [0.52751423157513677165;0.15608989126617039966;-0.075118081561807950597;0.70966732703469403987;-0.39565657954585120581;0.41915956766782186405;-0.40987176436043054606;-0.060078929940120720521;0.31136641880420801165;-0.3957316734672889913;-0.46045794191207511936;0.6700273706452650746;-0.076548894085580146407;0.041280730847508148584;0.13059052344360172482;0.38168685213703540393;-0.30574231565425447066;-0.60824103714938659859;0.065237558294536285297;0.39246779834953726684;-0.077168795316664956507;-0.063552803908725766235;0.84405570353609105094;0.13392934880724335911;0.24921265667096911822;-0.52637945286300502623;-1.2338968926859583686;-1.1227001298014571695;-0.56914668896044884328;-0.15692518526365523135;0.87979694854310441787;0.35020064423096819439;0.41600102637128083538;-1.0702350863829339644;-0.15031053425447368777;0.60547274680721829831;-0.71714242564349184317;-0.67565233031210980563;0.099657151790521411594;0.55896771167669845326;0.22349988559288155865;0.072530972890806982845;1.1426339322357086381;0.60940410813903456155;0.095361250449530948758;0.4568262402526507282;0.67636952874738986985;0.7866838150135462282;1.0061113350359467411;0.81919819451223019335;-0.4052465518851015025;-0.88554791106181740545;0.92661761941954801092;-0.42524495746756307835;-0.99449472208301059606;0.61891896328483997358;0.32371678845146734105;-0.38807995377771853374;0.17957232196143171898;0.89368184868902489359;0.043431308821210504179;-0.19065610726031831379;0.18574113911211054262;-0.55688177159958673901;-0.60781750047108962232];
LW2_1 = [-0.41134668985426320331 1.1501207983706138727 -0.86712397862323120634 -0.38647769470775811262 0.1439199213394888599 0.68775827611360040859 0.028072032118751436003 0.61954284263422987333 0.60958947406094377008 -0.045999867655078907624 0.54325169605522105609 0.3799176582441393113 0.50647501678498940691 0.40614735044034672162 -0.26160890439916495431 -0.97141522691046400251 -0.66148908947564155625 0.12579754642335372328 0.24023111403486463455 -0.13984117612881702408 -1.1407117770747878804 0.41529695503792524169 -0.21175387526123670701 -0.56516850974234800198 0.20017028231661310178 0.20267598062750169507 -0.17982749488263582993 0.76016118313484004609 0.62944532421520549281 -0.020096607017022923708 0.15421773349268574904 -0.062331457446477583906 -0.67843607830221452915 -0.38032176198904277253 0.4058729611611414656 -0.55180043924836341684 0.46549186075413528929 1.2333974763230881599 0.020925254470553100727 0.65303227327809432179;0.41669933927572144761 0.64384014220869179024 0.035803358246590748226 -0.94102035718373289175 0.87982133232372994325 -0.51212083229715310573 0.20797578813144032561 0.86235321503487560868 -0.68483030345901962921 -0.22624677444785024072 -0.66317893948449035957 0.078952080359906584572 1.0637398790361010104 -0.25822259998252311552 0.17699389940905621565 -0.069866095279571605037 0.56232458268241669597 0.61856296864123183621 -0.47326134040258666102 0.60480908849165138097 0.30375606301423413447 0.57934761357078756738 0.70867207085298866698 0.41170839766993816422 0.52016176097851418714 0.36231509238684328489 -0.35891344553097970227 -0.39511664643321731116 -0.92942868744010276316 -0.7216239256409431313 -0.29338926956002076007 0.38279103423609772694 0.58999833896576825421 -0.424987591591338143 -0.50372602295548851714 0.55560037433742648361 -0.025583041093518023995 0.72380041340720169263 0.31915925904792241674 0.35829094183316290145;-0.23332420879329845986 0.1012187108553479209 -0.53694173437336367716 0.64410544486176568579 -0.020485574813901178542 0.73127453687437027341 -0.28352056160350086467 -0.42459623401327084569 -0.030121452371750078586 0.41499783845339610622 -0.018761015505522976587 0.89962714300490365105 -1.1042358915236725192 0.44521420369775438486 -0.46877021346034331017 0.035092650126238411623 -0.62904847616059689219 0.45837903092344617351 0.23246663706744158384 -0.14944300139508626124 0.7328694812619040988 -0.39850547140069858543 0.75548068183513050755 0.6096025463223094798 0.80270467614611362706 -0.73679261202076462567 -0.12953650447046466399 0.65341109787483531157 0.29222968193720127994 0.54309519775421122301 -0.68755087664965230942 -0.84463079417418773787 0.45039689389442916223 -0.32039185338415060444 0.019912610447298983302 -0.36944401914991109592 0.45327777017110520985 -0.032109654344139849924 -0.96997622863847388075 -0.97664901531537773316;0.14031729896469902208 -0.35784569435928675896 0.22653948941325952049 -0.53634259414097251728 -0.42497404076543354723 0.38835446033739096094 -0.52922471480769961438 0.57459015905789412315 -0.46477202582139420795 0.063533372041643609851 -0.33060509138867216761 -0.062958993937786700279 -0.27051007657777603743 -0.48523221327608023756 -0.17610658457887931605 -0.3005587715702742746 -0.48843710022662489845 0.80924186879348525281 0.48758461601493807702 0.069060617189834083707 -0.62002322310565771701 -0.45969226337381302594 -0.48108551165823204565 -0.58171964418949539954 -0.079974585560370001214 -0.17373808657570746772 0.30539476668315590491 1.0099846876054805467 0.16466884871294032444 0.78623961583853441137 0.27474731876475921855 0.0982579966098048041 -0.28406400963243882973 0.44900606746047022622 -0.26218934369503132942 -0.16276747092826715502 -0.50662675963978309746 0.337227680547219133 -0.094424297592887618258 -0.026010566855771247857;0.19718528389982797888 0.58574107849842460549 -0.67131481378648594216 -0.87533819318846017854 0.10073145287848812857 0.32265926869532207677 0.4690018052606240162 0.12582031206438562543 0.04600618945481951827 -0.081680464255934420725 0.051658508258013949299 0.62584256066729959667 0.30821089073873819686 0.18006585197929261821 0.28323963825814751916 -0.316684224442267237 -0.35285218158764064533 -0.6895611439031741341 0.66456194471032314919 0.14483822639900176266 -0.51333494109851285359 0.85718526609555856233 -0.34788820345498050468 -0.49618552933601317578 0.35761327162052602979 0.29866070098605274064 -0.063817811766708698595 -0.13299859844257094776 0.34651172725777368289 -0.38122691038788064644 0.035686623668934741582 -0.22541286369842905568 -0.31411786910003336448 -0.88166979086284380518 0.14676299756250663076 0.89357057216584068193 0.7128387176503406808 0.75445202055825688614 0.69130360016807734791 0.32700905701038324169;-0.36105490430150893877 0.099182242043600182813 0.36462102710563193408 0.87001407222179916179 -0.21544422711229926914 -0.38864550940525000033 0.41424060687194785846 -0.67446099419319505142 0.13489382487760701035 0.67513606049896823791 0.59338074638708682151 -0.273767825781803531 0.43779431597718698743 -0.44320871546197670998 -0.51199097261429671324 -0.94199108681358922901 -0.14333513131098013504 -0.71441528053914138408 -0.5273666933021907699 -0.14217381092497585748 -0.9504254728246144257 0.31288371748068083411 0.16914430790011447669 0.31791323247094760429 0.28771335142446963218 -0.23301266411961657488 0.30982929661425889778 -0.35987223875405927043 0.80960452560437234926 0.45054117275906663265 0.51062631353966125847 -0.7441392150642249792 -0.44169778198481801645 0.65915304417811226845 -0.56163958430120597409 0.76064486845057666109 0.46654542890225392249 0.29516470236144298767 0.52598556607310953392 0.19093431837392979555;0.39772662389257495974 0.95398080902433635142 -0.28580635064771497955 -0.86958820481212550924 0.32130578900991901836 -0.10049676532012345731 -0.48112206563010428972 0.47202102773254239754 0.34664180022456902996 0.13744114053724634794 0.028845072188962928017 0.68320501475784123357 0.81385521943684802082 -0.31359602503545824792 -0.53882272100616335209 0.11983298964448518831 -0.10902553334355802317 0.89578259387324488117 -0.20751145553971062085 0.52393226074216514565 0.67927909934318586593 -0.15916671665695220073 0.058289159376124166645 0.62049676204092640841 0.50740641054520529973 -0.35439553021867387095 0.11094870653382818415 -0.83895761509991495508 -0.54701468024285759828 -0.49084420185446053786 0.64418170776899952301 -0.17789722153502704471 -0.5516659908621758257 -0.32892589365921232059 0.014810840850419565093 0.76357796107843700639 0.74557561777201886155 0.010319417721822795111 -0.18580844860929723872 -0.55539385762486137565;-0.24906696843215520021 -0.21610678822962414714 -0.59617805801293100032 -0.85628919462831953879 -0.38981738495824547197 -0.62251358053004979265 0.013462252848731870447 0.39249169157295971111 -0.29662884888200313771 -0.025202968760522900804 0.45376898031278078971 0.65065723805605468755 0.13950762064097688153 -0.32631876994080816212 -0.15050335048991031472 -0.4243122307525110104 -0.14517275160357978603 -0.39610429993689838524 -0.14420903133310877808 -0.2786306065942014687 -0.23212714236592280059 -0.23192173213891673078 -0.12683045747284238391 0.35340738591184461814 0.033688643920218877548 -0.12049670343014926011 0.027864033118349049167 0.856872480357719013 -0.72388420872706860099 -0.2559945276397173064 -0.37634684336392387749 0.70509867832356420969 -0.40790004626027287493 -0.27216162557693079904 0.012998014422576767424 -0.19445840604153072362 -0.033092251138068698446 -0.21590499874952182036 0.013413170811369121496 -0.70074842070281395667;0.22131423592577012527 -0.89094637615416272247 0.80372198581002096685 0.18950317412218772861 -0.28711926921543051705 0.70270543275822028306 -0.34094993241442944631 -0.30842660574543295793 0.18342229199782841831 -0.0039176269642988287289 0.16910559138560743442 -0.53371687755481811433 -0.32455992131048361227 0.49245231784117532436 0.19716838684669948933 -0.86543462966476325526 0.0060037285524767447509 0.20618768120601099758 -0.060577643802779600202 0.041039458107170356804 -0.029207952250220270418 0.42377451900654911077 0.67072983445329659169 0.075615470879141249982 0.4730725726532278852 0.77039410106323957805 -0.17019925265557497851 0.28409298424442913644 -0.091626209913100969962 -0.56952318808151103369 -0.4968220873309188157 0.022091480749313410076 0.36900835613294680204 -0.023663787575763581272 -0.058252680912717243189 0.44090934895452965625 -0.80008288631108315236 0.11425153054998679614 0.28874473218199209201 0.86051117952400046907;-0.081560371665968800503 -0.49096342234542972305 -0.20682972199481666764 0.013392971505079726349 0.28462652494894574717 -0.27740600284248290164 -0.49328065197142073606 0.26090546341039011491 0.83998571285103840189 -0.082642533301361439935 0.55117132574614102758 0.66473288989519252468 0.71637018069041080714 0.61492472596541403185 0.19049992961204498254 0.59354422349921620583 -0.34983320902026671106 0.54015436621542478601 0.38724303376702357005 0.014566698587873596477 0.62938091110578608944 -0.30596580861226885251 -0.27870131957535287937 -1.3279439228619482893 0.45134036196387894435 -0.030005386407337707178 -0.21896319987827791986 0.00077283267479080200099 0.31865224124289021068 -0.18452314422618154577 -0.11219058244982713091 0.13704807618170072869 -0.3677039315101480188 -0.77223417188992582449 0.34915267399101990176 -0.34688895776712325159 -0.5060833492667160538 -0.045698065774531594629 -0.72844480021656454749 0.28764709558658529964;-0.18829718294271735601 0.17232744059791921254 0.022563957780607483972 -0.88132947837793251811 -0.6997267295962471545 0.20740083257094216185 -0.1844521740551945399 -1.0350691615021232472 -0.25095116276345702522 0.15837923410361276488 0.76895416473821065484 0.19890027008942615105 0.68568271406332959028 -0.39248583355515404003 -0.18048634134864979806 -0.67025394482195144175 0.015539864617193491214 -0.17681265043785041047 -0.74090138029942487208 -0.15018791023117153416 -0.12884270342098816386 0.31952437586897269872 0.83487097856601677481 0.51911109973822411323 0.18123416381796422781 -0.0091412939344726884539 0.092538919269629718589 0.80423523399228247222 -0.033894026434334326159 -0.40862085942100689895 0.47182960908715132486 0.77894916898517463366 -0.64376337853364662411 -0.050821264676825565754 -0.39291130320354161753 0.58654147393673272681 0.20078195289412062441 0.8204880798987548296 0.38433536938803913863 0.69447139510031541398;0.18651732929334663424 -0.10832379707954348236 -0.97262066766173005394 -0.77661816377668690947 -0.20272590503606557899 0.53315965371196416545 -0.39301556313353330774 -0.62267401109130959824 0.069622283094180739682 -0.17195389592225165942 0.35509952848293513394 -0.046823506012933710507 -0.19790311817730771304 0.48102836450972297211 -0.16877961914435379853 0.31756081762266225033 -0.074886884969420100533 0.47624685175188902209 0.45675802255125796947 0.19356646752280831647 -0.11286441275361527858 0.19722387284340253677 -0.033438627070321941259 0.094509685875669269262 0.57559150642619061333 0.45052283373607626693 -0.22253141517796820592 0.18648178713584642741 -0.2336502425549711881 -0.55245746429579123404 -0.39471795838758133579 -0.53509087117893927577 -0.093460691253803768186 -0.24376093789034644632 0.30251835674167870671 0.56073080999310453976 -0.76371996919841889095 0.17627336445413660515 -0.89662032222296150774 -0.40412454633549915739;-0.22633952166508072845 -0.65678598803269050421 0.24521653516148625429 -0.42813933144630961225 -0.0036705759450313792461 -0.59883620693180217298 0.1138109307818978011 0.40183753816855460883 0.45248110181466505431 0.1395227563196806686 0.088841732937117043334 0.7864247735353139257 0.45491686479941290111 0.071709321284346622116 -0.26845952786191285 -0.5289367759484381315 -0.60015193820441070649 -0.18811235470370618605 0.046251325975080997965 -0.19367849008571186298 0.41867155239975245573 -0.46662192495271803683 0.37857650333028425305 -0.47091951492955702596 -0.14862792331805010915 -0.026774910091635989451 -0.22968439021282566204 0.17514158339164856426 -0.37557915952997167341 -0.055262256894500996762 -0.14775532162185592289 0.5408337418330204649 -0.58743320803926679652 -0.46416994024291025056 0.27705037235701701626 -0.79553556128618307941 -0.5812388120088858301 0.76194329620195511144 0.33015552173540985148 -0.28688300556987528234;0.14093953476423529136 0.41785061126664280184 -0.14045012266945139379 -0.73885934170278744215 -0.48933694893017293248 0.23031339577949266895 -0.45117693654010226911 -0.74756675081338019861 -0.73277524816517469741 0.089223525139667692052 0.11154300422949850469 -0.29724747790802719116 -0.21817181308603911249 0.29916480643898030189 -0.53176625082901718411 0.77370778021904351718 0.064387618241109251249 0.36955428688951341698 -0.042156011009029097092 0.081436189204567757671 -0.87692891953249985093 -0.21990219933554253084 -0.44184212296448521773 -0.063543247713605865989 0.21479798628032562013 0.0010023092166256547531 -0.23385482692669998239 -0.076608871397004812964 -0.56036120787611143346 -0.34640222661262037862 -0.30240716249293791984 0.27345846884291780121 0.11432882977715563833 0.31790473396410057205 0.036084906216945461521 0.045160495593485408539 0.14793057143258886432 0.24869988561707992436 -0.12051059186172236037 0.21996388956627069278;-0.0022040235243147771917 -0.50779281611199711399 -0.58807400972612156043 0.1727006321533632871 0.18199857075125969175 -0.023349911703583609013 -0.065750731009957374962 0.38907727056307739311 0.89047792722928942322 -0.10734151311043800547 0.3501416933385522734 0.48413082664700646252 1.0155295148135001781 -0.032597329583244023798 0.031518372730641598667 -0.51249117614925154829 -0.17355148573985088034 0.064592567339569501028 0.38722857320819253912 -0.0026319252184863828684 -0.10841169900213193378 -0.062002429924024805852 -0.75121852644599584892 -0.95477659772652101466 0.21060764597138381671 0.10925213299171633585 0.030925028735709108457 0.14435959060000499998 -0.0077826899534676925729 -0.15029154428394650433 -0.32697581278755682987 0.40256508828533177358 -0.32403290163621711883 -0.48870242757401777256 -0.056061124860606353915 0.74655494172698888544 -0.18985620933970243085 0.64940663826665057101 0.12627696142930899814 0.077411395221196957483;-0.069296230632928626503 0.5496870575624887012 0.23916571764867167182 0.34144809932127434537 0.059960417503146457019 0.50025577428797185497 -0.16017712389703184228 0.37815192048481177656 -0.42339327847245428194 0.11148508302125670344 -0.077480703162957742514 -0.22664562288282363856 -0.47082890210762951 -0.28627513146651134557 -0.879670106783722483 0.1249535365681156418 0.30100131880674790841 0.21503075725627351922 -0.56675451968893630905 0.045468473102617069925 -0.0050431154778211419523 -0.24234322018186521541 0.7186689253634898078 0.82760313432845145076 -0.084222628574413413438 -0.054864725230587031712 -0.01761806076401442947 -0.22774799699343234449 0.25923571071867868021 -0.32883984354138273698 0.0001458584036472289347 -0.19115932958494094573 0.19041456534794667932 0.39041435442954269819 0.016156616025651861224 -0.28240252180489300304 0.28121780210025149049 0.57488512635229838121 0.013980264450706353374 -0.075212722884134594614;0.034701924881598934791 -0.11704316618515575588 -0.83862702191430238408 -0.75146325374703781819 -0.09735728483273041467 -0.34632155385518959001 -0.045547218948993439813 0.44567456916088038499 0.0095438010731742420334 -0.001483388579154969189 -0.10184873654116589903 -0.058465435122094386311 0.22065982575910680907 0.14769525596495342024 0.585787528671507296 0.048974110950651135454 -0.098347790205600110758 0.1184390758533052368 0.55649824996805852262 0.034447551657062737418 0.49545991095217428724 0.95488762344316580055 -0.17798781296059265622 -1.1622623714519004778 0.1459501976013387603 0.16124311862076495805 -0.057676005706683006191 -0.9615337844384868049 -0.22539932052151662178 -0.1155922109237713935 0.064412173626648833169 -0.12664507267720809258 -0.0087959721598011453986 0.057750037987998811828 0.046526203238212361646 0.21949829231634584992 -0.099366486078542509697 0.61002495329695505255 0.20930048099049342047 0.044671195750234898858;-0.031098433359417438498 0.069148539596401784046 -0.73171204349629448416 0.54335973387347424879 0.10937418531424633605 0.46394688431348363178 -0.11185953163142818567 0.067303286973956225059 0.21963697368053658465 0.097897065055814080914 0.1462941580317398127 -0.014405629255487776424 0.01547487438845025938 -0.09256022596073384956 -0.98865013651651711957 -0.24629775177834084543 0.029331708393337117824 0.1346964945640477529 -0.076762268220345319936 0.015444344936007853297 0.12533089285017356973 0.36638176417558004916 -0.037007675352360221155 0.78390466204135478279 0.062341647223454581261 0.015429284466188450398 0.050818756789978006272 -0.015678754508222595559 -0.09779749736764858925 -0.11179369521681355171 0.027674490334918661755 -0.066080539456077086458 -0.028175861448305042356 0.2489777491639464102 -0.069989040468922694704 -0.1284936977965114302 0.035392066424847587469 0.062687757650732853221 0.11154774054607625999 -0.037616270894040057526;0.029229758163238715729 -1.4497063929212055111 0.92044648993823574568 0.34901583378709538641 0.10247178314317617609 0.21778774138467529853 -0.1473922968038669512 0.2759913609635956111 0.12491718498832111994 0.06289681946258141032 -0.20672258774293197914 0.47372484176597812189 -0.41101322784479588091 -0.066340139106717516126 -0.61602677480658252218 0.065935747572533842664 0.097277182127647174315 0.25345355820659987156 1.1863955503628791366 0.030971269194806676922 -0.86445232530724025466 -1.2331959645791041869 0.070390027516794601015 0.90113073779874763858 -0.18126266702429488786 0.19618315992946586124 -0.076786346173434577578 0.35324323672076546332 -0.092309122131725387939 -0.11403899562694910785 0.28908625203012588978 -1.3035794917560117323 0.067744907362942724527 0.043458596691911967336 0.21891002003251885943 0.1956403344573418579 -0.33537287137981808272 -0.49876883786234743612 -0.079573000623326506364 0.048926809538514415276;-0.026015760642161656069 0.062194279036234124958 0.63634810440183331437 -0.071811081796702591618 0.01301762861874223437 -0.33880307514580099149 -0.15060985817092825689 -0.3299627085284513317 -0.17650968194424049296 0.019592895687109056213 0.014274934245283657508 1.3822439728969841966 -0.020060974173285485433 -0.32355479992487734542 0.60282419745909221476 0.095944887228982311811 -0.16542431140228042175 0.19948433150938568725 -0.43901550571156111591 0.010501069592380722628 -0.17077870163117689351 -0.65880198115938093384 0.74568006351346327598 -1.0609587982544976814 0.056667565202825093129 0.097955244391865925468 -0.076497137564914163832 -0.56797685062698122227 -0.039483322581705268539 -0.24589147078507231359 -0.33687451501739706927 0.28361135890216532252 -0.08929052702800785446 -0.41362163346767644168 -0.080341450554353932567 -0.51951417556810963738 -0.4488875960571700463 0.48517438351699165855 0.17474247457028660446 0.10367617629130819468;0.016599819050756206562 1.4035332703850600389 0.067531751296710545995 0.18170750583493486263 0.034217426198203129695 0.28187160222806306731 -0.059214367788262313452 0.025555495020760515823 0.041518987564141018876 0.42450518285375010707 0.041344007979416945442 -0.65409844687278106967 0.71613044122659019752 -0.076002939159926050094 -0.079901005867236349345 -0.1958362285088298127 -0.10059493146961095977 0.044009040457663503587 -1.422785758937123779 0.013798354980236458497 -0.34120608402146740401 0.14757820135913624071 0.94246566195502368135 0.62347758351729509751 0.013410111338081634469 0.79624260045210637493 0.0078786310722826907726 0.51688135095408260788 -0.26213380899719801453 0.075626251922385298587 -0.12947665967785404462 0.76742060237061193728 0.052909305853318926161 -0.1471938953528819094 -0.09965695564186204114 -0.47534944401518963719 0.89593967524569895211 0.00089693548316107513108 -0.22307354029490458758 -0.12715257809420399404;-0.011193019041730126531 0.0029738487721082812465 -0.22999705560574790209 0.79990353732002850151 0.23820872143792215514 0.33598590492860413992 -0.060504761481484183039 0.060198118355635946153 0.077905592237121984445 0.92279332893058796383 0.073476907487103851335 -0.6651239030274015418 0.41946651355935710148 -0.39078596561191758507 0.64639019111838724729 0.069620456441396555425 -0.47957041764453256505 0.10817134777154648051 0.77091622593286102116 0.031593456382015008832 -0.49304304849044200409 0.49430802673237095313 1.2716145167379371284 -0.093497320299762209928 -0.1281003747183176722 0.087812875350235991556 -0.027538771926107975113 -0.29638220276637805561 -0.60216916349264393293 0.050025279617909916563 -2.2698323965178910377 -0.48064930110682640985 -0.1365902917563546759 -0.32730115414491883774 -0.067018213295829687226 -0.032237834395624852257 -0.79660667455742262266 0.18275473602000072426 -0.29309129203175343648 -0.064951798219308937155;-0.04736782121720298222 -0.15255443074790608904 0.10395794050129328334 0.23750546569184488588 0.015822352085873018362 0.088450874690663733313 -0.18235886672623999316 -0.17554794899568357258 0.2540476375468184167 0.52641626784894413049 0.15018035781020686037 -0.16978120830753568038 -0.67554037752288087493 1.0335028308798142049 -0.36292938076724590157 -0.25479272198617830547 0.49940590555182617916 0.12121455012644846705 -0.89488780923669020151 0.0029510303227802889281 0.11494800110976959029 -0.36725961714192295604 0.67850951608715881491 0.10579522890542610025 0.67959889345894819446 -0.89292546914924708634 -0.16150916067317125369 0.3363206985897186363 0.74399989269272148729 -0.37511393414664773172 0.38337613852753094079 0.46195066424577213571 0.092448076715455046459 0.31028062990771299035 0.29373322138237412116 -0.21224750112591667106 -0.33928370942348157202 0.35323292747814843962 -0.35648385837788332253 -0.11620147952202244945;0.058246524155714136939 -0.003160080474227631997 0.24577319439280043145 -0.96170064061560389668 -0.16564397671564440317 -0.27823296421531706901 -0.34889772924198930726 0.54704305199214664501 0.20051367592899624337 -0.67250046811016239712 0.20840891360352359341 -0.18846611906162549777 1.3575780284005052323 1.0382472502391666414 0.37796838792623144165 -0.44368812653857653272 0.84865455501996045484 0.47084957954213335629 0.053983471131560642475 0.023543288745687562802 0.86186035094918911348 0.33954053795338828836 0.41234763866325768733 0.13420905180648731725 1.4927942736991144379 0.084770103070870905793 -0.38143701588811318448 0.18775121166924180205 -1.0568343745190980076 -0.49016853180318714633 1.9110080625901282314 -0.56929368511957256782 -0.26791328196162772501 -0.42569086871836375741 0.27267739922344469417 -0.35620305501892451927 0.83523185692770263167 0.81053997354351636773 -0.28787861577554002546 -0.35013745141795699078;-0.0433519429248191146 -0.32032039115479649105 -0.13156611862061595719 -0.23113244291280693465 -0.022999145394063537362 -0.4969657855713406347 -0.52257948196188552803 -0.71964780174825648817 0.72130073211548184631 -0.78627903213302230423 0.18940505530126078293 0.37555736782408100094 -0.59579447222983672461 -0.95819297241657119812 0.013050910534404228103 -0.099707398310508871253 -0.61343697508221484149 0.61760000504294143564 0.09040112541915837352 0.034411607270716147722 0.25767730698825008773 -0.14588841906507776791 0.45947149312776680574 0.32697640838101360572 0.56030535430510453043 -0.24644482767529551914 -0.56754154323284555783 -0.69979843695817578464 -0.29502129995189790845 -1.4054905728611120086 -0.27744216289042900048 0.31367793505282953737 -0.22616478229298250802 -0.33307601869533548511 0.22799363978849201962 1.0225212355247979001 -0.46517181657195877387 0.13146515030064384599 -0.44453873441765112684 0.21816373183730217167;0.047663730176331436938 0.064039462649948988848 0.079917129248902707417 -0.16360537553533663346 0.077786627009844677705 0.31419050717488428148 -0.3963038187660514744 0.90515275999312505562 -0.82535479852856530325 -0.2391176873431375971 -0.42986423872845863636 -0.49891155459809133355 -1.8341949518586555534 0.089219330383046219213 0.2414137197980851246 0.29275894890959208716 -0.35146536034609965338 0.42015260411841276467 0.14201097461956907475 0.096809485228621164343 0.29327282749761968139 0.25787251450719522738 -0.17126489233480582386 -0.060417713788934374053 -1.2521425283438591958 -0.16657985349099962979 -0.97604903326648395634 -0.1522058766433579402 1.0110198700807018213 0.38515385268170970745 0.44617952928270493418 0.40429358618761696009 0.32761145027272448038 0.83415320448797403152 0.12868703791087693356 0.18529349174613940487 0.17435991266355668761 -0.2500264673200210952 0.46301761799221086147 0.021346852074737868166;-0.019064143460782327633 -0.50747133342246319998 -0.71096723620741997252 0.54814664275741664667 0.30136845157106961768 -0.47187339592490434859 -0.92482964375108622779 -1.0278050215223657471 1.2203152407581829841 -0.23133549627620175748 0.36516088498700322029 0.22048328051532914418 0.068733645919130642588 0.091240279277180383333 0.11920792290230294852 -0.43800719931867049262 -0.050985223644973945434 0.71969496402291721626 -0.1244437924096438719 0.090338848257979928458 -1.2731568753047683984 0.16268155492886904323 0.027204165886447660705 0.67560446191708756203 -0.27247485702491930359 0.010386780812050123296 0.13647189984923957518 0.031806502553846281722 0.32616623244798514936 1.7001064755170174347 -0.10898675755649456232 -0.020016820876056523604 -0.12575515127520942027 -0.45637396977957195299 -1.1212242731075201529 -1.0681911699879644839 -0.24843773857779041792 -0.075563029681512225433 -0.93527020801722016152 -0.33864318943051047173;-0.055718690846746757317 -0.0072754508281553526006 -0.10089284294079173265 0.27899043750031737865 0.075521028553402855255 0.23214506679941446232 -0.58074169723101576324 0.57429477646702797866 0.27444308014170026855 -0.070066355754911172071 -0.099226983266918936111 -0.19035493351988103106 -0.9791687295248219236 -0.63750546638139438116 -0.21984376036575478675 -0.03136075133869080378 0.1271871085105296395 -0.46422026468412436184 -0.32571268708745015896 0.091374695251573823107 -0.32198059439238357893 -0.14246568785372051846 -0.45472367514341499595 0.12233516303513802814 -0.65514905064159101311 -0.15112115352555596792 1.0285234973985610818 -0.52494597105787432767 0.28386985953049775899 -0.52634916273968224143 -0.028478918753002350345 0.11452344312754657307 -0.055967341321219131467 0.28097480557022891379 0.28778101310983789096 -0.079897503273017006498 0.12652322656244091581 -0.86946087023788187764 -0.1598647353479582256 -0.20021074869223426385;0.0056975416826943875437 0.27834832143888438294 0.53955372929436473672 0.36538767888961432018 0.64964528762308171306 1.4190224893708462961 0.31264657111024457548 1.8461078701488660148 -1.0935379067887245341 0.033940011326574127948 1.1403514221036434861 0.044793977409583102256 0.81416851080891872172 0.016433042845623753447 0.30663507927603533831 -0.80327528150179094979 -0.054788400069143872173 -0.58066187229605292774 0.57524125522811375699 0.31755729086286688112 0.99141977552146931529 0.20484301317674538656 0.29783408107193198866 -0.56210424300218908567 -1.112217878811106786 0.048436339062311692394 0.25792336217527922493 0.85605372323987283245 -0.41319543596170615896 -0.61680604329203614355 0.11522866081699537077 -0.066888918552606729806 -0.75255057341072795207 0.013941036440251719161 1.1265143320884840605 0.79496815307184320876 0.084559499993499417925 -0.11717271807814537421 0.87443343104318593806 -0.18994999411289020808;-0.30662731300717444016 -0.22559470314858082185 -0.46479742261673495651 -0.92174237723683527523 -0.99886810880194620843 -0.72522671526515025686 0.20059050658704746795 -1.1788108646771418009 1.0823302849444389473 -0.030145261153997640613 1.246469183019490945 -0.011601966795395445703 -0.92283613920712781464 -0.31555861948449315246 -0.32016091470050211942 -1.0659141705970602843 0.080289653434306787472 0.15968129165524197477 -0.47417108060270229952 0.28467937850220259577 -0.94649943783984669121 -0.25478534340765773836 0.77369648230207366257 0.31317971178349551797 -1.0074000152572875066 -0.12139305386990884017 -0.011057075365818734222 -0.46279459994870275619 0.056211186913930941134 0.1930357069095864353 -0.058894461827522268105 -0.14916950085226388101 -1.4993008312960871553 0.025987666615347689014 0.69514239366293606448 -0.83474487571601030389 -0.023612526752917771533 -0.48202418197735114047 -0.86101420192676569876 -1.5138441188794220515;0.16008045159456729678 0.41657659183994832919 0.42793931722373934612 -0.67359310748190748264 -0.82620567226095120716 0.81276407492276547817 0.43391462873598030114 0.02384495535748021311 -1.0536973909386107007 -0.06186999779053165005 -1.1372607436764350375 -0.098160559684470363728 0.39735748122871061838 -0.053706760057423232058 0.032291524121856089724 1.3510636346912157091 0.16261598449257880228 0.14537097645584645678 0.22067399896837022744 0.72522287945331653791 0.23787996579988349155 0.019213571348957573376 0.44987720887184179386 -0.51814614177334261669 0.26746727534395448034 0.040739436263173431363 0.24458873199762262707 0.50586013559744846813 0.515097694646315718 0.49743370255599184127 0.21452148288181138724 -0.17579638007429232438 0.81318480820291649813 0.094126053276618312782 -0.48714913039626078772 0.53962227098147896864 0.2250405887356719814 1.055058450564513528 0.56108425150401330939 -0.1814531181759584666;-1.1751531827812389253 0.02302644867419677277 -0.12614283908157106207 -0.16113168164238753088 0.21813973970592795415 1.020196899389713252 0.86277100692656993886 -0.24547013816358542737 0.35704810377796630805 -0.030591420379418320791 0.029929674622207927404 0.084741078184204926549 0.48546113299656040718 -0.88070157716177621676 -0.16943889593345445865 1.5540754885602841018 -0.036481207660678596771 -0.7929129325325892097 -0.23069001023559729258 -0.32424922579710180326 -0.75254008753318357705 -0.21332195454637759013 0.42562018464937445561 -0.30587593421403369565 0.71678842146835930471 -0.035698252744835373695 0.047449366301837395121 -1.49429744190853242 -0.35339161823825615549 -0.87893356664888466767 -0.14924770772218298731 0.17484233169161039756 1.3552000352682898043 -0.25103679320544586284 -1.2718347535204075349 -0.64915901870445003041 0.0015313331244917395731 -0.032781679303434063666 -0.11461051609864331136 -0.56625254772897082312;0.17714467793561367026 0.025267420813324739659 0.17387125446440804266 1.3102602273335814953 0.20257795254379773464 -0.70489092442481382506 0.89787450578966676584 0.0027886320894388574518 -0.32899881554839749409 0.056622069742469277598 -0.39832968284598774256 -0.13275692035710978667 -0.11955138906174753166 0.35068213476487691826 0.089766248095974998655 -0.075547761308271885183 0.034102595485560278921 -1.1054601912502872718 -0.013310762511804581643 -1.0313922300966085199 -0.61953592076544072853 0.084045812107961304083 -0.33092847806460728988 0.025627126332530687086 0.13016153252592899126 0.027191502718408026851 0.20066939268658845474 0.27916034681801071837 -0.093099532656749556248 0.53383731303754067277 -0.048921521929147747387 0.12562339699911392876 0.12715423836730679885 0.24538277371332276044 -0.10022825124808232289 -0.059803272040454762137 -0.010604701962882059907 -0.44061649699194532781 0.36195200624088902375 0.94308199321499941448;1.2020595907250901657 -0.076473981549334990593 0.36253775471280591525 0.20621824329559923505 0.58229060518752195907 -0.99264666630353037835 0.57794321518942459726 0.72359767669653518585 -0.80177290465173245426 -0.052894822236181270048 -1.0126535932821005837 0.063196631926522528477 0.18051904377770466859 0.76559045548952453508 0.37289959729310645509 -0.84095036053883143179 -0.089892180543022032202 -0.23813955082871599012 0.42491183346176364388 -0.091934025461844620652 0.28438896174216510282 